0.014386 0.00578947 0.000701754 0.0150881 0.00827175 -0.0229223 -0.0237467 -0.00742094 -0.01521 -0.0067087 0.00182074 0.00290244 0.0155819 0.0143774 0.00695858 0.00303427 -8.5866e-05 -0.011613 0.00374108 0.0129153 0.00548431 0.00893347 0.00998297 0.000523269 0.000700231 0.00333333 0.0161404 0.000350877 0.0122807 0.00506557 0.0070273 -0.000566894 0.0168191 0.0487534 0.0223892 0.0226954 0.042727 0.0132535 -0.0204728 0.0250789 -0.00671055 0.0163556 0.0032108 -0.0086323 0.000122292 -0.0174372 0.0381051 0.0454126 0.0654531 0.0490406 0.0371073 0.032104 0.0329079 0.0049278 0.0138241 0.00631756 0.00824561 0.000328045 -0.0310659 -0.0512031 0.0469743 0.0890047 0.0118387 0.0105631 -0.00515233 -0.011545 -0.0536953 -0.028816 -0.0107345 -0.0565072 0.0479591 0.0940123 0.108152 0.164885 0.0577865 0.00217916 -0.0603191 -0.0653962 0.166566 0.289331 0.123833 0.0043519 0.00868112 0.00386687 0.00105263 0.0018545 -0.0522413 -0.108124 -0.153293 -0.259077 -0.473969 -0.471566 -0.393904 -0.151412 -0.251855 -0.317898 -0.239467 -0.274554 -0.147881 0.0781146 0.0215496 0.0322597 -0.0737745 -0.134507 -0.0705228 0.0325815 0.141309 0.445973 0.413452 0.0590812 0.00783763 0.016191 0.00298246 0.0129129 -0.05054 -0.105992 -0.193622 -0.520108 -0.736077 -0.812093 -0.664189 -0.43564 -0.454487 -0.493669 -0.526597 -0.386112 -0.220917 -0.180968 0.0416729 -0.0530487 -0.219213 -0.126659 0.0856616 0.101618 0.135502 0.20721 0.409175 0.016595 -0.0139205 0.0140117 0.00824561 0.0118884 -0.0117746 -0.173585 -0.19047 -0.507105 -0.741191 -0.854731 -0.69932 -0.472158 -0.476627 -0.45551 -0.375339 -0.0600174 0.137578 0.00380712 0.404499 0.455673 0.271954 0.165947 0.129271 0.088689 -0.00198893 -0.0754988 0.140431 0.108207 0.000717429 0.0101956 0.00403509 0.0211032 0.0676176 -0.0827617 -0.329593 -0.680249 -0.906249 -0.902157 -0.639681 -0.465607 -0.332868 -0.12669 -0.0493234 0.0646369 0.205192 0.0148043 0.102462 0.206736 0.00633522 -0.322899 -0.391544 -0.0761237 -0.111847 -0.137517 0.269341 0.386906 0.0368867 0.00719298 0.0105263 0.0175582 -0.00651895 -0.258788 -0.469735 -0.652535 -0.770059 -0.682439 -0.594382 -0.459762 -0.127607 0.121072 0.141969 0.111072 0.3582 0.382908 0.449452 0.278977 -0.195395 -0.263124 -0.114852 0.133275 0.0862296 0.237566 0.772564 0.758743 0.0917544 0.000526316 0.014386 0.0120638 0.0259594 -0.251208 -0.368382 -0.45302 -0.352764 -0.167109 -0.210674 -0.169619 0.170773 0.00708963 -0.1683 -0.0566732 0.345164 0.680116 0.271147 0.119792 -0.111345 -0.298085 -0.202783 -0.168607 0.026819 0.301152 0.821067 0.668802 0.0250146 0.00167274 0.00631579 0.000307555 -0.0196459 -0.154942 -0.233987 -0.20789 0.0855651 0.261427 0.186695 0.24151 0.140444 0.0341993 0.0139136 -0.0974334 -0.0172632 0.268426 -0.0825946 0.00471832 -0.122722 -0.465112 -0.270742 -0.128692 -0.0787509 -0.0885228 0.128879 0.188921 0.00894797 0.0121172 0.017193 -0.0167242 -0.0658964 -0.0678961 -0.0141702 0.0754061 -0.00177583 -0.135688 -0.127651 0.208088 0.20742 0.112466 0.326427 0.418701 0.199028 0.050514 0.272784 0.236356 0.03507 -0.24062 -0.241001 -0.296694 -0.328492 -0.447553 -0.408369 -0.14002 -0.0236106 0.0147368 0.0117544 -0.0139889 -0.115519 -0.0622448 0.0221893 -0.0296097 -0.0500014 0.114768 -0.133083 -0.0696289 0.280309 0.499423 0.285962 0.109166 -0.0610108 -0.234151 -0.101681 0.0824947 0.0447421 -0.161646 0.0957298 -0.210549 -0.514576 -0.595041 -0.827569 -0.554388 -0.0752283 0.0152632 0.00929825 -0.0785637 0.198873 0.547664 0.444479 0.308323 0.0476918 -0.14135 -0.412409 0.171216 0.622604 0.0833246 -0.279958 -0.127192 -0.212144 -0.171002 -0.0403189 0.187779 0.0992549 0.0689453 -0.142867 -0.431464 -0.575685 -0.717309 -1.07326 -0.733589 -0.0771018 0.0108755 0.00666667 -0.0562457 0.150077 0.490117 0.317424 0.289918 0.358345 0.488464 0.278448 0.311757 0.560501 0.205858 0.212292 0.0846692 -0.322096 -0.493864 -0.528179 -0.424561 -0.051735 0.118965 -0.0838454 -0.0585395 -0.305487 -0.609264 -0.65342 -0.330494 -0.0238035 0.0110526 0.00711625 -0.0631044 -0.0125963 0.215738 0.0364185 0.0320554 0.347949 0.460103 0.379891 0.227969 0.168556 -0.0573778 -0.121682 0.0663069 -0.153001 -0.380987 -0.195507 0.228332 0.812524 0.572315 0.385434 0.445089 0.106124 -0.292679 -0.104999 -0.138337 -0.0654726 0.00103394 0.0119648 -0.02339 0.213334 -0.14665 -0.497698 -0.336998 -0.270083 -0.135917 -0.290845 -0.318872 -0.329432 -0.575991 -0.944867 -0.736214 -0.598187 -0.559814 -0.0826547 0.518167 0.599882 0.531144 0.95037 1.13718 0.746614 0.0652808 0.204557 0.18492 -0.0971967 0.0132519 -0.00461461 0.053294 0.203015 -0.195268 -1.07563 -1.34766 -1.41149 -1.0108 -0.873585 -0.695963 -0.575231 -0.71966 -0.667371 -0.638783 -0.713558 -0.717951 0.000666823 0.0560611 0.00824572 0.242126 0.925156 1.38127 1.14084 0.647892 0.638382 0.513088 0.0312099 0.00829902 0.00700099 -0.0547167 0.0501108 -0.267757 -1.44302 -1.54423 -1.73058 -1.36619 -1.21314 -0.808416 -0.84721 -0.932248 -0.483267 -0.493566 -0.545484 -0.589651 -0.251327 -0.0395519 -0.3098 -0.141163 0.555278 1.05892 0.96531 0.617262 0.474631 0.498794 0.0705602 0.00846087 0.00197826 -0.0846921 -0.274975 -0.42088 -1.09735 -1.29525 -1.40769 -1.33198 -0.963647 -0.362558 -0.361845 -0.499069 -0.0661008 0.0937391 -0.0408495 -0.524494 -0.58696 -0.46534 -0.565866 -0.682772 -0.0638122 0.0958141 0.208445 0.578578 0.682123 0.380402 0.0575788 0.00122807 0.0105263 -0.011308 -0.251448 -0.51363 -0.57587 -0.602281 -0.791163 -0.617644 -0.222274 0.288157 0.362591 -0.040249 0.311753 0.368772 0.141203 -0.354668 -0.61971 -0.661344 -0.749834 -0.936754 -0.475449 -0.239547 -0.116142 0.383466 0.441744 0.173098 -0.00440801 0.017193 0.0149123 0.0360936 -0.132372 -0.44956 -0.471663 -0.365148 -0.281818 0.143723 0.186387 0.173041 0.497834 0.275337 0.446383 0.357669 0.091856 -0.302739 -0.444418 -0.6926 -0.844695 -0.867257 -0.308438 -0.0331111 0.0123615 0.486086 0.430967 0.116751 0.0076127 0.00333333 0.00751364 0.0377611 -0.0804082 -0.387108 -0.489968 -0.598907 -0.208881 0.176175 0.307273 0.410321 0.584976 0.656144 0.759816 0.47447 0.245861 -0.169074 -0.521187 -0.626127 -0.607471 -0.555086 -0.14024 0.106001 0.398269 0.637857 0.534271 0.0630962 -0.00234325 0.00140351 0.0154588 0.0062416 -0.18391 -0.450355 -0.424135 -0.364339 -0.0557772 0.205908 0.607613 0.596096 0.726408 0.515316 0.654543 0.320302 -0.131463 -0.429645 -0.72777 -0.796002 -0.639315 -0.453557 -0.171002 0.0393898 0.133736 0.34929 0.304399 -0.0582109 0.00112824 0.0145614 0.0151286 0.0131242 0.0404618 -0.103805 -0.130632 0.100362 0.211384 0.294198 0.509751 0.48106 0.366307 0.332752 0.176954 -0.227951 -0.426373 -0.491981 -0.691627 -0.751527 -0.611398 -0.512048 -0.397261 -0.149087 -0.189773 -0.0405105 0.101027 -0.0443147 0.00311014 0.0147368 0.00126188 0.048169 0.342085 0.366008 0.22761 0.370966 0.36255 0.397732 0.181787 -0.053113 0.190973 0.137741 -0.189655 -0.307877 -0.385848 -0.361732 -0.427213 -0.665423 -0.637537 -0.559102 -0.513057 -0.39128 -0.373296 -0.170447 0.0540263 -0.0165693 0.00599161 0.015614 0.0126813 0.0351474 0.207907 0.428212 0.343445 0.204154 0.180535 0.0742918 -0.142184 -0.0705934 0.210957 -0.0787827 -0.160268 -0.142334 -0.0643843 -0.073568 -0.266943 -0.335053 -0.342042 -0.370119 -0.327941 -0.208526 -0.191377 -0.0330428 0.0233975 -0.0241251 0.00798054 0.00140351 0.00684388 0.0187087 0.0171362 0.051486 0.0276396 0.0322178 0.0785193 0.0186406 -0.0146121 0.0177914 0.0609735 -0.000419015 0.0429073 0.00610346 0.0217701 0.0250523 -0.0119698 -0.0132909 -0.0340372 -0.0376857 -0.0414661 0.0107163 -0.00774797 0.0208661 0.00812883 0.010916 0.0133786 0.0133333 0.000877193 0.00210526 0.00736842 0.0031288 0.0167131 0.0166333 0.00476153 0.00380133 0.0166517 0.00451226 0.0150873 0.0140351 0.00541466 0.00782124 0.000976414 0.000582031 0.0169457 0.0142109 0.00315789 0.014386 0.0077193 0.00927624 0.00806581 0.00438596 0.0126316 0.0077193 0.00789474 0.0142105 0.00385965 0.00245614 0.0054386 0.00237372 0.00975851 -0.000861956 -3.10005e-05 0.0119088 -0.0027963 0.0041704 0.000573746 0.00788262 0.00271266 0.00283153 0.00628724 0.0193171 0.00393636 0.00299698 0.00498953 0.0141804 0.00280616 0.000791561 0.0139607 0.0143884 0.00701877 0.00842105 0.0101754 0.0121053 0.014386 0.0164467 0.0120619 0.00984158 0.0101197 0.000310773 -0.00475372 -0.033431 -0.0275816 -0.0106936 -0.00756753 -0.00815343 -0.0126219 -0.0140061 -0.0329127 -0.0003889 0.0022951 0.00519743 4.99956e-05 -0.00978259 -0.0152893 0.00122008 0.00311077 -0.00471126 0.00026094 -0.0107494 0.0117985 0.0149118 0.0159649 0.013385 -0.0492736 -0.0333959 -0.0127703 -0.0938776 -0.121223 -0.067241 -0.131282 -0.131179 -0.0864023 -0.00650464 -0.118033 -0.227576 -0.185253 -0.0373237 -0.0643665 -0.217215 -0.243514 -0.242856 -0.00412464 0.025509 0.102497 0.00154593 -0.065903 -0.106621 -0.00919404 0.00270854 0.00947368 -0.00136103 -0.0884893 -0.0729058 -0.0941387 -0.0872636 -0.0048747 -0.136596 -0.0497306 0.112926 0.0961692 0.123465 0.0841109 -0.0473513 0.0752222 0.187878 0.165108 0.0577104 0.0543532 -0.15844 -0.297981 -0.0650075 0.0865098 0.0452665 0.0680523 -0.059808 0.0103579 0.00639486 0.0140351 0.00608168 -0.0386753 0.136556 0.12617 -0.024844 0.00711728 -0.292472 -0.191026 0.0675276 0.254669 0.349836 0.257041 -0.0544545 -0.0152124 -0.0213359 0.0574509 0.348601 0.321087 0.15952 -0.0146669 -0.0907365 0.043809 0.15963 0.211213 -0.0149523 -0.0104237 0.0141956 0.0126316 0.0148732 0.0496228 0.327387 0.343434 0.156195 0.0526599 -0.20365 -0.0679678 0.0936955 0.263064 0.230219 0.180361 -0.0393746 -0.120978 -0.0506543 0.053641 0.140564 0.213836 0.129039 -0.0330413 -0.088041 0.175232 0.186788 0.0932054 -0.091445 -0.00655635 0.0104943 0.000701754 0.0279781 0.0117142 0.259651 0.325249 0.223081 -0.0357499 -0.137897 0.0490388 0.028607 0.054347 0.0227103 -0.0239811 -0.0850802 0.0890952 0.0660667 -0.029443 -0.00457443 -0.0510925 -0.106144 -0.0678259 -0.110943 0.174457 0.309906 -0.0356924 -0.0883899 0.0157188 0.0138596 0.0136842 0.0358096 0.0407235 0.151613 0.15822 0.109633 -0.00362206 0.0023903 -0.187637 -0.317159 -0.218293 -0.0298239 -0.143264 -0.178147 -0.242689 -0.343814 -0.114368 -0.216266 -0.135456 0.129695 -0.192488 -0.219936 -0.0485247 0.34074 0.244277 -0.109183 0.00958064 0.000175439 0.0122807 0.0306957 0.159153 0.3907 0.319321 0.439881 0.185009 -0.0333814 -0.345529 -0.278945 0.0981616 0.281956 0.105283 -0.0764889 -0.150007 0.0245035 0.0935771 0.0418558 0.156406 0.399421 0.0570084 0.0335256 -0.0554213 0.291158 0.490675 0.0747353 0.00922176 0.0165292 0.00438596 0.0118918 0.126872 0.266498 0.219216 0.467729 0.101437 -0.240509 -0.32986 0.126567 0.652875 0.757736 0.381228 0.25711 0.428372 0.304557 0.25668 0.00561913 0.030159 0.28745 0.354825 0.221878 0.0784236 0.276202 0.500167 0.191644 0.00716067 0.0168104 0.00578947 0.0153605 0.0451053 0.27389 0.163244 0.0213836 -0.212399 -0.294597 -0.000116142 0.348208 0.348794 0.330738 0.121647 0.0925148 0.0607927 -0.0630604 -0.145292 -0.0876388 0.0179572 0.508123 0.746293 0.453422 0.0758502 0.00521098 0.241953 0.282152 0.0235228 0.00631579 0.0154386 0.0085998 0.0630912 0.144366 -0.0394547 -0.101938 -0.375744 0.036085 0.465808 0.3563 0.11075 0.0403588 -0.235976 -0.499686 -0.937422 -1.1097 -0.928923 -0.557449 -0.140912 0.525184 0.820923 0.349819 -0.053275 0.0743184 0.15897 0.290579 0.0410679 0.0129825 0.0124561 -0.0218773 -0.0598598 -0.040506 -0.0501952 -0.209019 -0.173529 0.0195118 0.166026 0.139616 -0.201587 -0.409449 -0.641359 -1.10328 -1.49811 -1.62124 -1.37983 -0.780445 -0.201602 0.268544 0.351316 0.105019 -0.104924 0.221946 0.103628 0.0634412 -0.00982302 0.00280573 0.00298246 -0.0438796 -0.326661 -0.0759206 -0.258577 -0.192894 0.308922 0.321288 0.165626 -0.363425 -1.10587 -1.32326 -1.35503 -1.37918 -1.67388 -1.84751 -1.46366 -0.758201 -0.444826 -0.122462 -0.0429997 -0.0488733 -0.014333 0.17924 0.100336 -0.0977637 -0.0350632 0.00421053 0.0122831 -0.0358486 -0.234173 -0.133912 -0.213125 0.119912 0.45128 0.251872 -0.291751 -0.967446 -1.62029 -1.78658 -1.78407 -1.50629 -1.38655 -1.11688 -0.816173 -0.69218 -0.43769 -0.0359269 0.047637 0.00174789 -0.0774893 0.00418115 0.0219651 -0.117314 -0.0381194 0.00650363 0.00471024 -0.0303732 -0.262645 -0.152746 -0.00983343 0.185751 0.499376 0.116704 -0.428534 -1.04897 -1.53111 -1.69747 -1.63648 -1.16805 -0.735224 -0.385664 -0.384135 -0.322548 -0.0052653 0.231287 0.0977809 -0.029393 -0.22502 -0.372787 -0.234872 -0.19703 -0.014846 0.0138619 0.00827342 -0.0477723 -0.321169 -0.130693 -0.0800464 0.126932 0.222586 0.0807058 -0.0937558 -0.510275 -0.923275 -1.14858 -0.906295 -0.536292 -0.288898 -0.157467 -0.176824 0.0776388 -0.0609341 -0.171212 -0.0665353 -0.186789 -0.198416 -0.355916 -0.260275 -0.25852 -0.0290774 0.0130056 0.00260205 -0.0502366 -0.312043 -0.203721 0.13898 0.187911 -0.14926 0.0273672 0.172477 0.12404 0.115155 -0.00721617 -0.124244 0.0743744 0.132081 0.200664 0.157085 -0.0401029 -0.250757 -0.299847 -0.400525 -0.205678 0.131734 -0.129169 -0.240781 -0.264851 -0.0431574 0.00870648 0.00299773 -0.0459524 -0.269824 -0.150007 0.0818435 0.0538746 -0.163069 -0.0224119 0.0597168 0.240206 0.352457 0.1808 0.270338 0.44007 0.660623 0.450687 0.402767 0.0378668 -0.417788 -0.32052 -0.409885 -0.138633 0.135262 -0.127538 -0.215398 -0.296421 -0.0369685 0.0159649 0.0107018 -0.0268645 -0.25178 -0.38428 0.0394123 0.135745 0.0195311 0.0252323 0.150199 0.136793 0.131041 0.215019 0.411433 0.3859 0.246152 0.138807 0.0852845 -0.172444 -0.304385 -0.318658 -0.23587 -0.00591277 0.0435786 -0.157543 -0.176631 -0.21138 -0.0123812 0.015614 0.00526316 -0.0126284 -0.0738471 -0.285 -0.0962973 0.189185 0.168319 0.111045 0.204742 0.0015728 -0.197895 0.286026 0.390436 0.424632 0.313279 0.323243 0.162076 -0.0407347 -0.123536 -0.246083 -0.244675 -0.302842 -0.176741 -0.121699 -0.184714 -0.147782 -0.00956816 0.014386 0.00595867 -0.0091379 -0.0156191 -0.0517189 -0.0301162 0.0724492 0.117697 0.121006 0.249599 0.0621567 0.0630593 0.195387 0.109394 0.271962 0.0984497 -0.0223693 -0.317999 -0.406168 -0.244189 0.0379251 0.244104 0.0236389 0.258574 0.211627 0.000736457 -0.199205 -0.00890031 0.000701754 0.00716094 -0.0106122 -0.0247948 -0.137229 -0.276495 -0.116101 -0.144603 0.0254081 0.330681 0.359046 0.465028 0.429859 0.334516 0.239485 -0.106263 -0.281269 -0.472024 -0.248956 -0.116522 0.0250377 0.284073 0.350925 0.415929 0.228876 0.00372806 -0.180661 0.0135466 0.0124561 0.0160809 -0.0144358 -0.0378305 -0.0782307 -0.359189 -0.292826 0.0530793 0.0577052 0.26176 0.358811 0.510066 0.495751 0.403956 0.231816 -0.110298 -0.194601 -0.260525 -0.13725 -0.281365 -0.179045 0.132193 0.29264 0.314615 0.0872233 -0.0989375 -0.150586 0.000626989 0.0138596 0.0127012 -0.0108285 -0.182779 -0.144686 -0.207007 -0.193184 0.0781755 0.0794725 0.0920319 -0.0156796 0.18441 0.286663 0.156454 0.0370063 0.0353854 -0.0956215 -0.31625 -0.42232 -0.485316 -0.338868 -0.0445046 0.12799 0.0447331 -0.119951 -0.148418 -0.122675 -0.00147484 0.0045614 0.00344686 -0.0149875 -0.190738 -0.221053 -0.0970547 -0.0865462 -0.178257 -0.190073 -0.0238208 0.00479594 0.0718314 0.142775 0.103241 0.108895 0.0592644 -0.0417994 -0.235865 -0.248761 -0.172053 -0.0590157 0.0111316 0.0667837 -0.0477002 -0.100986 -0.0292417 -0.0112014 -0.000613535 0.00578947 0.0138592 0.00426547 -0.017339 -0.0195853 -0.0036448 -0.022881 -0.0093263 -0.0206638 0.0105612 0.00183557 -0.00371002 -0.00224441 0.00560416 0.0162562 0.00419801 -0.00472131 -0.00773621 -0.00112409 0.0135247 0.0160984 -0.00607718 0.0122025 -0.00143597 0.00465957 0.000693412 0.00244815 0.0143928 0.00701754 0.0077193 0.017193 0.014386 0.0128824 0.00270392 0.0151097 0.0135958 0.00733265 0.0158176 0.00841979 0.00365721 0.0110526 0.0120835 0.00327187 0.00395113 0.00131053 0.0173031 0.00947857 0.00526316 0.015614 0.00157895 0.0196787 0.00414861 0.00210526 0.0045614 0.00929825 0.00684211 0.00473684 0.00421053 0.00140351 0.000350877 0.0064841 0.00737723 0.0216743 0.0305299 0.0239749 0.0116908 -0.00783885 0.00293763 0.00597652 0.00711925 0.0131244 0.0207923 0.0248353 0.0369383 0.0582037 0.0418756 0.00276786 0.00537607 0.00552719 0.00511234 0.00332571 0.00227689 0.0117544 0.00385965 0.00631579 0.000526316 0.00469614 -0.000531257 0.00028031 0.00133489 0.0133691 0.0275162 0.0558811 0.0258729 -0.00851894 0.0255179 -0.0157899 0.0551438 0.0168411 0.0429127 0.0923923 0.0996424 0.10139 0.0770254 0.0263533 -0.00725825 0.015257 -0.0561465 -0.0169429 0.0672535 0.0287608 0.0134544 0.00603939 0.0149123 -0.00154786 -0.0185582 -0.0343661 -0.0509544 -0.0381093 -0.134132 -0.230144 -0.205657 -0.280503 -0.374491 -0.39709 -0.157922 0.0787715 0.203536 0.332232 0.425668 0.311297 0.163399 0.251941 0.453102 0.47572 0.0517092 -0.0302287 0.234647 0.232404 0.0243821 0.0173242 0.00245614 0.00245595 0.021552 0.0207997 -0.0503582 -0.072352 -0.215922 -0.556971 -0.71883 -0.967666 -1.17278 -1.11154 -0.840122 -0.250386 -0.00505689 0.292109 0.438666 0.384316 0.313497 0.439365 0.471057 0.5696 0.425898 0.505641 0.269216 0.150679 0.0256891 0.0204348 0.00508772 -0.000456735 0.0338129 0.066724 -0.0130944 -0.189152 -0.36457 -0.612873 -0.89538 -1.18638 -1.60204 -1.60164 -1.35116 -0.541774 0.0292028 0.48162 0.629654 0.287008 0.0375072 0.110498 -0.0602073 -0.0742823 0.0463299 0.504246 0.046696 0.03298 0.0704869 0.0119954 0.00368421 -0.0238472 0.00431736 0.156914 0.0573529 -0.180819 -0.521472 -0.716623 -0.968561 -1.20798 -1.62789 -1.55696 -1.12592 -0.257324 0.497344 0.76824 0.499411 0.395221 0.444407 0.240036 -0.519604 -0.503859 -0.12487 0.261196 0.2642 0.245321 0.0553483 0.00912286 0.0138596 -0.0539745 -0.00487116 0.242548 0.174732 -0.243584 -0.602543 -0.714459 -0.980054 -1.29959 -1.39154 -1.16335 -0.61611 0.318784 0.734059 0.69989 0.540914 0.407549 0.315701 0.0419928 -0.664379 -0.694433 -0.566302 -0.167499 0.503359 0.477728 0.0267434 0.0136842 0.00403509 -0.00806838 -0.0409502 -0.00853516 0.121622 -0.166851 -0.510043 -0.810801 -1.4074 -1.40671 -1.06137 -0.499619 -0.275381 -0.0343507 0.233141 0.250974 0.426095 0.531583 0.649088 0.13321 -0.245124 -0.636501 -0.288349 -0.179292 0.192258 -0.00930663 -0.00260367 0.00666667 0.00315789 -0.023526 -0.0753537 -0.0362026 0.143804 -0.367921 -0.940763 -1.36008 -1.39893 -1.2889 -0.684795 -0.188039 -0.160472 -0.390639 -0.0639182 0.134619 0.33254 0.446505 0.656586 0.085196 0.0992218 -0.258272 -0.544319 -0.621611 -0.396622 -0.0537586 0.12668 0.0273103 0.00140351 -0.00671117 0.0961409 0.299752 0.315745 -0.316159 -1.10018 -1.10506 -0.692132 -0.861139 -0.684518 -0.352903 -0.300838 -0.126456 -0.0550724 0.124208 0.579641 0.638181 0.48646 -0.0293575 0.0466327 -0.246942 -0.102705 -0.00625946 0.318544 0.533072 0.16433 0.0105178 0.00438596 0.0505894 0.242308 0.565935 0.660287 -0.12771 -0.691035 -0.628015 -0.802823 -1.21904 -0.670797 -0.135725 0.0295021 0.0713601 -0.0882097 -0.437943 -0.0193461 0.222495 0.0343744 -0.478681 -0.45796 0.000453488 0.343442 0.239079 0.370469 0.314298 -0.0368518 0.00350877 0.00929825 0.0653174 0.708942 0.92814 0.472322 -0.275911 -1.03806 -1.55215 -1.3417 -0.681575 -0.337323 -0.160044 0.0649151 0.263775 0.060426 -0.390695 -0.200043 -0.238396 -0.451087 -1.02015 -0.818688 -0.514462 -0.52962 -0.461751 0.209571 0.00287708 0.0321174 0.00438596 0.0129825 0.128908 1.10843 1.01161 -0.0765741 -0.622039 -1.06541 -1.84322 -1.72493 -0.731477 -0.244221 0.24271 -0.154475 0.0141039 -0.114124 -0.45301 -0.211904 -0.112124 -0.122009 -1.09659 -1.09678 -0.614573 -0.405234 -0.0748369 0.128854 0.115483 0.126274 0.00982392 0.0161404 0.150438 1.1368 1.54845 0.625439 0.235081 -0.649622 -1.80364 -1.72583 -0.876881 -0.587983 -0.202536 -0.236118 -0.0375041 0.326495 -0.417055 -0.221177 0.223234 -0.0154503 -0.499314 -0.662487 -0.519565 -0.485702 -0.129481 0.122923 0.12212 0.0777965 0.00736842 0.00279564 0.187273 1.53307 2.20637 1.83039 1.42074 0.25731 -0.797959 -1.40398 -1.12421 -1.2002 -0.600047 -0.0947309 0.463028 0.291722 -0.534956 -0.376435 0.11333 -0.267717 -0.316739 -0.318755 -0.470042 -0.0989635 0.215131 0.447888 0.420789 0.0396954 -0.000785349 0.012634 0.203958 1.4942 2.59635 2.42537 2.07447 0.742808 -0.146468 -0.783845 -1.02874 -1.07595 -0.23652 0.52984 0.964074 0.341518 -0.067002 -0.323133 -0.126451 -0.202618 -0.297213 -0.0455879 0.0783547 0.215482 0.402945 0.586001 0.100162 -0.0481539 0.0140326 0.0267119 0.192923 1.46779 2.33977 2.08682 1.79377 0.350715 -0.0638376 0.0933591 -0.348029 -0.421865 -0.343199 0.765464 1.15833 0.510425 0.285062 0.181876 0.194628 -0.0891602 -0.409874 -0.256119 0.0460248 0.443907 0.469463 0.134763 -0.260576 -0.0182883 0.0107248 0.0167088 0.127747 0.917036 1.47467 0.978832 0.695536 0.0572328 0.258191 0.456807 0.024876 -0.543599 -0.423256 0.540044 0.897247 0.569063 0.214168 -0.10909 -0.259601 -0.30419 -0.330627 0.00829461 0.0544398 0.430355 0.295697 0.157481 -0.132193 0.0423625 0.00759229 0.012785 0.0947937 0.512279 0.393298 0.574372 0.784578 0.23271 0.495484 0.495902 -0.172576 -0.4386 -0.089953 0.634699 0.784546 0.107038 0.0162508 -2.28221e-05 -0.476175 -0.195158 -0.571108 -0.396438 -0.357547 -0.0776888 0.176182 0.255078 -0.0997356 0.0190124 0.00508772 0.00350877 0.137695 0.509491 0.421935 0.691976 0.835166 0.243889 0.261113 0.0368405 -0.4733 -0.274488 0.757309 1.11445 0.66885 0.480197 0.42 0.0352286 -0.137206 0.237231 -0.139856 -0.260928 -0.567561 -0.209306 0.155833 0.516516 -0.0452356 0.00791556 0.0105263 0.0122807 0.136834 0.952384 0.969243 0.789666 0.667768 0.152986 0.336527 -0.0471949 -0.403916 0.0428346 0.983966 0.968972 0.577133 0.595942 0.0836473 -0.133419 -0.169372 0.274023 0.154214 -0.0981698 -0.159315 0.021075 0.212347 0.483906 0.0460032 0.00458884 0.00789474 0.0085965 0.106548 1.01936 0.916021 0.701459 0.417584 0.216618 0.296289 -0.145539 -0.474265 0.133055 0.651855 0.538026 0.278512 0.232259 0.0938118 0.0987077 -0.0991892 -0.123008 -0.368915 -0.428503 -0.102577 -0.0203367 -0.136411 0.156285 0.0386672 0.0228944 0.0122807 0.0061404 0.0756593 0.677758 0.965134 0.734935 0.750204 0.645919 0.287097 -0.329578 -0.67567 -0.0111219 0.169984 0.155079 0.284436 0.177758 0.144262 0.209105 0.268798 0.0267936 -0.323402 -0.243402 0.0218922 -0.0369133 -0.0910364 0.136076 -0.000231614 0.0351052 0.0142105 0.0231208 0.0752492 0.576983 0.829023 1.01575 0.973518 0.548041 0.0304834 -0.405071 -0.501903 -0.190504 -0.140726 0.179739 0.32536 0.298039 0.287653 0.125954 0.0618009 -0.175093 -0.469624 -0.27966 0.00478471 -0.156538 -0.140822 -0.0324293 -0.131035 0.00948534 0.0164912 0.0233536 0.00918927 0.200915 0.364215 0.64424 0.815555 0.780187 0.45228 -0.00714587 -0.135681 0.0440137 -0.0607126 0.307399 0.569202 0.711779 0.51242 0.349976 0.213271 -0.0287625 -0.179762 -0.0769276 0.0679882 -0.100545 -0.0808096 0.00324873 -0.127842 0.00548995 0.00280702 0.0164756 -0.0151921 -0.0420043 0.269448 0.600633 0.76725 0.779855 0.418194 0.208677 0.136642 0.12982 0.0687089 0.160318 0.214879 0.310832 0.228796 0.148338 0.0755359 0.0373944 -0.0801759 -0.0381932 -0.0223952 -0.0329993 0.0659996 0.0310552 -0.126362 -0.00102413 0.0170175 0.00989903 0.00735265 0.00748116 0.0541639 0.0895234 0.0729254 0.118046 0.084655 0.0806014 0.0367299 0.0197872 0.01885 0.0201448 0.0429448 0.020799 0.0236559 0.0135149 0.0171596 0.0364058 0.0244068 0.0235596 0.0230919 0.0293454 0.0405444 0.0230191 -0.00273409 0.0161728 0.00350877 0.00842105 0.0112281 0.00666667 0.00749383 -0.00492817 0.000203608 0.0103502 0.00690136 0.00696867 0.0182047 0.00858084 0.00596491 0.0142085 0.0150955 0.00279225 0.0173434 0.00929216 0.00894555 0.0045614 0.00438596 0.0045614 0.0110183 0.00989569 0.00157895 0.00754386 0.014386 0.000175439 0.0103509 0.0121053 0.00526316 0.00263158 0.00333594 -0.000245388 -0.00822701 -0.0221762 -0.0392917 -0.0279383 0.00192989 0.0143428 0.00807616 0.00345195 0.010219 0.0062863 0.00427064 -0.0100628 -0.00892895 0.0187642 -0.00746295 0.00141679 0.000873799 0.016555 0.0156156 0.0138604 0.014386 0.0150877 0.00438596 0.00192982 0.00912781 0.0137665 -0.00281175 -0.0277998 -0.0346901 -0.041149 -0.0146221 -0.0182417 0.013961 -0.0048219 0.00270361 -0.00728111 0.0398834 0.0223211 0.0326282 0.0579084 0.0374388 0.0480912 0.018125 -0.016124 0.0299293 -0.07243 -0.0117764 -0.0192609 0.0066945 0.00754971 0.0123934 0.00684211 0.000672926 -0.000908806 -0.0531335 -0.0119523 -0.0854614 -0.126568 -0.156509 -0.189429 -0.198429 -0.277871 -0.293091 -0.234153 0.0249008 0.0756126 0.0823372 0.248787 0.416189 0.344944 0.295734 0.200593 0.0882426 -0.194041 -0.136985 -0.0462685 -0.0321865 0.00168925 -0.0096927 0.0117544 0.00446847 -0.0132907 -0.0184902 0.0459356 -0.104982 -0.212186 -0.342505 -0.506058 -0.583075 -0.495514 -0.520118 -0.45247 -0.131237 0.0458964 0.259287 0.63663 0.66117 0.467093 0.436471 0.561736 0.440695 0.229736 -0.0879348 -0.0952987 -0.0216431 0.000601217 -0.00142658 0.00438596 0.0131069 -0.0159551 -0.0936788 -0.151039 -0.322356 -0.603574 -0.665396 -0.757958 -0.660684 -0.501647 -0.585427 -0.669758 -0.401049 -0.135547 0.216807 0.710726 0.865166 0.725353 0.372369 0.152988 -0.0136279 0.197553 -0.0137426 -0.362409 -0.17957 -0.0183962 0.00212912 0.00807018 0.0162523 -0.0434858 -0.167554 -0.305058 -0.436393 -0.703582 -0.818327 -0.769212 -0.616994 -0.526826 -0.604691 -0.726119 -0.666563 -0.571558 -0.326212 -0.046383 0.697575 0.679535 0.234147 -0.101723 -0.516474 -0.117329 -0.125663 -0.502449 -0.206862 -0.00506231 0.00838923 0.00614035 0.0226 -0.0520371 -0.256824 -0.445856 -0.595059 -0.800265 -0.92499 -0.896115 -0.688771 -0.513544 -0.624885 -0.545509 -0.622348 -1.00046 -0.804022 -0.399263 0.532109 0.949345 0.614498 0.248206 -0.321856 -0.102197 -0.0295664 -0.466996 -0.0859219 0.0105883 0.0149123 0.00596491 0.0171641 -0.100026 -0.40974 -0.621205 -0.751351 -0.950477 -1.16345 -1.1657 -1.15337 -0.942022 -0.638826 -0.680987 -1.04956 -1.44923 -1.27242 -0.621256 0.365766 0.952314 0.707262 0.391956 -0.489895 -0.0808226 0.0979835 -0.326834 0.0350036 0.0316971 0.00982456 0.0124561 0.0121821 -0.1427 -0.512487 -0.824079 -0.983052 -1.12649 -1.05172 -0.974024 -1.07259 -0.829776 -0.499379 -0.751453 -1.02611 -1.44417 -1.61748 -1.28329 -0.248617 0.788188 0.807853 0.892123 -0.210901 -0.232823 0.0697271 -0.0777997 -0.0216687 0.0342234 0.00759704 0.00368421 -0.00137292 -0.189187 -0.678275 -1.10026 -1.25597 -1.29302 -0.779823 -0.169954 -0.137179 -0.253798 -0.45187 -0.567367 -0.64098 -1.00592 -1.67437 -1.76996 -0.905224 0.330227 0.622039 0.808279 0.128119 -0.124249 0.139574 0.171134 0.197841 0.0584418 0.018736 0.00280702 0.00522866 -0.265978 -0.743239 -1.19375 -1.30202 -0.979718 0.0704259 0.569552 0.471959 0.362569 0.237169 0.270852 -0.132409 -0.660544 -1.36651 -1.77122 -1.17361 0.234426 0.415214 0.661186 0.243247 -0.0935193 0.179662 0.284097 0.164581 0.0455562 0.0022807 0.00473684 0.00637028 -0.329484 -0.768588 -1.02354 -0.795458 -0.312369 0.498844 0.672479 0.821849 1.05925 0.921069 0.715258 0.478154 -0.121225 -1.06694 -1.73711 -1.29125 -0.120317 0.345727 0.35433 0.32832 0.206559 0.586314 0.265825 0.13128 0.0416004 0.000877193 0.0054386 -0.0223297 -0.427289 -0.623538 -0.714996 -0.146196 -0.0275961 0.537776 0.670628 0.831882 0.973782 0.886424 0.722758 0.339418 -0.0774587 -0.907072 -1.55609 -1.22868 -0.13239 0.42154 0.202532 0.075395 0.298961 0.464366 -0.0124875 0.128129 0.068293 0.0149129 0.0077193 -0.0201152 -0.323902 -0.174854 -0.107712 0.182696 0.0392136 0.380491 0.465986 0.889374 0.924946 0.750858 0.0375606 -0.537288 -0.50672 -1.23102 -1.46174 -0.97229 -0.042555 0.203919 0.479258 0.148127 -0.0460332 0.203963 -0.0831662 0.0507126 0.111992 0.0124561 0.00525649 0.0141141 0.00415226 -0.0103885 0.10298 0.236584 0.050904 0.0266435 -0.103073 0.423178 0.465857 0.0817508 -0.449648 -0.557338 -0.513743 -0.615964 -0.753827 -0.701881 -0.417578 -0.0045967 0.24457 -0.0513953 -0.108598 -0.0583534 -0.573343 -0.102955 0.0570833 0.00522888 0.0048993 0.0638727 0.000495528 -0.191845 0.0370139 -0.00995677 -0.143745 -0.0662535 0.151227 0.318602 0.391082 0.39103 -0.0158646 -0.0214507 0.031892 -0.420188 -0.493613 -0.503352 -0.0986458 -0.0171662 -0.156153 0.0561934 0.0762664 0.406291 -0.14984 -0.119608 0.0522578 0.00736207 0.0170559 0.0818023 -0.14335 -0.299963 0.142542 -0.0231106 -0.306744 -0.0846777 0.207209 0.0800401 0.216962 0.0619908 -0.032298 0.0576457 -0.161234 -0.117645 -0.0140739 -0.135889 0.194981 -0.0804791 -0.0456829 0.275667 0.0702039 0.116867 -0.340836 -0.253078 0.0281396 0.0154366 0.00687563 0.147234 0.131957 0.35751 0.738483 0.0288188 -0.313507 -0.0195543 0.0083038 0.00337365 0.0951809 -0.228364 -0.0793795 -0.0232681 -0.361846 -0.166514 -0.238193 -0.0657766 -0.194095 -0.375368 -0.052936 0.158857 -0.0583019 -0.207458 -0.452829 -0.218279 0.0356516 0.0130508 0.0129442 0.125612 0.218775 0.449417 0.817886 0.467822 0.125141 0.164415 -0.116965 -0.179179 -0.185539 -0.381241 -0.566078 -0.39865 -0.365522 -0.188834 -0.370302 -0.023301 0.0334184 0.0909582 0.042825 0.0383966 -0.409043 -0.264021 -0.354864 -0.116355 0.00633032 0.00298246 0.000877193 0.0883996 0.166941 0.28961 0.560861 0.362723 -0.0916576 0.16786 0.0363834 -0.119431 -0.523513 -0.536484 -0.616736 -0.288771 -0.370857 -0.186698 0.158275 0.180913 0.0693169 0.0725244 -0.0305965 -0.0985983 -0.391549 -0.299294 -0.275654 -0.0617409 -0.0122068 0.00263158 0.00947368 0.0924594 0.16158 0.368112 0.374649 -0.0134815 0.0466742 0.319496 0.141012 0.091963 -0.124083 -0.393105 -0.348876 -0.294885 -0.431643 -0.102273 0.227038 0.00752704 0.063382 -0.0832807 -0.201235 -0.26373 -0.548736 -0.364651 -0.390644 -0.105134 -0.00602012 0.00842105 0.0103602 0.0848852 0.145324 -0.22286 0.0373721 0.0174299 0.113701 0.294104 0.111196 0.438145 0.0272675 -0.453618 -0.313932 -0.328122 -0.298481 -0.0597055 0.561297 0.356157 0.256043 -0.0612199 -0.171779 -0.255813 -0.508762 -0.320138 -0.34046 -0.109127 0.0256154 0.015614 0.00803835 0.0185032 0.00516014 -0.232251 -0.212021 -0.0610994 0.115328 0.235535 0.188807 0.231854 -0.170735 -0.521289 -0.632041 -0.617877 -0.248383 0.0914662 0.455767 0.318309 0.296346 0.0799833 -0.0281794 -0.134356 -0.202307 -0.0350164 -0.200183 -0.0199237 0.0140505 0.00122807 0.00515173 0.0209229 0.188832 0.292598 0.260595 0.0147668 0.0946496 0.209214 0.335324 0.264072 -0.250242 -0.489499 -0.517385 -0.294391 -0.151871 0.0288096 0.223855 0.146485 0.230463 0.127363 -0.0423754 0.0237866 0.0424589 0.0659337 -0.0951384 -0.0559764 0.00112948 0 -0.00186199 0.0192759 0.374083 0.506996 0.430497 0.260296 0.025027 0.0869355 0.0370319 -0.0304521 -0.425015 -0.529116 -0.507209 -0.213036 -0.103838 -0.0713002 0.134308 0.035299 -0.0182579 0.1564 0.0346821 0.0628534 0.0204762 -0.0273969 -0.110257 -0.0998427 -0.00505362 0.000877193 0.00132921 0.0278498 0.160097 0.107003 -0.0400246 0.0676874 0.0807363 0.171928 -0.00265216 -0.161912 -0.209312 -0.30538 -0.328228 -0.192339 -0.104435 -0.138978 -0.0279888 -0.0659233 -0.00814281 0.0853791 0.00107953 0.0321272 -0.0411346 -0.114234 -0.111985 -0.0711304 0.00219802 0.00315789 0.0173057 0.0107914 0.00316378 0.00882391 0.00757133 -0.0402214 -0.0430156 0.00131868 0.0107309 -0.00327707 -0.00115943 -0.00224672 -0.0347675 -0.0210168 0.000985461 0.00953461 0.0289916 0.0109638 0.0255222 0.0419202 0.0218468 0.00437249 0.0115459 -0.0103523 -0.00177218 0.00661528 0.0101648 0.00491228 0.00807018 0.00912281 0.00298246 0.0103883 0.000156712 0.00478441 0.00592071 0.00454758 0.0132009 0.0137511 0.0119145 0.00350877 0.000165262 0.0158471 0.0149695 0.0118043 0.00681158 0.00349358 0.000175439 0.00614035 0.0170175 0.0056252 0.000488828 0.014386 0.0161404 0.0163158 0.00315789 0.00964912 0.0105263 0.000877193 0.0114035 0.0133332 0.0158416 0.023009 0.00866074 0.0285126 0.0230318 0.00402917 0.015569 0.0107245 0.00590235 0.00323566 0.0196388 0.0186817 0.0180927 0.00144336 0.00671307 0.026735 0.0322418 0.04182 0.00790941 0.00924809 0.00953632 0.000175439 0.00526316 0.0122807 0.000526316 0.00419291 0.0090468 0.00910617 -0.0245913 -0.0886223 -0.092292 -0.0726964 -0.0161911 -0.0214495 -0.0613034 -0.0429672 -0.0667825 -0.0477024 -0.0147058 -0.0354981 -0.0139522 -0.0162397 -0.0240027 -0.0331254 -0.0186432 0.0779061 0.132354 -0.00505893 -0.0281439 0.0104185 0.0123171 0.00261847 0.00526316 0.0106047 0.0547934 0.106613 -0.0218468 -0.120898 -0.361321 -0.370229 -0.459457 -0.588318 -0.576719 -0.324418 -0.150577 -0.181717 -0.0438309 -0.0939842 -0.209688 -0.183981 -0.171324 -0.28036 -0.150785 0.158454 0.167126 -0.127147 -0.0741585 -0.0878187 -0.0111073 0.00296637 0.00105263 0.0157955 0.176839 0.31355 0.369523 0.460003 0.056349 -0.301196 -0.576597 -0.875841 -0.997409 -0.532405 -0.0317951 0.138944 0.115829 0.0927308 -0.0356845 -0.185133 -0.115096 -0.371229 -0.350971 -0.0854406 0.0344606 -0.2398 -0.00074073 0.0193513 -0.0114753 0.00622725 0.0154386 0.0258216 0.24999 0.392253 0.683605 0.422532 -0.0629961 -0.474417 -0.627259 -0.90102 -1.00001 -0.166705 0.6199 0.87648 0.805039 0.373066 -0.175802 -0.724561 -0.890501 -0.704265 -0.628875 -0.289792 -0.0729285 -0.094571 0.0633838 0.0889154 -0.0391986 0.00493393 0.00368421 0.0274103 0.171497 0.26932 0.284027 -0.136967 -0.662665 -0.756189 -0.770025 -0.701281 -0.985557 0.0527414 1.33243 1.30273 1.20162 0.519642 -0.0969707 -0.656465 -0.978952 -0.80077 -0.393224 0.117771 0.235537 0.200223 -0.0909822 -0.219658 -0.100208 0.015412 0.00157895 0.0211602 0.0769502 0.0634443 -0.409399 -0.723782 -1.06031 -1.14802 -1.28319 -1.28363 -1.30095 -0.428622 1.02926 1.16536 1.01605 0.236733 -0.249042 -1.06416 -1.04032 -0.599141 -0.167202 0.47666 1.0489 0.619716 -0.286465 -0.75643 -0.184482 0.00245614 0.00684211 -0.0214964 -0.172984 -0.299094 -0.735288 -1.13381 -1.60551 -1.49209 -1.59829 -1.50447 -1.04199 -0.303841 0.6727 0.50977 0.623215 0.649149 0.042064 -0.432245 0.0137432 0.0639083 0.294599 0.755454 0.50256 0.229419 -0.305624 -0.534286 -0.116952 0.000701754 0.00842105 -0.0136721 -0.202399 -0.471591 -1.04688 -1.42996 -1.84638 -2.07753 -2.29152 -1.67619 -0.850273 -0.103494 0.832613 0.631458 0.333006 0.648751 -0.124918 -0.47802 -0.275973 -0.184644 -0.394323 -0.418978 -0.0814533 0.413808 0.478562 -0.39724 -0.20216 0.00722238 0.0140351 -0.0247599 -0.290861 -0.725348 -0.889707 -1.48193 -2.02878 -2.5465 -3.03098 -2.34025 -1.27452 0.165778 0.780441 -0.129803 -0.428749 0.0594832 -0.426826 -0.594614 -0.337467 -0.646929 -0.352876 0.214053 0.456274 0.813879 1.22034 0.126661 -0.267783 0.0128949 0.012807 -0.0951151 -0.451292 -0.486663 -0.370806 -0.76868 -1.41745 -2.60588 -2.78079 -1.96226 -0.968799 -0.112761 0.0181976 -0.475719 -1.2193 -0.512016 -0.103404 -0.21001 -0.519368 -0.505879 -0.331664 0.421637 0.49566 0.361491 0.496511 -0.0286909 -0.233064 0.015614 0.00508772 -0.0921837 -0.236727 0.0389886 0.474653 -0.0675577 -1.02863 -1.5639 -1.81629 -1.37619 -0.537602 0.384396 -0.0874753 -0.676322 -0.965591 -0.408968 -0.313053 0.0428556 0.56311 0.0455718 -0.192631 0.00889431 0.351875 0.0769454 0.241237 0.135794 -0.0483504 0.00491228 0.000350877 -0.0495107 -0.154653 -0.255121 0.540127 0.152733 -0.755221 -1.35729 -1.66785 -1.14233 -0.0802995 0.559767 0.318274 -0.0746243 -0.127381 0.1718 0.187961 0.669199 0.532923 0.438103 0.256894 0.158847 0.330455 -0.0928264 0.120835 0.273501 -0.196522 0.000503399 0.00964912 -0.053949 0.0207701 0.459481 0.712597 0.256603 -0.372008 -0.681821 -1.09266 -0.975248 -0.00682203 0.313172 0.208482 0.354973 0.0915762 0.729021 0.761652 0.258507 -0.115849 0.247233 0.169161 0.346104 0.10778 -0.0234825 0.180317 0.299269 -0.0994583 0.0163158 0.000504187 -0.263349 -0.282265 0.584919 0.509643 -0.59006 -1.02956 -0.843229 -0.339839 -0.358767 0.630526 0.94243 0.812042 0.193257 -0.137763 0.143481 0.318113 0.11524 -0.0872353 0.460889 0.502321 0.721801 0.378931 0.307924 0.378016 0.229083 -0.0801702 0.0148235 0.0060096 -0.422831 -0.498 0.428305 -0.0821182 -0.864941 -0.773925 -0.720157 -0.188093 -0.0826358 1.02911 1.27989 1.29905 -0.342927 -0.43957 0.141172 0.828067 0.164684 -0.330653 0.311896 0.761323 1.03276 0.854284 0.385523 0.755831 0.316631 -0.129853 0.00733899 0.00307 -0.368503 -1.09426 -0.200925 -0.506633 -0.622166 -0.580859 -0.85477 -0.784567 -0.154478 0.294086 0.893971 0.934142 -0.496516 -0.389939 0.0652198 0.270273 -0.427371 -0.710026 -0.33808 0.657781 0.945959 0.244658 0.22181 0.798735 0.412391 -0.113564 0.0126944 0.00514294 -0.279073 -0.662268 0.194646 -0.278648 -0.334016 -1.07882 -1.40538 -1.22351 -1.01128 -0.309349 0.986119 1.47939 0.0183263 -0.532268 0.197365 0.551627 -0.158648 -0.674483 -0.681734 0.0580496 0.510587 0.790161 0.675101 0.733938 0.672079 -0.00605635 0.00522242 0.00604266 -0.450226 -0.602659 0.120737 -0.589242 -0.536947 -0.99051 -1.41729 -1.36634 -1.0191 0.137328 1.44956 1.34531 0.727118 -0.215386 0.395544 0.207106 -0.827071 -0.736305 -0.566368 -0.511712 -0.241474 0.196884 0.129674 0.341896 0.440709 -0.00132615 0.0145614 0.00894737 -0.260419 -0.436244 0.130546 -0.707957 -0.941016 -1.31637 -1.49522 -1.51436 -0.628817 0.0720771 1.2743 1.21933 0.7236 0.047023 -0.0291258 -0.542683 -0.702701 -0.207313 0.413636 0.370535 0.318258 0.520263 0.321348 0.00941912 -0.0314085 -0.02985 0.00578947 0.0150877 -0.0640142 -0.116782 -0.478354 -0.526995 -0.222244 -1.00886 -1.55272 -1.93106 -1.20656 0.0637313 1.57021 1.47448 0.751422 0.517037 0.392626 -0.0371659 -0.190312 0.0775016 0.511996 0.595956 0.662335 0.514746 0.411238 0.108303 -0.301216 -0.0234841 0.00614035 0.000311546 -0.0173404 -0.100148 -0.399412 -0.382566 -0.742762 -1.09067 -1.89253 -1.86531 -0.712407 0.369063 1.19598 0.906241 0.578955 0.461527 0.0536255 -0.56988 -0.793507 -0.939311 -0.626944 -0.0165122 0.353191 0.462299 0.69748 0.615813 -0.0131787 -0.0392822 0.0121053 0.0127804 -0.139631 -0.233163 -0.159798 -0.399155 -0.919543 -1.16199 -0.985722 -0.824717 0.0349744 0.376004 0.683621 0.512806 0.440012 0.288637 -0.388249 -1.02549 -1.57486 -1.45967 -0.744657 0.0553969 0.44188 0.641268 1.09758 0.888643 0.127455 0.00880192 0.000175439 0.0069974 -0.0996215 0.015117 0.0116002 -0.229826 -0.739463 -1.07943 -0.373367 -0.0665682 -0.115303 0.0388849 0.415027 0.419466 0.469333 0.248181 -0.659195 -0.884567 -1.08099 -0.945778 -0.369751 -0.000968022 0.455268 0.679647 0.964246 0.521627 0.0291084 0.017829 0.00245614 -0.00284428 -0.0504105 0.0859068 -0.0212836 -0.461584 -0.714567 -1.05657 -0.318308 0.0398338 -0.345145 -0.0195295 0.568075 0.528583 0.471896 0.0423891 -0.443254 -0.496102 -0.688985 -0.486411 -0.111692 0.201477 0.29369 0.254992 0.444786 0.0755561 -0.171721 -0.0007214 0.0129825 0.0144757 -0.0212609 0.0296444 -0.0639058 -0.582692 -0.61858 -0.679082 -0.503697 -0.500281 -0.234537 0.211996 0.259834 0.0907206 0.0680986 -0.154632 -0.33892 -0.286448 -0.333404 -0.079205 0.024585 0.163407 0.0800482 0.0108482 -0.00748859 -0.101388 -0.0444346 0.023392 0.00421053 0.0163027 0.00115099 0.0293383 -0.0332449 -0.113753 -0.110299 -0.0186744 -0.109743 -0.0542608 -0.0134929 0.0285407 0.0491947 0.0274888 -0.024661 -0.0344774 -0.0140615 -0.0136403 -0.0107507 -0.0117592 -0.0116815 -0.00820816 0.0103061 -0.0240319 0.0100194 0.00444282 0.00286879 0.00810847 0.00929825 0.0119298 0.0126316 0 0.00389777 0.0130879 0.00786056 0.00580493 0.0136035 0.00801588 0.00524286 0.0135057 0.00614035 0.00215834 0.00262175 0.00296011 0.00451431 0.00577328 0.00807208 0.00929825 0.0045614 0.015614 0.00294829 0.000186586 0.00245614 0.0126316 0.00666667 0.00964912 0.014386 0.00350877 0.0129825 0.0126316 0.0170879 0.00676072 0.00355772 0.0147495 -0.00452119 0.00216297 0.0070795 0.00428964 0.0165584 0.014417 0.00359252 0.0178209 0.011916 0.00452801 -0.00283766 0.00141776 0.0353597 0.0413175 0.0447872 0.00339784 0.0152667 0.0117561 0.012807 0.0114035 0.0108772 0.0112281 0.0171564 0.0122737 0.000743653 -0.0234086 -0.0282992 -0.0925225 -0.111251 -0.0770454 -0.0692807 0.0187697 -0.0113925 -0.0155955 0.00386628 0.00278531 -0.0137671 0.0350587 0.0963787 0.0909784 0.0980002 0.0348153 0.0386093 0.041619 0.0708912 0.00218208 -0.00782364 0.0150814 -1.1184e-06 0.00175439 -8.97552e-05 -0.0459784 -0.238588 -0.363735 -0.300152 -0.342444 -0.225165 -0.108135 -0.187055 -0.184308 -0.129044 -0.0930182 0.0182563 -0.0575835 0.0699583 0.204982 0.304702 0.34783 0.304739 0.102643 0.000913042 -0.181585 -0.293086 -0.12728 -0.158379 -0.0127638 0.00608987 0.00842105 0.00309828 -0.0525465 -0.275749 -0.427147 -0.405608 -0.402599 -0.262149 -0.230644 -0.278887 -0.295754 -0.327162 -0.153405 -0.117411 -0.238406 -0.17748 -0.0961782 -0.0437439 0.110283 0.430643 0.377774 0.192818 0.15252 -0.528506 -0.458238 -0.191311 0.00099459 0.00645783 0.00350877 -0.0101977 -0.192458 -0.435011 -0.483864 -0.330622 -0.236733 -0.169344 -0.148725 0.161974 0.407527 0.306456 0.257393 0.0785591 0.0195956 -0.053222 -0.041083 -0.167358 -0.0868685 0.262911 0.254501 -0.087292 -0.278216 -0.506646 -0.510655 -0.423759 -0.0181116 0.0141839 0.00298246 -0.00895226 -0.303775 -0.561207 -0.510318 -0.492975 -0.177558 -0.08665 0.165837 0.601019 0.897188 0.787429 0.344603 -0.0634625 -0.245061 -0.217596 -0.189816 -0.263676 -0.391254 0.15426 0.272996 -0.0341919 0.241936 0.171494 -0.03199 -0.303433 -0.0121692 0.0165312 0.00508772 -0.0119458 -0.404491 -0.684348 -0.316836 -0.244923 -0.296969 -0.377663 0.00873892 0.568443 0.768443 0.436749 0.108213 -0.140249 -0.108127 -0.161361 -0.402184 -0.23604 -0.0897128 0.340065 0.324306 0.135015 0.271025 0.0104918 -0.447461 -0.479021 -0.0622513 0.00333333 0.000701754 -0.0123976 -0.321215 -0.42927 -0.223743 0.0826134 0.0303581 -0.151324 0.517628 0.829367 0.532408 -0.12788 -0.6487 -0.27833 -0.212939 -0.277776 -0.388452 0.239862 0.422843 0.450447 0.158363 -0.0648528 -0.0663637 -0.294566 -0.764067 -0.787332 -0.06429 0.00807018 0.000701754 0.0197362 -0.254515 -0.324268 -0.33095 0.118002 0.124634 0.409946 1.05826 1.0806 0.680367 0.0957654 -0.387162 -0.386463 -0.169445 -0.440814 -0.447487 -0.140472 0.267711 0.801731 0.303483 -0.0911588 0.0264018 -0.624477 -1.26803 -1.08756 -0.0250383 0.0109087 0.0133333 0.026808 -0.213729 -0.440796 -0.545072 -0.156445 -0.0250758 0.528318 1.42619 1.35892 0.659204 -0.285502 -0.850147 -0.605846 -0.338357 -0.342425 -0.227282 -0.18536 -0.0363071 0.228848 0.452726 0.277501 0.0290748 -0.518814 -1.12577 -0.760433 0.0165129 0.013941 0.0112281 -0.00117075 -0.434914 -0.635958 -0.377837 0.134143 0.568922 1.27211 1.75783 1.17075 -0.0642955 -0.789765 -0.549882 -0.46076 -0.223193 -0.198762 -0.351127 -0.602474 -0.651803 -0.360103 0.45527 0.921699 0.307377 -0.386408 -1.01364 -0.534723 0.0591938 0.00596491 0.015614 0.0109595 -0.29361 -0.639577 -0.303739 0.396678 1.11742 1.73031 1.86674 0.529186 -0.92577 -1.30204 -0.750717 -0.251274 -0.516598 -0.704016 -0.985838 -0.819143 -0.813611 -0.0861647 0.747555 1.03603 0.29489 -0.559979 -0.962 -0.506697 0.0210219 0.00596491 0.00982456 0.0131381 -0.474967 -1.00487 -0.588176 0.771168 1.80566 1.97723 1.12896 -0.363102 -1.54401 -1.26278 -0.714226 -0.177293 -0.319233 -0.314936 -0.575647 -0.685099 -0.403627 0.560765 0.783852 0.627627 0.282473 -0.413795 -0.80734 -0.399355 0.0399291 0.0173668 0.00894737 -0.0336358 -0.686582 -1.00839 -0.383188 1.33286 2.11701 1.6694 0.358673 -0.828199 -1.71902 -1.30308 -0.762104 -0.678559 -0.821362 -0.643368 -0.765963 -0.808883 0.0957006 0.605853 0.528872 0.0905063 0.331978 -0.111988 -0.584747 -0.577412 0.0318209 0.00842105 0.00716219 -0.00116448 -0.509757 -0.965208 0.0907886 1.55382 1.94832 1.16229 0.169595 -0.592815 -1.29158 -1.08046 -0.473228 -0.410991 -0.700378 -0.704533 -0.536379 -0.968689 -0.441746 0.138514 0.400354 -0.0475269 0.31089 -0.0591667 -0.505393 -0.667989 -0.0154534 0.00615742 0.0138214 0.0254033 -0.291562 -0.522682 0.576332 2.0374 2.00729 1.3841 0.876872 0.0405517 -0.996643 -0.95475 -0.283592 -0.0336517 -0.616411 -0.461283 -0.350847 -0.749417 -0.182401 0.378665 0.421051 -0.12621 0.143517 -0.148767 -0.505555 -0.511622 -0.0224444 0.0106724 0.00698701 0.041311 -0.116422 -0.078953 1.05561 1.59457 1.31912 0.875115 0.651108 -0.360273 -0.980371 -0.525787 -0.306649 -0.81886 -0.830965 -0.699507 -0.563202 -0.426713 -0.0917069 0.345755 0.254098 -0.00114934 0.255848 -0.0603242 -0.433102 -0.515622 -0.0183464 0.000211263 0.0116933 0.11676 -0.184155 0.0408346 0.896421 0.894982 0.392994 0.869256 1.13941 0.387912 0.0610679 0.324587 0.016766 -0.299936 -0.211741 -0.180562 -0.363116 -0.14101 0.194965 0.362163 0.255638 0.309226 0.23904 -0.282143 -0.558354 -0.431158 -0.0241571 0.0113899 0.0133068 0.12003 -0.0271946 0.0730312 0.12316 0.284009 0.353356 0.73255 0.847007 0.452783 0.0939223 -0.0386352 -0.544196 -0.498305 -0.128447 -0.223658 -0.513631 -0.447735 -0.23128 0.167742 0.213825 -0.089298 -0.144832 -0.557708 -0.74165 -0.310948 0.0061068 0.0163158 0.0124561 0.0578281 -0.201551 -0.187194 -0.00929214 0.239598 0.497865 0.493737 0.807044 0.94586 0.372826 -0.226517 -0.518595 -0.57992 -0.23975 -0.0655101 -0.10815 -0.393638 -0.275393 0.196013 0.426197 0.0111874 -0.307177 -0.797188 -0.798029 -0.271351 -0.0404211 0.012807 0.00368421 0.00917339 -0.3876 -0.485255 -0.394304 0.0130522 0.00857544 0.0822517 0.562998 0.96771 0.305083 -0.115055 -0.237495 0.0635722 0.0930184 0.163756 -0.106537 -0.43804 -0.0476761 0.298503 0.34114 0.0870103 -0.169169 -0.742971 -0.633282 -0.297777 -0.0573517 0.000175439 0.00913059 -0.00970865 -0.486963 -0.816608 -0.558255 -0.405621 -0.310004 0.132699 0.426919 0.360353 -0.282838 -0.309589 -0.0733988 0.343906 0.106961 -0.261389 -0.383719 -0.360097 -0.207459 0.514296 0.917981 0.753208 0.354933 -0.283145 -0.26035 -0.149947 -0.00727 0.00631579 0.00723296 -0.0472875 -0.661639 -0.891502 -0.552485 -0.496533 -0.309164 0.129935 0.188129 0.358699 0.0556111 0.0980083 0.186633 0.425133 -0.00995007 -0.482321 -0.764868 -0.51494 -0.0165877 0.523999 0.760375 0.801285 0.661051 0.150577 -0.0695328 3.55797e-05 0.0150296 0.0159649 0.0149513 -0.0136204 -0.487223 -0.840599 -0.739331 -0.733081 -0.684585 -0.383687 -0.0179109 0.298313 0.189596 -0.0354135 -0.122173 -0.116552 -0.488226 -0.83062 -1.02908 -0.735464 -0.173607 0.152377 0.388244 0.355511 0.332249 0.139675 0.0277756 0.0266275 0.00115192 0.0138596 0.00993275 -0.010243 -0.400427 -0.752998 -0.919709 -0.921357 -0.877261 -0.70644 -0.217196 0.09811 -0.103947 -0.134493 -0.247231 -0.32105 -0.624482 -0.869824 -0.803106 -0.613461 -0.176169 -0.21169 -0.189717 -0.134662 0.0706009 -0.0573602 -0.0464396 0.0739731 0.0146678 0.00649123 0.00862989 -0.00384213 -0.243723 -0.449351 -0.507986 -0.554126 -0.472913 -0.238054 -0.0411636 0.0666111 -0.100321 -0.241165 -0.336904 -0.318235 -0.260485 -0.238872 -0.269693 -0.226986 -0.16339 -0.222292 -0.179359 -0.104235 -0.0913997 -0.0385959 0.0061255 0.0750547 0.0140001 0.000877193 0.00438485 0.0151033 -0.00638802 -0.0351482 0.00904461 -0.0537856 -0.122271 -0.0166278 0.0649726 0.0472551 -0.0242952 -0.0560531 -0.0643167 -0.0799974 -0.0924364 -0.0383021 -0.0311147 -0.000983974 -0.00742602 -0.0102846 0.024419 0.0140826 -0.0133166 0.00128946 0.00674232 0.016696 0.0119601 0.0159649 0.00666667 0.00192982 0.00947368 0.00756624 -0.00302202 -0.00487238 -0.00134369 0.0189035 0.00851901 -0.00220079 0.0152383 0.0112281 0.00546022 0.00591953 0.0104752 0.00371694 0.0156789 0.00824753 0.00631579 0.00684211 0 0.0149855 0.0100016 0.0145614 0.0114035 0.00333333 0.00789474 0.0170175 0.00824561 0.0142105 0.00421053 0.00684209 0.00645143 0.0107174 0.0112499 0.00561197 0.0128278 0.00753012 0.00646741 0.0153394 0.00128886 0.00853291 0.0104467 0.00776653 -0.0431835 -0.0468031 0.00194391 0.0132184 0.0143881 0.0129477 0.000885509 0.00929856 0.000351036 0.00614035 0.000526316 0.0145614 0.000350877 0.0098244 0.00775361 0.0105541 0.00246249 0.00775617 0.00107412 -0.0104493 0.00358199 0.0314615 0.143301 0.0660617 -0.0472817 -0.00660243 -0.0130154 -0.0305775 -0.0182853 -0.00101732 -0.0184997 -0.00275829 0.0101976 0.0288983 0.0178217 0.016193 0.0154321 0.0109986 0.00887365 0.00701692 0.0152632 0.0118038 0.0131387 0.0187532 0.0423603 0.0934762 0.0636834 -0.0401346 -0.298876 -0.329279 -0.032278 -0.0244582 -0.139496 -0.00841271 0.0218725 0.0491521 0.047098 -0.127839 -0.220168 -0.0834151 0.150876 0.272262 0.131517 0.0468154 0.0401891 0.0209382 0.0128508 0.011452 0 0.00296773 0.00475745 0.0321183 0.08014 0.151277 0.246017 0.0803299 -0.271726 -0.462415 -0.18797 -0.0545565 -0.0107877 -0.0318605 -0.126771 0.0378027 -0.0267686 -0.282331 -0.241238 0.00741773 0.314521 0.437496 0.246545 0.16603 0.108363 0.0356527 0.01592 0.00572278 0.0101754 0.0143799 0.000528924 0.025586 0.0801149 0.138444 0.217459 0.0408454 -0.130752 -0.238073 -0.0669544 0.0451295 -0.0413033 -0.0894189 -0.167608 -0.00564512 -0.0601812 0.0960844 0.191647 0.179847 0.238134 0.313591 0.250728 0.186235 0.090171 0.0386339 0.0123891 0.0032842 0.00438596 0.0121434 0.0223108 0.0563289 0.090749 0.130128 0.139267 0.00528961 -0.0201147 -0.16338 -0.0157251 0.154017 -0.095757 -0.381297 -0.157917 -0.104151 0.00950483 0.19982 0.329827 0.299818 0.125505 0.240461 0.228543 0.160284 0.100457 0.0428506 0.00644706 0.000270035 0 0.0101722 0.0459419 0.106979 0.125056 0.132444 0.119719 0.0200648 -0.034881 -0.0287925 0.121872 -0.0131612 -0.252881 -0.233202 -0.313266 -0.225127 0.0544729 0.100009 0.357873 0.378108 0.26313 0.163244 0.208141 0.145566 0.121367 0.048248 0.0129006 0.00789474 0.0163158 0.000202576 0.0345415 0.103958 0.147587 0.15601 0.152332 -0.00483457 -0.105851 -0.124289 0.195347 0.0878964 -0.182242 -0.0468262 -0.0453584 0.0498869 0.225206 0.133187 0.279885 0.218826 0.295945 0.180164 0.219079 0.168494 0.129359 0.0677119 0.0149609 0.00842105 0.00263158 0.00883199 0.0294859 0.0902887 0.123983 0.168811 0.118114 -0.0204843 -0.00877736 -0.0723307 0.136883 -0.0726166 -0.168861 -0.0550914 0.0623999 0.231438 0.306949 0.102074 0.174681 0.0654843 0.144863 0.123328 0.213707 0.150011 0.112196 0.0521594 0.00805152 0.0106914 0.0135088 0.0112231 0.0546823 0.119616 0.151553 0.192358 0.175368 0.140732 0.0292134 -0.121169 0.0300576 -0.126302 -0.27728 -0.297026 -0.179843 0.0664855 0.183182 0.129411 0.100765 -0.00704814 -0.00092566 0.147925 0.239686 0.162338 0.119185 0.0495463 0.0122436 0.00827218 0.00964912 0.00841441 0.0383137 0.084586 0.125058 0.150891 0.206244 0.296982 0.220852 0.126125 0.0901805 0.00502269 -0.166424 -0.115734 -0.312091 -0.0595133 0.282397 0.358336 0.351318 0.152821 0.0788191 0.25661 0.27802 0.207737 0.180478 0.0746918 0.00632694 0.0159649 0.0159649 0.0104279 0.0246727 0.063976 0.101178 0.119931 0.209549 0.259432 0.143526 0.179102 0.0848855 -0.124529 -0.046935 -0.157524 -0.230664 0.0340832 0.143533 0.0447596 0.19914 0.213352 0.13886 0.292589 0.288617 0.241509 0.1882 0.0876076 0.024769 0.00175439 0.0121053 0.00864606 0.0285641 0.071213 0.121084 0.12049 0.214196 0.284166 0.227421 0.356943 0.213721 -0.0647928 0.101972 0.003096 -0.137431 0.031496 0.112346 0.0313365 0.152778 0.187941 0.193921 0.216204 0.246133 0.204599 0.175041 0.0788649 0.0114562 0.00875704 0.0170175 0.00237421 0.0448638 0.0826797 0.12726 0.167388 0.224877 0.269016 0.286259 0.466782 0.131877 -0.126315 -0.00359244 0.143979 -0.200643 0.125768 0.051919 0.167858 0.224128 0.129672 0.206609 0.184755 0.216068 0.225207 0.208959 0.0997343 0.0126772 0.00929825 0.00016503 0.0114161 0.0527255 0.0818553 0.150119 0.167741 0.19784 0.239433 0.32299 0.371531 0.1045 0.077777 0.16666 0.125954 -0.0982364 0.444156 0.26827 0.212886 0.113456 0.156155 0.256173 0.228103 0.236062 0.211749 0.200485 0.0746956 0.0152457 0.00784121 0.0170065 0.0114023 0.0618346 0.145334 0.186538 0.176412 0.212537 0.243102 0.343473 0.318933 0.351157 0.181126 0.0732411 -0.207831 -0.0815207 0.32187 0.0307799 0.0738392 0.0873298 0.241678 0.249755 0.245876 0.242071 0.210462 0.180749 0.0643288 0.0106055 0.010341 0.000350041 0.0161776 0.083686 0.173142 0.171865 0.18702 0.204346 0.223683 0.373459 0.346369 0.344994 0.0964504 -0.163544 -0.217323 -0.16302 0.0340908 -0.159291 0.204069 0.346275 0.208956 0.136543 0.155875 0.20543 0.183494 0.161888 0.0637549 0.00980904 0.00963959 0.00518007 0.00773725 0.0889838 0.173116 0.196852 0.174996 0.178147 0.21881 0.391066 0.420487 0.490391 0.163081 -0.178443 -0.400019 -0.31356 -0.166783 -0.0487568 0.224728 0.129418 0.102962 0.0724807 0.111162 0.155418 0.135016 0.112353 0.0310006 0.00395404 0.00978275 0.0014153 0.0203845 0.0994757 0.146903 0.167738 0.140485 0.158092 0.236409 0.490919 0.429334 0.403395 0.173483 -0.10278 -0.314589 -0.540337 -0.495077 -0.19445 0.0983357 0.0589998 0.144373 0.139919 0.110371 0.140607 0.139418 0.0853889 0.0226932 0.0107919 0.00947368 0.00298246 0.0103169 0.0829184 0.163621 0.192241 0.188955 0.245868 0.32293 0.338564 0.323147 0.23355 0.149527 0.0336028 -0.383401 -0.700278 -0.467183 -0.246814 -0.000653498 0.0802714 0.130885 0.19588 0.215857 0.216188 0.181127 0.109828 0.0395193 0.00291511 0.00508772 0.000350877 0.00692775 0.0828871 0.128896 0.171326 0.190232 0.227359 0.231552 0.197243 0.162945 0.126921 -0.070059 -0.0481588 -0.147451 -0.353224 -0.0284542 0.00203379 0.088524 -0.0476845 -0.0524888 0.124662 0.216923 0.211042 0.180914 0.125403 0.0495776 0.00429066 0.0164912 0.00454566 0.023307 0.0886049 0.140122 0.164615 0.172832 0.184457 0.164344 0.104552 0.142444 0.0459229 -0.0650922 -0.0981154 0.00130803 0.120588 0.399732 0.13146 0.1585 0.0392093 -0.125179 0.0212323 0.243379 0.21049 0.167017 0.134832 0.0641498 0.0172624 0.0022807 0.0155332 0.0163155 0.0803269 0.172649 0.192882 0.184347 0.192837 0.201953 0.203254 0.197916 0.0633216 0.149974 0.118879 0.0463932 0.0940115 0.325369 0.211236 0.0472006 -0.100698 -0.262728 -0.108746 0.227911 0.153638 0.148135 0.151386 0.0785166 0.0130317 0.0054386 9.87963e-05 0.00590915 0.0489113 0.128906 0.180081 0.204715 0.194126 0.273846 0.26764 0.277413 0.19839 0.296963 0.21972 -0.00112389 0.0529647 -0.0502019 -0.0763935 -0.144098 -0.347324 -0.464243 -0.23368 0.18384 0.108792 0.12871 0.113335 0.0321431 0.0168891 0.00315789 0.00530227 0.0116407 0.045209 0.0749583 0.1256 0.154055 0.175898 0.192281 0.211772 0.223673 0.0700804 0.249484 0.342214 0.10149 -0.0314451 -0.271427 -0.216118 -0.26639 -0.349985 -0.680709 -0.311906 0.0459352 0.0305281 0.0428909 0.047912 0.0028581 0.0146381 0.0133333 0.00641144 0.00773543 0.0243124 0.0500313 0.0482953 0.031972 -0.0179052 -0.0548266 0.0294785 0.120386 -0.0164357 0.0223894 0.02972 -0.0986547 -0.0688611 -0.203046 -0.0651656 -0.242371 -0.171498 -0.410057 -0.13479 0.0744559 0.0404353 0.0242715 0.0218365 0.00290434 0.0139295 0.0168421 0.00806955 0.0117532 0.00656675 0.0113527 0.011173 0.00318916 -0.00901734 -0.025322 -0.000170371 0.00209706 -0.00754134 -0.0146327 0.121142 0.00598011 -0.012919 0.0587991 0.0306581 -0.0348595 -0.0344553 -0.0541625 0.0014597 0.0101452 0.0115631 0.00169094 0.00976511 0.00796955 9.29039e-05 0.00298246 0.014386 0.0138596 0.00982456 0.00737915 0.00327417 0.000811816 0.00295262 0.00692938 0.0069697 0.000429247 0.00260866 0.0152632 0.00472455 0.0160955 0.00494367 0.00388349 0.0057526 0.00112285 0.00719298 0.00561404 0.00614035 0.00114378 0.00576804 0.0122807 0.00877193 0.015614 0.0152632 0.00719298 0.0157895 0.00157895 0.00140351 0.010876 0.00826401 0.00162961 0.00890013 0.00906336 0.0247738 0.0117238 0.0204334 0.0119584 0.00706563 0.00728944 0.019775 0.0341054 0.028262 0.0125595 0.00661284 0.0152565 0.0284388 0.0254349 0.0136118 0.00930954 0.00702319 0.0077193 0.017193 0.0145614 0.0154386 0.012606 0.00307385 -0.00425115 0.0263542 0.0785735 0.0497658 0.0886787 0.113753 0.0796156 -0.0444708 -0.0379598 -0.0174038 0.0182388 0.100847 0.152804 0.026281 0.0131103 -0.0102842 0.0330989 -0.0588088 -0.0238528 -0.105439 -0.0651558 -0.00391336 0.0171078 0.00363729 0.00420836 0.00263158 0.00226074 -0.0281073 -0.167445 -0.25265 -0.103577 -0.0107056 0.0670005 0.00288569 0.0103824 0.0308193 0.0354425 0.0830855 0.352117 0.513768 0.664997 0.355882 0.255206 -0.083789 -0.179188 -0.339113 -0.57197 -0.752483 -0.599617 -0.11499 0.0611184 0.0166592 0.0071054 0.0129825 0.0089632 -0.0256633 -0.0304726 -0.182817 0.0547682 0.284539 0.112266 0.00369817 -0.32255 -0.309746 -0.0624569 0.315928 0.640204 0.678045 0.770283 0.570009 0.372193 0.0198272 -0.355246 -0.606371 -0.81843 -0.801468 -0.336323 0.0448942 -0.121613 -0.0199161 0.00341166 0.00701754 0.00333082 -0.0640207 -0.1426 -0.192298 0.0360827 0.227695 -0.113317 -0.333811 -0.468304 -0.380797 -0.270893 0.0480196 0.423253 0.344897 0.515365 0.491926 -0.122269 -0.614056 -0.623912 -0.989482 -0.914087 -0.570113 -0.407668 -0.393755 -0.445462 -0.0424661 0.0119172 0.0077193 -0.00634275 -0.0275509 -0.305283 -0.23265 -0.100431 0.248422 -0.0141785 -0.132894 -0.39665 -0.463589 -0.43514 -0.174077 0.312386 0.457525 0.732433 0.492631 0.0181872 -0.35671 -0.939153 -1.49272 -1.26188 -0.890071 -0.632938 -0.402216 -0.449877 -0.0358522 0.00681223 0.00701754 0.0177953 0.0434679 -0.230613 -0.195795 -0.00671585 0.0408318 -0.395261 -0.403978 -0.489505 -0.701175 -0.959574 -0.411659 -0.0740722 0.252387 1.22621 1.1248 0.251529 -0.448477 -1.0502 -1.16883 -0.938196 -0.556496 -0.463751 -0.295167 -0.209183 0.0349832 0.0138596 0.0142105 0.0308092 0.0419258 -0.145395 -0.0125197 -0.174805 -0.0798664 0.141141 0.117598 -0.248081 -0.537434 -0.733334 -0.805536 -0.144624 0.768473 1.22914 1.04947 0.521736 -0.3192 -1.32386 -0.798881 -0.378298 -0.0274468 -0.145372 -0.0631136 -0.0789679 -0.045416 0.0119298 0.00263158 0.0421348 0.00783833 -0.0848131 0.16325 0.14558 0.494266 0.331686 0.330212 0.383118 -0.417391 -0.80497 -0.8322 -0.193797 1.04614 1.31785 0.962954 0.476538 -0.171279 -0.964231 -0.789151 -0.492138 -0.0479049 -0.644506 -0.424931 -0.462796 -0.091417 0.0103513 0.00578947 -0.0289088 -0.117819 -0.147526 -0.168908 0.0185201 0.069869 -0.133279 0.236106 0.167707 -0.702951 -1.26433 -1.28421 0.0019842 1.1211 1.58576 0.64934 -0.367868 -0.440997 -0.956271 -1.34884 -0.561941 0.0391231 -0.523722 -0.0050769 -0.15175 -0.117592 0.000382985 0.0159649 -0.0199604 -0.260026 -0.32371 -0.330468 -0.585994 -0.742375 -0.0885957 0.570229 -0.0181284 -0.657888 -0.926539 -1.23989 -0.0122178 0.8747 1.43191 0.820843 0.18563 0.147719 -0.810375 -1.09299 -0.266613 -0.00705361 -0.388658 0.114147 -0.171837 -0.121464 0.00157895 0.00157895 -0.00340326 0.173387 0.0814025 -0.444494 -0.548381 -0.419867 0.068208 0.100531 0.0267148 -0.570449 -1.34515 -1.37432 -0.518867 0.102635 0.790845 1.04458 0.786735 1.03693 -0.399142 -1.43164 -0.622499 -0.362487 -0.255757 0.171563 0.00123364 -0.0349182 0.00526316 0.0147368 -0.0129225 0.430189 -0.0867676 -0.417275 0.0619617 0.199724 0.084755 -0.000719372 -0.0230558 -0.408866 -1.05246 -1.48203 -0.985258 0.0240048 0.585144 1.16397 1.23437 0.930844 -0.449764 -1.50962 -0.938732 -0.283623 -0.225992 -0.198564 -0.100903 -0.00143429 0.000152922 0.000877193 -0.0355052 -0.0436571 -0.387602 -0.103506 0.583136 0.812553 0.587887 0.692684 0.455985 -0.336299 -1.34192 -1.6851 -1.53001 -0.0812806 0.149562 0.281419 0.801109 0.921787 -0.0783852 -1.2802 -0.735921 0.0323083 0.0721073 0.193577 0.01702 -0.0159534 0.000175439 0.0139967 -0.0400646 -0.653109 -0.437117 0.0773026 0.22777 0.331082 -0.0863536 0.16417 0.334198 -0.444134 -1.6087 -1.96174 -1.43808 0.481978 0.520448 0.180334 1.05382 1.11881 -0.0757899 -0.825358 -0.707898 -0.0683922 -0.017113 0.167934 -0.107416 -0.0281814 0.000679822 0.0084839 -0.0153688 -0.196829 0.065837 -0.124284 0.00206214 -0.0479255 -0.274493 0.281 0.495784 -0.293928 -1.02465 -1.4819 -0.763655 0.811615 0.443599 0.0972276 1.38561 0.910248 -0.0883276 -0.664263 -0.750308 -0.418357 -0.282087 0.124455 0.0770936 -0.0690923 0.0143494 0.00388776 0.101929 0.24739 0.572648 -0.170495 -0.0716115 0.462058 0.360401 0.660287 0.605747 -0.378334 -1.68129 -1.94955 -0.415783 1.41605 0.744773 0.113283 1.27099 0.708988 -0.309881 -0.476657 -0.530781 -0.820677 -0.351135 -0.0255114 0.0683893 -0.0387013 0.0139336 0.00767164 0.129999 0.195805 0.0620808 -0.692716 -0.42578 0.583349 0.310358 0.491177 0.0628644 -1.34858 -2.1643 -2.17843 -0.905616 1.12077 1.28802 0.475769 0.742214 0.600681 -0.41206 -0.629511 -0.882127 -0.646541 -0.677419 -0.398463 -0.0615488 -0.0362778 0.00902903 0.00143236 0.0119663 0.00829793 -0.370635 -0.552072 -0.434837 0.532163 0.599838 0.577881 0.437431 -0.604579 -1.55191 -2.3541 -1.08992 0.852215 1.55382 1.20825 1.32323 0.760898 -0.512961 -1.05358 -1.03013 -0.511046 -0.302445 -0.0861694 -0.0135237 -0.0540789 0.00859649 0.000175439 -0.032494 0.347598 0.487117 -0.210978 -0.174949 0.270216 0.957399 1.15686 1.0442 -0.36325 -2.11132 -2.69324 -1.44502 0.359163 1.25632 1.49523 1.75561 0.913785 -0.560692 -0.711061 -0.607243 -0.339578 -0.344789 -0.227401 0.120708 0.014218 0.000350877 0.00368421 -0.0439059 0.482891 1.12351 0.393541 -0.0339975 0.349931 1.29772 1.55184 0.630189 -0.7937 -2.15269 -2.68515 -1.50025 0.114491 0.992041 1.47861 1.48075 0.964431 -0.169871 -0.464798 -0.523822 -0.404307 -0.313234 0.066291 0.0798214 0.00255573 0.00929825 0.000345061 0.00446284 0.580805 1.21003 0.314374 -0.477083 -0.0333699 1.05343 1.34369 0.135694 -1.21402 -1.89732 -2.0177 -0.644893 0.274383 0.45604 0.682559 0.732645 0.422544 -0.26946 -0.0658902 0.0826989 0.0930239 0.0614933 0.19237 -0.0294655 0.0200483 0.00175439 0.00681223 0.0205921 0.161876 0.711472 0.423798 -0.249993 -0.152536 0.959123 0.980574 -0.117616 -1.48253 -1.93428 -1.47004 0.26255 0.501388 0.182395 0.0122887 0.368483 0.619065 0.373256 0.577575 0.555031 0.379942 0.477517 0.467579 0.195915 0.0280388 0.0045614 0.00131413 0.0398303 0.0896973 0.37602 0.588556 0.484317 -0.151576 0.21154 0.172413 -0.362617 -1.46628 -1.33801 -0.395283 0.588599 0.587076 0.265758 0.206797 0.107565 0.388293 0.538057 0.68776 0.544056 0.427771 0.543868 0.502101 0.270647 0.0367961 0.0103509 0.00110793 0.0087712 -0.0182375 0.540547 0.953891 0.786704 -0.132004 -0.162109 -0.213338 -0.696826 -1.06713 -0.82432 0.0554217 0.561036 0.163863 0.169141 0.204357 -0.308298 0.0273719 0.28315 0.661718 0.60183 0.376482 0.508567 0.47594 0.162537 0.014268 0.00175439 0.00937346 -0.0289333 -0.15597 -0.048971 0.129586 0.403966 0.0614937 -0.239304 -0.374827 -0.395212 -0.54033 -0.645487 -0.170472 0.112733 -0.154076 0.00644042 0.0560196 0.0242749 0.172482 0.239081 0.470985 0.279786 0.158254 0.281227 0.123194 0.0388604 0.016817 0.00964912 0.00473467 0.0110604 -0.000299696 -0.0318182 -0.0243909 0.0468441 0.0152394 0.0319124 0.0216927 -0.000190934 -0.0433308 -0.039124 -0.0154365 -0.0315223 -0.0404623 -0.00946865 0.0265837 0.0407669 0.0519952 0.00947058 0.0333529 -0.00833184 0.0109113 0.0326341 0.0123052 0.00130299 0.00806206 0.0168421 0.00192982 0.00438596 0.0115789 0.00484881 0.0176156 0.00786492 0.0141592 0.0101529 0.0127698 -0.00321053 5.07936e-05 0.014386 0.0127295 0.00945687 0.00787087 0.00986316 0.0157325 0.0153137 0.00684211 0.0077193 0.0077193 0.00629001 0.00496659 0.00561404 0.0138596 0.00473684 0.00263158 0.00614035 0.0103509 0.0157895 0.00842105 0.00771931 0.0126756 0.0300798 0.0257847 0.00303055 0.00723239 0.00972135 0.0102228 0.014381 0.0101709 0.017389 -0.00109463 0.00960538 0.0135844 0.0101452 0.00496841 0.0101418 0.000145715 -0.000500068 0.0162483 0.0168398 0.000700596 0.01 0.01 0.0115789 0.00263158 0.00932639 0.0044083 0.0195277 0.00465223 0.000459618 0.0384618 0.0188847 0.0488853 0.0411225 -0.0330767 0.00295463 0.0841392 0.086826 0.06347 0.0227077 0.0956491 0.0889665 0.0817282 0.030928 0.12282 0.127685 0.0167712 -0.0201871 0.0521376 0.0212831 0.0152407 0.00896727 0.00508772 0.018311 0.0319713 -0.0512411 -0.0290762 -0.0330897 0.065233 -0.00163785 0.0548057 -0.0374419 -0.140723 -0.0254089 0.163199 0.18921 0.155187 0.245944 0.674976 0.729687 0.442049 0.0958311 0.283925 0.402116 0.034855 -0.0709353 0.100178 0.0614358 0.0290084 0.00577447 0.00859649 -0.000789108 0.036315 -0.00663937 -0.0990989 -0.0768577 -0.141542 -0.031043 -0.0400084 -0.232563 -0.352793 -0.0719716 -0.100127 -0.0803657 0.0419313 0.3602 0.836572 0.715592 0.346795 0.110143 -0.0562993 -0.301526 -0.38011 -0.555579 -0.163693 0.0647877 0.0510134 0.011066 0.00649123 0.0070723 0.0766083 0.218011 0.0913781 0.0278052 -0.192367 -0.22476 -0.156574 -0.216617 -0.24938 0.0112332 0.140446 0.11077 -0.0900103 0.0965131 0.352657 0.130174 0.318177 0.21268 0.0451292 -0.10331 -0.224387 -0.523191 -0.385397 0.0773573 0.0576165 0.00414684 0.000175439 -0.0018657 0.0459235 0.252822 0.20205 0.282626 -0.00767555 -0.0396434 -0.122118 0.0683942 0.055623 0.177545 0.16454 0.0970824 0.0778129 -0.155978 -0.292487 -0.573272 -0.444363 -0.104099 0.0257062 0.203845 0.143839 -0.564508 -0.151164 0.377504 0.105004 0.00986122 0.0022807 0.00833216 0.173113 0.324492 0.317997 0.209579 0.131075 0.169399 -0.162821 -0.311692 -0.258886 -0.00373107 -0.005597 -0.254131 0.00519602 0.127426 -0.0151717 -0.462305 -0.456846 -0.0232176 0.520433 0.12057 -0.175435 -0.136976 0.308202 0.663466 0.143278 0.00368421 0.01 0.0191407 0.208493 0.488936 0.562988 0.321906 0.134519 0.120842 -0.505898 -0.246629 0.0269238 -0.170793 -0.0447836 -0.368034 -0.290375 -0.247313 0.043592 -0.155764 -0.0825931 0.153426 0.510695 0.12467 0.0166297 0.170477 0.414172 0.593556 0.129723 0.00982456 0.01 0.022735 0.050573 0.0907176 0.222919 0.119149 -0.46941 -0.377775 -0.581077 -0.614336 -0.309497 -0.403295 -0.14063 -0.282213 -0.185192 0.165064 -0.0419491 0.066427 0.0611371 -0.12684 -0.0490974 0.354786 0.302443 0.128713 0.0895435 0.395976 0.17325 0.0103215 0.0133333 0.058027 0.173516 0.10444 0.0722398 0.0414713 -0.315497 -0.532555 -0.500944 -0.332608 -0.124786 0.162522 0.39716 0.0374273 0.033498 0.157656 0.117637 0.32769 0.189725 0.135135 0.0438627 0.536967 0.510481 0.255138 -0.137122 0.308996 0.195244 0.0213677 0.00929825 0.140401 0.544716 0.276518 -0.103324 -0.231447 -0.0340966 -0.145531 -0.117743 -0.474405 -0.252569 -0.0821673 0.164402 -0.032262 0.0152305 -0.397761 -0.198749 0.105586 0.225337 0.349856 0.514002 0.687538 0.431128 -0.0649592 -0.334474 0.189796 0.0255667 0.00192982 0.0115789 0.0780353 0.551005 0.314072 -0.196797 -0.19991 -0.17426 -0.269615 -0.000269205 0.148746 -0.105031 -0.263616 -0.322734 -0.140969 -0.278527 0.0560683 0.259944 0.0885824 0.214573 0.250273 0.512834 0.645691 0.154305 -0.358027 -0.0969213 0.386742 0.134942 0.0147368 0.00701754 0.0963976 0.472589 0.428471 -0.241083 -0.16658 0.103161 0.223941 0.307554 0.0307717 -0.140877 -0.13437 -0.0336791 -0.368056 -0.463894 -0.197481 -0.445471 -0.095644 0.310207 0.149053 0.257061 0.249768 -0.0342282 -0.049449 0.06895 0.464834 0.176748 0.00501034 0.0126316 0.106193 0.470071 0.422968 -0.10302 -0.274809 0.151772 0.387417 0.597431 0.229896 -0.22625 -0.319234 -0.29936 -0.327753 -0.696776 -0.839126 -0.832077 0.138664 0.445986 0.548665 0.389198 0.00813109 -0.0030674 -0.260164 -0.371653 0.0310433 0.0762287 0.00263158 0.00756266 0.119296 0.580942 0.327301 -0.584204 -0.77531 0.0280535 0.181886 -0.225464 -0.169734 -0.374256 -0.612228 -0.722909 -0.86275 -1.2407 -0.72814 0.12609 0.814435 0.624601 0.242324 0.302815 0.173997 0.0795159 -0.209994 -0.399297 0.172648 0.0641878 0.00500895 0.00531941 0.227354 1.04611 0.634373 -0.092686 -0.227863 -0.149634 -0.117694 -0.280574 -0.251121 -0.315106 -0.922391 -0.753603 -0.493616 -0.518606 -0.0680659 0.536178 0.781119 0.427075 -0.131951 -0.0279114 0.350023 -0.0101963 -0.321937 -0.11385 0.533293 0.0952371 0.0135267 0.0131105 0.299691 1.30368 0.509651 -0.151579 -0.00272342 0.25053 0.260792 -0.031017 -0.0988728 -0.566836 -0.976749 -0.169488 -0.0370273 0.0262694 0.864598 1.39559 0.00520944 -1.1844 -1.03773 -0.610588 0.0302445 0.0968249 -0.0288981 0.384117 0.66767 0.0739861 0.0168501 0.0204297 0.274513 0.834893 0.077191 -0.456109 0.0153115 0.731368 0.447181 0.238596 -0.319924 -0.271679 -0.198872 0.635594 1.14305 1.69741 2.47501 1.71165 -0.467534 -1.98444 -1.64132 -0.745109 0.0625991 -0.22845 -0.000689864 0.591307 0.624993 0.100794 0.0172143 0.0133858 0.206999 0.879022 0.429348 0.433884 0.774151 0.749406 0.220881 0.383982 0.156589 0.0843894 -0.193589 0.352761 1.04939 2.53425 3.48988 1.95435 -0.589026 -1.75931 -1.30595 -0.615657 0.137473 -0.317981 -0.232672 0.448295 0.32249 0.0819896 0.0152632 0.0077193 0.196328 0.819572 0.646805 0.793089 0.568479 0.108628 0.0666765 0.411428 0.0167741 -0.0454597 -0.320386 -0.19365 1.08922 3.51242 3.94992 2.14085 -0.156908 -1.36693 -0.729601 -0.125858 0.0981 -0.186696 -0.331126 0.159381 0.00115446 0.0055179 0.00596491 0.0045614 0.147895 0.907459 1.18186 1.00966 0.248339 0.179601 0.39313 0.494686 0.175516 -0.0497301 -0.144023 -0.00375964 1.56777 3.56053 3.39352 1.44643 -0.17788 -0.664652 0.0226832 0.204607 0.0604386 0.137794 -0.232196 -0.0298891 0.0675548 0.0162609 0.00438596 0.00737556 0.0932823 0.717133 0.771292 0.735733 0.147576 0.0406135 0.196059 0.471269 0.217037 -0.124512 0.11447 0.373009 2.14055 3.47658 2.73446 1.07254 -0.550829 -0.329865 0.0156566 -0.0246452 0.106877 0.201666 0.151443 0.193919 0.0898702 0.0128464 0.00526316 0.0144226 0.125336 0.571542 0.435651 0.40702 -0.0320704 -0.0294028 0.218404 0.10247 -0.0790552 -0.321799 -0.147206 0.417042 2.03055 2.95821 2.11566 0.722927 -0.499152 -0.257455 -0.158783 -0.129909 0.207085 0.0618729 0.216396 0.144901 0.0938271 0.0200513 0.0161404 0.00716481 0.108743 0.574752 0.364395 0.141034 -0.0708692 0.118148 0.223115 0.0931003 0.0919575 -0.117969 0.262622 0.885191 1.93016 2.3754 1.67645 0.272582 -0.255201 -0.186281 -0.337827 -0.18317 -0.015299 -0.200773 -0.266493 -0.0737056 -0.026209 0.0211165 0.0133333 0.0122133 0.0587501 0.302011 0.284201 0.292135 0.428795 0.689391 0.374844 0.27741 0.164425 0.0959017 0.31211 0.743902 1.30595 1.64184 1.31074 0.374544 -0.0415426 -0.190567 -0.0335179 -0.024888 0.0163171 -0.239602 -0.337627 -0.155985 -0.0438548 0.00571709 0.00333333 0.00463274 0.0194701 0.101831 0.260361 0.569226 0.70531 0.702461 0.615535 0.475157 0.250622 0.153517 0.229553 0.383756 0.827998 0.948318 0.747921 0.46763 0.40075 0.178802 0.0496256 -0.0115944 -0.0629087 -0.193512 -0.000204076 0.0520852 0.00534159 0.00131667 0.0164912 0.0135287 0.00911723 0.0119847 0.0275815 0.0598302 0.186071 0.160077 0.171819 0.124655 0.0135175 0.00356264 0.00942542 0.00799645 0.0979683 0.137423 0.0991819 0.0885747 0.0262547 0.0395198 0.0424954 0.0119257 0.00956374 0.0184834 0.0085393 0.0213608 0.00266485 0.008212 0.00964912 0.015614 0.00631579 0.0140351 0.000820508 6.96386e-05 0.00243877 0.00860342 0.00214338 0.0185403 0.0129926 0.00510391 0.00508772 0.0144972 0.00434734 0.0117162 0.0068111 0.0120882 0.00342426 0.00122807 0.0022807 0.00964912 0.0128092 0.00912436 0.01 0.014386 0.00982456 0.00368421 0.00631579 0.00333333 0.015614 0.00982456 0.0124557 0.0136512 0.0116969 -0.0163948 -0.0329264 -0.0111131 -0.00397167 0.0120962 0.00317356 0.000921158 0.000333248 0.0136929 0.0113722 0.0109254 0.00550108 0.00777381 -0.023944 -0.0299948 -0.0199452 -0.000833097 0.0101931 0.00465794 0.0054386 0.0107018 0.0135088 0.00105263 0.00282908 0.0045427 0.0387038 0.013443 -0.0279596 -0.0284448 -0.0303728 0.021723 0.0122938 0.00933363 0.0229523 0.0184498 -0.00526336 -0.0313152 0.00459429 -0.00229271 -0.040758 -0.0727503 -0.0869077 -0.0222487 -0.00972123 -0.0588581 -0.0362338 0.00843325 0.0279565 0.00928723 0.0143856 0.0157895 0.00457037 0.0271183 0.0999152 0.0491786 -0.0276089 0.110236 -0.0159927 -0.117409 -0.203116 -0.256447 -0.154045 -0.22701 -0.292163 -0.263992 -0.295625 -0.205377 -0.405553 -0.544113 -0.369356 0.0865812 0.18124 -0.0588135 0.120744 0.221299 0.234234 0.0207508 0.00150593 0.00122807 0.012454 0.180784 0.237896 0.0475444 0.144641 0.461083 0.31592 -0.222045 -0.529797 -0.710998 -0.7954 -0.653171 -0.547549 -0.217668 -0.142 -0.242922 -0.678937 -0.931913 -0.613012 -0.203372 0.285701 0.337131 0.512724 0.361023 0.281799 0.0439756 0.0177158 0.0136842 0.0152269 0.217451 0.291227 0.149433 0.227615 0.433667 0.322904 0.0706308 -0.142758 -0.610638 -0.874635 -0.662553 -0.584303 -0.341748 -0.0690369 -0.17164 -0.540101 -0.685959 -0.432977 0.230984 0.423682 0.339841 0.342369 -0.00136446 0.141075 0.0420417 0.00932963 0.0045614 -0.0140462 0.139707 0.240922 0.178036 0.163153 0.179343 0.158299 -0.0610388 -0.252546 -0.273499 -0.490224 -0.380976 -0.573034 -0.451496 -0.232144 -0.253925 -0.485177 -0.587025 -0.0979891 0.157876 0.149108 -0.13368 -0.155817 -0.106075 0.00857414 0.0121631 0.00288986 0.0110526 -0.00509598 0.100286 0.0413935 -0.0398182 -0.234992 -0.127786 0.242847 0.278231 0.0922075 -0.0391788 -0.517579 -0.974612 -1.32313 -1.22671 -0.720639 -0.461396 -0.270878 0.200705 0.282579 -0.377026 -0.606273 -0.368257 -0.173076 -0.207409 0.0769058 0.0278951 0.012807 0.00350877 0.0184249 -0.0259608 0.21667 0.330871 0.19888 0.112291 0.0636574 0.0936394 0.118462 0.161837 -0.444061 -1.06605 -1.46788 -1.27697 -0.836567 -0.324605 -0.156276 0.419224 0.582467 0.106914 -0.0128906 -0.0857161 -0.296721 -0.197887 0.215186 0.0828019 0.00350877 0.00350877 0.0164892 -0.13616 0.234066 0.408186 0.532842 0.343351 -0.0367128 0.127021 0.24398 0.387718 0.0778649 -0.791245 -0.952882 -0.960824 -0.471159 -0.0374386 -0.253661 0.190397 0.12855 0.0491825 0.114361 0.141354 -0.189039 -0.0655385 0.177741 0.0371063 0.000265762 0.00824561 -0.0171617 -0.342812 -0.155213 0.111721 0.432862 0.0323856 -0.267521 -0.105296 0.0590642 0.651824 0.099155 -0.575108 -0.641169 -0.461479 0.064368 0.27148 -0.355513 -0.463614 -0.537294 -0.294513 -0.0315209 0.0117134 -0.0523302 -0.145437 0.126545 0.0595558 0.00698246 0.00315789 -0.0108418 -0.31477 -0.16325 0.00291676 -0.0882666 -0.0918032 -0.474479 -0.226923 -0.117886 0.421225 -0.0190434 -0.527652 -0.691244 -0.217504 0.0588498 0.209516 -0.402252 -0.669544 -0.116728 0.367618 0.331955 0.212771 0.00662438 -0.2028 -0.0168054 0.0553194 0.00245614 0.00403509 -0.0238844 -0.461083 -0.0305297 0.111188 -0.367811 -0.787282 -0.68294 -0.323712 -0.460875 -0.342827 -0.307938 -0.933482 -1.24652 -0.488868 -0.420704 -0.286203 -1.20021 -1.034 -0.304978 0.314123 0.234532 0.0847305 0.274717 0.293784 -0.00496888 0.0639048 0.00947368 0.0131579 -0.0288701 -0.460144 -0.044903 -0.143912 -0.649678 -0.024779 -0.00269746 -0.153142 -0.186591 -0.460715 -0.568991 -0.584526 -0.696245 -0.826423 -0.552387 -0.237975 -0.950684 -0.457295 -0.365582 0.145241 -0.0979609 -0.461735 0.117726 0.245075 -0.198369 0.00777139 0.00996875 0.00807018 0.0112162 -0.348786 -0.0412264 -0.264172 -0.385919 0.245262 0.518872 0.396681 0.732407 0.0975981 -0.623432 -0.584706 -0.912667 -1.01426 -0.517859 -0.508871 -1.25589 -0.800701 -0.991766 -0.9032 -0.589202 -0.296449 0.164491 0.138678 -0.292132 0.00973149 0.00947368 0.0168399 -0.0187402 -0.223934 -0.150792 -0.335095 -0.0859821 0.619101 0.450049 -0.00930815 0.182507 -0.019418 -0.0597349 -0.361134 -0.940634 -0.892288 -0.507415 -0.864377 -1.68695 -1.93011 -1.7315 -1.35755 -0.370393 -0.138562 -0.0917211 0.293587 0.198568 0.0692579 0.0124449 0.0170405 0.00230776 0.163157 0.0854715 -0.0317655 0.344404 0.716694 0.227963 -0.513976 -0.249029 -0.0726902 -0.0328582 -0.0390225 0.294497 0.446512 0.241075 -1.3039 -1.8072 -2.25741 -2.16585 -1.56281 -0.153585 0.340489 0.232715 0.637923 0.0831419 0.0664237 0.00701546 0.016853 0.0444406 0.160422 0.0405986 0.0358196 0.382541 0.585097 -0.48686 -0.700253 0.0713199 0.239542 0.224278 0.607246 0.8502 1.22548 0.909726 0.0905542 0.186479 -0.316546 -0.709947 -0.67573 0.467217 0.0267262 0.206246 0.629289 -0.254018 0.0327696 0.00761201 0.010341 0.0168269 -0.152705 -0.151565 -0.0114225 0.0681246 -0.125902 -1.01436 -0.589952 0.0722016 0.361892 0.809172 1.05332 0.910083 0.857926 1.81873 2.21805 2.53716 2.18033 1.31813 0.267721 -0.0186042 -0.444536 0.0433287 0.362972 0.0606166 0.00484844 0.00595348 0.0168088 0.024913 -0.234904 -0.144016 0.208656 0.387912 -0.0409059 -0.278368 0.0318352 0.158808 0.396177 0.670441 0.838653 0.595765 0.915341 1.66132 2.4582 2.83649 2.56002 1.62792 0.576406 0.348265 -0.454733 -0.315496 0.100519 0.00276146 0.0340994 0.0022807 0.0110526 0.0238913 -0.315438 -0.50444 -0.490965 -0.398105 0.0216146 0.5963 0.335826 -0.0814881 0.127152 0.468421 0.391563 0.24473 0.566565 1.23208 1.54483 1.73244 1.50919 1.39639 1.16061 0.878898 -0.0654182 -0.0147053 0.58003 0.195818 0.0584427 0.0117544 0.0112281 0.0109187 -0.372006 -0.670766 -0.690648 -0.647545 -0.0136026 0.480108 0.189607 -0.437823 -0.233212 0.129374 0.0872834 0.22671 0.421187 1.0042 1.03476 0.801315 0.555821 1.04844 1.3406 1.04095 0.383715 0.439002 0.4976 0.180151 0.0478431 0.00157895 0.00563016 -0.0326305 -0.679614 -0.652744 -0.341416 0.0142032 0.308474 0.446975 0.31842 0.0555245 0.0887687 0.287666 0.220011 0.468071 0.886398 1.27577 1.13145 0.604228 0.0286247 0.56331 0.979824 0.836967 0.561688 0.631632 0.177045 0.0404853 0.0288402 0.0108772 0.0120127 0.0037274 -0.532136 -0.630842 -0.192828 0.553355 0.743346 0.124496 0.084415 0.367916 0.216385 0.261031 0.433478 0.458816 1.02931 1.4802 1.3108 0.720933 0.429173 0.534911 0.687356 0.721455 0.462924 0.257437 -0.0841993 0.125036 0.024112 0.00333333 0.00486818 0.0168358 -0.0568424 0.0331927 0.0550784 0.231923 0.163859 -0.222101 -0.117711 0.136494 0.092883 0.134902 0.227194 0.391345 1.22267 1.8404 1.51669 0.901664 0.671045 0.676848 0.806215 0.679291 0.653151 0.142555 -0.12197 0.130923 0.0218775 0.00122807 0.00185138 0.0231607 -0.00641903 -0.201442 -0.382332 -0.499433 -0.335717 -0.381204 -0.414755 -0.678494 -0.678784 -0.391105 -0.0992714 0.385761 1.22759 1.51817 1.17618 0.795463 0.576436 0.623842 0.721563 0.478794 0.260007 -0.115968 -0.125542 0.110237 0.027247 0.0115789 0.0132874 0.00864478 0.0488221 -0.143206 -0.321417 -0.369879 -0.175275 -0.194414 -0.423807 -0.645744 -0.527584 -0.338736 -0.0992014 0.294674 0.479292 0.532897 0.421381 0.2619 0.329427 0.496876 0.491054 0.205749 -0.0236334 -0.198289 -0.131881 -0.0152097 0.0157573 0.0138596 0.00175402 0.0171469 0.0103276 -0.00903824 -0.00538974 -0.0109434 -0.00767989 -0.0194583 -0.0494614 -0.0388812 -0.0462835 -0.0137842 0.0175217 0.0666356 0.0415867 0.077226 0.026173 0.0138631 0.038561 0.0426527 0.0330687 0.00894254 0.0196408 -0.00655667 0.00813478 0.00866964 0.00378284 0.00701754 0.00631579 0.0107018 0.0157895 0.00151614 0.00102614 0.00692153 0.00546428 0.0121986 0.00877425 0.0160152 0.00634691 0.0140351 0.0119319 0.018146 0.0126632 0.00862216 0.0161466 0.00753654 0.0117544 0.0135088 0.00596491 0.00454415 0.0100148 0.0022807 0.00649123 0.00526316 0.00789474 0.00964912 0 0.0157895 0.0152632 0.0113873 0.00353715 -0.0296087 -0.0260406 -0.0376498 -0.0338602 -0.0171579 0.00676195 0.00051289 0.00448186 0.0110185 0.00623245 0.00983038 0.00883288 0.0105741 0.0116688 0.00694807 0.00966057 0.0081731 0.00507098 0.0007057 0.0173704 0.00245614 0.0045614 0.0136842 0.0131579 0.0135419 0.0056318 0.0175096 -0.010665 -0.036116 -0.0270063 -0.0204132 -0.022479 -0.0101967 -0.0187639 -0.00854489 -0.0167895 -0.0193464 -0.0353536 -0.0170663 -0.0118921 -0.0303704 -0.0314394 -0.0267973 0.0262672 0.0492793 0.0321381 0.0206823 -0.013183 0.00267907 0.0111792 0.0047331 0.0105263 0.0114907 0.02341 0.0401869 0.000354906 -0.151212 -0.202369 -0.129006 -0.156269 -0.151657 -0.114293 -0.145153 -0.343433 -0.35432 -0.296422 -0.168835 -0.101317 -0.150757 -0.348605 -0.271103 -0.100833 -0.0850457 0.0610281 0.107876 -0.0567093 -0.0980343 0.0133966 -0.00075681 0.0170175 0.0253167 0.103176 0.195759 0.045697 -0.167956 -0.201312 -0.169374 -0.206459 -0.306228 -0.391142 -0.592808 -0.671266 -0.523618 -0.352395 -0.300041 -0.0947455 -0.0853664 -0.0439338 -0.174374 -0.372373 -0.207947 0.0413763 -0.132532 -0.261699 -0.135464 0.0178231 0.0160099 0.0166667 0.0157531 0.133967 0.330321 0.207947 -0.206474 -0.225868 -0.123472 -0.31696 -0.437415 -0.607966 -0.812066 -0.762781 -0.639418 -0.250803 -0.0920901 0.115376 0.214208 0.0118866 -0.170004 0.00151402 0.110088 0.201611 0.112684 -0.0619822 -0.18995 -0.0111983 0.00454273 0 0.0163404 0.252634 0.626459 0.387424 -0.224849 -0.351329 -0.31058 -0.445519 -0.682691 -0.762185 -0.815476 -0.747842 -0.593222 -0.0805264 0.178572 0.401783 0.147037 -0.149305 -0.232798 0.0282255 0.255298 0.215467 0.157174 0.0161948 -0.11523 -0.0225352 0.0108594 0.0115789 0.0247205 0.369481 0.816629 0.643801 0.212022 -0.197602 -0.501986 -0.667884 -1.02718 -1.05572 -1.08892 -0.80286 -0.477676 0.234437 0.390711 0.393043 0.0621787 -0.340998 -0.360775 -0.016149 0.293161 -0.0875653 -0.187791 -0.320604 -0.0160632 -0.0142376 0.0105263 0.0136842 -0.00324721 0.287093 0.908594 0.871571 0.388212 -0.0450696 -0.20357 -0.28442 -0.98061 -1.27361 -1.43994 -1.08317 -0.337928 0.219918 0.273203 0.265629 -0.0201685 -0.189933 -0.134407 -0.0145012 0.190963 -0.114058 -0.258815 -0.68762 -0.345339 -0.0213156 0.00333333 0.0077193 -0.00543495 0.190472 0.824175 0.884725 0.438548 -0.0819845 -0.111197 -0.454378 -1.12138 -1.35593 -1.38701 -0.805235 -0.311937 -0.183039 -0.0947457 0.211724 0.305328 0.135976 0.0941156 -0.330313 0.104608 0.219971 0.115596 -0.501399 -0.509503 -0.0798026 0.0070301 0.00105263 0.0210098 0.294283 0.816117 0.739226 0.216402 0.152552 0.185994 -0.523455 -0.934869 -1.28067 -1.31505 -1.10209 -0.865343 -0.754921 -0.664878 -0.415028 -0.188849 -0.0627244 -0.0742161 0.0093283 0.437712 0.240802 -0.0342368 -0.185729 -0.128482 -0.0363628 0.0127925 0.00596491 -0.00796176 0.162449 0.60893 0.283319 0.259857 0.817794 0.80104 0.338728 -0.149913 -0.808021 -1.04949 -1.10125 -0.965727 -0.780242 -0.485683 0.14496 0.295646 0.100107 0.0678686 0.22186 0.832503 0.917433 0.692911 0.231025 0.0938761 0.00781749 0.015614 0.00140351 -0.0169859 -0.0127283 0.214605 0.351789 0.430876 1.03624 1.26645 0.75394 -0.201624 -0.829337 -0.771361 -0.897545 -1.12374 -0.7161 -0.574241 -0.459601 -0.0217819 0.0622143 -0.0646764 0.133277 0.301362 0.593836 0.999655 0.445865 0.109579 0.0669735 0.0112281 0.0166667 -0.0557163 -0.0681712 -0.139168 0.535318 0.667076 1.1041 0.858616 0.972944 0.466979 -0.431959 -0.965349 -1.02509 -0.764422 -0.582266 -0.665489 -1.1919 -1.09418 -0.783276 -0.50595 -0.24182 0.401401 0.516774 0.894876 0.341077 -0.086069 0.00259294 0.00349448 0.00157895 -0.0620279 -0.304202 -0.0596405 0.755568 0.544429 0.743049 0.964488 1.35966 0.556372 -0.201552 -0.541172 -0.706874 -0.698629 -0.863378 -0.755911 -1.00049 -1.01035 -1.26185 -1.11125 -0.302543 0.280389 0.39848 0.544201 0.323235 -0.0254373 0.0461831 0.00210526 0.0123139 -0.0722056 -0.241401 0.14327 0.736983 0.263606 0.443085 0.662474 1.31598 0.424639 -0.0395312 0.058087 0.154997 0.0574748 -0.169164 -0.485186 -0.951756 -1.02307 -1.21031 -0.82689 0.0920643 0.487748 0.251902 -0.100344 0.277444 0.318934 0.0821693 0.000521411 0.00178716 -0.0980049 -0.0907181 0.427438 0.467747 -0.0197869 0.535823 1.17619 1.53516 0.655177 0.00236179 0.0790688 0.328189 0.2565 -0.125531 -0.551627 -0.757161 -1.04885 -1.02258 -0.148688 0.640498 0.727545 -0.103193 -0.4549 0.0407487 0.180654 0.0759293 0.00880351 0.00855303 -0.165908 -0.212438 0.164076 0.0375531 -0.0491357 0.912596 1.63452 1.52664 0.722117 -0.0675975 0.13869 0.223672 0.149321 -0.37305 -0.45231 -0.611499 -0.917709 -0.769898 0.244775 0.881442 0.673914 0.0128448 -0.242555 0.0909184 0.282212 0.0617998 0.0149355 0.00884629 -0.132179 -0.321835 0.0685538 -0.268479 -0.0546405 0.474066 1.31505 1.16761 0.436915 -0.102495 -0.259368 -0.203103 -0.262134 -0.448309 -0.428742 -0.355411 -0.949724 -0.968371 -0.0248306 0.533658 0.37455 0.0109634 -0.0892499 0.237449 0.311525 0.0525316 0.0125576 0.010926 -0.046198 -0.176843 0.219049 -0.209216 -0.236362 0.338892 0.861483 0.457056 -0.191681 -0.617347 -0.641816 -0.367115 -0.235476 -0.186911 -0.289748 -0.565266 -1.00755 -0.568411 0.274779 0.576627 0.14018 0.0272765 -0.173087 0.366416 0.331626 0.0265011 0.00578947 0.00807018 -0.0328419 -0.21432 -0.0747588 -0.259689 -0.109259 0.600196 0.786406 0.179362 -0.355179 -0.637803 -0.401391 -0.212574 -0.117988 -0.224464 -0.36857 -0.153662 -0.329784 0.00899852 0.697946 0.705785 0.292038 -0.00444951 -0.114118 0.275904 0.00767437 0.00304904 0.00596491 0.00684211 -0.0135449 -0.274669 -0.541618 -0.51128 0.123575 0.635806 0.641381 0.24984 -0.0237397 -0.411277 -0.36968 -0.270796 -0.33442 -0.364899 -0.17908 -0.0632528 0.0348968 0.292991 0.503387 0.506195 0.20588 0.0988028 0.147287 0.339068 -0.0558143 -0.00344139 0.0161404 0.00140004 0.0137285 -0.0258338 0.027087 -0.00165115 0.204122 0.496648 0.570286 0.18165 -0.179134 -0.62339 -0.736985 -0.518917 -0.379972 -0.412884 -0.414303 -0.29566 -0.244536 -0.12471 0.259248 0.618232 0.424332 0.218455 0.23556 0.386263 -0.111706 -0.0260858 0.00982456 0.0013857 -0.00897071 0.121896 0.414246 0.416453 0.494077 0.587786 0.245005 -0.134457 -0.615201 -0.82564 -0.537124 -0.10693 -0.171675 -0.258709 -0.346006 -0.295545 -0.301626 -0.233738 0.0633456 0.329575 0.289569 0.242121 0.333441 0.201911 -0.160443 0.00159931 0.00403509 0.00831485 -0.0222244 0.14411 0.335304 0.232492 0.218841 0.0161481 -0.467827 -0.901976 -0.894922 -0.566845 -0.0512031 0.235469 0.115675 -0.0199464 -0.184992 -0.24878 -0.184281 -0.306887 -0.109405 0.0107818 -0.0857826 0.0484431 0.170834 0.0767912 -0.104718 0.00660359 0.0022807 -0.000462132 -0.00134036 -0.0142324 -0.031476 -0.129329 -0.0177333 -0.234439 -0.453379 -0.578223 -0.528736 -0.241869 -0.0858432 0.0847688 0.102743 -0.0272345 -0.323688 -0.628583 -0.66227 -0.634823 -0.300901 -0.215784 -0.355235 -0.127094 0.04692 -0.0011599 -0.0600465 -0.00238355 0.015614 0.0139101 0.0253538 0.0374758 0.108204 0.0311582 -0.124177 -0.158388 -0.274637 -0.208222 -0.195225 -0.103073 -0.076044 0.0224038 -0.10775 -0.210669 -0.340915 -0.507259 -0.389676 -0.259573 -0.143315 -0.0994284 -0.0789385 0.000567463 0.00883333 -0.00176777 -0.000347427 0.00109552 0.0133333 0.00297871 0.0127215 0.0112595 0.00921981 -0.00260657 -0.0357784 -0.0323799 -0.056943 -0.0439842 -0.0130931 0.0103273 0.00357435 0.0300186 -0.0215688 -0.0354576 -0.0142606 -0.0181893 -0.00831216 -0.00866556 -0.0230753 -0.0102913 -0.0152277 -0.0326293 -0.0236799 -0.0149202 5.24833e-05 0.0109089 0.0121053 0.0149123 0.00631579 0.0114035 0.0103082 0.00527887 0.00722744 0.00675978 0.0159439 0.00933965 0.00569937 0.00436118 0.0115789 -3.96473e-06 0.00365079 0.0125972 0.00924935 0.00595302 0.00982879 0.0077193 0.00333333 0.000526316 0.00248676 0.00508262 0.00526316 0.00754386 0.0170175 0.0108772 0.00368421 0.000877193 0.0108772 0.00350877 0.0119101 0.0088014 0.0188623 0.0205265 0.0467403 0.0464719 0.0347572 0.0146722 0.0134767 0.0133991 0.00295856 0.0123797 0.0203161 -0.00827824 -0.00556064 -0.000786687 0.00647651 -0.00118547 0.0206694 0.0132065 0.0167022 0.0108949 0.00175439 0.0133333 0.0131579 0.0131579 0.0139776 0.00918262 0.0210912 -0.010392 -0.00567496 -0.109045 -0.111455 -0.0609118 0.0200756 0.050418 0.0374806 -0.0558077 -0.0138187 -0.0888247 -0.0862131 -0.0456751 -0.0601081 -0.0337531 -0.0399696 -0.0442537 0.0383262 0.0388892 -0.0260604 -0.0258854 -0.00379594 -0.00065275 0.0142018 0.01 0.0137723 -0.0126624 -0.0313711 -0.143804 -0.30451 -0.393496 -0.307712 -0.415375 -0.28855 0.0581667 0.11283 -0.24825 -0.212358 -0.161187 -0.138676 -0.273494 -0.310288 -0.253985 -0.237712 -0.322374 -0.334185 -0.310735 -0.429262 -0.226072 -0.0636831 0.0126402 0.00122061 0.0149123 0.0108972 -0.0676236 -0.131575 -0.135357 -0.135629 -0.189419 -0.249062 -0.178784 0.266813 0.538312 0.485564 0.134474 -0.122241 -0.191367 -0.231009 -0.189493 -0.148228 -0.195803 -0.592558 -0.767423 -0.897316 -0.943088 -0.875766 -0.437361 -0.153706 0.00265611 0.00634765 0.0147368 0.0210865 -0.0610599 -0.074956 0.0113626 0.155535 0.392567 -0.162294 -0.0654674 0.296274 0.5141 0.555328 0.445582 0.06952 -0.23852 -0.467878 -0.688069 -0.668866 -0.79334 -1.05942 -1.1705 -1.14538 -1.1269 -0.884966 -0.586873 -0.242434 0.00121992 0.0101282 0.00631579 0.0235847 -0.0441461 -0.0729975 -0.185082 -0.159149 0.0412037 -0.384746 -0.0391652 0.372327 0.461048 0.339889 0.148655 -0.132832 -0.154192 -0.502872 -0.960439 -1.48471 -1.71209 -1.53266 -1.25694 -1.13655 -1.01961 -0.771766 -0.458467 -0.204976 0.00101436 0.00718276 0.0129825 0.0147681 0.0694754 0.0542311 -0.0606973 -0.0539649 0.0623274 -0.275166 0.0497956 0.455017 0.324553 0.129784 -0.0715283 -0.305749 -0.303582 -0.494934 -1.10091 -2.10705 -2.12602 -1.83828 -1.64834 -1.36129 -0.969168 -0.684296 -0.396485 -0.0558184 0.00366303 0.00421053 0.00719298 -0.00937321 0.0636206 -0.0699822 -0.0227499 -0.249612 -0.561608 -0.476053 -0.161559 -0.0115575 0.233642 0.140969 0.0720598 0.17383 0.238796 -0.0758014 -0.716759 -1.54755 -1.85897 -1.83327 -1.75911 -1.26332 -0.704829 -0.65796 -0.492116 -0.0534519 0.0137972 0.000877193 0.00526316 -0.0349462 0.136864 -0.136636 -0.287172 -0.47498 -0.654983 -0.550966 -0.662997 -0.335382 0.0521006 -0.0345009 -0.254071 -0.144428 0.144712 0.0839786 -0.315023 -0.84899 -1.49097 -1.98054 -1.74351 -0.976932 -0.328372 -0.215814 -0.208944 -0.354312 -0.0456769 0.00301803 0.00719298 -0.00997751 0.154393 -0.0767813 -0.41241 -0.229935 -0.159828 -0.574147 -0.626601 -0.0727525 0.112332 0.119432 -0.723321 -0.657336 0.0846266 0.00793085 -0.151688 -0.595623 -1.28812 -1.75332 -1.35967 -0.563178 -0.0829288 0.111716 0.144615 -0.340717 -0.129726 0.0047235 0.0124561 -0.0203988 -0.325908 -0.562591 -0.558176 -0.121734 -0.0699612 -0.654612 -0.414694 0.14098 -0.0330177 -0.0150714 -0.391686 -0.523333 -0.0986515 -0.132637 0.0725644 -0.519137 -1.10539 -1.14818 -0.526194 -0.277499 0.000541432 -0.0439897 0.074369 -0.127588 -0.146447 0.00280702 0.0119298 -0.0890384 -0.705969 -0.673889 -0.439701 -0.296973 -0.392527 -0.760769 -0.540114 0.146606 0.0265899 0.0107185 -0.305491 -0.463811 -0.00784163 0.155121 -0.195077 -0.743112 -0.191905 -0.0669826 -0.194545 -0.390013 0.0308106 0.423225 0.333483 0.0276585 -0.0676232 0.0152632 0.00912281 -0.105053 -0.833891 -1.02107 -0.716116 -0.69052 -1.29271 -1.40411 -1.09523 -0.787087 -0.318731 -0.471868 -0.671936 -0.712041 -0.456602 -0.620311 -0.958631 -0.566425 -0.139672 -0.0012979 -0.303099 -0.0985055 0.287038 0.584092 0.442159 0.0221085 -0.0409037 0.0113722 0.00754386 -0.114086 -0.88707 -1.51865 -1.28938 -1.12753 -1.61 -1.38133 -1.26112 -1.26113 -1.10356 -1.12972 -1.4547 -1.03131 -1.32214 -1.32823 -0.980876 -0.299614 -0.0730132 -0.36686 -0.264094 0.488352 0.79217 0.744716 0.496841 0.0938951 -0.0541598 0.01 0.0029869 -0.166751 -0.998363 -1.65338 -1.06943 -0.759847 -1.1428 -1.01518 -1.3697 -1.20093 -1.01963 -1.32765 -1.4481 -1.01558 -0.815514 -0.0550207 0.10642 -0.184078 0.33579 0.553915 0.785555 0.851762 0.990491 0.278943 0.378919 0.208661 0.00417271 0.0033562 0.00852631 -0.143898 -0.604796 -0.893329 -0.288767 0.221424 0.280534 -0.0901144 -0.716964 -0.27532 -0.011785 -0.762268 -0.21697 -0.105937 0.682376 1.19063 0.992022 0.537824 0.599377 0.656077 0.469349 0.712748 0.361193 -0.504183 0.259814 0.673686 0.0871885 0.0108814 0.00450562 -0.133014 -0.403011 -0.627118 -0.434327 -0.168542 0.0832344 -0.0813834 -0.171234 0.663968 0.878735 0.274305 0.444116 0.610971 1.41912 1.15864 0.351054 0.0986438 0.508177 0.637325 0.536416 -0.004549 -0.255312 -0.224504 0.498886 0.593673 0.057951 0.00828106 0.0014506 -0.0866795 -0.488297 -0.625083 -0.461233 -0.314667 0.0255569 0.41792 0.53864 0.845606 0.830324 0.338761 0.429681 0.386513 0.536636 0.208058 -0.0924949 -0.0144939 0.686971 0.608592 0.211173 0.0778261 0.155149 0.156438 0.350463 0.256046 0.0894518 0.00478009 0.00359821 -0.102396 -0.101215 -0.261383 -0.22821 -0.404126 -0.335609 0.351015 0.707239 0.583445 0.660992 0.659001 0.643671 0.534168 0.830701 0.558034 0.257067 0.296764 0.404989 0.713993 0.390382 0.149219 -0.136232 -0.179237 0.515106 0.40833 -0.00526178 0.00877193 0.0133333 -0.0677094 -0.00493533 0.0411248 -0.0942112 0.049902 -0.229358 0.222983 0.516213 0.275976 -0.30491 0.123173 0.816063 0.629464 0.668679 0.504962 0.0529841 0.0288537 0.0152239 0.350199 0.158105 -0.234236 -0.842521 -0.783836 -0.408813 -0.0885928 -0.0235015 0.0122807 0.000526316 -0.043709 -0.203345 -0.120956 -0.214323 -0.112973 -0.0715027 -0.136483 0.0376024 -0.428357 -0.368174 0.0186858 0.860449 1.16736 0.954886 0.706425 0.204012 -0.297946 -0.189888 -0.142353 -0.503548 -0.495848 -0.710799 -0.564819 -0.523525 -0.293658 -0.0224292 0.00631579 0.0122787 -0.00527572 -0.0172529 0.570066 0.598752 0.170988 0.0974214 -0.172923 -0.0992775 -0.217597 -0.2659 -0.0376612 0.426471 0.656176 0.688809 0.49243 -0.246433 -0.443354 -0.473752 0.122879 -0.123019 -0.538514 -0.474784 -0.202002 0.0719395 -0.0357009 -0.0422119 0.00298246 0.0117442 -0.0895851 -0.297198 0.703985 1.11083 0.562104 0.506716 0.563816 0.000275687 -0.0954438 -0.0821252 0.0863896 0.214336 0.31946 0.634305 0.63042 0.140003 -0.320811 -0.39237 -0.0209636 -0.27339 -0.640154 -0.631537 -0.0337052 0.441743 0.0657071 -0.00486821 0.00368421 0.00753241 -0.10508 -0.187706 0.52309 1.0168 0.561384 0.357011 0.515248 0.189998 0.23728 0.166606 0.334271 0.492993 0.398373 0.612578 0.438657 0.00257979 -0.143694 -0.123961 0.124848 -0.268661 -0.622976 -0.661866 -0.248807 0.18149 0.0221707 0.0300489 0.0159649 0.0038968 -0.0172722 -0.10899 0.152378 0.441553 0.227184 0.16227 0.167554 0.0926307 0.18336 0.133814 0.187772 0.0901111 -0.0226682 0.0275528 -0.0995769 -0.393025 -0.202707 -0.221438 -0.177026 -0.323189 -0.437574 -0.38843 -0.178866 -0.0656212 -0.0581109 -0.000390938 0.00350877 0.015559 0.0555998 0.0938646 -0.0107237 -0.0524679 0.0221907 -0.11411 -0.258638 -0.145268 0.000906767 0.13972 0.0285821 -0.220896 -0.315742 -0.204901 -0.325289 -0.317027 -0.348385 -0.301622 -0.300453 -0.182557 -0.129608 -0.203093 -0.178253 -0.0866892 0.00751797 0.00662219 0.0054386 0.00876321 0.0210609 0.0136194 0.00641372 0.0306517 -0.0167514 0.00433555 -0.0489316 -0.0421279 -0.0282733 0.0204583 0.00371429 -0.00582108 -0.0912295 -0.0962107 -0.00191923 -0.00933529 -0.0422736 -0.0212334 -0.0225172 -0.00993043 0.0159717 -0.015495 -0.0288834 0.000679857 0.00686288 0.00272313 0.0119298 0.00631579 0.0150877 0.00508772 0.00965148 0.00449273 0.00400513 0.0066887 0.00932278 0.0086272 0.00639145 0.0119613 0.00929825 0.00561444 0.00861674 0.00984391 0.00228571 0.00333455 0.00614101 0.00192982 0.00333333 0.00649123 0.0106136 0.0117481 0.00175439 0.0022807 0.0154386 0.0119298 0.00105263 0.0163158 0.00263158 0.00385965 0.0101727 0.00859113 -0.00116528 -0.0125388 -0.00594623 -0.000290136 -0.00454011 -0.0018961 0.012757 0.0103067 0.0162007 0.00691453 0.00993391 0.0544406 0.075944 0.0228967 0.0127356 0.00853126 0.00626713 0.0162451 0.00451574 0.0154158 0.00157895 0.0173684 0.000175439 0.000526316 0.00458491 0.00083348 -0.000693631 0.0131923 0.00998984 0.0267571 -0.00941378 -0.011053 -0.0942912 -0.130094 -0.0463365 0.0348512 -0.0136342 0.00917383 0.0433354 0.072169 0.0420653 0.045515 0.0172686 0.105529 0.0316054 0.0611495 0.00620016 -0.00131453 0.0137962 0.00710488 0.00190408 0.01 0.0129052 0.000629099 0.00422106 0.0193988 0.0212333 0.0154277 -0.157194 -0.250146 -0.204488 -0.143438 -0.083189 -0.0212054 -0.13782 -0.343149 -0.338465 -0.32183 -0.194929 0.0828013 0.304492 0.329806 0.183153 0.251984 0.142331 0.076274 0.0698427 0.00921259 -0.00169221 0.00859649 -0.000460741 -0.0460071 -0.107901 -0.100989 -0.0706078 -0.157563 -0.353122 -0.42324 -0.129407 -0.0577932 -0.130339 -0.350616 -0.419591 -0.491185 -0.508356 -0.365292 -0.0848256 -0.0532518 0.0907152 -0.000669034 -0.0965997 -0.00357841 0.0344386 -0.0910947 0.0404662 0.0157671 0.011249 0.00982456 -0.00392841 -0.0493439 -0.174191 -0.180719 -0.292887 -0.444184 -0.553855 -0.500552 -0.290595 -0.163089 -0.354175 -0.558991 -0.647378 -0.569781 -0.463564 -0.131387 -0.153291 -0.532499 -0.413763 -0.411349 -0.288869 -0.204149 -0.128542 -0.0797557 -0.0500847 0.0112739 0.00268944 0.00175439 0.00467698 -0.065107 -0.170527 -0.262341 -0.42333 -0.676914 -0.760596 -0.862148 -0.752646 -0.651749 -0.742727 -0.726579 -0.314206 -0.472926 -0.505694 -0.166619 -0.40025 -0.669138 -0.772236 -0.429154 -0.285051 -0.427859 -0.293119 -0.234692 -0.101146 -0.00548537 0.010694 0.00807018 -0.0020286 -0.109323 -0.244299 -0.363662 -0.47034 -0.546228 -0.796215 -1.02326 -0.75442 -0.629846 -0.481542 -0.238512 0.010439 0.14269 -0.17703 -0.218247 -0.161084 -0.236013 -0.438762 -0.58522 -0.733925 -0.602696 -0.412377 -0.282915 -0.0279333 0.00986088 0.00105263 0.00385965 -0.00520578 -0.107961 -0.246849 -0.334976 -0.434098 -0.320752 -0.446082 -0.559653 -0.569523 -0.493398 -0.534071 -0.189892 0.30243 0.271165 -0.0483885 0.0118855 -0.186757 -0.65214 -0.449231 -0.614125 -0.554324 -0.467469 -0.284846 -0.187134 -0.000563112 0.00999453 0.0142105 0.00368421 0.00100124 -0.0870909 -0.202405 -0.165678 -0.259835 -0.262479 -0.260699 -0.302914 -0.205467 -0.0580704 0.120559 0.314565 0.368745 0.0992368 -0.287524 -0.494656 -0.683642 -0.647689 -0.519663 -0.512652 -0.26387 -0.160724 -0.104565 -0.0425524 0.00471833 0.00554742 0.00281123 0.0110526 0.00500256 -0.0438138 -0.201626 -0.1742 -0.160099 -0.26781 -0.0366394 -0.0690435 0.116822 0.170549 0.475689 0.573535 0.528625 0.164033 -0.289847 -0.666179 -0.64746 -0.627973 -0.244042 0.0577246 0.0902356 -0.0154554 -0.0640597 -0.144608 -0.109185 0.00314844 0.0166572 0.0154386 0.000949237 -0.0575803 -0.20479 -0.254873 -0.146725 -0.113682 -0.0906673 -0.168993 -0.11646 0.0587688 0.366507 0.461735 0.432389 0.040771 -0.501413 -0.556266 -0.178848 -0.0709711 0.592418 0.710972 0.279875 0.0801471 -0.00422742 -0.226446 -0.142658 0.0094043 0.00684211 0.000877193 0.00066098 -0.0946219 -0.198158 -0.24297 -0.0964197 -0.0614195 -0.13977 -0.0501723 0.0832738 0.289868 0.393975 0.186938 0.0912026 -0.346826 -0.374881 -0.094076 0.386628 0.425714 0.878084 0.971255 0.505867 0.0517057 0.0163957 -0.231613 -0.1656 -0.000728658 0.0133333 0.0122807 0.000882974 -0.102118 -0.217168 -0.145111 0.0021022 0.00783993 0.0355126 0.265175 0.22662 0.112202 -0.00309658 -0.30121 -0.562508 -0.443905 0.0696549 0.106509 0.336136 0.410832 0.567661 0.579893 0.299488 -0.100776 -0.0160143 -0.0977309 -0.147847 0.000293343 0.00687841 0.0138596 0.00885062 -0.071996 -0.294316 -0.371435 -0.318638 -0.0493506 0.0271086 -0.110593 -0.534838 -0.427389 -0.1218 -0.51817 -0.454016 0.058519 0.150005 0.042819 0.187904 0.177141 0.0843191 0.105718 -0.22603 -0.41098 -0.191538 -0.150282 -0.188894 0.00108491 0.0131579 0.00245834 -0.00267192 -0.0557105 -0.169968 -0.272258 -0.303815 -0.23477 -0.0937782 -0.0945211 -0.501261 -0.418273 -0.331446 -0.415647 -0.16757 0.305433 0.135231 0.229202 -0.00773881 -0.0903241 -0.246414 -0.369094 -0.708513 -0.540141 -0.307235 -0.190702 -0.165125 0.00416355 0.00211655 0.0164507 -0.00720452 -0.0833423 -0.17539 -0.30565 -0.279876 -0.31775 -0.192268 -0.228701 -0.279666 -0.476325 -0.073471 0.204645 0.483875 0.836264 0.460432 0.547641 0.397423 0.16424 -0.450439 -0.902381 -0.932403 -0.718798 -0.529412 -0.454793 -0.165009 0.00487486 0.00930034 0.00156015 -0.0016179 -0.119091 -0.318459 -0.469897 -0.351619 -0.395025 -0.393743 -0.526421 -0.44602 -0.362739 0.272558 1.02043 1.17393 0.934283 0.348731 0.648614 0.182025 -0.292599 -0.746575 -1.06715 -0.987385 -0.688036 -0.626424 -0.556321 -0.135637 0.0223921 0.00930181 0.00579211 -0.00972196 -0.162899 -0.388353 -0.453775 -0.479922 -0.578501 -0.674847 -0.628279 -0.181245 0.272641 0.97901 1.39928 1.21664 0.562068 0.163055 -0.0701564 -0.602834 -0.805456 -0.574607 -0.376544 -0.0824726 -0.0170984 -0.242652 -0.201646 -0.0528175 0.0079466 0.00194114 0.0134898 -0.0121343 -0.105942 -0.261455 -0.40557 -0.568044 -0.59254 -0.784594 -0.590788 -0.0624933 0.509968 1.03418 1.09974 0.335315 -0.151881 -0.164013 -0.500125 -0.74017 -0.522046 -0.529425 0.00973572 0.340986 0.190274 0.0868262 0.0737611 0.036765 0.00616205 0.0054386 0.000701754 -0.0117182 -0.0673082 -0.214865 -0.482304 -0.5975 -0.601292 -0.759854 -0.363185 -0.17735 0.418811 0.487769 0.0203772 -0.405954 -0.260682 0.112569 0.292908 -0.119688 -0.312981 -0.446099 -0.345883 0.138374 0.22628 0.110174 -0.0487028 -0.0219319 0.000825212 0.0136842 0.0138596 -0.00771817 -0.155689 -0.330512 -0.676245 -0.817384 -0.663102 -0.528669 -0.346519 -0.0276225 0.249112 -0.259517 -0.588824 -0.160888 0.364177 0.718683 0.748749 0.307624 0.162033 -0.19725 -0.282732 0.0149139 0.196751 0.0696812 -0.11744 -0.0341177 0.00517336 0.00508772 0.00122656 -0.0121152 -0.185736 -0.506232 -0.620129 -0.745213 -0.539184 -0.470992 -0.35088 0.0661001 -0.131022 -0.471337 -0.0904203 0.183579 0.77945 0.701106 0.691825 0.353118 0.297735 -0.170458 -0.293474 -0.114755 -0.00435661 -0.0813063 -0.103314 -0.0170701 0.0023599 0.00789474 0.0024484 0.00950575 -0.00811335 -0.276057 -0.492469 -0.51884 -0.138556 -0.126681 -0.0454895 -0.246055 -0.244965 -0.0312718 0.716306 0.745101 0.719447 0.516121 0.413719 0.394161 0.385126 -0.170023 -0.310578 -0.173639 0.146765 -0.00752318 -0.118461 -0.044563 -0.00135705 0.0103509 0.00703425 -0.00416915 0.0333729 -0.0765452 -0.28247 -0.130636 0.189221 0.319632 0.477385 0.312002 0.155709 0.486125 0.475816 0.359558 0.239924 0.275048 0.167498 0.370349 0.482118 0.110142 -0.0657679 0.0274041 0.135129 0.0948354 0.0492188 0.0680848 0.0138897 0.00298246 -0.00102579 0.00126184 0.00230781 0.00161875 -0.00616068 0.142343 0.525867 0.739809 0.768976 0.793628 0.58695 0.275532 0.142896 0.0415553 0.317803 0.531101 0.463739 0.377969 0.403087 0.301442 -0.0168368 0.0754883 0.128049 0.12001 0.0849668 0.0891788 0.00833895 0.00631579 -0.00204185 0.00362243 0.0452558 0.00398692 0.129684 0.264855 0.649235 0.902585 0.412741 0.0271227 0.0402048 0.104143 0.198183 0.179106 0.296447 0.254585 0.13511 0.26916 0.217273 0.135126 -0.0378225 0.0768097 0.0779211 0.0694702 0.0668825 0.0348352 0.0152518 0.0103509 0.0129567 0.00693778 0.000675304 0.00863056 0.0213497 0.0526098 0.123139 0.175544 -0.0225529 -0.108833 0.041731 0.0595561 -0.0140625 0.0506374 0.0540595 -0.0430708 -0.0206932 0.0160922 0.0188508 0.00138374 0.00603739 0.0145358 0.0170067 0.0208182 0.0216841 0.00403397 0.0159366 0.00789474 0.0161404 0.000526316 0.0122807 0.00480042 0.00940969 