0.0159649 0.00894737 0.000877193 0.00684207 0.00289661 -0.00512576 0.0197523 0.0196459 0.000177421 0.00628922 0.0137283 0.00106849 0.000346551 0.00423138 0.0108841 0.0120456 0.02772 0.0320486 0.0107895 0.0145425 0.00505216 -0.000620699 0.0172679 0.000131388 0.0105043 0.00280702 0.00877193 0.00789474 0.00719298 0.0145459 0.00397747 0.0152182 0.026059 0.056777 0.0850503 0.0787356 0.0526037 0.0315809 0.0271051 0.0328966 0.0694711 0.0263513 0.0551178 0.0326359 0.026731 0.0014961 0.0287213 0.0407853 0.133526 0.0987061 0.0650997 0.0512339 0.00366862 0.0229112 0.00475122 0.0105397 0.00789474 0.0148045 0.0406337 0.0442808 0.123882 0.299906 0.434099 0.421561 0.322743 0.394245 0.431626 0.224021 0.270812 0.0790456 -0.0540018 -0.0753058 -0.108043 0.0141856 0.210837 0.47245 0.542802 0.497699 0.358639 0.223551 0.0910767 0.101422 0.0177569 0.0197205 0.00719298 0.00607729 0.014898 0.0104547 0.152501 0.385127 0.660601 0.774022 0.62511 0.626977 0.647122 0.435726 0.129498 -0.17247 -0.240421 -0.279349 -0.26412 0.0971388 0.178536 0.158572 0.171923 0.0381932 0.0917354 0.0345912 -0.03125 0.096069 0.0150752 0.0113324 0.00964912 0.014263 -0.020646 -0.0365405 0.0295021 0.185754 0.426194 0.678685 0.521095 0.46607 0.588856 0.595138 0.303259 -0.1738 -0.204177 0.0118854 0.0128892 0.0667625 0.134767 0.39469 0.286425 -0.0324297 0.0284818 -0.00682998 -0.113302 0.0403128 0.0255121 0.00923908 0.00684211 0.00570434 0.0728973 0.050377 -0.0309984 0.0916167 0.150758 0.310939 0.154509 0.363153 0.526045 0.385023 0.0245089 0.0227472 0.121327 0.23277 0.333662 0.331026 0.513795 0.504537 0.242871 0.130091 -0.108731 -0.217151 -0.210512 0.0672057 0.0179356 0.00858274 0.0164912 0.00978591 0.0474311 0.0447029 -0.0477006 -0.061568 0.117927 0.204684 0.190489 0.291989 0.38759 0.383758 0.283437 0.17673 0.38487 0.481096 0.530429 0.578913 0.689998 0.338556 -0.134175 -0.270305 -0.289748 -0.359843 -0.274342 0.0372934 0.0234506 0.0135088 0.00245614 0.0236162 0.0113769 -0.0100949 -0.0845193 -0.0788415 0.145812 0.346506 0.280013 0.108786 0.123099 0.334336 0.206905 0.0699946 0.308014 0.274132 0.169376 0.00656827 -0.304321 -0.487397 -0.82051 -0.54022 -0.370785 -0.440669 -0.346425 -0.0445544 -0.00855182 0.00280702 0.0150877 0.0085274 0.00834525 -0.0173413 -0.0297575 -0.0117207 0.0961965 0.229341 0.0472644 0.0331642 0.195666 0.185845 -0.00194966 -0.21505 -0.389103 -0.509633 -0.649686 -0.81615 -1.18231 -1.22308 -1.18283 -0.555924 -0.413394 -0.318201 -0.309327 -0.0757141 -0.0190741 0.0104841 0.0136842 -0.00277172 -0.0217572 -0.0124095 -0.00778649 0.0207689 -0.068666 0.0622492 -0.0260452 0.136339 0.156562 0.129408 0.114737 -0.371639 -0.795608 -1.00726 -1.24829 -1.2762 -1.20778 -0.913681 -0.913772 -0.508247 -0.287856 -0.237603 -0.332061 -0.103669 0.0108979 0.016031 0.00842105 0.00606352 -0.030279 -0.0287437 -0.046855 0.08607 0.00198197 -0.068 -0.173831 0.0136691 0.0633798 0.00974261 0.0633368 -0.392255 -0.8633 -0.989194 -0.938381 -0.510796 -0.465281 -0.271232 -0.184836 -0.134113 0.0597226 -0.00161432 -0.198105 -0.0678982 0.00976798 0.015614 0.00157895 0.0052494 -0.00890686 -0.0709011 -0.0560157 0.132672 0.0321676 -0.124938 -0.280994 -0.268706 0.00574117 -0.0501291 -0.200957 -0.510925 -0.826591 -0.300761 0.0113711 0.142159 -0.137331 -0.046932 0.12124 -0.0227413 -0.0357868 0.103072 -0.0450484 -0.0795849 -0.000432442 0.00280702 0.017193 -0.00186681 0.0090658 -0.0664258 -0.127522 -0.0103639 0.0557689 0.0211157 -0.279166 -0.368494 -0.263553 -0.271969 -0.441353 -0.564557 -0.386792 0.244205 0.293206 0.0993181 -0.0275632 0.0700637 0.00427539 -0.0466754 0.16463 0.174226 -0.0350045 -0.120794 0.0136503 1.65278e-06 0.00333333 -0.00463644 -0.0428075 -0.225414 -0.289793 -0.259644 -0.150742 -0.143193 -0.294786 -0.430343 -0.265955 -0.0811246 -0.277245 -0.167794 -0.0257111 0.168959 0.0529968 -0.020386 0.00139439 -0.127677 0.0269044 0.263474 0.338273 0.188995 -0.0529351 -0.0746293 0.00680296 0.0112281 0.00720047 -0.00136162 -0.105937 -0.276041 -0.261208 -0.129055 -0.074781 -0.0676062 -0.288933 -0.363387 -0.115944 -0.00269986 -0.103365 0.0187709 0.159559 0.0725859 -0.120542 -0.0748964 0.120435 -0.377644 -0.123242 0.195786 0.102714 -0.0860674 -0.204767 -0.0484549 0.0173769 0.00600342 0.00481756 -0.00416561 -0.140911 -0.43109 -0.348099 -0.0149306 -0.0623462 0.0454922 -0.07141 -0.0164863 0.0281961 0.131781 0.182745 0.0715721 0.330108 0.217709 0.113727 -0.20949 -0.0503319 -0.488208 -0.346898 -0.0624184 -0.287572 -0.397356 -0.476237 -0.159544 0.00605101 0.00842818 0.000843812 -0.00329991 -0.164736 -0.463098 -0.451898 -0.111649 -0.0909185 0.0494473 -0.0466117 0.098416 0.096123 0.128544 0.351695 0.271722 0.192017 -0.0594224 -0.225636 -0.409117 -0.28548 -0.653231 -0.583457 -0.278501 -0.46062 -0.688881 -0.679408 -0.209602 0.00955505 0.000181073 0.0113281 -0.00181243 -0.151223 -0.362574 -0.399175 -0.320142 -0.370063 -0.210494 -0.231107 -0.0308244 0.222908 0.330858 0.271678 -0.0320688 -0.232511 -0.322218 -0.2917 -0.298614 -0.254535 -0.461577 -0.377142 -0.0677036 -0.261956 -0.378476 -0.448555 -0.145102 0.0177434 0.0045643 0.000186579 -0.0120665 -0.0946118 -0.154645 -0.377573 -0.622513 -0.635055 -0.519855 -0.52855 -0.275363 -0.000350343 0.187117 -0.116488 -0.715758 -0.697608 -0.316005 -0.192387 -0.0668386 -0.102354 -0.298117 -0.210403 -0.0824376 -0.227951 -0.322504 -0.392261 -0.0775283 0.020528 0.0022807 0.000175439 -0.002282 -0.0171262 -0.0279309 -0.289815 -0.664612 -0.903249 -0.765674 -0.574474 -0.510478 -0.317927 -0.20833 -0.424837 -0.489398 0.0514672 0.433952 0.293943 0.0660296 0.0262745 0.0504111 -0.24349 -0.261615 -0.325481 -0.252978 -0.120679 0.0692768 0.033292 0.000877193 0.0173684 -0.00931179 -0.00976662 -0.0108458 -0.291592 -0.648357 -0.804576 -0.74103 -0.477108 -0.320468 -0.366475 -0.386001 -0.277143 0.394322 1.11418 0.828355 0.328245 -0.0354808 -0.0458927 0.0910883 -0.142099 -0.158335 -0.142114 -0.0840942 0.0295586 0.110561 0.0239495 0.0022807 0.00508504 0.023027 0.0647604 0.00713015 -0.0888206 -0.371387 -0.394795 -0.275428 -0.102498 -0.00862753 -0.0621696 -0.0795204 0.180141 0.509233 0.826921 0.613473 0.360536 -0.000892066 0.115484 -0.0299777 -0.106464 -0.0751639 -0.0840304 -0.0150522 0.0369424 0.0539549 0.00999738 0.00263158 0.0113898 0.0359369 0.160664 0.138352 -0.0329784 -0.10868 0.143356 0.237321 0.378354 0.187014 0.216878 0.404755 0.348566 0.29093 0.317343 0.222013 0.0907335 -0.0395242 0.00257325 -0.00833904 0.207935 0.210125 0.108137 0.098152 0.0508668 0.0373056 0.00950638 0.0136842 0.00180794 0.0206057 0.150712 0.17964 0.00338645 -0.0511258 0.347289 0.548563 0.539544 0.369402 0.419043 0.443941 0.212271 0.0208454 -0.177209 -0.212106 -0.398264 -0.102626 0.0645817 0.0602978 0.294036 0.384828 0.319185 0.263371 0.0214927 0.0438822 0.00033357 0.0150877 0.0143072 0.0226936 0.130465 0.139584 0.255824 0.367588 0.549797 0.60319 0.477517 0.49866 0.841241 0.665785 0.433183 0.308256 0.121134 0.0248605 -0.045831 -0.171113 -0.00250686 0.34334 0.227986 0.463176 0.33922 0.159593 -0.00915208 0.105977 0.0207556 0.00140351 0.0048573 0.0234772 0.129481 0.132295 0.401271 0.493451 0.594102 0.631595 0.456366 0.433239 0.488149 0.450235 0.385886 0.352908 0.293309 0.124615 0.0616693 0.0280347 0.119833 0.275276 0.0141329 0.251465 0.170521 0.115693 0.0764323 0.0893658 0.00298969 0.00140351 0.0161537 0.00473394 0.0090795 0.0240285 0.0857901 0.159599 0.158749 0.101513 0.0527013 0.0659633 0.0831699 0.085615 0.0421077 0.0896015 0.0726487 0.0479517 -0.0273479 -0.0400083 0.00458924 0.0330808 0.0195469 0.0532977 0.0162944 0.00989239 0.0182728 0.0183573 0.0154887 0.0126316 0.00526316 0.00333333 0.00508772 0.0106004 0.0251204 0.0107 0.0171502 0.00907779 0.00593728 0.0116405 0.00398499 0.00210526 0.00867434 0.00381549 0.00980852 0.00867944 0.00602302 0.00943796 0.00754386 0.0173684 0.0108772 0.000366928 0.00774184 0.0110526 0.0114035 0.0117544 0.0149123 0.017193 0.0140351 0.0164912 0.0145614 0.0026314 0.0119841 0.000918507 0.0391784 0.0377734 0.021002 0.0120137 0.00523812 0.013111 0.0173199 0.00985301 0.0110158 0.0379057 0.0247815 0.0254177 0.00624726 0.00546346 0.00912408 0.00405546 0.00159819 0.00526192 0.00719236 0.00508772 0.000701754 0.00473684 0.0164912 0.00368904 0.0125834 0.00957534 0.0125312 0.0462538 0.128018 0.101235 0.0961138 0.0547018 0.0448944 -0.0011735 0.0225123 0.000608565 0.0166721 0.0230357 0.0111215 0.0178261 0.0272755 0.0530211 0.0343909 0.0255672 0.0129922 -0.00297982 0.0271903 0.021793 0.00921234 0.00228962 0.017193 0.00573591 0.0289809 0.0663546 0.109381 0.119693 0.195118 0.23106 0.279637 0.26625 0.171062 0.101629 0.142943 0.0904268 0.045926 0.0611551 0.096389 0.266333 0.381876 0.368796 0.381355 0.172388 0.0523243 0.0859362 0.101739 0.103913 0.0117463 0.00285446 0.0161404 0.00440764 0.0214657 0.0765649 0.146662 0.172786 0.27903 0.370512 0.466149 0.5219 0.370147 0.293681 0.30557 0.206139 0.254263 0.306844 0.464625 0.663107 0.765011 0.713664 0.427456 0.262182 0.103839 0.171497 0.0992888 0.215019 0.0280819 0.0156083 0.0108772 0.00763885 0.0139278 0.0886038 0.205804 0.205983 0.256303 0.469247 0.568515 0.734505 0.56833 0.272071 0.0584878 -0.00785929 0.135553 0.407893 0.871397 1.05082 0.816928 0.555745 0.463297 0.452469 0.247579 0.085533 0.131845 0.178623 0.0179254 0.0138829 0.0164912 0.0118571 0.0178746 0.178486 0.293599 0.220447 0.292012 0.503322 0.603275 0.662453 0.558814 0.217109 -0.213093 -0.491849 -0.395878 0.268868 0.731271 0.831641 0.507948 0.302486 0.464098 0.398529 0.0145918 -0.079812 0.0898279 0.22822 0.0555338 0.0154418 0.00754386 0.00418179 0.0552396 0.221978 0.191268 0.218287 0.394676 0.599666 0.660971 0.53036 0.398096 0.0750549 -0.309371 -0.547148 -0.633151 -0.0918319 0.614673 0.789292 0.510886 0.287757 0.322107 0.343822 0.0843264 0.197187 0.349738 0.277159 0.0700892 0.00719298 0.00614035 0.0148699 0.0865471 0.216465 0.159252 0.249514 0.508103 0.80358 0.955764 0.797663 0.658241 0.28136 -0.143681 -0.269119 -0.203447 -0.064294 0.538109 0.741798 0.399952 0.290463 0.481902 0.361696 0.213651 0.425455 0.536838 0.274172 0.0569637 0.0152632 0.00508772 -0.000172313 0.060408 0.193866 0.211353 0.233008 0.303097 0.555293 0.75897 0.733108 0.638876 0.384723 0.178474 0.0897941 0.167311 0.267588 0.719944 0.629778 0.51258 0.670399 0.865471 0.752529 0.526999 0.583166 0.692184 0.508912 0.0899326 0.00511752 0.00315789 0.0373562 0.103471 0.284597 0.428907 0.395835 0.313646 0.611418 0.863414 0.706867 0.465337 0.225663 0.0322196 0.256755 0.0738056 0.269743 0.800474 0.780578 0.477005 0.874908 1.06953 1.48283 1.32778 0.947884 0.99872 0.684097 0.0899205 0.00950969 0.0115789 0.0151486 0.386234 0.654665 0.582451 0.511812 0.511672 0.767623 1.06753 0.82837 0.436805 -0.260648 -0.514367 -0.626166 -0.493492 -0.348667 -0.203058 -0.0730977 -0.0855455 0.325334 0.795864 1.25429 1.3672 1.30631 1.08574 0.884495 0.0457656 0.0136842 0.000350877 -0.00601276 0.0235542 0.348331 0.270067 0.38536 0.675598 0.564645 0.809311 0.283063 -0.0783843 -0.815013 -0.885582 -0.869137 -0.717189 -0.821064 -0.830408 -0.457893 -0.777946 -0.413636 0.31992 0.580532 0.921731 0.664515 0.623163 0.82565 0.10252 0.000526316 0.015614 0.0513525 -0.15215 -0.174891 -0.381936 -0.128518 0.237213 0.42898 0.305527 -0.338791 -0.393225 -0.281241 -0.627185 -0.80926 -0.751285 -0.742109 -0.724875 -0.394688 -0.0542653 0.203781 0.371238 0.648385 0.745579 0.239201 0.582568 0.874716 0.1926 0.00357896 0.00473684 0.0609968 0.0139367 -0.101569 -0.115066 -0.189408 -0.204257 -0.261013 -0.398354 -0.474166 -0.415927 -0.329548 -0.507117 -0.526887 -0.118226 -0.132622 -0.0405195 0.192083 0.211802 0.337578 0.241197 -0.060947 0.0116897 -0.0892997 0.498349 0.673701 0.092789 0.015614 0.00510194 0.11346 0.293454 0.135684 0.012772 0.259995 0.201398 -0.21032 -0.516745 -0.113852 0.282079 -0.0579629 -0.509988 -0.785613 -0.138541 0.195068 -0.284857 -0.573762 -0.694675 -0.867431 -0.976509 -1.01706 -0.591165 -0.257699 0.251558 0.29155 0.0386442 0.0148351 0.0120364 0.124072 0.0839667 -0.183881 -0.041331 0.0835323 0.244816 0.417112 0.614986 0.748427 0.569927 0.0566828 -0.095358 -0.468112 0.0377336 0.159713 -0.143929 -0.621929 -0.712324 -0.884393 -0.711626 -0.544965 -0.437658 0.29275 0.678284 0.45565 0.0377772 0.0136894 0.000745762 0.0279213 0.350262 -0.25271 -0.103233 0.332204 0.937753 1.057 1.06104 0.966773 0.208064 -0.478866 -0.635133 -0.477972 -0.0497555 -0.161948 -0.364626 -0.381225 -0.297412 -0.562502 -0.662748 -0.354631 -0.355596 -0.126206 0.366702 0.450077 -0.0103613 0.00924123 0.0126427 0.0576522 0.221845 -0.0271245 0.129722 0.524405 0.891839 0.939205 1.03502 0.649428 -0.0547857 -0.465334 -0.439992 -0.217578 0.0273172 0.00820787 -0.278488 -0.00909782 0.226391 0.235188 0.0764599 -0.0245268 -0.0394683 0.316214 0.703099 0.547868 0.0576125 0.00148337 0.0111077 0.0749672 0.0405539 0.272408 0.325066 0.353715 0.330389 0.528326 0.546122 0.434266 0.176939 -0.469426 -0.578232 -0.647976 -0.350299 -0.0806942 0.00442514 0.0190118 0.330408 0.103973 -0.016333 -0.0185282 -0.11291 0.0447732 0.121507 0.27741 0.0499296 0.00298246 0.00350877 0.0423502 0.0252939 -0.17176 0.0475876 0.0991561 0.266041 0.423085 0.651809 0.606052 0.349157 -0.317895 -0.84597 -1.20754 -0.816707 -0.418106 -0.0551818 0.0516924 0.263815 0.122382 -0.0727957 -0.217792 -0.204884 -0.224094 0.149476 0.270036 0.0385005 0.012807 0.0173684 0.0193695 0.0487151 -0.106277 0.0909945 0.515527 0.762351 0.671637 0.937006 0.909475 0.430524 -0.397354 -0.963569 -1.02409 -0.602154 -0.339044 -0.0309767 0.209728 0.276105 0.0445566 -0.0224862 -0.080317 0.0722349 0.156265 0.254075 0.205993 0.00485347 0.0129825 0.0107459 0.00720358 0.190331 0.208698 0.306702 0.776621 0.998056 0.931254 0.964379 0.634942 0.180947 -0.518197 -0.530061 -0.593081 -0.29046 -0.166091 0.240061 0.549452 0.591068 0.164014 0.0540277 0.155954 0.169363 0.190999 0.138141 0.083222 -0.0143596 0.0126316 0.00596814 0.0315367 0.212453 0.200445 0.167725 0.487727 0.539727 0.623328 0.669938 0.349523 -0.257079 -0.440206 -0.195993 -0.268602 -0.0321594 0.167218 0.534751 0.800131 0.76402 0.264756 0.125012 0.312822 0.477213 0.244595 0.0791179 0.0379087 -0.0161046 0 0.0147724 0.0283527 0.127601 0.210217 0.234446 0.301076 0.39601 0.524632 0.144225 -0.115347 -0.442423 -0.40219 -0.126337 -0.0145186 0.166879 0.340293 0.647447 0.749051 0.693235 0.417066 0.264907 0.392272 0.453466 0.224894 0.0826065 0.0188072 0.00873853 0.0112281 0.0179005 0.0254936 0.057018 0.187527 0.397659 0.366394 0.422533 0.272375 -0.0214695 -0.15165 -0.32711 -0.209916 0.109211 0.21556 0.293448 0.420251 0.561908 0.543316 0.576146 0.500859 0.340978 0.344814 0.256602 0.1044 -0.00590361 -0.0173428 0.00578796 0.0103509 0.0113083 0.00952733 -0.0174553 0.160742 0.131546 0.101176 0.336364 0.246053 0.106977 -0.0222705 -0.076509 -0.0638858 0.0706669 0.198919 0.200977 0.156812 0.257101 0.263052 0.274862 0.254164 0.226713 0.152101 0.0734535 0.0695391 0.0416438 0.0308959 0.012438 0.0126316 0.00930717 0.017259 0.00549762 0.076188 0.0241732 0.0342599 0.0840745 0.0430459 0.0221686 0.000131904 0.0131659 0.0049491 0.0236506 0.0229882 0.0136416 0.014221 0.0206341 0.0263751 0.0344265 0.0179178 0.0420558 0.0241317 0.00894384 0.0226741 0.0227542 0.00972735 0.00561266 0.0157895 0.0121053 0.00894737 0.0140351 0.00988023 -6.65729e-05 0.00213346 0.0139478 0.0119672 0.0145587 0.000690937 0.0118724 0.00333333 0.0010737 0.00201098 0.0062217 0.00569848 0.00427374 0.0149098 0.00368421 0.00807018 0.00210526 0.00357637 0.0128095 0.00807018 0.00684211 0.00385965 0.00140351 0.00403509 0.0170175 0.0103509 0.00263158 0.00473021 0.0103241 0.040857 0.0205403 -0.00950841 -0.010783 0.011486 0.0125032 0.0121856 0.017422 0.0063404 0.00181512 -0.00714292 -0.0143449 -0.010949 0.0199486 0.00403252 0.00656108 0.00108176 0.0122126 0.000393864 0.0123899 0.00122807 0.0170175 0.017193 0.00561404 0.00929106 0.00825534 0.00280901 0.0171043 0.000713806 0.0258296 0.0325554 0.0315589 0.0448842 0.04494 0.0546703 0.0860565 0.101521 0.123529 0.089978 0.0424603 0.00465386 -0.0144091 -0.0031913 -0.029607 -0.0193721 0.078812 0.0832621 0.0429519 0.0267918 0.0129037 0.0135192 0.0154386 0.0125487 -0.018785 -0.0115721 0.0118893 -0.10358 -0.0531329 0.0555372 0.0953968 0.228314 0.35742 0.602391 0.877415 1.08708 0.99697 0.748772 0.47707 0.186189 -0.157298 -0.503441 -0.627332 -0.517089 -0.0943477 0.336153 0.312401 0.194839 0.0588043 0.0170113 0.00350877 -0.0111118 -0.17653 -0.290121 -0.246071 -0.363106 -0.303721 -0.344253 -0.10027 0.542102 1.01103 1.54327 1.90725 1.98826 1.65507 1.20415 0.644162 0.240546 -0.354015 -0.733111 -1.01378 -1.12954 -0.648916 0.0839206 0.373865 0.259702 0.0744452 0.0117495 0.000526316 -0.0196249 -0.196545 -0.381647 -0.588338 -0.78225 -0.778937 -0.710449 -0.223136 0.500286 1.20689 1.66206 2.06998 2.13424 1.66161 1.06328 0.410663 0.116734 -0.15188 -0.409138 -0.966923 -1.12825 -0.566912 -0.117952 0.128196 0.0521478 0.0877344 0.00414152 0.00649123 -0.0379706 -0.258705 -0.531629 -0.655604 -0.915835 -0.911075 -0.935515 -0.465376 0.0830752 0.640166 1.17677 1.79006 1.77229 1.43103 0.761459 0.0469858 -0.0784737 -0.126438 -0.543036 -0.913775 -0.470536 -0.187094 0.0215721 -0.19051 -0.246971 0.00608591 0.00977207 0.00561404 -0.0354546 -0.309425 -0.486768 -0.757641 -0.937598 -0.638842 -0.831877 -0.528822 0.0363167 0.704009 1.26443 1.57318 1.48116 1.38545 0.82573 -0.0690663 -0.375439 -0.462236 -0.79103 -0.637305 -0.248183 0.0879613 -0.0281687 -0.271986 -0.467661 0.0304588 0.00807018 0.00491228 0.0280244 -0.0217055 -0.292803 -0.681952 -0.567532 -0.455553 -0.711466 -0.484406 0.135276 1.03076 1.5667 1.52087 1.25847 1.30689 0.484994 -0.39858 -0.851335 -0.781933 -0.64423 -0.553212 -0.634438 -0.273234 0.22973 -0.10688 -0.382614 0.0345446 0.0022807 0.0173684 0.0584266 0.206717 -0.171647 -0.366929 -0.485036 -0.692887 -0.668897 -0.415996 0.0309184 0.999007 1.23652 0.996184 0.847906 0.826855 0.423601 -0.354516 -0.866373 -0.736007 -0.813364 -0.829021 -0.603573 -0.281375 -0.152205 -0.12548 0.0199416 0.119005 0.0093898 0.00877193 0.108282 0.0945235 -0.26703 -0.281834 -0.344514 -0.430162 -0.214623 0.0222126 0.406231 0.895979 0.970833 0.81014 0.981579 0.546822 -0.123547 -0.298733 -0.08619 -0.279715 -0.841282 -0.953457 -0.40061 -0.465709 -0.527712 -0.148278 0.0857851 0.15087 0.0146032 0.0147368 0.0724574 -0.150186 -0.494725 -0.485776 -0.553997 -0.651466 -0.287019 0.130806 0.31262 0.765981 1.19227 0.967179 0.75417 -0.28563 -0.617797 -0.440451 -0.123715 -0.145795 -0.906045 -1.05945 -0.488822 -0.745922 -0.0467312 0.180515 -0.436931 0.00531341 0.0147368 0.00508772 0.0523119 -0.33349 -0.543084 -0.680975 -0.634498 -0.532833 0.182292 0.462535 0.684565 0.990546 1.01533 0.749854 0.22332 -0.526503 -0.31019 0.2414 0.63325 0.19999 -0.647389 -0.901363 -0.314403 -0.652459 -0.30825 -0.357305 -0.540939 -0.00819306 0.00947368 0.00175439 0.116083 -0.164627 -0.0514387 -0.325213 -0.598989 -0.554907 0.268469 0.930492 1.07282 1.13343 1.06995 0.556853 -0.101062 -0.275849 -0.300063 0.410895 0.430762 0.28891 -0.541681 -0.741456 -0.542145 -0.502123 -0.499381 -0.902684 -0.568926 0.120593 0.00720117 0.00666667 0.128836 0.234257 0.29191 -0.323725 -0.551074 -0.606596 0.0173499 1.13329 1.6212 1.48681 0.908813 0.571845 0.317453 0.118325 -0.267059 0.272851 0.337941 0.18912 -0.530457 -0.712251 -0.383342 -0.311859 -0.412186 -0.86214 -0.527596 0.0244271 0.0108772 0.00266305 0.20317 0.349569 0.504296 -0.727138 -0.602063 -0.587622 0.104568 0.720177 1.47072 1.68278 1.01061 0.683283 0.525674 0.415938 -0.0532578 0.205443 0.450066 0.069454 -0.657942 -0.629502 -0.245114 0.0437919 -0.246152 -0.374625 -0.202675 0.0359803 0.00928467 0.0095152 0.206845 0.412224 0.0760434 -1.01447 -0.527689 -0.165105 0.195765 0.328012 1.37521 1.98055 1.24108 0.844911 0.538438 0.593761 0.225203 0.0259186 -0.0604959 -0.373659 -0.987856 -0.913064 -0.139461 -0.034045 -0.229505 -0.357161 0.198495 0.020635 0.0135387 0.0134239 0.262114 0.22159 -0.350104 -0.828564 -0.432885 0.119385 0.19199 0.00167318 1.13887 1.04122 0.741693 0.589037 0.40452 0.915623 0.620418 0.0862043 -0.414731 -1.01657 -1.10066 -0.6951 -0.442313 -0.490926 -0.475249 -0.190649 0.23069 0.0141234 0.00235048 0.0152969 0.188 -0.0518622 -0.179829 -0.130658 0.00551688 0.282035 -0.0883592 -0.0514647 0.668372 0.513509 0.583052 0.484496 0.86258 1.10691 0.548299 0.233201 -0.0770005 -0.661736 -0.91647 -0.492469 -0.45107 -0.270616 -0.0786731 0.370394 0.546193 0.154069 0.00124053 0.0038297 0.204939 0.398463 0.263348 0.0343617 -0.0214537 -0.291887 -0.758625 -0.0268209 0.31683 0.225732 0.735875 1.1718 1.22829 0.959244 0.491873 0.571117 0.107258 -0.601695 -0.624675 -0.183183 0.228052 0.101008 0.202921 0.644009 0.567351 0.145363 0.00157895 0.00894737 0.171636 0.641045 0.00207293 -0.230913 0.00983594 -0.267321 -0.224182 0.105149 -0.231323 0.0595211 0.479187 0.41279 0.541087 0.878327 0.724452 0.669162 0.350513 0.23405 0.0836806 0.150887 0.518731 0.185384 0.218525 0.45433 0.420977 0.0608299 0.00561404 0.00982456 0.0951938 0.394114 -0.326954 0.0468441 0.301707 0.0720264 0.178016 0.191853 0.153577 0.34291 0.0890772 0.121106 0.546963 0.9329 0.697155 0.569473 0.350359 -0.0338967 -0.183971 -0.214148 0.154869 0.546939 0.581669 0.396308 0.263714 0.0385302 0.0126316 0.00388359 0.119491 0.0806814 -0.0161063 0.145075 0.127182 0.027716 -0.0118112 0.239918 0.037156 0.0231936 -0.0767446 0.0842699 0.219933 0.543327 0.583485 0.318833 0.187675 -0.0496143 -0.343137 -0.140649 0.492813 0.712964 0.470106 0.185803 0.125319 0.0377903 0.00596491 0.00328084 0.102401 -0.0238531 -0.232079 -0.0842075 -0.0740758 -0.259604 -0.0181133 0.463207 0.00923734 -0.0254825 0.11058 -0.0630855 -0.147092 -0.091905 -0.0890158 0.101986 0.0568114 -0.0191928 -0.0645232 0.235236 0.586406 0.583771 0.130301 0.0798264 0.0609046 0.0318827 0.00561404 0.00214493 0.0440466 -0.0768506 -0.543403 -0.393213 -0.372839 -0.0750089 0.135883 0.301958 0.281265 0.294038 0.212226 -0.117526 -0.142052 -0.154532 -0.14161 0.153215 0.242524 0.0877492 0.0661342 0.407854 0.459288 0.279843 0.0627011 0.111014 0.0956544 0.023007 0.0135088 0.0101497 0.0431078 -0.0904354 -0.399768 -0.235943 0.0167692 0.395987 0.208564 0.133886 0.449024 0.480042 0.11455 -0.148121 -0.210961 -0.19875 0.110054 0.311536 0.497853 0.476271 0.320077 0.451982 0.305846 0.126815 0.195128 0.2545 0.128244 0.0186148 0.017193 0.00868812 0.0231453 0.0124777 -0.164733 -0.0942159 0.238973 0.342173 0.319436 0.358073 0.356997 0.278418 0.0708175 0.0313639 0.0224405 -0.00431976 0.117727 0.115848 0.253224 0.207633 0.29357 0.191943 0.0976153 0.1422 0.221338 0.1657 0.0393221 0.0105355 0.00789474 0.0140455 0.0102232 0.0273962 0.029056 0.0474833 0.090697 0.12747 0.0867658 0.05858 0.0283196 0.0366248 0.0166184 0.0366778 0.0427565 0.0345626 0.0229236 0.00423444 0.0157759 0.0336035 0.0487729 0.0410838 0.0656988 0.0408084 0.0530696 0.042668 0.013568 0.0146639 0.0149123 0.00877193 0.00210526 0.0121053 0.0148232 0.00218568 0.0128136 0.0140937 0.00189014 0.0121448 0.0123583 0.00366074 0.00315789 0.0043902 0.00478786 0.00163003 0.00443819 0.0135215 0.0164897 0.0110526 0.0166667 0.0054386 0.0312857 0.00387958 0.0140351 0.00385965 0.0110526 0.00315789 0.0136842 0.00140351 0.00526316 0.00315789 0.0136842 0.00426143 0.00739596 0.0079345 0.00170906 0.00388545 0.00832046 0.0102219 0.0060709 0.00812209 0.011849 0.00228596 -0.000599516 0.0157375 0.00786549 0.00244662 0.0108913 0.00812935 0.0184761 0.0155925 0.00561675 0.00491364 0.0161404 0.00210526 0.0147368 0.00561404 0.00403414 0.00240912 0.00794655 0.00563969 -0.020271 -0.00113119 -0.00521684 -0.0118169 0.0153316 -0.0109315 0.00494747 -0.0215644 -0.0173296 -0.0249144 -0.0285267 -0.0248431 -0.00053405 -0.00831574 -0.00627371 -0.00263497 0.0209835 0.0144264 0.0123055 0.00173847 0.00601112 0.00541305 0.00245719 0.0133333 0.010171 -0.00626948 -0.0512678 -0.0546099 -0.0678291 -0.0277306 0.012261 0.0446477 0.0503065 0.0933203 0.0628001 -0.0730719 -0.215925 -0.203696 -0.189854 -0.186147 -0.139361 -0.0636412 -0.0555746 -0.0322343 -0.05463 -0.0389368 0.00782272 0.0139007 0.0071178 0.0127508 0.015827 0.00666667 0.000849634 -0.0271797 -0.108618 -0.135018 -0.112572 -0.105954 -0.0411602 0.173779 0.21708 0.167247 0.0133409 -0.13595 -0.32002 -0.363368 -0.323106 -0.330968 -0.202643 0.0162387 0.0936308 0.283885 0.25387 0.177031 0.0800669 0.0546042 -0.0113547 0.0125589 0.0147706 0.00175439 0.0130921 -0.0703567 -0.102865 -0.113398 -0.0911279 -0.0131097 0.0312589 0.131041 0.145572 0.0975411 0.0257444 -0.182922 -0.322225 -0.431412 -0.405524 -0.387522 -0.27005 0.0521369 0.311204 0.2042 0.136229 0.108797 0.106174 0.0246703 -0.061603 0.00235252 0.00898021 0.0103509 0.0138833 -0.0363803 -0.0757888 -0.0599174 -0.0187626 -0.0144196 -0.0239638 0.0839658 0.143402 0.170239 0.179528 -0.033686 -0.28876 -0.406523 -0.384606 -0.353624 -0.228198 0.0107014 0.186881 0.0560919 0.0452815 0.0361986 -0.0221801 -0.0349533 -0.144615 -0.00859583 0.00946175 0.014386 0.0141886 0.0223933 0.00320942 -0.0129156 0.00637477 -0.0429964 0.000829403 0.124335 0.234897 0.306075 0.104573 -0.216095 -0.276202 -0.235634 -0.193783 -0.160448 -0.0963719 0.0331399 0.0613632 -0.0625012 0.01256 0.0957799 0.0342964 -0.0446106 -0.168879 -0.00542398 0.0126316 0.00280702 0.0003232 0.00661912 -0.0106601 -0.0233929 0.100236 0.0752564 0.155037 0.141869 0.141285 0.050068 0.0157844 -0.0630843 0.0684937 0.122209 -0.0204865 0.0942786 0.0582249 0.119672 0.215022 -0.0593644 -0.0298734 0.103464 0.0434201 -0.0551789 -0.158141 -0.00721975 0 0.00894737 0.00776281 -0.0588418 -0.0801794 -0.0231029 0.148031 0.163058 0.278496 0.390543 0.330213 0.185592 0.000382503 0.0763348 0.297763 0.372928 0.29821 0.17881 -0.0536227 -0.027485 -0.0445659 -0.243584 -0.143874 0.0182764 -0.0216376 -0.0600788 -0.121382 -0.00355667 0.00822736 0.0112281 0.0110494 -0.074298 -0.135394 -0.105685 -0.0221872 0.105883 0.212858 0.330325 0.396918 0.251744 0.154897 0.26079 0.313768 0.312479 0.143637 -0.153207 -0.487686 -0.410391 -0.288193 -0.180286 -0.182202 -0.115364 -0.0231822 -0.00543933 -0.0424576 -0.0126343 0.00980135 0.00385965 -0.00314521 -0.101676 -0.149506 -0.192821 -0.263738 -0.154383 0.0126053 0.1257 0.133338 0.240264 0.412569 0.308341 0.216313 0.120799 -0.150744 -0.36067 -0.624796 -0.535787 -0.355603 -0.170488 -0.0242286 -0.118401 -0.100935 0.00980816 -0.0416025 -0.0112484 0.0159649 0.015614 -0.00387584 -0.0908367 -0.1878 -0.181445 -0.177231 -0.0967707 -0.118794 -0.0524564 0.052734 0.106666 0.287053 0.161797 0.0804596 -0.0433058 -0.298806 -0.467104 -0.485573 -0.340496 -0.309694 -0.0795011 0.0348352 -0.0975664 -0.130759 -0.050359 -0.0820843 -0.00219034 0.00368421 0.00982456 -0.00302537 -0.107142 -0.197585 -0.203508 -0.15098 -0.0701881 -0.131396 -0.18088 -0.0599707 0.067103 0.120687 0.031268 -0.0379232 -0.0692562 -0.237696 -0.414122 -0.399112 -0.244234 -0.157724 -0.00658699 0.0221595 -0.112264 -0.0787901 -0.0560875 -0.111285 -0.002533 0.00543817 0.00245614 -0.00968104 -0.141643 -0.170008 -0.092732 -0.100867 -0.0318844 -0.113379 -0.166568 -0.0829959 0.0126557 0.0585218 0.0565272 -0.06805 -0.140053 -0.303209 -0.420214 -0.408114 -0.116532 0.0362518 0.0818586 0.067347 -0.102727 -0.0565915 -0.0624787 -0.0952714 0.00241545 0.0101754 0.0143812 -0.0348149 -0.178006 -0.172243 -0.095098 -0.193359 -0.213387 -0.274333 -0.222472 -0.0380994 -0.0406524 -0.0194942 -0.112561 -0.300833 -0.28388 -0.210519 -0.388729 -0.424127 -0.056096 0.0075945 0.0376678 0.0806308 -0.0952903 -0.0681396 -0.0979664 -0.085481 -0.00239031 0.00629121 0.0107899 -0.0156434 -0.162869 -0.18879 -0.118168 -0.278071 -0.344909 -0.252682 -0.20967 -0.213481 -0.182881 -0.13298 -0.248866 -0.370203 -0.268706 -0.163456 -0.410367 -0.198 0.0607224 0.0576429 0.0635299 0.101212 0.0361808 -0.0314407 -0.0683666 -0.0751885 0.00808281 0.0015744 0.00644429 -0.0199541 -0.134015 -0.18123 -0.157502 -0.315808 -0.337467 -0.347779 -0.274662 -0.284259 -0.302459 -0.34951 -0.578197 -0.740955 -0.588942 -0.409433 -0.320671 -0.0782256 0.110628 0.21275 0.166844 0.229154 0.184579 0.112724 -0.00619639 -0.0894736 0.00665534 6.53556e-07 0.00797011 -0.0136656 -0.125851 -0.13811 -0.0914464 -0.295441 -0.472221 -0.439827 -0.299788 -0.355526 -0.488721 -0.605613 -0.748132 -0.866899 -0.704151 -0.401167 -0.195426 0.0277532 0.253118 0.182244 0.0998247 0.155998 0.251323 0.0964559 0.0233409 -0.0675736 0.0103205 0.0110444 0.0126172 -0.00992477 -0.108098 -0.0461573 0.00279952 -0.184808 -0.440592 -0.446634 -0.245941 -0.303058 -0.483928 -0.627209 -0.672882 -0.696045 -0.469854 -0.299338 -0.156127 0.109376 0.116171 0.153758 0.165004 0.117961 0.227116 0.00585338 -0.0485779 -0.071245 -0.00313888 0.00614035 0.00526316 -0.00501064 -0.0433907 -0.0109162 0.0228245 -0.0707547 -0.274824 -0.368397 -0.137368 -0.0943799 -0.28855 -0.379637 -0.473324 -0.522893 -0.317493 -0.0620486 0.109173 0.249352 0.151026 0.269683 0.257652 0.136776 0.104423 0.0298122 -0.128151 -0.127062 -0.00628152 0.00385965 0.0149123 -0.00448582 -0.0633144 -0.084044 -0.140425 -0.0529188 -0.0683358 -0.140347 -0.0306459 -0.0250031 -0.138769 -0.103891 -0.252443 -0.361236 -0.0840927 0.276724 0.334546 0.254479 0.172383 0.25201 0.222447 0.0655317 0.0590081 0.0122608 -0.187534 -0.12653 0.00423974 0.00105263 0.00385733 0.0078184 -0.0837531 -0.0449464 -0.123944 -0.0886465 -0.160623 -0.193312 -0.0077738 -0.0842069 -0.0887054 -0.0270181 -0.0295657 -0.0505707 0.0152764 0.120428 0.0605278 -0.152881 -0.0792628 0.20567 0.247963 0.109124 0.0187291 0.0055596 -0.0505701 -0.102845 0.00418424 0.0157895 0.00612842 0.0052849 -0.0921375 -0.0881274 -0.154998 -0.153696 -0.259443 -0.259176 -0.0734138 -0.218512 -0.135688 -0.0429539 0.0826632 0.117543 0.0981374 0.0310973 -0.0308175 -0.0915616 -0.0669661 0.074167 0.209273 0.115813 0.011981 -0.0964058 -0.089829 -0.139746 0.00412883 0.0163158 0.0164444 0.0079524 -0.137448 -0.107523 -0.0169221 0.0279174 -0.00334058 -0.0802304 -0.00853581 -0.0964737 -0.07693 0.0776112 0.20425 0.190868 0.189267 0.223112 0.16273 0.0657934 0.0723839 0.103831 0.0650106 0.00664223 -0.0566019 -0.148541 -0.135272 -0.0983718 -0.00135364 0.00140351 0.00566738 0.00611764 -0.0982362 -0.0598601 0.00997518 0.031533 0.0528728 0.0859162 0.120983 0.0651703 0.0865823 0.196327 0.0951302 0.16436 0.328065 0.384498 0.216117 0.0634907 0.0335769 0.0547576 0.0392828 0.0141604 -0.124411 -0.166618 -0.1006 -0.0505471 -0.00569636 0.000877193 0.00136196 0.0142274 0.00395703 -0.00870151 -0.0748557 -0.103779 -0.0288626 -0.017737 0.0640129 0.130528 0.0164934 -0.0012843 0.0103835 0.0423783 0.1249 0.178588 0.0792394 -0.0140775 -0.0363423 0.007519 -0.0194543 -0.0461067 -0.0654052 -0.105884 -0.0406532 -0.0268201 0.00315431 0.00140351 0.00263263 0.00411474 0.019674 0.00397264 -0.00512857 -0.0265364 -0.000851421 0.0038905 0.0119734 0.0118654 0.0282285 0.0159507 0.012744 -0.000349545 -0.00399802 0.00300218 0.0204443 0.0166328 0.0079155 0.00537672 0.00854408 -0.00160893 0.00139877 0.0011402 0.000874407 0.0043477 0.00928385 0.00210526 0.0138596 0.00649123 0.0110526 0.00661358 0.0149779 0.0013043 0.00681699 0.00222334 0.0143454 0.0144098 0.00315537 0.0140351 0.0136224 -0.000247722 0.0144795 0.0122202 0.0110427 0.0140562 0.0115789 0.00280702 0.0077193 0.0110924 0.0138678 0.017193 0.017193 0.0161404 0.00614035 0.00122807 0.00631579 0.00298246 0.00912281 0.000175488 0.00217045 0.00751742 0.00309004 -0.00102489 0.0163177 0.0177517 0.014099 0.0162522 0.00981748 0.00924398 0.00916947 0.000504335 -0.0060139 -0.00439864 0.016894 0.00451863 0.0169822 0.0141864 0.012435 0.0105235 0.00403368 0.00421053 0.0131579 0.00754386 0.00789474 0.0150856 0.0129061 0.000609271 -0.00331104 0.0114278 -0.0115253 -0.0160457 -0.0128524 0.00442283 -0.00163006 -0.0233222 -0.025473 -0.00864383 0.00930681 0.011257 0.0048976 0.00247766 -0.0127641 -0.0180165 -0.0143092 -0.00726229 0.0102214 0.00513333 0.000418149 0.00637879 9.32328e-05 0.000347185 0.00754386 0.00275622 -0.0318849 -0.110391 -0.099768 -0.0501185 -0.122011 -0.119136 -0.149216 -0.165829 -0.071093 -0.0343724 0.0257559 0.0358315 0.00491722 0.0451812 0.0839176 -0.0041953 -0.00921458 -0.00381244 -0.00373406 -0.0603942 -0.0495247 -0.0355384 0.0106903 0.032673 0.00720493 0.0117103 0.00421053 0.0118693 -0.0399774 -0.16342 -0.201409 -0.12273 -0.142423 -0.103178 0.0226543 0.134386 0.295721 0.307324 0.30334 0.17511 0.123161 -0.0458581 -0.171958 -0.265091 -0.237348 -0.13554 -0.0884934 -0.0414699 -0.0574582 -0.0943922 0.0304019 0.0540401 0.0261117 0.0152156 0.00859649 0.00781167 -0.0702417 -0.161471 -0.200164 -0.14427 -0.0697219 -0.121041 0.00528336 0.229845 0.424894 0.467544 0.278117 0.0848997 -0.014403 -0.205173 -0.304311 -0.370292 -0.402394 -0.375242 -0.434139 -0.444738 -0.255282 -0.235122 -0.0835151 -0.0100328 0.014962 0.00636583 0.00666667 0.00661078 -0.0958777 -0.23411 -0.207891 -0.105994 -0.117849 -0.205489 -0.0383119 0.196257 0.27469 0.090478 0.0272014 -0.219398 -0.29147 -0.247137 -0.309054 -0.274868 -0.439043 -0.420285 -0.414225 -0.531894 -0.401263 -0.252946 -0.1042 -0.122324 0.00918324 0.0134891 0.00526316 0.00543703 -0.0611237 -0.125398 -0.0598158 -0.0148542 0.00942792 -0.0834912 -0.0324265 0.0433143 0.0381314 -0.286832 -0.372459 -0.400303 -0.371726 -0.382689 -0.184823 -0.138311 -0.373943 -0.426176 -0.274985 -0.103695 -0.113798 -0.0448018 0.00085849 -0.110506 -0.00633845 0.000526316 0.00684211 0.00993989 -0.00544477 -0.0226531 0.0164295 0.10156 0.0807989 0.0503252 0.0150081 0.0574331 -0.040745 -0.111394 -0.190112 -0.422353 -0.502962 -0.533739 -0.286895 -0.284043 -0.379522 -0.211226 -0.0709518 0.0240306 -0.0241984 -0.0517212 0.023136 -0.0653947 0.00567745 0.000701754 0.0157895 -0.0037497 -0.0683822 -0.116039 -0.144723 -0.0670955 -0.0932241 -0.00741156 0.0511787 0.0730643 -0.0574089 -0.14161 -0.243999 -0.374019 -0.36595 -0.337893 -0.219618 -0.293921 -0.294431 -0.127384 0.0704267 0.0893744 -0.00283711 -0.150182 0.0301626 0.0353318 0.00749111 0.00870314 0.0166667 0.00349198 -0.0154893 -0.212681 -0.223377 -0.116206 -0.0005063 0.0984006 0.111218 0.223497 0.083601 -0.118207 -0.420494 -0.545107 -0.510796 -0.32243 -0.253565 -0.541313 -0.397193 -0.139575 0.233613 0.130708 0.0793516 -0.174036 -0.0526648 0.00575952 0.0151366 0.0140166 0.00824561 0.0266314 0.0317842 -0.125885 -0.181726 -0.180827 -0.0407973 0.0946283 0.265728 0.243963 -0.0919864 -0.407399 -0.613515 -0.574961 -0.557937 -0.335904 -0.191876 -0.324144 -0.240005 -0.119996 0.167321 0.14464 -0.000499889 -0.148776 -0.009042 -0.110001 -0.010529 0.00526316 0.00789474 0.0291628 0.0273512 -0.138067 -0.115817 -0.192939 -0.0828963 0.102178 0.163777 0.0702602 -0.383253 -0.528876 -0.601775 -0.649224 -0.532196 -0.311904 -0.238524 -0.136488 -0.0569101 0.0364051 0.199333 0.242473 0.0493695 -0.124012 0.0200485 -0.0709045 -0.0146397 0.00210526 0.0103509 0.0140397 -0.00721398 -0.0433604 -5.86756e-05 -0.183576 -0.141066 0.127023 0.130885 -0.132759 -0.393554 -0.504488 -0.402296 -0.501791 -0.477982 -0.26875 -0.20237 -0.0851053 -0.139981 -0.0277126 0.114103 0.0785575 0.0150859 0.0516163 0.0549847 -0.0688656 -0.00599469 0.0159638 0.0115789 -0.0201327 -0.121995 -0.00113433 0.00706451 -0.107683 -0.143833 -0.0106969 -0.0133062 -0.326991 -0.506681 -0.46873 -0.355642 -0.395612 -0.438885 -0.488836 -0.281068 -0.15908 -0.192351 -0.154481 0.0121182 -0.000173184 0.105328 0.239396 0.0639347 -0.0309323 -0.0138291 0.00754386 0.0170112 -0.0269798 -0.207581 -0.0936518 -0.129987 -0.174336 -0.249302 -0.204375 -0.225294 -0.440293 -0.516776 -0.597151 -0.410615 -0.495288 -0.474998 -0.369812 -0.340312 -0.352298 -0.278053 -0.10174 0.0650546 0.0396025 0.0653747 0.182155 0.0383855 0.0481316 -0.00392195 0.00891488 0.0152057 -0.0183748 -0.1288 -0.150544 -0.26295 -0.256832 -0.292681 -0.264144 -0.51625 -0.603392 -0.564008 -0.485618 -0.322359 -0.402461 -0.310204 -0.130262 -0.0968187 -0.100345 -0.101485 -0.102298 0.0540416 0.0649252 0.0333103 -0.0667316 0.0166589 0.068491 0.0209262 0.00806416 0.0123755 0.00320502 -0.0618845 -0.240266 -0.362518 -0.270528 -0.295511 -0.31957 -0.522592 -0.645453 -0.549479 -0.412614 -0.302587 -0.258508 -0.00528586 0.109636 0.130591 0.0158212 -0.0514537 -0.190654 -0.0551058 -0.0443526 0.0239637 -0.157862 -0.0135211 0.103539 0.0518262 0.00385606 0.000844942 -0.00617385 -0.0636494 -0.284062 -0.387144 -0.322223 -0.350699 -0.332983 -0.341698 -0.372853 -0.157719 -0.0862946 -0.00915557 0.0818598 0.411263 0.427698 0.274254 0.0802559 0.119359 0.0576388 0.0557731 0.0331004 0.0870507 -0.0644659 0.0130875 0.0719244 0.0284032 0.00524873 0.0127987 0.019113 -0.0795207 -0.270224 -0.337626 -0.41352 -0.351701 -0.192214 0.00910682 0.088033 0.228162 0.359039 0.368066 0.327039 0.482541 0.53432 0.350899 0.215435 0.13985 0.209269 0.186347 0.0147003 0.0658295 0.109744 0.192254 0.126352 0.0270548 0.00649123 0.000526316 0.0119303 -0.0201508 -0.173503 -0.158542 -0.235202 -0.113362 0.133494 0.411886 0.629922 0.4667 0.509546 0.424567 0.298373 0.319074 0.428055 0.330866 0.28902 0.107286 0.102257 0.0064972 -0.0514486 0.16625 0.325492 0.282071 0.147461 0.0152463 0.00192982 0.00719298 0.0212614 -0.0197735 -0.203681 -0.0482218 0.0673061 0.139709 0.325134 0.389026 0.288311 0.200464 0.224662 0.16124 0.275425 0.333542 0.35899 0.304138 0.309465 0.219048 0.114173 -0.0765625 -0.0464015 0.155394 0.376136 0.306216 0.119682 -0.000823726 0.00350877 0.00806634 0.0289486 0.00470235 -0.067882 0.0351645 0.266814 0.302011 0.271188 0.250419 0.125628 0.244579 0.278469 0.178022 0.17434 0.213864 0.204822 0.141621 0.154496 0.0747109 0.264793 0.184684 0.221376 0.20868 0.265716 0.268507 0.0790948 0.00302353 0.0045614 0.0031382 0.0108904 -0.00862628 -0.000816416 0.0707473 0.251327 0.267898 0.307361 0.334199 0.242938 0.391415 0.426999 0.350868 0.315533 0.202385 0.103199 0.0307721 0.00370959 0.0727291 0.168319 0.226043 0.268222 0.242858 0.142716 0.147743 0.0436133 -0.000110531 0.0164912 0.0123565 -0.0104362 -0.0111326 0.0317495 0.0847291 0.104385 0.0361352 0.135894 0.290547 0.332921 0.336322 0.461813 0.43366 0.268219 0.0764669 -0.123331 -0.162228 -0.0280399 0.0298598 0.0128955 0.097724 0.144258 0.27611 0.210371 0.149195 0.0573005 0.0227065 0.00666667 0.0100759 0.00873749 0.0121396 0.0128899 0.0303194 -0.0863458 -0.0749727 0.148153 0.263322 0.297407 0.201871 0.245434 0.142521 0.119424 0.0096975 -0.106938 -0.249801 -0.118357 -0.0958248 -0.0941639 0.0349745 0.0329619 0.159389 0.207503 0.181047 0.0438839 0.000814562 0.00684211 0.0161977 0.00495415 -0.00772762 -0.0192002 -0.03041 -0.0343458 0.00367978 0.0559659 0.111665 0.0924416 0.0361049 -0.0613 -0.105486 -0.0982531 -0.161805 -0.114076 -0.210076 -0.20822 -0.190494 -0.131038 -0.0414273 0.0178802 0.0321873 -0.0199983 0.042002 -0.0115923 0.00207871 0.0145614 0.00262789 0.015068 0.00906141 0.00590539 0.00452877 -0.017941 0.00245379 -0.0019665 -0.0018887 -0.0354327 -0.00811984 -0.0214494 -0.00403844 -0.023579 -0.0302265 -0.0350476 -0.0105719 0.0014492 -0.00623492 -0.015465 -0.00456746 0.0280712 0.00523333 -0.00203476 0.00740006 0.0135965 0.00634261 0.000701754 0.00719298 0.00684211 0.0108772 0.014138 0.00206986 0.00254975 0.00750207 0.0119578 0.0116133 -0.00123339 0.00402086 0.00105263 0.00291573 0.00947623 0.000500939 0.0144402 0.00120332 0.0137008 0.00245614 0.0142105 0.0166667 0.0269718 0.00951085 0.000526316 0.0147368 0.0101754 0.0133333 0.00105263 0.0119298 0.0150877 0.00350877 0.0164902 0.0500516 0.0683148 0.0665814 0.0505302 0.00882837 0.0121655 0.0105133 0.00535009 0.0142727 0.0133643 0.0097343 -0.00488772 -0.00670371 0.0032113 0.00241247 0.0149263 0.0225684 0.00983842 0.0176698 0.00682446 0.00314907 0.00719298 0.0129825 0.0142105 0.00807018 0.00448391 0.0103492 0.0188551 0.0416296 0.00173835 0.0151756 -0.00550299 -0.0119167 -0.0386655 0.0590223 0.0666411 0.0860161 0.121944 0.216949 0.174429 0.0863979 0.0576591 0.0275812 0.0107302 -0.064748 -0.0423276 0.0585558 0.0108081 -0.0227635 -0.0113905 0.0217641 0.00685604 0.00701754 0.00396369 0.0574107 0.0794901 0.0700119 -0.0486961 -0.194383 -0.2326 -0.241867 -0.27884 -0.129089 0.294326 0.822469 1.41658 1.72749 1.59986 1.23289 0.896444 0.507814 -0.0749992 -0.244575 -0.193512 -0.0400004 -0.107058 -0.389276 -0.285531 0.0375242 0.0412362 0.00508772 0.0147493 0.0796331 0.017928 -0.181833 -0.552434 -0.799808 -0.955144 -0.880912 -0.751897 -0.337325 0.740055 2.07689 2.94284 3.19465 3.00477 2.12751 1.39901 0.430054 -0.248666 -0.0797875 -0.445263 -0.70894 -0.279329 -0.41921 -0.106702 0.0877765 0.0509389 0.0119298 0.000177073 0.0737284 0.0187831 -0.384025 -0.799106 -1.20183 -1.21058 -1.14322 -1.12006 -0.324299 1.02085 2.49369 3.52442 3.98438 3.45609 2.36376 1.16984 0.283967 -0.041274 0.252587 -0.288635 -0.584853 -0.28655 -0.329294 0.0368405 0.139944 0.0118363 0.0101754 0.0171325 0.293364 0.206342 -0.200977 -0.553545 -0.726308 -0.790436 -0.96927 -1.4571 -0.987803 0.361835 1.7146 2.92718 4.03638 3.52274 2.20819 1.1451 0.414147 -0.227745 -0.537826 -0.271877 -0.430325 -0.292456 0.161236 -0.155509 0.0384246 0.0148901 0.00508772 0.00469712 0.182203 0.146386 -0.273434 -0.434643 -0.467236 -0.398123 -1.02405 -1.88531 -1.88471 -0.813202 0.366336 2.10473 3.80273 3.89305 2.42976 0.991096 -0.493598 -1.22509 -0.934521 -0.730574 -0.600935 -0.650688 -0.0341567 0.0140493 0.0515882 0.0147368 0.00701754 0.00331156 0.115229 0.150897 -0.273535 -0.440043 -0.121258 0.170221 -0.696706 -1.62135 -1.78903 -1.11412 -0.206509 1.24277 3.30089 4.15773 2.98667 0.986229 -0.529242 -1.00408 -0.900336 -0.601093 -0.312875 -0.466407 -0.230459 0.0375862 0.111827 0.00421053 0.00122807 0.0302323 0.0560986 0.359806 0.20439 -0.32476 -0.335614 -0.276593 -0.298577 -0.995573 -1.01282 -0.537001 -0.323635 0.0404972 1.67575 3.67195 3.3905 1.36256 0.0460241 -0.619964 -0.717502 -0.488477 -0.577647 -0.60099 -0.393992 0.0510291 0.195925 0.0193096 0.000877193 0.0211974 0.0647075 0.413893 0.485392 -0.217178 -0.312497 -0.327176 -0.518402 -0.912815 -0.824753 -0.287202 0.293025 0.262844 0.549832 2.00038 2.76716 1.82963 0.541663 0.0398534 -0.420691 -0.386781 -0.143521 -0.178621 -0.492124 -0.379736 0.054709 0.0172594 0.0138596 0.162454 0.541496 0.489936 0.252474 -0.396023 -0.248844 -0.427421 -0.660776 -1.34874 -0.673131 -0.0956996 0.465125 0.172509 0.182756 0.90511 1.10526 1.35406 0.747438 0.587781 -0.30031 0.0878126 -0.119325 0.246355 -0.28032 -0.581039 -0.0311853 0.0140351 0.0107018 0.0905952 0.600488 -0.167757 -0.136553 0.117132 -0.0366364 -0.206194 -0.169551 -0.684456 -0.116869 0.264579 0.617066 0.392644 0.191814 0.641519 0.714082 1.10941 0.669969 0.587385 0.66296 0.743479 -0.416716 -0.0464162 0.0565749 -0.449106 -0.0884535 0.00859649 0.00263158 0.116688 0.976927 -0.0595027 0.0959035 0.170576 0.0593992 -0.482501 -0.455752 -0.578094 0.144665 0.901845 0.471228 -0.486745 -0.603844 0.432254 0.21383 0.34907 0.538752 -0.277211 0.115919 0.253917 -0.298446 0.371774 0.544521 -0.00898757 0.0387426 0.0100433 0.0166667 0.148539 0.903084 0.288666 -0.0262384 0.0534374 -0.0417591 -0.935144 -0.763795 -0.470078 0.4921 0.816237 0.108674 -0.615415 -0.390896 0.00239951 -0.127336 -0.162649 4.07769e-05 0.0953066 0.226172 0.379042 0.0568873 -0.0474817 0.204478 -0.116273 0.0419214 0.0140351 0.00679684 0.0797952 0.515366 0.38396 -0.190599 -0.25386 -0.519987 -0.3247 -0.461496 -0.592009 -0.324359 -0.0588775 0.296964 -0.488461 -0.275268 0.101755 -0.139169 -0.274233 0.0807475 -0.203601 -0.475529 -0.117206 0.126634 0.330301 0.615623 0.0784975 -0.0756348 0.00470454 0.00602069 0.128262 0.823987 0.777567 0.111627 -0.339276 -0.428771 -0.162657 -0.705673 -0.42258 -0.150916 -0.258519 -0.566144 -0.586982 0.267803 0.663762 0.374598 -0.099587 0.175159 -0.105925 -0.0323987 0.0510962 -0.303065 -0.299951 -0.172309 0.0621737 -0.079074 0.00468538 0.0199304 0.16607 1.0399 0.934243 -0.138255 -0.14752 -0.639987 -0.468261 -0.521548 -0.142505 0.211596 -0.591344 -0.170218 0.0701526 0.312081 0.947433 0.259517 -0.202873 0.276004 0.138571 -0.0165857 -0.0413786 -0.192208 -0.233707 -0.261131 -0.0674365 -0.0293707 0.00405749 0.010534 0.0763346 0.633527 0.571736 -0.00386772 0.0209141 0.100064 -0.469356 -0.475918 -0.117278 0.242131 -0.0511602 0.17051 0.287359 0.28597 0.0319487 -0.382794 -0.129428 -0.0665592 -0.215015 -0.485843 -0.5379 -0.175442 0.0505816 0.261106 0.030649 -0.017717 0.00604928 0.00151084 0.154917 0.397157 0.640825 0.345721 -0.192545 -0.689198 -0.685755 -0.360206 -0.185782 -0.246824 0.00442449 0.502409 0.789815 0.550437 0.547223 0.418814 0.15047 -0.116052 0.0890663 0.0935135 0.0301761 0.00684729 -0.143962 0.247095 0.254492 0.0751592 0.000350877 0.00245614 0.155743 0.595079 0.364059 0.145241 -0.300956 -0.469869 -0.0285262 -0.20946 -0.40933 0.106552 0.228555 0.268167 0.45153 0.524168 0.552714 0.00695273 -0.256605 -0.116901 0.500621 0.310527 0.161739 0.0568557 0.00626078 0.669972 0.332135 0.0755777 0.0159649 0.0164912 0.233615 0.687514 0.345717 -0.051807 -0.217498 -0.00688476 0.240537 -0.0345032 -0.0387979 0.144589 0.603912 0.676631 0.720971 0.880396 0.585539 -0.250477 -0.472657 -0.196326 0.432043 0.326189 -0.21965 -0.0506631 0.382047 0.763573 0.414107 0.0738513 0.00368421 0.007642 0.144554 0.336058 0.0712101 -0.102852 -0.533286 -0.131423 -0.0202308 -0.187064 -0.59231 0.222688 0.636376 0.580819 0.631018 0.657916 0.19432 -0.623231 -0.577569 -0.129333 0.0124022 -0.155471 -0.261397 -0.478524 0.00710544 0.15 0.250558 0.0359161 0.00122807 0.00138128 0.0990084 0.352238 -0.0523049 -0.0100572 -0.491597 -0.0497947 0.144413 -0.296408 -0.0773062 0.473217 0.804897 0.908859 0.765846 0.367505 0.0402352 -0.210498 -0.104977 0.238822 0.185476 0.0473281 -0.348042 -0.51512 -0.160106 0.0463477 0.361873 0.0474238 0.00105263 0.0350336 0.156855 0.151665 -0.34206 -0.102452 -0.505571 -0.342699 -0.00654862 -0.284729 0.103977 0.431821 0.564493 0.785312 0.776988 0.264634 -0.0782856 -0.0928305 0.1726 0.296757 0.263465 -0.0741245 -0.284616 -0.338373 -0.293833 -0.0253914 0.194092 0.0523334 0.00333333 0.0535505 0.0710105 -0.24563 -0.686392 -0.0791256 -0.0907019 -0.228204 -0.465117 -0.521596 -0.0659955 0.47169 0.632741 0.628992 0.686145 0.43987 0.116909 0.0451589 0.278321 0.404066 0.378322 0.275419 0.373648 0.106602 -0.0598743 0.037839 0.0510733 0.0181459 0.0140351 0.0259805 -0.0264602 -0.193647 -0.114045 0.509798 0.70023 0.0479246 -0.474117 -0.219779 0.0725677 0.327306 0.438085 0.394459 0.41537 0.306291 0.0410762 -0.0988647 0.124123 0.0515463 0.275363 0.298355 0.406722 0.274208 0.163201 0.117578 0.00591636 0.0102474 0.0133333 0.00843499 0.0142725 0.0176523 0.00303388 0.0693486 0.143517 0.108421 -0.0395678 0.00934936 0.0539304 0.0595563 0.0365606 0.023623 0.0423756 0.0346125 -0.00118204 -0.0150528 0.0349621 0.00192509 0.0343773 0.0698692 0.14497 0.0503599 0.0268751 0.0164871 0.012951 0.00984823 0.00701754 0.00929825 0.00508772 0.0101754 0.00634435 0.000366502 0.000450473 0.00365727 0.00301479 0.0161496 0.0100243 0.0139919 0.0054386 0.00614229 0.013532 0.0138829 0.0110766 0.0166725 0.000524715 0.0173684 0.000526316 0.0133333 0.0604129 0.0203352 0.0145614 0.00508772 0.00263158 0 0.000701754 0.0105263 0.00140351 0.0101754 0.017193 0.00989241 0.0102643 -0.0205246 -0.0299344 -0.00187809 0.0241849 0.0104291 0.00979812 0.0161464 -0.00261222 -0.000487078 0.0112434 -0.00167497 -0.0362069 -0.00323489 0.0015364 0.00157129 0.019172 0.0110799 0.00940828 0.0158445 0.00508772 0.00280702 0.00877193 0.00157895 0.000825111 0.0158403 0.00410118 0.00751993 -0.0636403 -0.0868328 -0.0906322 -0.023194 0.0937605 0.0573706 0.00437243 -0.00915421 -0.0159945 -0.0247434 -0.0256 -0.0383381 0.022498 0.0052618 0.0414837 -0.0867579 0.00313099 -0.0261306 -0.0137849 0.0359254 0.0041799 -9.13435e-05 0.00859088 0.015614 0.0130074 -0.01024 -0.0516442 -0.0795804 -0.169251 -0.140912 -0.203497 -0.134232 -0.425472 -0.619714 -0.21116 -0.00654449 0.238765 0.444384 0.527948 0.393482 0.138535 0.114078 -0.135003 -0.212364 -0.255649 -0.351582 -0.165663 -0.0851914 -0.0368528 0.0105351 0.00763892 0.00140351 0.00666265 0.0490324 0.24908 0.218212 -0.0402608 -0.247804 -0.587715 -0.620181 -0.702443 -0.66164 -0.200852 0.292809 0.357764 0.418067 0.543577 0.249407 0.146196 0.019948 -0.170404 0.00244607 -0.0483036 -0.0718916 -0.0355366 -0.206013 -0.141847 0.00843802 0.0127629 0.00684211 0.00233233 0.0997129 0.351904 0.141053 -0.125357 -0.392061 -0.575563 -0.626116 -0.422447 -0.353929 0.131605 0.104502 0.110687 0.214268 0.161424 -0.00824013 0.145574 -0.0696377 -0.190733 -0.144579 -0.00875764 0.000555861 -0.053901 -0.0608178 -0.0878383 -0.0158964 0.0113048 0.00350877 -0.00202976 0.0711014 0.126812 -0.111961 -0.191832 -0.153162 -0.11466 -0.164294 -0.196109 0.0989831 0.36902 0.567253 0.468256 0.565434 0.317851 0.0260013 0.113379 -0.121445 -0.302473 -0.222398 -0.133561 -0.0405541 -0.0513819 0.0346535 -0.05287 0.00334517 0.00701113 0.012807 0.0108621 0.0127253 0.00305066 -0.263792 -0.0599736 0.0262652 0.0520441 -0.318493 -0.419034 -0.0346456 0.27363 0.414657 0.442592 0.644879 0.723568 0.768362 0.700871 0.0935736 -0.155619 0.179625 0.305592 0.0726858 0.0921169 0.0631951 -0.0281501 0.0127894 0.0157895 0.00807018 4.80472e-06 0.00539337 0.0256429 -0.0893317 0.245277 0.180324 0.145047 -0.305872 0.0106445 0.484963 0.835821 0.566315 0.292177 0.0361029 0.239068 0.588661 0.567627 0.482673 0.666781 0.74233 0.487526 0.082012 0.166247 0.104567 0.0524757 0.0299389 0.0045614 0.0126316 0.0102099 0.133677 0.19795 0.0407493 0.222679 0.056005 -0.147058 -0.413623 -0.0863596 0.282264 0.646413 0.822378 -0.00389679 -0.291609 0.0611194 0.475592 0.373005 0.710076 0.921081 0.678962 0.277911 0.183378 0.153346 0.0720385 0.0350725 0.0163712 0.0016877 0.00912281 0.0226995 0.245828 0.384263 0.268961 0.111326 0.0700883 -0.331633 -0.239613 0.00646252 0.158999 0.100973 -0.29239 -0.423404 -0.196867 0.0549355 0.296341 0.185686 0.694522 0.495387 0.454963 0.315267 0.282892 0.298838 0.0615123 -0.0523357 0.00686634 0.0105239 0.00508772 0.0220353 0.162382 0.450985 0.527598 0.20232 -0.0330608 -0.0969497 -0.0284583 0.131118 0.00156127 -0.190011 -0.394939 -0.0672018 0.274091 0.46919 0.235154 0.142494 0.578308 0.174473 0.280128 0.335134 0.333167 0.434481 0.214704 -0.00221192 0.0205842 0.00719298 0.00684211 0.0217455 0.144872 0.505524 0.714591 0.556655 0.0736157 -0.106315 -0.351249 0.0704697 0.313085 0.243804 0.32812 0.31877 0.421423 0.123009 0.126119 0.213561 0.509134 0.331842 0.207588 0.538838 0.445125 0.433998 0.285986 0.118146 0.0310712 0.0166667 0.00473684 0.0383812 0.249692 0.557845 0.829807 0.667761 -0.00617574 -0.586827 -0.60738 -0.247019 0.179036 0.380042 0.759037 0.370443 0.00440746 0.0777694 0.0100302 0.15978 0.260386 0.1918 0.183479 0.393326 0.244833 0.104543 0.121392 0.0893078 0.0159884 0.00578663 0.0173684 0.0177183 0.277483 0.693723 0.85012 0.672825 0.0266398 -0.331565 -0.40123 0.118865 0.266783 0.0872514 0.4471 -0.204553 -0.515165 0.101705 0.135112 -0.0793341 -0.107722 -0.0441013 0.0105473 0.133557 0.0811423 0.219042 0.180859 0.0685438 0.00314264 0.0108772 0.00121104 0.0299703 0.414933 0.699503 0.60341 0.305586 0.0891804 0.0216489 -0.269878 0.0192756 0.0377572 0.0569166 -0.0119481 -0.417453 -0.528753 -0.0166376 -0.311717 -0.319736 -0.305411 -0.0761377 -0.00736591 0.201345 0.154352 0.405956 0.298004 0.126765 -0.00772707 0.00921065 0.0144965 0.0424163 0.419232 0.682959 0.785127 0.582841 0.478336 0.290456 0.299253 0.285073 -0.112952 -0.485444 -0.575198 -0.416304 -0.688571 -0.900084 -0.98659 -0.387592 -0.00261579 0.233979 -0.143329 0.0951874 0.291861 0.443968 0.369759 0.116573 -0.000249657 0.0113873 0.0171309 0.0478378 0.375064 0.603254 0.793682 0.781247 0.388534 0.162357 0.518549 0.312018 0.149907 -0.0711258 -0.677875 -0.817263 -1.09355 -0.932777 -0.854239 0.0812574 0.496097 0.652889 0.381929 0.361964 0.398828 0.342705 0.278882 0.082121 0.00647706 0.0112197 0.0137739 0.0428543 0.396577 0.481667 0.714765 0.725128 0.335975 0.244291 0.502747 0.114603 0.0405704 0.00929029 -0.336265 -0.482556 -0.451498 0.0500552 0.563149 1.32384 1.08835 0.593076 0.0801786 0.00837588 0.261513 0.163929 0.138083 0.142862 0.0247556 0.0163131 0.014204 0.018942 0.162249 0.15665 0.472669 0.699959 0.501779 0.522904 0.535099 0.483887 0.476042 0.436028 0.51607 0.391812 0.542041 1.36773 1.89822 1.63358 0.593585 0.0976831 -0.192623 -0.0607116 0.0993228 0.0753918 0.210467 0.233519 0.0412285 0.0147368 0.00157895 0.00832176 -0.0538587 -0.0261255 0.286965 0.546236 0.66895 0.713622 0.440833 0.651615 0.597104 1.11999 1.63064 1.40405 1.68626 2.12407 1.50488 0.754106 0.294492 0.0647775 0.329343 0.292208 0.206028 0.170675 0.301365 0.130218 0.00435772 0.0112281 0.00140351 0.010562 -0.0563359 0.000797592 0.184484 0.299638 0.507755 0.501842 0.514096 0.253567 0.707022 1.49161 1.76419 1.50438 1.17244 0.924801 0.169971 0.221877 0.0505154 0.0861046 0.361083 0.301724 0.204358 0.0965758 0.161683 0.070691 0.0115989 0.0022807 0.00105138 0.00512687 0.00556007 0.104012 -0.0131549 -0.0356344 0.153645 0.271662 -0.0632431 -0.0540158 0.615124 0.824676 0.588241 0.550147 -0.297973 -1.12909 -1.31668 -0.78677 -0.820669 -0.398498 -0.107339 -0.0551514 0.0300827 0.237855 0.203507 0.079073 0.00651621 0.0103509 0.0112217 -0.00877042 -0.118715 -0.132021 -0.338768 -0.358306 -0.403191 -0.46656 -0.817907 -0.635232 -0.394422 -0.793625 -1.26839 -1.39302 -1.57607 -1.82204 -1.75375 -1.45982 -1.26122 -0.655981 -0.535739 -0.589002 -0.385589 -0.0582672 0.233766 0.1304 0.0119244 0.00929825 0.00177184 -0.0105174 -0.259604 -0.339317 -0.316352 -0.0441676 -0.0676534 -0.555346 -0.94756 -1.25802 -1.46567 -1.66333 -1.69063 -1.82471 -1.33436 -1.42065 -1.05928 -1.16939 -1.33907 -0.91511 -0.45159 -0.66955 -0.503796 -0.178516 0.156856 -0.0204423 0.00233848 0.0117544 0.0119407 -0.010289 -0.252798 -0.176749 -0.115319 -0.0651641 -0.344675 -0.584136 -0.841012 -1.25045 -1.92415 -1.76991 -1.55118 -1.51173 -1.19809 -0.854285 -0.668289 -0.780851 -1.32477 -1.05492 -0.334168 -0.408203 -0.430312 -0.162529 0.0696256 -0.0273572 0.0107399 0.012807 0.0133227 0.0253544 -0.104646 -0.0547756 -0.148279 -0.353349 -0.660702 -0.689835 -0.439441 -0.564139 -0.911055 -1.08733 -0.879193 -0.732324 -0.669211 -0.240597 -0.218319 -0.341595 -0.479639 -0.218023 0.0746483 0.0316652 -0.194203 -0.246093 -0.125662 -0.0518905 0.0110052 0.0022807 0.0173628 0.0112612 0.0136981 -0.022771 -0.0289343 -0.105458 -0.162348 -0.156229 -0.0175394 -0.022558 -0.141608 -0.128662 -0.0685259 -0.117701 -0.0790894 -0.0517481 -0.00565511 0.0189499 0.00604345 -0.00662173 0.00752582 0.00779927 0.00683735 -0.00254102 0.00862695 0.013551 0.00342767 0.0140351 0.000526316 0.00947368 0.0157895 0.0077126 0.0143086 0.012961 0.000303595 0.00594578 -0.000747214 -0.0139506 0.0139298 0.000526316 0.000197169 0.00960765 0.0165643 0.00278263 0.00217045 0.0140956 0.0112281 0.00877193 0.00964912 0.0122386 0.00208216 0.00438596 0.0077193 0.00561404 0 0.0124561 0.00368421 0.00368421 0.0101754 0.0163164 0.00812603 0.0312314 0.0182082 -0.00660727 0.0125798 0.00188992 0.00386506 0.00945979 0.0106996 0.00215059 -0.00144631 -0.00479536 -0.0126271 -0.0146874 -0.00956568 0.0280188 0.0289536 0.0278096 0.0017964 0.00543919 0.00578977 0.0157895 0.00666667 0.00596491 0.00842105 0.0135122 0.00109936 0.00161272 0.00435827 -0.0200728 -0.0273548 0.00926408 0.00771472 -0.05337 -0.0531942 -0.0551573 -0.0554951 -0.0243599 -0.107826 -0.103754 -0.0319037 -0.000577533 -0.00792155 -0.00451862 -0.00147467 -0.0110293 -0.0734876 -0.039929 -0.0126455 -0.00015766 0.0172568 0.0156168 0.0108772 0.0124421 -0.0226008 -0.0478834 -0.0771106 -0.104863 -0.117315 0.00867148 0.0569655 -0.141669 -0.321787 -0.447979 -0.470598 -0.364739 -0.381395 -0.254185 -0.0165644 0.110343 0.121221 -0.18486 -0.38747 -0.40786 -0.547357 -0.641046 -0.369184 -0.174579 -0.0134368 0.00985453 0.00245614 -0.00135596 -0.0977907 -0.156672 -0.064084 -0.0578557 -0.0792584 0.241164 0.271606 -0.0202092 -0.390426 -0.582795 -0.655749 -0.593944 -0.563725 -0.224375 0.446369 0.727096 0.713732 0.34483 -0.0237642 -0.0960184 -0.384593 -0.816689 -0.726754 -0.286622 -0.0212786 0.00629435 0.000175439 -0.00516895 -0.195694 -0.236953 0.105089 0.176466 0.0362449 0.336697 0.315255 -0.22453 -0.618984 -0.807441 -0.894269 -0.658074 -0.486042 -0.0491052 0.619875 0.839422 0.898159 0.999168 0.504324 -0.0723353 -0.54907 -0.875876 -0.814453 -0.386931 -0.0339741 0.00777908 0 0.00181843 -0.219351 -0.399555 0.044089 0.273593 0.194994 0.32503 0.524904 0.0797731 -0.541291 -0.855213 -0.804138 -0.511742 -0.375793 -0.134774 0.250796 0.522559 0.64393 0.930105 0.797844 -0.114982 -0.304796 -0.47104 -0.778289 -0.41702 -0.0406046 0.0121319 0.0101754 0.00465209 -0.286624 -0.494871 -0.0998944 0.155423 0.300441 0.406383 0.760601 0.414672 -0.384277 -0.821238 -0.855378 -0.397067 -0.186334 -0.197685 -0.00895993 0.0354662 0.0919176 0.454707 0.673722 0.251884 -0.175781 -0.659825 -1.04959 -0.579193 -0.0671955 0.0022807 0.00140351 -0.00636454 -0.330724 -0.508825 -0.290544 -0.0159116 0.0856468 0.2152 0.605814 0.244747 -0.385984 -0.742257 -0.598763 -0.257053 -0.277794 -0.537902 -0.611045 -0.35827 -0.228593 -0.0567293 0.439869 0.386288 -0.00243237 -0.601319 -1.22491 -0.669106 -0.0418244 0.00964912 0.00105263 -0.0147446 -0.539935 -0.604082 -0.296466 0.00427826 0.104745 0.152607 0.587986 0.461055 -0.254387 -0.438482 -0.219866 0.116268 0.13433 -0.183207 -0.263263 -0.0892121 -0.0776121 0.360065 1.03438 1.19851 0.563654 -0.17183 -1.49768 -0.962852 -0.0773275 0.00820432 0.0107018 -0.0339369 -0.644269 -0.750574 -0.37568 0.0755167 0.195184 0.33716 0.623176 0.361618 -0.279892 -0.356527 -0.0819626 0.144862 -0.092874 -0.25759 -0.266553 -0.561453 -0.569712 0.274306 1.13671 1.14781 0.383243 -0.593281 -1.63516 -1.20301 -0.102043 0.0158358 0.00807018 -0.0737325 -0.71831 -0.766235 -0.185612 0.347971 0.503519 0.478315 0.587764 -0.0441002 -0.699321 -0.482631 -0.112939 -0.214609 -0.162293 -0.0122394 -0.492454 -1.17859 -0.92997 0.245792 1.06206 1.0284 0.473088 -0.505885 -1.13131 -0.839528 -0.0329803 0.0126316 0.0124561 -0.0352785 -0.594266 -0.74721 -0.109852 0.687378 0.957394 0.652214 0.365029 -0.698289 -0.986478 -0.519873 -0.117094 -0.137152 -0.00295889 -0.184279 -0.760007 -1.10827 -0.530119 0.350699 1.10604 0.850821 0.764199 -0.141692 -0.822046 -0.592352 -0.0412277 0.0108772 0.00280702 -0.0310238 -0.517175 -0.806993 -0.0881351 0.571532 0.893469 0.598699 -0.00237251 -0.566371 -0.874841 -0.897822 -0.511967 0.00495152 0.0249032 -0.397215 -0.782189 -0.887167 -0.602271 0.0408459 0.627816 0.378796 0.742126 -0.0487056 -1.04356 -0.722656 -0.0371815 0.0140352 0.0108772 -0.0385982 -0.615857 -0.768301 0.0336724 0.636279 0.78654 1.08527 0.697945 -0.201834 -0.760756 -0.995028 -0.49416 -0.249149 -0.374655 -0.35393 -0.785485 -0.981676 -0.81208 -0.380657 0.482074 0.350412 0.530738 -0.146054 -1.23966 -0.811895 -0.0383233 0.0154386 0.0143838 -0.0880609 -0.768042 -0.82682 0.0511382 0.68578 1.04568 1.33081 0.941074 -0.197643 -0.867994 -0.826948 -0.491016 -0.445041 -0.467203 -0.161486 -0.582896 -1.07479 -0.852125 -0.35981 0.293828 0.270449 0.528059 -0.252482 -1.26316 -0.764998 -0.0253953 0.00840975 0.00893186 -0.0686774 -0.824173 -0.765312 0.353024 0.949374 1.22803 1.21025 0.935037 -0.0730765 -0.931929 -0.831828 -0.2009 -0.0925925 -0.105103 -0.0500741 -0.497884 -0.840203 -0.384886 -0.199009 0.117352 -0.0414635 0.14524 -0.0897445 -0.90242 -0.614932 -0.00208604 0.00350668 0.0124446 -0.088422 -0.889426 -0.993584 0.278625 0.912682 1.09714 1.11014 0.664422 -0.0251845 -0.732005 -0.615289 -0.704908 -0.521161 -0.246232 -0.376522 -0.504958 -0.720432 -0.467361 0.178752 0.204899 0.0607785 0.37555 0.25568 -0.920331 -0.591653 -0.00440759 0.00506568 0.0144047 -0.0880457 -0.998302 -1.15503 0.148542 0.601494 0.922312 1.22123 0.724883 -0.196146 -0.804838 -0.569199 -0.29753 0.0900279 0.293664 -0.113025 -0.119528 -0.441168 -0.0214139 0.328122 0.0662499 0.119393 0.396753 0.00638029 -0.961873 -0.62437 -0.0465524 0.0158477 0.0102783 -0.0747851 -0.988661 -1.22209 -0.167221 0.369606 0.834952 0.975859 0.382361 -0.374468 -0.809068 -0.645505 -0.184779 0.438879 1.06054 0.441706 0.213376 -0.177249 0.360052 0.578315 0.183613 -0.323459 0.136831 -0.182016 -0.957953 -0.611386 -0.0356352 0.000526316 0.0117544 -0.0565459 -0.776994 -0.927395 0.0823649 0.5021 0.960354 1.07473 1.01371 0.435059 -0.316345 -0.470424 -0.0791194 0.478488 0.75583 0.407898 0.310984 -0.113949 0.281833 0.682634 0.299749 -0.092797 0.245309 -0.0298739 -0.725452 -0.553675 -0.0289739 0.0149123 0.00929825 -0.0427809 -0.672487 -0.70934 0.00677245 0.224371 0.456319 0.700932 0.613215 0.523167 0.159656 0.187254 0.15299 0.190721 0.0576002 -0.128553 -0.11188 -0.0780476 0.340667 0.249066 -0.0899179 -0.0757324 0.126623 -0.0764285 -0.728293 -0.455894 -0.0285056 0.0107018 0.00105781 -0.065338 -0.642888 -0.789592 -0.261399 -0.120263 0.0628114 0.398556 0.47446 0.537747 0.397496 0.163668 0.0671146 -0.0609821 -0.118825 -0.366295 -0.344441 -0.0581727 0.477729 0.574377 0.278993 0.360285 0.221856 -0.16551 -0.604753 -0.409311 -0.0193966 0.00596491 0.00599153 -0.0410108 -0.606569 -0.826043 -0.308557 -0.242112 0.133884 0.510013 0.335577 0.356231 0.154358 -0.0617895 -0.148302 -0.0789081 -0.0072883 -0.0809652 0.0283008 0.308587 0.61019 0.512787 0.329613 0.480273 0.366053 -0.00186111 -0.395422 -0.317311 6.84615e-05 0.0045614 0.0112132 -0.00914604 -0.300512 -0.596547 -0.260707 -0.194129 0.208147 0.374409 0.151319 -0.0286189 -0.24125 -0.360779 -0.366496 -0.303084 -0.302401 -0.328642 -0.111354 0.135957 0.181077 0.196416 0.157269 0.336083 0.382553 -0.0211662 -0.386121 -0.26924 0.00305783 0.00596491 0.0109485 -0.00566167 -0.107435 -0.208633 -0.482095 -0.540231 -0.461591 -0.507888 -0.65793 -0.786188 -0.806318 -0.691937 -0.654685 -0.625349 -0.590352 -0.547153 -0.349439 -0.308935 -0.259406 0.0481614 0.127124 0.166083 0.314176 0.0588553 -0.181556 -0.106014 -0.00528988 0.0077193 0.00947255 -0.00893178 -0.0449127 -0.0353889 -0.314669 -0.592938 -0.469489 -0.436797 -0.404252 -0.477115 -0.44238 -0.378799 -0.361056 -0.365544 -0.393925 -0.367284 -0.296664 -0.448156 -0.476988 -0.195074 0.054175 0.0957551 0.070508 0.00450708 -0.0824029 -0.0236982 0.000775224 0.00649123 0.0145642 0.00352924 -0.00292587 0.016915 -0.0114535 -0.114231 -0.0850988 -0.023297 -0.0296567 -0.0257191 -0.0340108 -0.0435227 -0.0398161 -0.0326964 -0.0445742 -0.0232189 -0.0210131 -0.0471867 -0.0891572 -0.0623845 0.014815 -0.00954528 -0.0106909 0.00225373 -0.00668482 0.0105978 0.00740912 0.0164912 0.00122807 0.0131579 0.00666667 0.00399561 0.000180968 0.00492801 0.00382466 0.0145552 0.0119939 0.0150614 0.00790412 0.0077193 0.00822665 0.00829022 0.0167052 0.00590645 0.00275012 0.0136845 0.0110526 0.0136842 0.0145614 -0.00286559 0.00143554 0.00263158 0.0166667 0.00140351 0.000526316 0.0117544 0.00122807 0.0164912 0.0121053 0.00192977 0.00866763 0.0117444 0.00421493 0.0106464 0.0152239 0.0108068 0.00269117 0.0128697 0.00277011 0.00839009 0.0115895 0.014034 0.000432362 0.00157222 0.0129791 0.00288304 0.00916186 0.0132139 0.0143727 0.0117493 0.00578692 0.0164912 0.00929825 0.00491228 0.0154386 0.0115755 0.00541013 0.0110416 0.00595396 0.00541077 -0.000773904 2.86174e-05 0.018753 0.0622326 0.0425586 0.0295827 0.00502211 -0.0117752 -0.039121 -0.0338298 -0.027903 -0.00431895 -0.0101468 0.00953618 0.00604358 0.0121681 0.0159707 0.00686355 0.00359248 0.0043939 0.0156056 0.00333526 0.00263158 0.0145898 -0.00973987 -0.0497686 -0.0638858 -0.065366 -0.0313178 -0.00101478 0.0414169 0.13187 0.182625 0.152319 0.0149348 -0.156738 -0.225667 -0.213491 -0.176075 -0.184843 -0.122411 -0.101494 -0.0808367 -0.00566554 0.0147402 0.00543004 -0.00984754 -0.00266394 0.000983759 0.0030205 0.00192982 0.00206862 -0.051525 -0.0845941 -0.114535 -0.100065 -0.0137933 0.0972731 0.152534 0.280231 0.309007 0.161751 -0.0438385 -0.177626 -0.192234 -0.139709 -0.178545 -0.133336 0.0371694 0.0338611 0.0983951 0.176231 0.152895 0.0375758 0.0520393 0.0429691 -0.000108771 0.0174023 0.0022807 0.00858014 -0.085561 -0.143045 -0.150949 -0.114103 0.0300432 0.170494 0.215477 0.329619 0.297352 0.159361 -0.00810032 -0.0307558 -0.00393477 -0.0147561 -0.00843602 0.104006 0.197907 0.234091 0.102736 0.0441706 -0.0779507 -0.145229 -0.0446799 -0.0645996 0.00568881 0.00795641 0.0103509 0.00809638 -0.0321491 -0.0810923 -0.0710354 -0.0396788 0.0615644 0.10826 0.209002 0.251789 0.302128 0.228275 0.138182 0.110796 0.189993 0.1378 0.0980393 0.145927 0.193952 0.130062 -0.0262019 -0.0696786 -0.152265 -0.291088 -0.263642 -0.229125 -0.00379628 0.0168363 0.00157895 0.0120793 -0.000268653 0.030956 0.0118758 0.040936 0.115418 0.237486 0.198485 0.209789 0.306838 0.0806332 0.0336022 0.229013 0.293571 0.232107 0.281019 0.346186 0.226679 0.124204 -0.0689002 -0.106421 -0.114124 -0.178085 -0.290764 -0.276166 0.00094249 0.0149123 0.0107018 0.00203545 0.0137822 -7.84839e-05 -0.0572804 0.120323 0.30165 0.426217 0.294983 0.210182 0.277593 0.208486 0.180093 0.328106 0.301488 0.252707 0.394083 0.372525 0.274452 0.255952 -0.00495822 0.0457314 0.0452228 -0.0872992 -0.162436 -0.25627 -0.00725658 0.00912281 0.000701754 -0.000659058 -0.0627393 -0.106475 -0.0403253 0.142523 0.290198 0.417434 0.347885 0.328359 0.272076 0.171332 0.10492 0.180685 0.137324 0.144775 0.23602 0.195136 0.190297 0.185343 -0.0388835 0.0240557 0.121469 0.0794644 -0.0421011 -0.147485 -0.00381601 0.00721114 0.0135088 0.00303917 -0.0949029 -0.158989 -0.102859 0.0554158 0.319831 0.360297 0.179046 0.244086 0.130302 0.0443349 0.041719 0.0344101 -0.0538212 -0.0263936 -0.0382302 -0.102096 -0.0866566 -0.032725 0.017789 0.00513398 0.060194 0.040681 0.0219673 -0.08027 -0.00667996 0.0145903 0.0129825 0.00577633 -0.0905259 -0.118398 -0.109608 -0.0189959 0.228248 0.271246 0.0245923 -0.024309 0.0879237 0.175561 0.127546 -0.00700236 -0.229066 -0.315752 -0.26832 -0.185295 -0.194429 -0.102864 -0.0625032 -0.0271546 -0.0371081 -0.0363635 0.0071431 -0.0702257 0.00612653 0.00789474 0.00438596 0.0137046 -0.054002 -0.137725 -0.0872166 -0.0238073 0.104939 -0.024855 -0.171987 -0.0268348 0.0358967 0.108473 -0.0177733 -0.167956 -0.388815 -0.520082 -0.501788 -0.287041 -0.168583 -0.191612 -0.17358 -0.197293 -0.199168 -0.133595 -0.0324557 -0.0775322 0.00535407 0.00964912 0.00368421 0.00741631 -0.0860282 -0.165252 -0.118866 -0.107828 -0.0419337 -0.087662 -0.134622 -0.0215348 -0.0283111 -0.144818 -0.208691 -0.313912 -0.473934 -0.45492 -0.423038 -0.215591 -0.081459 -0.218534 -0.24887 -0.333188 -0.315024 -0.251591 -0.100661 -0.128599 0.00507046 0.00807025 0.0112281 0.000381744 -0.102713 -0.123296 -0.0793067 -0.129618 -0.0315055 -0.00128347 -0.0471873 -0.123858 -0.309902 -0.299482 -0.22869 -0.433777 -0.526141 -0.450372 -0.324397 -0.123041 -0.0418113 -0.219603 -0.276739 -0.277099 -0.318087 -0.304313 -0.170182 -0.109779 0.0104483 0.00403509 0.0107004 -0.00623052 -0.106689 -0.0766759 -0.0219805 0.0253954 0.0938687 0.0420966 -0.0367604 -0.143429 -0.288692 -0.345648 -0.439813 -0.59214 -0.564233 -0.408625 -0.303545 -0.172105 -0.0960611 -0.299633 -0.277945 -0.25323 -0.28199 -0.295499 -0.224422 -0.119098 -0.0039131 0.00122126 0.00157468 -0.0137867 -0.1295 -0.113499 0.0338233 0.0749011 0.119007 0.0622209 -0.0107756 -0.0930769 -0.236781 -0.373893 -0.480555 -0.595872 -0.512741 -0.385822 -0.370921 -0.191866 -0.163217 -0.250923 -0.208057 -0.180823 -0.170576 -0.278251 -0.273182 -0.146611 0.0049399 0.00280576 0.00457304 -0.012373 -0.142394 -0.175127 0.0685624 0.0772454 0.0140674 -0.100819 -0.116437 -0.138458 -0.251686 -0.381441 -0.537288 -0.679877 -0.587917 -0.450036 -0.316563 -0.169443 -0.214682 -0.160615 -0.0454342 0.0574796 -0.00944762 -0.199151 -0.258902 -0.212632 -0.00228847 0.0154413 0.0163063 -0.0032166 -0.158902 -0.172861 0.0698336 0.0368409 -0.151934 -0.150548 -0.121354 -0.151755 -0.27747 -0.388959 -0.466688 -0.523717 -0.507376 -0.332211 -0.167737 -0.0395842 -0.0404418 -0.0616443 0.0338101 0.0746913 0.0710033 -0.204763 -0.239152 -0.173371 -0.00243195 -2.16576e-06 0.00105286 -0.0169428 -0.18785 -0.134073 0.0118049 0.0613922 -0.133644 -0.0989742 -0.0522501 -0.128626 -0.285434 -0.369334 -0.394247 -0.337509 -0.259947 -0.133508 -0.00166403 0.0212801 -0.0481536 0.101153 0.102062 0.0856517 0.150758 -0.195694 -0.251895 -0.199659 -0.00361866 0.0138596 0.00614035 0.00497567 -0.104389 -0.135135 -0.00779699 0.157458 0.128952 -0.0415651 0.0188027 -0.00384991 -0.105143 -0.114056 -0.179535 -0.268413 -0.135706 0.0192002 0.138775 0.191549 0.137444 0.308686 0.205694 0.155486 0.100861 -0.11983 -0.235269 -0.191217 -0.00113324 0.0170175 0.000701754 0.00537746 -0.100502 -0.147246 -0.123269 0.187963 0.28647 0.144491 0.0641673 0.0756739 0.0229073 0.0495859 -0.0922778 -0.208468 -0.146755 0.134649 0.323487 0.307192 0.24513 0.312145 0.21841 0.155183 0.120861 -0.0108613 -0.217151 -0.138153 0.00426349 0 0.0105252 0.0138017 -0.0755168 -0.0410604 -0.0756323 0.111444 0.0578882 -0.0462042 -0.0855015 -0.165751 -0.166655 -0.15618 -0.131661 -0.0892901 -0.0695445 0.0469408 0.110543 0.104471 0.195449 0.326076 0.282087 0.249076 0.141903 0.0353889 -0.133145 -0.105213 0.00711626 0.0119298 0.000345029 -0.00140523 -0.0772502 -0.0645035 -0.106288 0.00775032 -0.133327 -0.169888 -0.141433 -0.348697 -0.337804 -0.261637 -0.193399 -0.12713 0.0322657 0.148442 0.233067 0.244946 0.168084 0.191283 0.227472 0.184999 0.135084 -0.0743437 -0.23196 -0.171719 -0.00536101 0.00245614 0.00198928 0.00532182 -0.0760789 -0.139488 -0.0663694 -0.0545118 -0.141494 -0.26734 -0.310663 -0.323704 -0.264084 -0.14114 0.00863876 0.0545428 0.183677 0.362371 0.454886 0.409851 0.245733 0.200026 0.162556 0.167391 0.131574 -0.0731735 -0.172208 -0.126062 -0.00865464 0.00491228 0.0026985 0.00460453 -0.0353304 -0.0888192 -0.0944642 -0.117175 -0.186333 -0.203476 -0.262361 -0.269412 -0.278298 -0.147797 -0.1189 0.00375996 0.235939 0.380808 0.386258 0.304691 0.172192 0.210543 0.153871 0.102403 -0.0571379 -0.0933134 -0.0689858 -0.0521493 -0.00605823 0.0112281 0.0121743 0.00291717 -0.0062433 -0.030915 -0.0725604 -0.127503 -0.146255 -0.134133 -0.0612367 -0.059742 -0.11173 -0.0748249 -0.092874 -0.02875 0.0661103 0.109784 0.0493686 0.0141507 0.0096362 0.0498802 0.0433767 0.020657 -0.0559641 -0.0922863 -0.0197356 -0.00477188 0.00677497 0.00912281 0.00368614 0.000595534 0.00366764 0.00348142 0.0109743 -0.0155934 -0.00720333 -0.0125391 -0.00341881 0.00559175 0.00605237 0.0133984 0.00408175 0.00467354 0.0218486 0.0162502 0.0260838 0.011118 -0.00606975 0.00862331 -0.00471917 -0.0084894 -0.00251789 -0.00390626 0.00747393 0.00584515 0.0106787 0.00701754 0.0164912 0.00333333 0.00754386 0.00257753 0.00798012 0.00343797 0.00914076 0.0162217 0.0159852 0.00509056 0.00825275 0.00929825 0.00836518 0.0156417 0.0179937 0.0151003 0.015271 0.00796943 0.00578947 0.00719298 0.00684211 0.00336682 0.00653301 0.00438596 0.00350877 0.0101754 0.0054386 0.0166667 0.00807018 0.0159649 0.0159649 0.0168421 0.020225 0.00669005 0.00128451 0.00240778 0.00858271 0.000260371 0.00632474 0.000609379 0.00487319 0.0149679 -0.00263665 0.00457584 -0.014949 -0.0168488 0.00382998 -0.00117723 0.0106393 0.0058156 0.0158154 0.00754446 0.0101757 0.0138596 0.0138596 0.0154386 0.00754386 0.0021042 0.0147143 0.00940108 0.0138985 -0.0254609 -0.0345581 -0.0230602 -0.0221642 -0.0237329 0.0124575 -0.0132562 -0.0242314 -0.0405966 -0.0550401 -0.0640846 -0.0501182 -0.0263485 -0.0251376 -0.0241024 -0.0142757 0.00957821 0.0158555 0.0324516 0.0298978 -0.000185186 0.0158513 0.00210955 0.00263158 0.0149324 -0.00324798 -0.031886 -0.0353309 -0.12911 -0.157572 -0.151477 -0.192647 -0.112889 -0.0642131 -0.20245 -0.326386 -0.408442 -0.415286 -0.330865 -0.261707 -0.140822 -0.0627335 -0.151718 -0.194576 -0.170345 -0.106543 -0.0242048 0.0641242 0.000257577 0.0110708 0.013322 0.0163158 0.0116922 0.0116542 -0.0228043 -0.0893947 -0.0717787 -0.231325 -0.423584 -0.422029 -0.252503 -0.379721 -0.653359 -0.746448 -0.850023 -0.754684 -0.4868 -0.329119 -0.218493 -0.174786 -0.334246 -0.323156 -0.331898 -0.116249 0.0628149 0.188883 0.0461328 0.00430071 0.00420004 0.0150877 0.0140087 0.00246114 -0.0303224 -0.0671826 -0.0673085 -0.0793834 -0.293113 -0.213734 -0.167693 -0.392569 -0.558034 -0.739752 -0.873804 -0.792804 -0.450807 -0.333089 -0.115148 -0.0091795 -0.14812 -0.469605 -0.485327 -0.33364 -0.0148863 0.189278 0.0299228 0.0178939 0.0143541 0.0115789 0.00802031 0.0386483 0.00980624 -0.0410547 0.0529819 0.114377 0.0223765 0.121414 0.0366792 -0.0864043 -0.284253 -0.620391 -0.703215 -0.520439 -0.234245 -0.109654 -0.0628172 -0.0459409 -0.10484 -0.340118 -0.297828 -0.243825 -0.0892431 0.11156 0.0173285 0.0197805 0.0129057 0.0138596 0.0221551 0.0861112 0.130664 0.0832959 0.224978 0.151539 0.125228 0.309001 0.265486 0.236182 -0.232859 -0.593184 -0.643489 -0.510972 -0.321764 -0.349567 -0.333527 -0.396405 -0.289425 -0.292106 -0.222498 -0.210243 -0.00745615 0.00313264 -0.17471 -0.0247471 0.0045614 0.012807 0.0271898 0.123528 0.271153 0.368642 0.325603 0.0730763 0.166407 0.47791 0.331927 0.00733672 -0.427033 -0.621739 -0.515003 -0.378908 -0.288159 -0.456585 -0.534096 -0.459783 -0.194846 -0.354667 -0.282339 -0.234094 0.122117 0.141697 -0.0515831 -0.0124594 0.00666667 0.014386 0.0174142 0.132199 0.360421 0.500645 0.460173 0.0931613 0.0122342 0.273044 0.432762 0.0355931 -0.276734 -0.223226 -0.0766815 0.0366556 -0.194032 -0.399008 -0.449226 -0.273291 0.022137 -0.259969 -0.200196 -0.0576508 0.326778 0.164564 0.00768406 -0.00111474 -0.000858739 0.00315789 -0.0157897 0.0904674 0.378033 0.527302 0.50519 0.211005 0.21733 0.239016 0.319639 -0.0100272 -0.165378 0.127712 0.224052 0.197888 0.00428442 -0.348523 -0.487041 -0.31008 -0.293078 -0.415231 -0.455439 -0.298382 -0.0448468 0.0809266 -0.0565156 -0.0349029 0.0141872 0.0135088 -0.00279578 0.0565481 0.546875 0.631569 0.695886 0.665021 0.704152 1.00264 0.902091 0.360696 0.179312 0.131794 0.3882 0.733801 0.319999 -0.119122 -0.159181 -0.0682092 -0.206573 -0.137038 -0.107154 -0.233716 -0.197729 -0.065255 0.032435 0.0166027 0.0149123 0.0173684 -0.0470187 -0.0349996 0.465154 0.636748 0.830361 1.01394 1.18069 1.17139 1.13361 0.640481 0.649386 0.241962 0.291741 0.763721 0.346215 0.113289 0.101763 0.0432971 0.0639925 0.343537 0.334628 0.168776 0.0876586 -0.0425406 0.0818142 0.0279433 0.0112281 0.00333333 -0.0624687 -0.033229 0.438156 0.51864 0.650923 0.739484 0.763233 0.691701 0.728014 0.308013 0.168835 -0.105978 0.00825998 0.296419 0.421247 0.242229 0.20972 0.00325478 0.438556 0.507055 0.25511 0.0937634 0.238395 0.00769154 -0.0273627 -0.0367994 0.013848 0.00526316 -0.0295218 -0.1707 -0.0175643 -0.0720822 -0.0119847 0.25804 0.416922 0.161954 -0.248761 -0.409467 -0.283151 -0.291042 -0.0997824 0.109798 0.154111 -0.00459315 0.0563019 0.0812639 0.392029 0.38059 0.206758 -0.101927 0.0378409 -0.0981354 -0.18253 -0.0760406 0.00473684 0.0140315 -0.0658852 -0.535823 -0.729897 -0.654949 -0.566371 -0.576687 -0.628099 -0.725638 -0.860214 -0.819584 -0.537308 -0.222337 -0.176181 0.111188 0.0155048 -0.156518 -0.0147641 0.217099 0.511637 0.381543 0.239638 0.208218 0.147203 -0.181271 -0.25827 -0.0575624 0.0113849 0.0152886 -0.108392 -0.785202 -1.02617 -0.957908 -0.832073 -0.930027 -1.00987 -1.07661 -1.02468 -0.866349 -0.635956 -0.472745 -0.269777 -0.0310721 -0.24611 -0.279501 -0.0188372 0.0828328 0.269569 0.233652 0.215995 0.264133 0.224131 0.0492275 -0.247024 0.000323592 0.00315445 -0.000197993 -0.128008 -0.755463 -1.08341 -0.965848 -0.659185 -0.571505 -0.623374 -0.688346 -0.424778 -0.582485 -0.628082 -0.559446 -0.510564 -0.28501 -0.235036 -0.0621282 -0.0759014 -0.062811 0.269319 0.160772 -0.0818929 -0.0359577 0.00628217 -0.134551 -0.487252 -0.0274229 0.0151148 0.00826484 -0.0918193 -0.537632 -0.733147 -0.547435 -0.193433 -0.135832 -0.359539 -0.274771 -0.114513 -0.37087 -0.853165 -0.653476 -0.225558 0.00289265 0.0306138 0.180919 0.0573877 0.058668 0.172731 -0.0588606 -0.21669 -0.0975501 -0.0649893 -0.364672 -0.507741 -0.0529775 0.00473511 0.00740192 -0.0256992 -0.252294 -0.270101 -0.184065 0.214004 0.219083 0.0104418 0.161068 0.186942 -0.378566 -0.93864 -0.534693 0.117641 0.363536 0.120842 -0.163801 -0.0221149 0.120826 0.350474 0.373396 0.068393 0.0266751 -0.140492 -0.381061 -0.468779 -0.0470722 0.0110526 0.0170175 -0.0183917 0.00393119 -0.0695094 0.150069 0.421345 0.270132 0.171933 0.217282 0.171317 -0.39295 -0.841204 -0.545936 0.117553 0.401602 0.0873146 -0.260559 -0.104414 -0.113416 0.0341658 0.273844 0.161058 0.102012 -0.126565 -0.451753 -0.32319 -0.011845 0.00894737 0.015614 0.0101681 0.0350702 -0.000336377 0.10624 0.305875 0.310866 0.308203 0.376997 0.104066 -0.355899 -0.423115 -0.2794 -0.116508 -0.0773204 -0.0662936 0.0397842 0.155387 0.0421272 -0.0680536 0.0310601 0.0274911 -0.150275 -0.265519 -0.271066 -0.10057 0.0128579 0.00982456 0.0112131 -0.0042936 -0.0533837 0.13618 0.149094 0.333062 0.51136 0.431594 0.304815 0.144399 -0.118253 -0.0578198 -0.293371 -0.448683 -0.347917 -0.0625823 0.123036 0.206411 0.118719 -0.0288898 -0.0672283 -0.261191 -0.245798 -0.105488 -0.0765246 -0.0785677 0.00685738 0.0154386 0.00185303 0.00746173 -0.0836006 0.106357 0.238581 0.357226 0.397561 0.228081 0.14449 -0.0210333 -0.182539 -0.33896 -0.427313 -0.328469 -0.215889 -0.134522 -0.0404543 0.0363973 0.152237 0.125465 -0.00408355 -0.180303 -0.159836 -0.0102954 -0.123307 -0.106972 0.00457615 0.00122807 0.011751 0.0259255 0.0575418 0.0979663 0.233531 0.431712 0.396999 0.169809 0.202971 0.0413736 -0.130545 -0.171057 -0.214167 -0.158561 -0.179326 -0.185703 -0.219796 -0.219563 -0.105798 -0.00612877 -0.135605 -0.244193 -0.306093 -0.258228 -0.179845 -0.0352229 0.00434098 0.00385965 0.00443889 0.0130812 0.086897 0.130837 0.10485 0.442162 0.420328 0.250987 0.131778 -0.0607313 -0.0967532 -0.177552 -0.249765 -0.138837 -0.0869666 -0.077291 -0.130376 -0.227403 -0.257322 -0.140471 -0.192955 -0.186185 -0.2417 -0.244829 -0.100677 -0.00351425 0.00997646 0.0103509 0.00457944 0.0118719 0.0615047 0.0893557 0.00792149 0.118389 0.0599364 -0.00569627 -0.0102639 0.0429 -0.0738986 -0.201426 -0.179876 -0.143618 -0.13093 -0.121425 -0.122668 -0.151949 -0.139769 -0.17187 -0.160406 -0.125248 -0.128858 -0.075062 0.00282754 0.0215652 0.0107311 0.000175439 0.00754815 0.0135668 0.0111579 0.00658906 0.0135932 -0.0159411 -0.00462755 0.0139584 0.0215766 0.0255198 0.0291648 0.0140356 -0.000239837 0.00318434 -0.020759 -0.00792946 0.00707953 0.000324117 -0.00402608 -0.00696682 -0.011023 -0.0161595 -0.0158296 -0.00322411 0.00603862 -0.000894638 0.00394087 0.00157895 0.0173684 0.000877193 0.00526316 0.000499538 0.0145512 0.00499104 0.00842327 0.00683983 0.0042514 0.0132313 0.0147347 0.00315789 0.00770043 0.0035562 0.00811145 0.00871472 0.00906622 0.00648836 0.0124561 0.00754386 0.00824561 0.00950552 0.011917 0.0107018 0.000350877 0.0142105 0.00526316 0.00912281 0.00561404 0.00842105 0.0077193 0.00491225 0.00246361 -9.56351e-05 0.0148345 0.0142545 0.00147859 0.0154837 0.00514557 0.00308414 0.00834162 0.0127994 0.00597954 0.00399043 0.00151036 0.00833826 0.0138078 0.00295943 0.00429515 0.000263603 0.00123943 0.00719504 0.0159659 0.000175439 0.00947368 0.0159649 0.000175439 0.0028065 0.00943796 -0.00496571 0.00159898 -0.02434 8.88168e-05 0.0156167 0.0014757 0.0151419 0.0124803 0.00610445 -0.00985895 -0.0149236 -0.0249385 -0.0210277 -0.0165473 0.000652764 -0.0199654 -0.0250162 -0.0347288 0.00482119 0.0192442 0.017058 0.00754085 0.0036802 0.00512881 0.015791 0.00666667 0.00777495 -0.0241882 -0.0887748 -0.116462 -0.11149 -0.0885409 -0.0203549 0.0304327 0.0938049 0.10827 0.117037 -0.0184782 -0.158623 -0.149095 -0.0761407 -0.0200675 -0.0379317 -0.129763 -0.160864 -0.16066 -0.205971 -0.103604 -0.0508242 -0.0152811 -0.0434129 0.0146611 0.00663224 0.00736842 0.00467412 -0.0498081 -0.133348 -0.159287 -0.118865 -0.193632 -0.144419 0.0749611 0.245284 0.246851 0.0821749 -0.0686068 -0.19757 -0.160515 0.0445736 -0.0293603 0.0863537 0.104226 0.0255932 0.0383196 0.0033418 0.0790903 0.0788349 0.123197 -0.0283329 0.00085131 0.00698101 0.000877193 0.00638517 -0.0835548 -0.145138 -0.142784 -0.123258 -0.13304 -0.113964 0.0694069 0.107145 0.104844 -0.0321313 -0.164089 -0.133868 -0.0367424 0.0900807 0.12878 0.31317 0.259369 0.296271 0.118594 0.0992503 0.0191406 0.124797 0.173188 -0.0643147 0.00961017 0.0146124 0.00877193 -0.000896883 -0.0772547 -0.210865 -0.189411 -0.188923 -0.150852 -0.118309 0.0875879 0.0866555 0.109558 0.0642256 0.0440705 -0.180417 -0.113573 0.023213 0.184235 0.464569 0.33747 0.256227 0.150797 0.132811 0.160116 0.188177 0.179221 -0.169243 -0.0189923 0.00332169 0.00789474 0.0163059 -0.0579595 -0.191274 -0.208564 -0.159808 -0.129587 -0.0172731 0.0649678 0.106315 0.183449 0.00923726 -0.240882 -0.313668 -0.172662 -0.120762 0.2423 0.342782 0.179773 0.205362 0.255117 0.243381 0.20682 0.268605 0.161726 -0.144638 -0.00527735 0.00403509 0.00561404 0.0122195 -0.0584739 -0.211254 -0.317573 -0.0643024 0.0852103 0.220141 0.0990635 0.0483655 0.0782971 -0.0206625 -0.242999 -0.076707 0.0561221 0.0313121 0.278575 0.124851 0.146293 0.370554 0.211688 0.127732 0.171768 0.111135 0.0195472 -0.116528 0.0228809 0.00631579 0.00912281 -0.00667482 -0.134134 -0.30436 -0.287205 0.0577688 0.249891 0.354125 0.285228 0.206541 0.226022 0.0390424 -0.117643 0.154185 0.21821 0.206487 0.234558 -0.0744795 -0.0158586 0.0912434 -0.160688 -0.0441166 0.110322 0.0553913 -0.0216234 -0.0625213 0.0219013 0.00296374 0.00666667 -0.00267792 -0.144798 -0.328684 -0.273255 0.0510883 0.156883 0.163741 0.184053 0.196285 0.194901 0.150848 0.227132 0.369252 0.186262 -0.00435762 -0.204307 -0.466379 -0.345241 -0.286215 -0.255565 -0.163852 -0.146808 -0.040157 0.049215 0.0410201 0.0179459 0.00710098 0.00964912 0.0040087 -0.124325 -0.323248 -0.302139 -0.179699 -0.273269 -0.248709 -0.150221 -0.138028 0.189678 0.608499 0.625777 0.398217 0.0823633 -0.238414 -0.316171 -0.390756 -0.352051 -0.313003 -0.296408 -0.0679419 -0.106458 -0.17057 0.0559644 0.0416655 0.00436023 0.0145614 0.000350877 0.00334132 -0.115967 -0.357162 -0.252584 -0.148558 -0.301556 -0.391756 -0.355092 -0.208855 0.243572 0.60346 0.362316 0.147438 -0.0674985 -0.284594 -0.448883 -0.317078 -0.164832 -0.258491 -0.240786 -0.0683169 -0.108421 -0.22113 -0.0946798 -0.0415642 0.0109277 0.00140351 0.00368421 0.00688683 -0.121851 -0.29563 -0.210825 -0.237872 -0.280853 -0.450297 -0.354598 -0.00305049 0.360908 0.414348 0.237231 -0.0449236 -0.211247 -0.458871 -0.694253 -0.398078 -0.225371 -0.216441 -0.113807 -0.0428124 -0.133983 -0.144309 -0.179469 -0.135783 0.00330976 0.016491 0.00807018 -0.000564324 -0.141881 -0.139037 -0.0886275 -0.240294 -0.225837 -0.306603 -0.0670132 0.15136 0.370406 0.359716 0.292668 0.0786091 -0.413809 -0.714555 -0.666202 -0.264767 -0.0358694 -0.101983 0.00556417 0.040793 -0.18317 -0.19358 -0.251317 -0.19296 0.0076959 0.00596491 0.00192564 -0.0182731 -0.155813 -0.0916781 -0.0460444 -0.236185 -0.284172 -0.271198 -0.002287 0.165299 0.340763 0.318246 0.287067 -0.184466 -0.543918 -0.512163 -0.409638 -0.0892953 -0.0456194 -0.18118 -0.0682574 -0.00247699 -0.141541 -0.131709 -0.251968 -0.147823 0.00942636 0.0108557 0.00686175 -0.0231788 -0.161339 -0.157021 -0.0899922 -0.266092 -0.24149 -0.216749 0.0234048 0.161278 0.296467 0.331668 0.0713211 -0.595903 -0.840842 -0.635729 -0.408702 0.206434 0.0910176 -0.164469 -0.22352 -0.135232 -0.0843496 -0.122262 -0.251535 -0.0722278 0.0109121 0.0138557 0.0129606 -0.0194193 -0.12533 -0.140435 -0.0564068 -0.112403 -0.220733 -0.433238 -0.170776 -0.024529 -0.0664326 -0.112088 -0.543412 -1.12377 -1.18382 -0.753757 -0.192548 0.283224 0.110336 -0.0211698 -0.269067 -0.0733988 0.0658734 -0.0258043 -0.111372 -0.0430378 0.0227563 0.00666806 0.00998323 -0.0134519 -0.129739 -0.145903 -0.0830278 -0.304858 -0.527736 -0.582385 -0.428259 -0.347183 -0.463194 -0.62776 -0.966328 -1.18949 -0.917432 -0.373162 0.162366 0.367713 0.303427 -0.0381887 -0.257224 -0.0423172 0.199891 0.0362683 -0.065478 -0.0548739 0.0145756 0.00508247 0.00604 -0.00929061 -0.177355 -0.0888289 -0.094161 -0.371746 -0.608946 -0.63086 -0.488332 -0.5015 -0.764502 -0.918624 -1.02438 -0.811 -0.402092 0.009775 0.26589 0.385902 0.0670219 -0.0507181 -0.0555725 -0.135766 0.1007 -0.119432 -0.169319 -0.129098 0.00289577 0.0022807 0.0114035 0.00160817 -0.0788015 -0.0391631 -0.0108679 -0.188636 -0.371381 -0.504209 -0.393942 -0.337302 -0.634927 -0.745484 -0.827523 -0.624749 -0.249526 0.218808 0.433748 0.40457 0.200023 0.218082 0.182193 -0.185794 -0.0871795 -0.094587 -0.309994 -0.194334 0.00226545 0.00263158 0.00614035 0.0124046 -0.0596564 0.0171442 -0.0664601 0.00508683 0.00324774 -0.140737 -0.178978 -0.158384 -0.401883 -0.403598 -0.458515 -0.474851 -0.0752568 0.585565 0.724788 0.543883 0.254132 0.149866 0.0576347 -0.239864 -0.114167 -0.0504545 -0.31271 -0.161785 0.0101757 0.0170175 0.000173172 0.0229308 -0.0323938 0.203536 0.115593 0.165937 0.0958482 0.0204621 0.200805 -0.00302649 -0.14352 -0.107416 -0.0794745 -0.190783 0.0482928 0.550201 0.665304 0.381308 0.132896 0.0806993 0.0692788 -0.0786737 -0.107584 -0.106425 -0.161323 -0.167089 0.000398585 0.0152632 0.000690114 0.0151178 -0.0884937 0.121465 0.0506254 0.11176 0.155708 0.14583 0.233945 -0.0873411 -0.100637 -0.0896439 0.0532471 0.160944 0.313543 0.423524 0.501915 0.334479 0.071185 -0.110392 -0.020235 -0.0815959 -0.111706 -0.237061 -0.231534 -0.213539 -0.00680418 0.00421053 0.0131736 0.004051 -0.120574 -0.0123308 0.133156 0.197471 0.336398 0.139339 0.165059 -0.0636698 6.20268e-05 0.0869791 0.219621 0.165278 0.325626 0.47902 0.393593 0.133533 -0.0359509 -0.0799058 -0.132902 -0.154208 -0.105321 -0.228761 -0.227488 -0.115607 0.000759053 0.0114035 0.0171821 -0.00613783 -0.120759 -0.0284643 -0.00815765 0.0309595 0.118442 0.0425206 -0.0372244 -0.0569272 0.0574802 0.119919 0.0657006 0.0481616 0.331542 0.396293 0.206692 0.00232084 -0.0771883 -0.0341909 -0.0625257 -0.143597 -0.178696 -0.187031 -0.11326 -0.0620142 -0.00894799 0.0166667 0.00458492 0.0108521 -0.0541333 -0.0316084 -0.136456 -0.215136 -0.121726 -0.131393 0.00397686 0.172169 0.135496 0.104922 0.0599885 0.0766621 0.102783 0.103275 0.0481236 -0.0237277 -0.0533476 -0.000656374 -0.0374716 -0.103295 -0.0847488 -0.0790232 -0.0415392 -0.0291763 0.0136018 0.0135088 0.00245771 0.0135798 0.00699951 -0.0107214 -0.0320728 -0.0455131 -0.00678359 -0.00622114 0.00241756 0.00277628 0.0178165 0.0144546 0.0302597 0.0100949 0.000657395 0.0144898 0.033738 0.0296616 0.0031528 0.00631429 -0.00138136 -0.000722419 0.00286981 -0.00722732 0.00770932 0.00529985 0.011885 0.0157895 0.0126316 0.0105263 0.000526316 0.00363125 0.00342467 0.00386588 0.00399587 0.00859298 0.0143307 0.00822854 0.00877434 0.00561404 0.00927235 0.00817305 0.014464 0.0010841 0.01501 0.0163893 0.0112281 0.014386 0.00578947 0.00187542 0.00195143 0.00175439 0 0.0077193 0.00140351 0.00964912 0.000701754 0.012807 0.00631579 0.0173686 0.00624464 -0.000960451 0.00315197 -0.00668935 0.00501003 -0.00481358 0.016895 0.00442899 0.0023035 0.00762348 0.0132706 0.00631439 -0.00088072 0.00940164 -0.00236893 0.0135982 -0.00547746 0.00970656 0.0135704 0.00646626 0.0130577 0.00175439 0.00842105 0.00842105 0.0126316 0.0120986 0.000303111 0.00981602 -0.00330663 -0.0140315 -0.0238795 -0.0625866 -0.0269975 0.0136797 0.0155049 -0.014309 -0.00503163 -0.0167753 -0.0326321 -0.030314 -0.0139308 -0.0198996 -0.0142627 -0.00717787 -0.00124295 -0.00231712 0.010323 -0.00885139 -0.0139841 0.0122872 0.0135404 0.00701383 0.00666667 0.0129153 0.00315585 -0.017841 -0.150528 -0.311696 -0.257648 -0.226343 -0.23075 -0.146295 -0.188413 -0.217412 -0.210863 -0.228732 -0.214608 -0.110894 -0.0518697 -0.0420649 -0.113592 -0.108478 -0.153172 -0.146536 0.0476191 0.0465971 0.0388349 -0.0378777 0.00153694 0.0085483 0.00701754 0.00591333 -0.0208306 -0.0388815 -0.241856 -0.400897 -0.356276 -0.361231 -0.401312 -0.322958 -0.367361 -0.502368 -0.472576 -0.420868 -0.236708 -0.0251041 -0.0338036 -0.0184522 -0.0789003 -0.112333 -0.00693549 -0.0117406 0.173409 0.163178 0.0566554 0.0247229 0.0195617 -0.00229467 0.00140351 0.00628455 -0.0507249 -0.107861 -0.205265 -0.310192 -0.272274 -0.3724 -0.393104 -0.290277 -0.351172 -0.489793 -0.53784 -0.413279 -0.128444 0.0194303 0.146081 0.256763 0.137796 -0.079132 0.116052 0.119551 0.0233877 0.186895 0.25489 0.121474 0.038813 0.0122659 0.0140351 -0.00889702 -0.0560829 -0.184862 -0.312505 -0.406402 -0.39313 -0.318932 -0.284258 -0.356882 -0.417898 -0.469534 -0.512523 -0.330258 -0.127954 -0.0418724 0.131092 0.206245 0.124567 -0.0435269 0.280511 0.234472 0.127759 0.320495 0.149175 -0.0511797 0.0343929 0.00905561 0.0114035 -0.00607515 0.059608 -0.0494582 -0.224337 -0.407629 -0.500168 -0.494767 -0.468195 -0.658049 -0.770725 -0.73381 -0.622998 -0.365059 -0.276438 -0.123778 0.188647 0.300726 0.421614 0.363749 0.216287 0.184314 0.336241 0.499513 0.28589 -0.12094 -0.0346552 0.0147368 0 -0.0276888 -0.0770073 -0.126791 -0.303096 -0.54173 -0.608565 -0.58504 -0.593997 -0.730941 -0.825588 -0.683202 -0.418965 -0.318076 -0.188034 0.218268 0.526938 0.533985 0.506792 0.349216 0.374985 0.236024 0.271467 0.352287 0.17879 0.0278016 -0.0308876 0.000877193 0.0126316 -0.0110938 -0.0301102 -0.106572 -0.296483 -0.410901 -0.265194 -0.297219 -0.244229 -0.198124 -0.181128 -0.188524 0.00349509 -0.109769 -0.21252 0.0260304 0.342793 0.575586 0.392271 0.156476 0.285966 0.220053 0.0943531 0.34901 0.298851 0.151532 0.0240692 0.00256926 0.00210526 0.0164126 0.104688 -0.0752994 -0.17889 -0.290714 -0.131553 -0.0891578 -0.102751 -0.0148774 0.0851189 0.0870462 -0.0434268 -0.333458 -0.547466 -0.427617 -0.0672544 0.189255 0.229024 0.27915 0.545099 0.471305 0.17765 0.439916 0.626246 0.414848 0.0183032 0.0156055 0.00859649 0.0218762 -0.0685607 -0.217416 -0.259144 -0.270034 -0.214085 -0.264545 -0.250021 -0.106027 -0.18623 -0.57114 -0.906388 -0.88007 -0.664601 -0.494078 -0.289492 0.0142944 0.660294 0.572947 0.691991 0.575933 0.086272 0.0118556 0.19453 0.177931 -0.000689329 0.0108772 0.0163158 -0.000245431 -0.162754 -0.418817 -0.364286 -0.359985 -0.561426 -0.54674 -0.240074 -0.13896 -0.599239 -0.836329 -0.942582 -0.690951 -0.440693 -0.538714 -0.228131 0.339377 0.829614 0.728915 0.591632 0.240987 -0.250463 -0.293277 -0.259565 -0.2371 -0.026198 0.00210526 0.0101754 -0.0064782 -0.281336 -0.684101 -0.623622 -0.633293 -0.566915 -0.532499 -0.529304 -0.584079 -0.788175 -0.785957 -0.719938 -0.473897 -0.455111 -0.198832 0.149396 0.378863 0.576786 0.432855 -0.0521933 -0.39157 -0.44381 -0.514143 -0.418519 -0.241971 -0.0128035 0.012278 0.00947368 -0.00821436 -0.265176 -0.679725 -0.640618 -0.516579 -0.357635 -0.367686 -0.593378 -0.465984 -0.297011 -0.107716 -0.0719449 -0.277763 -0.229707 0.0538821 0.149628 -0.0155617 0.177155 -0.0342166 -0.422977 -0.730215 -0.506344 -0.415804 -0.233026 -0.0082875 0.0526921 0.00280702 0.00980924 -0.00130988 -0.190651 -0.622824 -0.746683 -0.666927 -0.618598 -0.620043 -0.452764 0.11663 0.229691 0.0976967 -0.252752 -0.333282 -0.418203 -0.493945 -0.453868 -0.733256 -0.368854 0.0507304 -0.157812 -0.208418 0.104985 0.057934 -0.00605643 0.170794 0.0505925 0.00114927 0.00528218 -0.0362945 -0.212406 -0.400071 -0.647578 -0.538004 -0.440185 -0.306842 0.0160919 0.424913 0.192864 -0.27387 -0.749583 -0.726769 -0.933257 -0.829292 -0.920047 -0.718706 -0.253954 0.165607 0.203461 0.388793 0.433566 0.0986515 0.101244 0.325046 0.0623414 0.00402049 0.0138953 -0.064591 -0.095794 0.0471638 -0.072525 -0.0910162 -0.0936448 0.00475151 0.190563 0.0014969 -0.167372 -0.32443 -0.495977 -0.745374 -0.810894 -0.741513 -0.658228 -0.270814 0.110784 0.348292 0.532528 0.550163 0.396064 -0.0198234 0.230972 0.405368 0.0718304 0.00221759 -0.00991615 -0.0958668 0.202437 0.45777 0.345614 0.27672 0.0160222 -0.235599 -0.297971 -0.145955 0.00642514 -0.0307572 -0.108712 -0.468671 -0.552082 -0.350791 0.0249662 0.395984 0.595827 0.730111 0.788903 0.532152 0.286749 0.181126 0.287491 0.370457 0.0623385 0.00343019 0.0154281 0.00174548 0.235259 0.431099 0.325976 0.219415 -0.26249 -0.256108 -0.248355 -0.199078 -0.021151 0.0754389 0.179026 0.116291 0.0677509 0.323914 0.524801 0.900926 0.92601 0.525269 0.338689 -0.0151586 0.128954 0.249323 0.418285 0.160876 0.0140855 0.0119298 0.0138596 -0.032207 -0.0133146 0.20707 0.00319197 -0.149892 -0.332968 -0.355185 -0.323176 -0.161184 -0.0521439 0.307449 0.527994 0.45373 0.515216 0.611655 0.590008 0.70347 0.588256 0.126642 0.0437732 -0.0968584 -0.11514 -0.056527 0.227741 0.170421 -0.00507186 0.00350877 0.00245614 -0.0238275 0.0609573 -0.122544 -0.191521 -0.104322 -0.28999 -0.27626 -0.346081 -0.520308 -0.632823 -0.152444 0.474221 0.649346 0.463926 0.222696 0.176388 0.0525125 0.16829 -0.0243739 0.299921 0.143512 0.0628756 0.1323 0.223029 0.09704 -0.00553793 0.0149123 0.00209218 -0.0332714 0.111046 0.0482916 -0.259912 -0.0786189 0.0452627 -0.0447553 -0.19271 -0.699054 -0.790135 -0.353579 0.146415 0.489502 0.419071 0.199446 -0.025939 -0.13134 -0.0707684 0.188234 0.724493 0.310205 0.254405 0.278067 0.317445 0.0628102 0.0150333 0.0129825 0.00589771 -0.0324292 0.0634617 -0.0158603 -0.115697 -0.0668181 -0.195105 -0.281796 -0.398116 -0.603297 -0.623846 -0.456429 -0.0986441 0.24808 0.375076 0.321437 0.0262123 0.0109534 -0.0776747 0.150479 0.45326 0.220548 -0.0113946 -0.0193814 -0.108022 -0.0818749 0.0189576 0.0105263 0.00551197 0.0672512 -0.116923 -0.21692 0.0442029 0.0620959 -0.0859108 -0.304585 -0.482533 -0.560078 -0.535029 -0.454372 -0.254186 0.0506675 0.140743 0.0381853 0.0431506 0.18454 0.0497494 -0.0334462 0.167712 0.137222 -0.17455 -0.221772 -0.232755 -0.110333 0.0099566 0.00333333 0.015861 0.0372524 -0.133072 -0.182665 0.0112862 0.0781491 -0.105488 -0.248757 -0.571032 -0.561263 -0.556195 -0.422911 -0.290316 -0.0661906 -0.00249543 -0.0551084 -0.0110397 0.0510352 0.0349375 -0.0466383 0.0206974 0.0119951 -0.221779 -0.281711 -0.20624 -0.117543 0.00286812 0.0136842 0.00444078 0.0316399 -0.0158347 -0.0983341 -0.13896 -0.214868 -0.282846 -0.228555 -0.261829 -0.267553 -0.291429 -0.236091 -0.169724 -0.0873756 -0.0104254 -0.0323863 -0.0906503 -0.0566528 0.021361 -0.0636876 -0.0105909 -0.0169754 -0.15469 -0.112601 -0.0663159 -0.0274042 0.00193981 0.00140351 0.00455769 0.0124675 0.0140995 0.0124515 -0.0254504 -0.0233587 -0.00892995 -0.0328444 -0.000865335 0.0194639 0.00546456 -0.00606849 0.00167347 -0.00316349 0.0012792 -0.0123716 -0.0156374 0.00646047 0.0128901 0.00173856 0.0114102 -0.00363055 -0.00268239 -0.00183514 -0.00824758 0.00703943 0.00804569 0.00982456 0.0054386 0.0150877 0.0126316 0.00674932 0.0061449 0.00571081 0.0171102 0.012001 0.00158219 0.0124115 0.0145415 0.0145614 0.0101163 0.00201682 0.0162206 0.00102531 0.0150858 0.015105 0.0173684 0.0152632 0.0110526 0.0149029 0.0126036 0.00578947 0.0133333 0.00736842 0.00122807 0.0108772 0.00842105 0.00368421 0.00561404 0.00280698 0.0109321 -0.00111266 0.0145147 0.0111065 0.00177008 0.00477223 0.0104261 0.0146006 0.0052403 0.0104334 0.00837196 0.00481632 0.0099069 6.20378e-05 0.00694755 0.0194445 0.0292586 0.0263948 0.00473435 0.0172111 0.000710817 0.0166667 0.000701754 0.00719298 0.0142105 0.0159646 0.00366045 0.00174408 0.00197966 -0.0130512 0.00504793 -0.00646752 -0.00561409 0.0278851 0.0216328 0.0192126 -0.0172681 -0.0278027 -0.0179567 -0.0327088 -0.014433 -0.0143152 -0.0157922 0.0107836 0.0290391 0.0336063 0.0514776 0.0380767 0.0142677 -0.00663038 0.0170381 0.00561661 0.00438596 0.0157505 0.00663216 0.00709816 0.0313665 -0.0262691 -0.0688942 -0.0530111 -0.0518628 -0.031751 -0.0320663 -0.0102754 -0.0441118 -0.178449 -0.178876 -0.153811 -0.151762 -0.103194 -0.0703692 -0.0665761 0.0573477 0.0198535 0.00347216 0.0184341 -0.0504316 -0.072986 0.00223492 0.00946793 0.00666667 0.0150062 0.0105588 -0.022464 -0.0904896 -0.0903216 -0.239592 -0.282603 -0.0964914 0.0187469 -0.0703723 -0.0448287 0.0347686 -0.125255 -0.178833 -0.0209189 -0.0185515 -0.00711003 0.163801 0.114659 0.262588 0.205398 0.15364 0.108484 0.0944765 -0.00812857 -0.00188401 0.00999091 0.0135088 0.00544511 -0.020482 -0.0438637 -0.12442 -0.169464 -0.203016 -0.282307 -0.107378 0.0627655 0.0231238 0.11639 0.0383065 -0.0265975 -0.0344886 -0.0653227 -0.0720534 0.131158 0.326401 0.397989 0.266656 0.251774 0.121423 0.193445 0.236667 0.0167149 0.00924957 0.00376813 0.0126316 0.0129456 -0.00466466 -0.0345615 -0.107244 -0.081252 -0.219138 -0.265557 0.114113 0.390046 0.362733 0.271618 0.0810246 -0.149276 -0.0809192 -0.0605213 0.0250681 0.0963104 0.118184 0.201065 0.0827889 0.370277 0.492018 0.349099 0.272785 -0.0233491 0.00257036 0.0015662 0.00649123 0.0294732 0.0820093 0.0293373 0.00722315 -0.0307095 -0.191042 -0.0527666 0.277418 0.497763 0.546781 0.142501 -0.309279 -0.518219 -0.381594 -0.187776 -0.0468127 -0.109415 -0.139902 0.0876137 0.0180613 0.27425 0.476423 0.494433 0.272322 -0.0943886 0.00168085 0.0022807 0.00491228 0.0195281 0.0175689 -0.0481872 -0.0792741 -0.0188188 -0.17057 -0.0354558 0.0384265 0.170901 0.0685643 -0.0978385 -0.334346 -0.27477 -0.103578 -0.0285964 0.115741 -0.0277335 -0.153177 0.0609176 -0.00289135 0.0746225 0.183548 0.320586 0.0835668 -0.133679 -0.00655451 0.00122807 0.00438596 -0.00793708 -0.0670147 -0.106648 -0.119664 0.0382246 -0.0804968 -0.050726 0.000272741 0.173986 0.0933821 -0.0921756 -0.328336 -0.0837742 0.0509634 0.019207 0.0275522 -0.129401 -0.222889 0.031115 0.0203342 -0.00734913 0.0898176 0.13654 -0.128328 -0.135198 0.00831063 0.0133796 0.00350877 -0.023858 -0.111904 -0.076228 0.057669 0.199531 0.00538241 -0.0386872 0.108495 0.259038 0.187357 -0.063599 -0.208893 -0.265953 -0.248682 -0.336275 -0.437363 -0.460333 -0.205503 0.105269 0.274719 0.0749154 -0.00158848 0.0142671 -0.208643 -0.0950435 0.0085127 0.0141425 0.00350877 0.00804755 -0.0514109 0.0472577 0.271197 0.2036 -0.240854 -0.424565 -0.0206214 0.323731 0.322425 0.218767 -0.191433 -0.26619 -0.321286 -0.594716 -0.725287 -0.612773 -0.192 0.0893469 0.0957729 0.0472513 -0.0719206 -0.299267 -0.307588 -0.0457689 0.0291571 0.00105263 0.00947368 0.00910143 -0.0123704 0.0405653 0.223685 0.15034 -0.141676 -0.109991 0.197706 0.455789 0.421023 0.214665 -0.198886 -0.162671 -0.310692 -0.569357 -0.641835 -0.523195 -0.0676679 0.0516315 0.00356511 0.020608 -0.141167 -0.455928 -0.345001 -0.0771493 0.0209612 0.00473684 0.0140351 -0.00870433 -0.0206832 -0.088522 -0.0200397 -0.119467 -0.344909 -0.106464 0.295386 0.565622 0.571789 0.332824 -0.126427 -0.110867 -0.0537919 -0.177311 -0.148093 -0.100569 0.0307572 0.0960354 0.290138 0.054771 -0.264986 -0.283792 -0.184372 -0.126175 -0.00785971 0.00719206 0.00333333 -0.0311621 -0.202635 -0.311468 -0.251458 -0.349869 -0.323329 -0.112151 0.351423 0.555089 0.746504 0.692594 0.257312 0.304787 0.248534 0.274608 0.153896 0.145453 0.302295 0.360095 0.463524 0.279283 -0.0206248 -0.0161345 -0.178026 -0.236069 -0.0174575 0.000701754 0.00789165 -0.0697386 -0.281877 -0.417129 -0.532402 -0.649709 -0.666198 -0.675405 -0.0893261 0.338653 0.720196 0.867292 0.786986 0.690524 0.485704 0.297669 0.0674044 0.0417561 0.416989 0.409892 0.381874 0.446728 0.219503 0.0317661 -0.228151 -0.213599 0.002135 0.00998414 0.0161864 -0.0621972 -0.258361 -0.361361 -0.64711 -0.808104 -0.763147 -0.766031 -0.518446 -0.1772 0.0327146 0.206904 0.265504 0.162973 0.108358 0.153196 -0.0940954 0.0873166 0.255084 0.116605 0.228511 0.320527 -0.00249326 -0.274677 -0.292428 -0.201871 0.00598972 0.00596198 0.0119771 -0.0465998 -0.133528 -0.248101 -0.60951 -0.654642 -0.698823 -0.919425 -0.812555 -0.77168 -0.879686 -0.824834 -0.816832 -0.885801 -0.690901 -0.329779 -0.185815 0.0513032 0.13259 0.157316 0.0062056 -0.155562 -0.114528 -0.157861 -0.108419 -0.0973432 0.00156724 0.016676 0.00747977 -0.0233108 -0.0128245 -0.175331 -0.490351 -0.58607 -0.817581 -1.07316 -0.967957 -0.979233 -1.15551 -1.12752 -1.08167 -0.986748 -0.746711 -0.244632 0.0408585 0.249858 0.357216 0.0554688 -0.0668516 -0.00850752 0.176248 0.0269291 -0.0543794 -0.0550349 0.00207978 0.0171918 0.014533 -0.00955206 -0.0534301 -0.133981 -0.196384 -0.358333 -0.650787 -0.869665 -0.682978 -0.657756 -0.772506 -0.71068 -0.686356 -0.511521 -0.339154 -0.0704754 -0.105616 0.223717 0.16064 0.0429103 0.297224 0.190634 0.291121 -0.00534643 0.029971 0.0159583 -0.00355 0.0124561 0.0157895 0.00781436 0.0448668 -0.0172898 0.122889 -0.0496326 -0.22415 -0.417437 -0.293335 -0.117437 -0.131244 -0.158753 -0.198287 -0.118683 0.0952913 0.282926 0.174241 0.342724 0.161978 0.0151182 0.110229 -0.0229362 0.161519 0.072277 -0.114998 -0.0384661 0.0260769 0.00894737 0.00719298 0.0038708 -0.0290721 0.0334095 0.0301538 -0.0275432 0.0367207 -0.0301816 0.0736469 0.157299 0.0963222 0.0976962 0.118709 0.00763076 0.154047 0.342634 0.308053 0.405457 0.234747 -0.0345176 -0.194908 -0.144015 0.0538854 0.0092424 -0.247879 -0.0763774 0.0162244 0.00421053 0.0170151 -0.0178441 -0.106209 0.242806 0.169578 -0.0733283 -0.0848864 -0.219188 0.105597 0.109046 0.0827013 0.22083 0.0276991 -0.380626 -0.273961 -0.0810866 -0.0532611 0.0540815 0.0083774 -0.0539941 -0.240766 -0.179064 0.0081069 -0.107036 -0.161189 -0.0924236 0.0159104 0.000350877 0.0127943 -0.015752 -0.126917 0.303779 0.212653 0.0502739 -0.0384367 -0.132141 0.123988 -0.0421514 0.0347641 -0.130006 -0.277829 -0.20777 -0.0942241 -0.179606 -0.187051 0.0998071 0.130312 0.00155831 -0.129696 -0.0511782 0.102061 -0.0912345 -0.217905 -0.178297 -0.0122283 0.000877193 0.00575299 -0.0164144 -0.111339 0.17495 0.33818 0.422671 0.181055 0.0428406 0.309142 0.233981 0.0971369 -0.0379738 0.0246196 0.0472145 0.0284522 -0.0835192 0.0159847 0.222239 