0.0172941 0.0165882 0.0338824 0.006 0.0335398 0.0344149 0.0333228 0.0134617 0.00866487 0.0218336 0.0243454 0.0215311 0.0120108 0.00635989 0.0293167 0.0229296 -0.0298414 -0.0716388 -0.0629479 0.0243258 0.00890938 -0.00214405 0.0278824 0.0155294 0.0141176 0.00105882 0.0225882 0.00670588 0.00635294 0.00247115 0.0180808 0.0159098 0.00357758 -0.00894777 -0.0195351 -0.0186771 -0.0409706 -0.0281796 0.00471146 -0.00113902 -0.0093752 -0.0313465 0.0329371 -0.013157 0.108531 0.232391 0.0956675 -0.00919409 0.0233553 0.0265331 -0.00281603 -0.0272585 -0.0618489 -0.0125154 0.0105852 -2.73543e-05 0.0236471 0.0279657 -0.0193975 -0.00184464 -0.0354753 -0.151118 -0.157462 -0.170775 -0.335974 -0.290328 -0.240218 -0.0182768 -0.0541733 -0.136516 -0.0935691 -0.0556928 0.455804 0.908997 0.611997 0.533205 0.607376 0.387014 0.189072 -0.142326 -0.518301 -0.322191 0.0133502 0.00435679 0.0211765 0.00261539 -0.0436997 0.0731724 0.0484609 -0.164094 -0.259086 -0.515463 -0.415162 0.100712 0.264415 0.215905 -0.0347119 -0.098436 -0.22788 -0.264425 0.319265 0.539338 0.824222 1.6856 1.28436 1.09732 0.297701 -0.29163 -0.526066 -0.593125 -0.0626533 -0.00180501 0.0137647 0.023716 -0.126568 0.00636422 0.253981 0.0657473 -0.0438177 -0.0658292 -0.258354 0.367623 0.719578 0.6341 0.425796 0.140327 0.0468151 -0.00242914 0.356492 0.64596 1.30166 1.8534 1.40629 0.601239 0.14476 -0.224591 -0.819939 -0.944872 -0.0620673 0.0225006 0.0197647 0.0195576 -0.143095 -0.147135 0.192942 0.29069 0.265443 0.0308963 -0.227228 0.305334 0.739328 0.6299 0.0266682 -0.491755 -0.783518 -0.427972 0.75886 1.41212 1.51909 1.51388 0.896058 0.0293454 0.328232 0.281906 -0.139007 -0.544897 -0.0517539 0.0278824 0.0127059 -0.0126746 -0.195872 -0.229288 -0.371127 -0.534112 -0.620535 -0.481818 -0.400737 -0.292805 -0.410568 -0.965592 -1.28483 -1.14973 -0.31559 0.596131 1.23263 1.69379 1.46112 1.45245 1.46713 0.962698 1.03589 0.460544 -0.247444 -0.229665 0.0122755 0.0271765 0.00282353 0.021754 -0.225821 0.0607271 -0.0617961 -0.222816 -0.534123 0.0871844 0.344514 0.280639 -0.245908 -0.905686 -1.04725 0.257732 0.707505 1.16731 1.80388 2.29907 1.92455 1.92282 2.31532 2.04621 1.74406 0.866013 -0.191719 -0.269143 0.0355319 0.0148235 0.0215294 -0.0468405 -0.45265 -0.187985 0.273237 0.650514 0.0970505 0.37843 0.64277 0.310267 0.209776 -0.0673486 0.0283641 0.640755 1.38336 1.16371 0.895413 1.17235 1.20391 1.67976 2.48221 1.91263 1.10961 0.845033 -0.278001 -0.703903 -0.00724379 0.0261175 0.0296471 -0.0580166 -0.446402 -0.208125 0.169642 0.47069 0.177173 0.201309 0.105971 0.352517 0.690101 0.216237 -0.614334 -0.400404 0.321504 -0.633387 -1.08961 -0.316359 0.115276 0.514609 1.01266 0.375877 0.938361 1.6417 0.433834 -0.952019 -0.0747056 0.0285882 0.00811765 -0.012418 -0.0089004 -0.318889 -0.348922 -0.158345 -0.532154 -0.402067 -0.418835 -0.264824 -0.312231 -0.421909 -0.730951 -1.00814 -1.21658 -1.29569 -1.64515 -2.03724 -1.56804 -1.06583 -0.934886 -0.451234 0.878736 1.32861 0.516328 -0.278701 -0.0421681 0.0303529 0.00105882 0.044404 -0.0849336 -0.474077 -0.423001 -0.18287 -0.406946 -0.21889 -0.215819 -0.470602 -1.4316 -2.00015 -2.07848 -1.93264 -2.23339 -1.83739 -1.53277 -1.55918 -1.31645 -1.01428 -1.61739 -0.956011 -0.367046 0.662426 0.501704 0.26235 0.011515 0.00458824 0.0225882 0.0579374 -0.384257 -0.541019 -0.322414 -0.404987 -0.0596503 -0.385566 -0.342307 -0.818049 -1.56897 -1.89735 -2.17447 -2.01657 -2.08346 -1.57134 -0.538561 -0.204013 -0.0943429 -0.185876 -0.884914 -0.674828 -0.66036 -0.461849 -0.467836 -0.280396 -0.0424825 0.0278824 0.0229412 0.0652466 -0.247771 -0.160894 -0.222876 -0.476877 -0.260666 -0.74813 -0.465337 -0.261326 -0.586146 -0.341468 -0.593229 -0.878731 -0.555346 -0.456329 -0.0618607 -0.0521844 0.654551 -0.133898 -0.893489 -0.783882 -1.13414 -1.1888 -0.997992 -0.587087 -0.0216444 0.0176471 0.00105882 0.0771491 0.143902 0.19293 -0.347242 -0.182227 -0.198898 -0.499335 0.180397 0.513038 0.283549 0.0360439 -0.306273 -0.287678 0.110045 0.411466 0.490371 0.561331 0.500859 -0.808569 -0.982961 -0.588516 -1.08166 -1.41507 -1.53161 -0.729707 0.00807327 0.0349412 0.00105882 0.0840392 0.015437 -0.249625 -0.335195 -0.201793 -0.116148 0.0976373 1.00551 1.11047 0.473087 -0.432915 -0.482915 -0.0607371 0.0065034 0.539793 1.34314 0.562622 -0.403749 -1.04473 -0.915145 -0.898409 -1.68467 -1.83903 -1.47574 -0.598067 0.0339598 0.00317647 0.00247059 -0.00447408 -0.299887 -0.25046 -0.151378 -0.367604 0.0817933 0.413187 1.02737 0.52793 -0.306833 -1.05738 -0.770389 -0.479421 -0.432396 0.176139 0.192337 -0.313738 -0.741155 -1.43367 -1.44261 -1.62769 -2.32332 -2.27727 -1.39653 -0.541206 0.0275469 0.00352787 -0.003988 -0.019223 -0.442131 -0.460845 -0.238742 0.026289 0.323716 0.187713 0.253443 0.195023 -0.86769 -1.21667 -0.564769 -0.0396387 -0.316367 -0.426034 -0.585038 -0.433604 -1.42659 -2.1809 -1.90606 -2.02541 -2.2886 -2.2204 -1.41216 -0.67415 0.013746 0.00882302 0.0277193 0.0660518 -0.141274 -0.0593472 0.191048 0.167782 -0.30723 -0.360126 -0.436101 -0.139297 -0.272165 -0.291113 -0.103887 -0.153441 0.342588 0.127869 -0.749877 -1.3691 -2.14084 -2.2255 -1.98867 -1.81818 -1.98781 -2.2019 -1.53791 -0.719847 0.00364384 0.0229412 0.0127059 0.0970926 0.197118 0.345663 0.500589 -0.0252006 0.133837 0.0490653 -0.617753 -0.12488 -0.0659278 -0.111103 0.188437 0.224205 0.59443 0.129762 -1.28936 -2.3081 -2.18495 -1.85966 -1.64752 -1.54824 -1.73257 -1.91185 -1.51681 -0.663791 0.019802 0.0158824 0.00388235 0.028019 0.190384 0.376143 0.0977347 0.0349724 0.344503 0.439048 0.406624 0.101636 -0.919269 -0.903055 -0.215009 -0.205024 0.0489369 -0.545173 -1.54465 -1.92937 -1.7252 -1.72675 -1.51519 -1.27832 -1.40402 -1.67251 -1.34918 -0.545241 -0.00661616 0.0127059 0.006 -0.00762716 -0.140833 -0.305153 0.286858 -0.205137 0.559313 0.795752 0.315161 -0.273657 -0.894634 -0.541624 -0.509156 -0.362042 -0.453435 -0.937244 -1.48649 -1.65414 -1.64748 -1.82926 -1.58223 -1.1776 -1.26256 -1.41437 -1.20723 -0.476691 -0.0102719 0.00494118 0.0264706 -0.0987801 -0.600677 -0.638887 -0.70144 -0.0998837 0.107932 0.489291 0.366765 -0.296418 -0.962047 -0.809927 -0.857162 -0.497267 -0.893921 -1.20705 -1.73679 -2.03766 -2.01082 -1.76507 -1.49312 -1.11418 -0.895433 -1.13434 -0.959519 -0.339805 0.0235104 0.0116471 0.0199569 -0.0299681 -0.389385 -0.622431 -0.79828 -0.39616 -0.487326 -0.216606 -0.330953 -0.538158 -0.564399 -0.260767 -0.468603 -0.480968 -0.979861 -1.4652 -1.77023 -2.01529 -1.96686 -1.89214 -1.60951 -1.13704 -0.990255 -0.92504 -0.580483 -0.162254 0.0116112 0.00247059 0.00288765 -0.0253474 -0.439258 -0.126233 0.536464 1.29902 0.483668 -0.286082 -0.618553 -0.0818135 0.0961553 -0.268512 -0.655824 -0.724182 -1.02357 -1.32951 -1.38293 -1.39742 -1.34542 -1.31069 -1.10416 -0.804006 -0.732831 -0.520416 -0.293887 -0.109016 0.0188083 0.0197647 0.0109966 -0.0154492 -0.396479 -0.376294 0.184352 1.25759 0.906564 0.361462 0.185872 0.293773 -0.015207 -0.205408 -0.452926 -0.466197 -0.482664 -0.513571 -0.582326 -0.480801 -0.491743 -0.405549 -0.290705 -0.189234 -0.183799 -0.115165 -0.0922986 -0.0199794 0.0266054 0.0317647 0.0285609 0.0108446 0.00416204 -0.065026 -0.0292448 0.0619039 0.155998 0.0705135 -0.00528975 -0.0385148 -0.116105 0.0129733 -0.0303102 -0.0107416 -0.00104607 -0.0534222 -0.0227043 -0.0241261 -0.0333489 -0.00668748 -0.011506 0.0126363 0.020495 0.00451113 0.0183177 0.0196185 0.024648 0.00423529 0.00882353 0.0225882 0.0211765 -0.00432725 0.0168525 -0.00289698 0.000936978 0.0335062 0.00963032 -0.0761082 0.0220864 0.0321176 0.0271764 0.0321032 0.00388942 0.0236459 0.00141149 0.022938 0.0303529 0.00105882 0.0158824 0.0338824 0.0331765 0.0123529 0.0190588 0.0296471 0.0225882 0.0162353 0.000705882 0.00811765 0.0232941 0.00705923 0.0314693 0.0304483 -0.0209806 -0.0387838 -0.0173148 0.0161884 0.0289752 0.0116471 0.00318773 0.00529993 -0.016634 -0.0158817 -0.0239178 -0.0250894 0.0152024 0.0137726 0.0254217 0.0243412 0.00881805 0.00988226 0.0222352 0.00176471 0.0243529 0.018 0.0102353 0.0275276 0.00651799 -0.0210143 -0.0479184 -0.0740283 -0.0500561 -0.0367103 -0.0107602 -0.0328223 0.0119667 0.00420154 -0.0132885 -0.0141779 -0.0615791 -0.0795652 -0.0686254 -0.0582598 0.0667356 0.0562777 -0.00291107 -0.00683539 -0.0558733 -0.0337637 -0.0366941 -0.000972917 0.00622589 0.0172982 0.0127059 0.00512394 0.0109076 -0.114143 -0.31679 -0.459821 -0.485085 -0.462831 -0.34791 -0.358076 -0.270079 -0.0965137 -0.239649 -0.195381 -0.147498 -0.115242 0.218346 0.495616 0.43898 -0.0352462 -0.589581 -0.755433 -0.752107 -0.493728 -0.386464 -0.124413 0.078472 0.0188229 0.0289412 0.0317644 -0.125597 -0.364304 -0.608989 -0.774597 -0.841709 -0.871985 -0.696915 -0.574026 -0.563864 -0.356681 0.0652375 0.358494 0.770902 0.727585 0.922838 1.35243 0.994892 0.57899 -0.19165 -1.08398 -1.07633 -1.1647 -0.913021 -0.416377 0.0970289 0.0220035 0.00529412 -0.00140135 -0.27974 -0.596094 -0.691701 -0.815791 -0.867019 -0.848024 -0.565648 -0.400163 -0.289555 -0.18902 0.189601 0.769516 1.40846 1.73116 1.81893 1.65794 1.03133 0.974893 0.591985 -0.451896 -0.693277 -0.808779 -1.04068 -0.714445 0.00879805 0.0329621 0.0225882 0.00449186 -0.447235 -0.995608 -0.984862 -1.0756 -1.01221 -0.931956 -0.555693 -0.629641 -0.742619 -0.609698 -0.403712 -0.113769 0.570801 0.979018 1.22648 0.652327 -0.11126 -0.308444 -0.745429 -0.662382 -0.52043 -0.628711 -1.08981 -0.797596 -0.0249949 0.00847059 0.0201176 0.024154 -0.623077 -1.33289 -1.05859 -0.971216 -0.574187 -0.777555 -0.840206 -1.07269 -1.08262 -0.663519 -0.80639 -0.670597 0.254289 1.1551 1.04875 0.373713 -0.443661 -0.557978 -1.02134 -0.849865 0.116673 -0.211311 -0.48221 -0.438638 0.141755 0.0215294 0.0254118 0.0203658 -0.554399 -1.36398 -1.11627 -0.428285 0.102087 0.146772 -0.24956 -0.794309 -0.772659 -0.455617 -0.71099 -0.149295 0.476056 0.501321 0.437141 0.444891 -0.081535 0.00134534 -0.121444 -0.765241 -0.361005 -0.524654 -0.419674 -0.34777 0.211852 0.000352941 0.00635294 0.013085 -0.638951 -1.27578 -0.456758 0.117796 0.49814 0.285591 -0.249257 -0.897815 -0.806696 -0.415479 -0.140579 0.452389 0.224278 -0.190087 -0.153917 0.0716863 0.168675 0.283612 0.152411 0.0319286 -0.405972 0.585255 0.349191 -0.15016 0.221153 0.0155223 0.0151765 0.0585455 -0.686621 -1.2406 -0.641442 -0.0823276 -0.117689 -0.16762 -0.411546 -0.73265 -0.538215 -0.475968 -0.421565 0.465844 0.544039 -0.233916 -0.475436 -0.791629 -0.495768 -0.463096 -0.477467 0.344357 -0.13888 0.50168 0.624588 0.0349717 0.160904 0.0116147 0.0116471 0.141284 -0.598739 -1.04091 -0.665069 -0.466997 -0.235659 0.145039 -0.104629 -0.831828 -0.686017 -0.257076 0.210639 0.502949 0.20083 -0.223277 -1.21248 -1.54858 -1.29215 -1.21988 -0.246232 0.34694 0.218201 0.386021 0.898624 0.0769014 0.092016 0.0232941 0.0303529 0.132967 -0.543968 -0.753291 0.286014 -0.372546 -0.611428 -0.36682 -0.665833 -1.1539 -0.818854 -0.221644 -0.188446 -0.464171 -0.79678 -0.940066 -1.26901 -1.49036 -1.41595 -0.814867 0.146141 0.103118 0.246002 0.656815 0.994254 0.193846 0.153352 0.0285882 0.00635294 0.112676 -0.387149 -0.527803 0.545789 -0.226204 -0.166139 -1.00405 -0.663615 -0.57809 -0.453457 -0.390158 -0.800297 -1.30444 -1.3365 -1.06962 -1.82227 -1.86977 -1.59097 -1.22581 -1.05172 -0.913236 0.348167 0.906884 0.50896 -0.496521 0.137207 0.0296471 0.00741176 0.202325 -0.125093 -0.192902 0.709031 0.176861 0.51727 -0.79521 -0.591442 -0.95209 -1.63515 -2.16475 -2.38863 -1.98036 -1.78717 -1.5156 -1.52234 -1.66697 -1.55229 -1.57822 -1.38333 -1.02682 -0.158956 0.43332 0.343539 -0.348532 0.196898 0.0194118 0.0292941 0.213397 0.298034 0.24962 0.558041 0.872798 1.00348 0.163886 0.379223 -0.488054 -2.17577 -2.81959 -2.72334 -1.93847 -1.5391 -1.54761 -1.60025 -1.85538 -2.07979 -2.18224 -1.71303 -0.89114 -0.42132 0.115654 0.560088 0.132536 0.261192 0.0349412 0.00564706 0.00950867 0.333354 1.0209 1.3487 1.5559 1.37733 1.78302 1.6031 0.158504 -1.52155 -2.24484 -2.02348 -1.38659 -0.853197 -1.20515 -1.65064 -1.75752 -1.86556 -1.83329 -1.52291 -0.695723 -0.738106 0.0369455 0.758503 0.685235 0.268963 0.0338824 0.0275294 -0.0124758 -0.262241 0.827885 1.71264 1.26631 1.57165 2.3086 1.92413 0.326034 -0.809272 -1.16058 -0.996585 -0.742863 -0.642347 -0.644928 -0.774576 -1.38507 -1.84688 -1.54556 -1.16486 -0.969333 -1.11195 -0.314306 0.572538 0.727719 0.210686 0.019874 0.00540562 0.0229725 -0.43601 0.169191 1.37128 1.15677 1.13295 2.12347 1.74453 0.713186 0.00489514 0.0610182 -0.387306 -0.976221 -1.04748 -0.642099 -0.406768 -0.882873 -1.24133 -1.21702 -0.863482 -0.989573 -0.635526 -0.239228 0.564096 0.730562 0.16589 0.0112655 0.0301112 0.122757 -0.375601 0.350085 1.30117 1.56551 0.610884 1.38071 1.31667 0.965946 0.296655 0.437636 -0.426807 -0.64922 -0.116537 -0.102796 0.0647823 -0.67745 -1.03252 -0.885128 -0.278636 -0.741443 -1.21192 -1.08277 0.573677 0.301308 0.137822 0.00882353 0.00917647 0.18469 0.00650194 0.155916 1.13453 1.55042 0.953469 0.859699 0.764892 0.969733 0.415354 0.980245 0.55314 0.45932 0.703828 0.259146 -0.0419453 -0.671897 -1.04899 -1.03081 -0.348249 -0.437913 -0.998399 -0.642747 -0.218893 -0.517989 0.0765139 0.00952941 0.00317647 0.0704345 0.00809799 0.0366438 0.253511 1.47135 1.39422 1.05571 0.705995 0.822093 0.965318 1.46215 1.20708 1.26825 0.82077 0.290538 -0.241457 -0.610837 -1.07761 -1.14304 -0.819463 -1.00797 -0.56055 -0.0455061 -0.544915 -0.704001 0.0311986 0.0127059 0.0345882 0.0960701 0.065676 -0.2766 0.168144 0.954782 0.413212 0.386374 -0.165816 -0.0531339 1.05792 1.43276 1.16781 0.522726 0.255988 -0.287556 -0.711275 -0.983713 -0.837339 -0.482091 -0.40391 -1.01892 -0.488493 -0.307972 -0.953486 -0.572033 0.0330543 0.0158824 0.018 -0.00382632 -0.0965104 -0.471453 0.113909 0.322708 0.201813 0.321623 -0.298944 -0.421375 0.537934 1.15671 0.870465 0.348297 0.275788 -0.00854638 -0.406778 -0.618986 -0.372925 -0.276297 -0.387518 -0.594649 -0.00720136 -0.428923 -1.14812 -0.699895 -0.00442705 0.0102353 0.0199088 -0.00872529 -0.0445485 -0.450911 0.100697 -0.0615635 -0.45411 -0.393262 -0.545207 -0.500974 0.113067 0.465196 0.245998 0.0812573 -0.0142099 -0.327806 -0.205512 0.159751 0.11609 0.00158439 -0.130109 -0.177643 0.0809702 -0.603189 -1.00589 -0.600677 0.0018357 0.00317647 0.0202958 0.0196666 -0.0411161 -0.271967 -0.00579686 -0.103475 -0.441576 -0.715538 -0.867489 -0.721799 -0.673542 -0.745421 -0.909649 -1.07032 -0.822149 -0.630556 -0.411329 -0.0892608 -0.07128 -0.189581 -0.542146 -0.522307 -0.417931 -0.790609 -0.692601 -0.473832 -0.0252171 0.0211765 0.0280468 0.0488558 0.0187119 -0.170614 -0.292917 -0.428944 -0.43517 -0.232486 -0.47539 -0.492836 -0.490975 -0.653428 -0.660109 -0.606314 -0.427685 -0.43393 -0.26973 -0.178772 -0.113808 -0.115418 -0.198737 -0.0897119 -0.131153 -0.26072 -0.232385 -0.152737 0.0191382 0.0158824 0.03071 0.0367314 -0.0030886 -0.0748646 -0.110914 -0.10245 -0.023212 0.00937092 -0.0192559 -0.00620362 -0.0353902 -0.0436141 -0.014962 -0.0362347 -0.0468846 -0.0670845 -0.0345064 -0.0143888 0.0162028 0.0256628 0.00379579 -0.0183409 -0.00510939 0.0111356 -0.0132092 0.00179966 0.00120511 0.0236471 0.0278824 0.00211765 0.0264706 0.00635282 0.0314029 0.0190839 0.0335273 0.0020192 0.000330259 0.0158816 0.0158823 0.00494118 0.0141176 0.0317647 0.0190588 0.0183529 0.03 0.0307059 0.0232941 0.0307059 0.0278824 -0.00400369 0.0189908 0.00882353 0.00247059 0.0303529 0.0134118 0.00211765 0.0278824 0.0127059 0.0169412 0.0310588 0.0161972 0.0274496 0.0730407 0.0926553 0.0870666 0.0180199 0.020882 0.0248041 0.0319562 0.0109281 0.0446009 0.116352 0.0984996 0.0886245 0.0211348 0.0135461 0.0267047 0.0102353 0.00282353 0.0105882 0.0102353 0.0275294 0.006 0.0257647 0.0187059 0.00952808 0.0223456 0.00168418 0.0434446 0.0309717 -0.0232209 -0.0601266 -0.0110633 -0.11852 -0.104211 -0.00254641 -0.0276267 -0.0134282 0.0122815 0.0758433 0.00502826 -0.0716057 -0.205027 -0.104012 -0.141267 -0.084421 0.00741428 0.0787317 -0.00355986 0.000823005 0.0081234 0.00372951 0.0116471 0.0154512 -0.0120997 -0.0544794 0.103572 -0.00274886 -0.407659 -0.555383 -0.201711 -0.0847392 -0.290439 -0.213646 -0.44271 -0.510423 -0.177328 -0.391609 -0.721664 -0.996811 -1.57935 -1.77164 -1.25251 -0.823305 -0.213376 0.716084 0.266661 0.012561 -0.00051889 -0.0195793 0.0282353 0.00414151 -0.0402566 0.0805478 0.15699 0.0944489 -0.016769 -0.292959 -0.444555 -0.351206 -0.352707 0.130158 -0.204391 -0.728201 -0.989929 -1.89888 -2.7858 -3.18808 -3.06193 -3.03404 -2.35942 -1.35588 -0.131252 0.603775 1.00214 0.471148 0.0140625 -0.0109066 0.0148235 0.00544496 0.126489 0.395774 0.718241 0.291193 0.45341 0.270272 0.466083 0.194024 -0.122676 0.28071 0.000522247 -0.636239 -1.74573 -2.82156 -3.99401 -3.99957 -3.1933 -2.26924 -1.58095 -0.735516 0.192221 0.515107 0.839355 0.0715766 -0.0587451 0.0156283 0.0162353 -0.0429129 0.219029 0.553878 0.272286 0.168122 0.342915 -0.0334015 0.680425 0.0698884 -0.0757699 -0.0433109 0.523342 0.555721 -0.881729 -2.62192 -3.43004 -3.58217 -2.86268 -1.80509 -1.20732 -0.583533 0.0925898 0.0863046 0.784335 -0.299164 -0.0848309 0.00388235 0.000352941 -0.00972747 0.326855 0.698005 0.525678 0.344557 0.702894 0.230668 0.939466 0.651049 0.52587 0.414916 0.942587 1.25562 0.236251 -1.63253 -3.42903 -3.93687 -2.57916 -1.09595 -0.173179 0.258705 -0.995935 -0.713102 1.31114 0.631801 0.259054 0.00705882 0.0109412 -0.0362571 0.223672 0.401715 -0.0744985 0.287658 1.25561 2.03372 2.36237 1.77687 1.8541 1.28695 0.920777 0.813499 0.0277158 -1.88521 -4.29783 -4.60599 -3.24733 -1.1093 0.026088 -0.103133 -0.968862 -0.981242 0.755429 0.269958 -0.097686 0.00247059 0.0232941 -0.00668581 0.511933 0.469607 -0.16264 -0.174176 0.0291971 0.962772 1.1849 -0.137608 0.208321 -0.0823302 -0.555344 0.0479613 -0.483138 -2.35797 -3.79917 -3.96621 -3.08408 -0.933936 -0.394843 0.164274 -0.275844 -1.17837 0.16954 1.08411 0.236226 0.0301408 0.0236471 0.0675569 1.16059 1.01417 -0.446574 -0.348668 0.785959 0.642616 1.27131 0.960888 0.835528 0.260816 0.314021 1.55783 0.158786 -0.654882 -3.58259 -3.72867 -2.9451 -1.6078 -1.07891 -0.0313482 -0.551691 -1.46358 0.637478 1.50301 0.516545 0.00489459 0.0109412 0.109247 1.30342 0.817693 0.352656 1.01413 1.00138 1.13352 1.53645 1.29258 1.54739 0.541906 0.879351 2.27975 1.44473 0.122276 -3.12515 -3.33451 -3.9047 -3.4137 -1.79787 -0.155202 -1.13291 -0.591523 0.486754 0.107653 0.360574 0.018 0.00564706 -0.0191031 0.301755 -0.332357 0.147458 0.880372 0.620313 0.0789247 0.776502 1.77595 1.37283 0.661489 0.860104 1.07246 0.978207 0.13435 -2.54075 -3.10204 -2.69967 -1.88128 -2.11968 -1.13674 0.479205 0.0766348 0.577174 0.415635 0.346924 0.00741176 0.0271765 -0.0285774 0.183633 0.430995 0.233796 0.395732 0.562605 0.0461227 0.480041 1.26658 0.618883 0.202313 0.977827 1.68214 0.264688 -0.671069 -2.38931 -2.24971 -2.68631 -3.05306 -3.13023 -1.18066 0.211318 -0.325941 0.232816 0.161214 0.287532 0.0155294 0.0236471 0.470955 1.41744 0.822443 0.99119 0.916446 0.51285 -0.122664 1.46854 1.51781 0.881134 -0.686857 0.539282 1.89158 0.806168 -0.487883 -0.351836 -1.37996 -2.15677 -3.4425 -2.84822 -1.64122 -0.637855 -0.510744 0.615393 0.836331 0.20375 0.0162353 0.0137647 0.296384 1.05001 0.425347 1.68419 1.72225 0.896293 0.131764 0.122731 1.46862 1.38891 0.826152 0.831173 0.577949 0.418506 -0.191663 -1.82124 -3.17214 -2.75392 -2.92882 -1.58893 -1.68584 -1.22827 -0.696152 -0.0574696 0.278681 -0.00851975 0.00917647 0.00902513 0.450369 0.393943 -0.23355 0.432656 0.113548 0.97716 0.555939 0.848962 0.982927 1.53312 1.61627 0.460673 0.290521 1.34183 -0.675415 -1.18087 -1.71374 -1.8589 -2.18927 -1.88905 -1.40643 -0.892546 -0.515543 -0.140262 -0.0808902 0.0984622 0.00247059 0.0344055 0.330302 0.86992 0.398654 0.868148 0.665725 0.785063 0.0874485 1.35381 2.01368 2.47241 2.2605 2.28168 1.45649 1.23715 -0.689999 -1.75249 -2.78775 -2.38933 -1.74641 -1.2329 -1.50602 -0.380445 -1.0393 0.0235039 -0.528963 0.015447 0.0229361 0.0039565 0.661205 0.918203 0.396652 0.954935 0.845646 0.13845 0.0778988 0.630945 1.70648 1.2522 1.4499 1.4601 1.90886 1.36606 -0.2181 -1.75405 -3.23773 -2.72808 -1.63992 -0.922631 -1.096 -0.676923 -1.58848 0.224219 -0.735597 -0.136128 0.0342412 0.0228304 0.694655 1.32206 0.564992 1.65211 -0.115356 -0.0510383 -0.0208469 0.16365 2.25576 1.99461 2.24062 2.09526 2.9751 1.50482 -0.143736 -1.49377 -2.41674 -2.83214 -2.28274 -1.48168 -1.17402 -0.775556 -1.30059 -0.0435163 -1.14482 -0.160698 0.0257647 0.00388235 0.405706 1.71589 0.274942 1.10193 0.72008 0.082355 0.075272 0.63439 1.34936 2.25898 2.70838 2.54446 2.87106 1.77715 -0.370308 -1.51033 -3.25274 -3.5258 -2.75216 -1.85206 -1.81105 -0.916242 -1.25678 -0.541014 -1.16112 -0.164069 0.03 0.0169412 -0.161769 0.794101 1.09685 0.339055 0.95932 0.506499 0.918809 0.120679 0.51673 1.84215 2.7467 2.23686 1.75303 0.851174 -1.52129 -3.23084 -4.10202 -3.67636 -2.30636 -1.35018 -1.1043 -0.0511509 -0.0992638 -0.038027 -0.870595 -0.19873 0.0236471 0.00247059 0.0266057 1.46558 1.25643 0.0167392 0.297437 -0.496904 -0.30246 -0.323058 -0.37369 1.07468 1.94436 1.09108 -0.211594 -1.57305 -2.58948 -3.03936 -3.44836 -2.91634 -2.2909 -1.58901 -0.881263 -0.470064 -0.303787 -0.129731 -0.847724 -0.173863 0.0229412 0.0296471 0.184638 -0.130512 0.289065 1.11746 0.54038 -1.0616 -0.545563 -0.287566 -0.55787 0.676629 1.56645 0.336457 -0.694175 -1.50656 -2.16962 -2.4002 -2.76439 -2.4794 -1.92825 -1.78725 -1.44177 -1.04729 -0.829599 -0.477826 -0.775566 -0.11675 0.0208235 0.0138243 -0.0885382 -0.456192 0.221046 0.677791 0.193778 0.0607117 0.448608 -0.286461 -0.0513312 1.20955 1.26027 -0.0832442 -0.972344 -1.43982 -1.94505 -2.21276 -2.3933 -1.99581 -1.58711 -1.29529 -1.37724 -1.39804 -1.01057 -0.72816 -0.717624 -0.0977155 0.0328235 -0.0190483 -0.013494 0.326885 0.23041 0.712846 0.297549 0.547735 0.762051 0.0503624 0.284008 1.14935 0.588523 -0.0778211 -0.673607 -0.960663 -1.41383 -1.74323 -1.97649 -1.71444 -1.85074 -1.51992 -1.15885 -1.05705 -0.856393 -0.550342 -0.464166 -0.0496105 0.0282353 -0.0130576 -0.0416199 -0.0800114 -0.249144 0.245142 0.311411 0.241435 0.137034 -0.0493873 -0.0133218 0.257094 0.239346 0.0449769 -0.345423 -0.316512 -0.517477 -0.693155 -0.961732 -0.862665 -0.89153 -0.697714 -0.302721 -0.269908 -0.355986 -0.244428 -0.199968 -0.0201579 0.00635294 0.0284354 0.00834732 0.0264985 0.0445119 0.0364917 -0.0342925 -0.00460955 -0.231223 -0.0706587 -0.0614906 0.0315792 0.0685224 0.0448701 -0.0280011 -0.0297393 -0.0707402 -0.0376233 -0.0773655 -0.0477092 -0.0784412 -0.0110272 0.0240856 -0.00317951 -0.0255496 -0.0187436 0.00628967 0.0103557 0.0349412 0.0261176 0.012 0.0314118 0.00315403 0.00823346 0.0344719 0.018736 -0.0424525 0.00449516 0.0222619 0.00811759 0.0303529 0.00882353 0.00458824 0.0123529 0.0331765 0.00423529 0.0102353 0.00282353 0.012 0.0172941 0.0187059 0.0211765 0.0165882 0.00952941 0.00811765 0.0201176 0.0130588 0.0116471 0.0187059 0.0307059 0.00458825 0.0336258 0.018325 0.0419352 0.0231515 0.0236824 0.034213 0.0112914 0.00635294 0.00141186 0.0282338 0.00871249 0.0280159 0.00121202 0.0054784 0.0226489 0.0219159 0.0254482 0.0595174 0.0310602 0.0183529 0.0250588 0.0127059 0.0218824 0.0144706 0.0151765 0.00457406 0.0201825 0.0177083 -0.0330541 0.0113541 0.0106281 0.0488712 0.040766 -0.0984427 -0.0141435 0.00582192 -0.00599502 0.0129142 0.125341 0.095204 0.000385632 0.0320014 -0.0150497 -0.0719212 -0.0984688 0.00325944 0.029288 0.015228 0.0227704 0.00930379 0.00410619 0.00882353 0.0187059 0.0118893 -0.0582038 -0.0666276 -0.259542 -0.293967 -0.277004 -0.0632233 -0.239626 -0.334351 -0.290364 -0.264376 -0.181786 0.0245821 0.0507561 -0.186439 -0.494267 -0.734511 -1.02201 -0.881193 -0.711212 -0.564777 0.139312 0.344688 0.218151 0.113371 0.0311615 0.0303536 0.0296471 0.00291843 -0.0748978 -0.0177536 -0.273937 -0.244418 -0.00285909 -0.0712337 -0.458435 -0.550291 -0.704174 -0.863203 -0.508995 -0.151851 -0.105228 -0.583101 -1.08514 -1.39149 -1.5409 -1.29862 -0.764215 -0.194165 0.149619 0.44767 0.51098 0.267361 0.0355596 0.0292769 0.0349412 -0.00406074 -0.130814 0.0218157 -0.144401 -0.0204089 0.393172 0.0785806 -0.59551 -0.525066 -0.999042 -1.23809 -1.03666 -0.704575 -0.456208 -0.585381 -0.792652 -0.964295 -1.01619 -0.925401 -0.148588 0.513874 0.289255 -0.0790219 0.328133 0.451629 0.0592598 0.0349301 0.024 -0.0233458 -0.0937787 0.00949791 0.0655358 0.277913 0.646604 0.152114 -0.509839 -0.613222 -0.803918 -1.03751 -0.851851 -0.0577908 -0.0987487 -0.66787 -0.929664 -1.10714 -0.799044 -0.193841 -0.183274 0.0568264 0.172314 0.390185 0.287345 0.50439 0.0666221 0.0243529 0.0137647 -0.0218015 -0.227247 0.15023 0.65112 0.834782 1.05798 0.452974 -0.677214 -1.10762 -1.25375 -1.39053 -0.836523 0.0698887 -0.0245247 -0.770934 -1.37477 -1.33771 -0.582565 0.214726 0.177774 0.290178 0.242605 0.715724 0.951964 0.543557 -0.0755386 0.00352941 0.000705882 -0.0034906 -0.303275 0.0448916 0.430479 0.596332 0.321863 -0.147031 -0.966234 -1.64648 -1.51954 -1.34337 -0.423188 0.304939 0.200269 -0.751017 -0.971464 -0.777875 -0.140317 0.0938413 -0.157169 -0.209772 -0.674893 -0.0877213 0.87866 0.496147 0.0147995 0.0194118 0.0268235 0.0140355 -0.109743 0.332441 0.450817 0.899753 0.00998184 -0.616415 -1.33888 -1.24674 -1.11633 -0.88795 -0.0409061 0.5203 0.197892 -0.602827 -0.510328 -0.193166 -0.11101 -0.109795 -0.275325 0.0482218 0.363673 0.54028 0.21657 0.26632 0.00358119 0.021518 0.0211765 0.0276042 -0.257931 -0.256487 0.222679 0.453371 -0.0716624 -0.270488 -0.78982 -1.07306 -1.00981 -0.874692 -0.320895 0.136834 0.194654 -0.874586 -0.433008 -0.39229 -0.454436 -0.459463 -0.0650398 0.9332 1.20271 0.0352251 -0.297889 -0.213403 -0.0225317 0.0102333 0.00105882 -0.0202243 -0.289861 -0.0114089 0.482726 0.0222675 -0.0488218 0.109468 -0.34949 -0.763136 -1.30864 -1.35369 -0.932978 0.0448569 0.293672 -0.0631137 0.700046 0.959023 0.720125 0.478849 0.49119 1.26196 1.25938 0.32494 0.336506 -0.0775722 0.0232315 0.00670588 0.0165882 -0.0155186 -0.162552 0.329891 0.593282 0.216102 0.207889 0.0155861 -0.471176 -0.581726 -1.12281 -1.14808 -0.454648 0.0260299 0.0425559 0.200359 -0.254478 -0.0547827 0.365419 0.0782379 -0.061726 0.594988 1.3319 0.0119652 -0.52616 -0.559107 -0.0482948 0.006 0.0229412 0.00158109 -0.347084 -0.267297 0.0333453 0.202102 0.229466 -0.485503 -0.91456 -1.02268 -1.1372 -0.84384 -0.677851 -0.377636 -0.199799 -0.239291 -1.15019 -0.667337 -0.46222 -0.613584 -0.604451 -0.17273 0.909484 -0.157832 -0.321453 -0.950963 -0.175719 0.00847059 0.0321176 -0.0944833 -0.727268 -0.434955 -0.052614 0.377512 -0.00760033 -0.129725 -0.253044 -0.550427 -0.969049 -0.983753 -0.811321 -0.346001 -0.840899 -0.342857 -1.14031 -0.852725 -1.26024 -1.58395 -0.576541 0.298935 0.749971 0.00447609 0.40977 -0.622879 -0.139089 0.0236471 0.006 -0.0685503 -0.46303 0.272284 0.674892 0.332353 0.193253 0.0677348 -0.197873 -0.739255 -1.34305 -0.755498 -1.16784 -0.830322 -0.247836 0.390233 0.17756 -0.33936 -1.16839 -0.393703 1.06599 1.65056 1.19784 0.215982 0.530407 -0.184248 -0.0606546 0.00211765 0.0278787 -0.0642164 -0.260413 0.461907 0.469718 0.0293444 0.187821 -0.0748844 -0.500038 -0.737258 -0.386997 -0.362209 -1.03056 -0.358074 -0.392043 0.269208 -0.0663972 -1.65154 -2.5033 -0.686247 1.40878 2.02021 1.49692 0.402806 -0.0873243 -0.480364 -0.0455057 0.00105882 0.0141043 -0.143354 -0.885517 0.0582043 0.527902 0.206615 0.00204676 -0.0407629 0.114516 -0.236934 -0.454579 -0.698893 -0.652137 -0.038655 0.104182 -0.425706 -1.44723 -2.61726 -3.05267 -0.676675 1.07668 1.32799 1.08148 0.476234 -0.38659 -0.445736 -0.0488581 0.0292924 0.0151379 -0.169212 -0.870944 -0.184193 0.323349 0.0648491 0.192292 0.550195 0.477652 0.0189698 -0.190792 -0.34487 0.132078 0.462296 -0.0337432 -1.0176 -2.16518 -3.11959 -2.81118 -0.248934 0.92315 1.24569 1.16021 0.605468 0.418865 0.0430777 -0.0134815 0.019275 0.00812519 -0.079209 -0.900883 -0.429259 0.243871 0.237674 0.161019 0.734236 -0.0749562 -0.168831 -0.385157 -0.713181 -0.347159 0.38585 0.24217 -0.922196 -1.996 -2.70079 -1.65535 0.464087 1.15826 1.10502 1.20228 1.2258 1.54427 0.465116 0.0663141 0.00423529 0.0232941 -0.0747281 -0.927181 -0.279899 0.860813 0.213627 0.339381 0.0701362 -0.447609 -0.759344 -0.889477 -0.753956 -0.492242 -0.0825013 -0.432794 -1.77065 -2.39014 -2.3275 -1.3489 0.0497011 0.812095 1.41767 1.09023 1.13992 1.0973 0.210622 0.0169776 0.00423529 0.0158824 -0.0722872 -0.707221 -0.255626 0.610801 0.0646347 0.0290987 -0.0374668 -0.372431 -0.200418 -0.690196 -0.438711 -0.116632 0.0530157 -1.13349 -2.14195 -2.78817 -2.18175 -1.07918 -0.254101 0.273491 1.00317 0.838772 1.34574 1.08055 0.0639568 0.0112165 0.0102353 0.0250588 -0.0430205 -0.440484 0.366081 0.323399 0.0702945 0.432008 0.712381 -0.0738317 -0.329156 -0.865573 -0.836661 -0.172426 0.00146898 -1.1269 -2.21696 -2.83363 -2.78984 -1.69475 0.080085 1.24753 1.11419 0.910515 1.60155 1.3616 0.10185 -0.0267619 0.0250588 0.0321176 0.0234581 -0.0245536 0.0770335 -0.448385 -0.736487 -0.474293 0.0474855 -0.468396 -0.691092 -0.803926 -0.575369 0.140995 -0.104875 -0.965524 -1.8514 -2.47138 -2.47898 -1.6586 -0.0395555 1.1883 0.964217 0.748427 0.842991 0.690174 0.0529933 -0.00176364 0.0342353 0.0232945 0.0225718 0.00584863 -0.40444 -1.14673 -0.912236 -0.463345 -0.210023 -0.456879 -0.562276 -0.534541 -0.0953793 0.200954 -0.478547 -1.39652 -1.69889 -1.98863 -1.89942 -1.70244 -0.530171 0.577754 0.781907 0.796807 0.918894 0.366974 -0.155727 0.020813 0.0303529 0.0151772 0.013691 -0.275009 -0.507146 -0.905927 -0.694302 -0.257052 -0.244815 -0.146862 -0.438324 -0.604552 -0.512584 -0.411557 -0.523341 -1.25089 -1.6319 -1.86555 -1.82568 -1.6529 -0.600302 0.0771494 0.633888 0.92337 0.959669 0.220678 -0.108216 0.00401747 0.0310588 0.0307063 -0.00030746 -0.0103407 -0.261709 -0.49874 -0.339076 -0.218725 -0.078966 0.00315805 -0.0875056 -0.167443 -0.173947 -0.199488 -0.292436 -0.559959 -0.858908 -1.04296 -1.13919 -1.0324 -0.547965 -0.134315 0.247218 0.432904 0.637927 0.232676 -0.000324483 0.00833624 0.00423529 0.0282353 0.00224572 0.0380803 0.0167562 0.0365651 0.0335787 -0.100389 -0.0918974 0.0196208 0.0232124 0.0355719 0.0362305 0.0256871 -0.0444964 -0.0781014 -0.0867184 -0.144622 -0.130513 -0.11283 -0.0655952 -0.0603831 0.0739455 0.0487075 0.0683316 0.0264161 0.0127065 0.0236765 0.00317647 0.0123529 0.00635294 0.0321176 0.0110669 0.000178295 0.00430387 0.00775415 0.0254378 0.00455898 0.0215294 0.000352941 0.0204706 0.0137645 0.0225856 0.0169385 0.0222326 0.0208229 0.0165882 0.0268235 0 0 0.0215589 0.00502933 0.0282353 0.0247059 0.00247059 0.00494118 0.006 0.000352941 0.0296471 0.0342353 0.0250586 -0.00370655 -0.00895217 0.00490903 0.0540817 0.0730245 0.0966888 0.0592244 0.000899424 0.00704157 0.0270081 0.0237349 0.0197959 -0.0100143 -0.0319592 -0.0202618 0.0200817 0.00673698 0.0101435 0.0320698 0.0342353 0.0204706 0.0247059 0.0176471 0.0254118 0.0317647 0.011577 -0.00260158 -0.0108382 -0.019931 -0.0394067 0.0105865 -0.0260422 0.0348303 0.0949089 0.00145635 -0.0249009 -0.0542335 0.00252892 0.0254811 0.0203045 -0.0108844 -0.0062911 -0.0233791 -0.0184795 -0.00432042 0.00549417 -0.0211217 -0.0787653 -0.00392243 0.000687223 0.0125241 0.0344353 0.0158824 0.0186842 -0.0522686 -0.176251 -0.300468 -0.343801 -0.204882 -0.0820479 -0.103413 -0.0575801 -0.0143909 0.0582756 0.0812383 0.080915 -0.0829227 -0.145619 -0.296719 -0.462219 -0.510437 -0.748314 -0.737389 -0.524065 -0.388413 -0.0951354 0.0501817 0.17709 -0.00045294 -0.0227679 0.0254118 0.0271029 -0.0345791 -0.121596 0.0663314 0.224035 0.516233 0.487483 0.587952 1.10913 0.886686 0.531815 -0.0417466 -0.612544 -1.07967 -1.05586 -1.02462 -1.4142 -1.58487 -1.50176 -1.22718 -0.764996 -0.360803 0.114975 0.102208 0.101239 0.00248197 -0.0082393 0.0285882 -0.0059543 -0.00251356 0.269124 0.526452 0.772652 0.991309 0.895892 0.766251 1.04568 1.2871 1.19947 0.769534 -0.0940926 -0.928091 -1.36938 -1.68643 -1.92701 -1.93793 -1.59848 -1.08387 -0.242321 0.216411 0.445137 0.646312 0.283487 -0.0969954 0.00305089 0.0105882 -0.00807102 0.0594254 0.246081 0.348865 0.740958 0.753914 0.578552 0.32641 0.799002 1.14047 1.03315 1.5044 1.09796 0.32385 -0.606353 -1.34795 -1.74876 -1.68667 -1.25042 -0.796139 0.218433 0.73957 0.617527 0.815964 0.198618 -0.100613 0.0338824 0.0349412 0.0148698 -0.113579 -0.256483 -0.0793465 -0.064972 -0.219804 -0.0114639 -0.109834 0.145554 0.416137 0.312618 0.817382 0.861399 0.564226 -0.195393 -0.738469 -1.06202 -1.18203 -0.773102 -0.457888 0.226856 0.529527 0.502255 1.08757 0.553754 0.0292257 0.0229412 0.0144706 0.00319849 -0.380194 -0.463729 -0.459575 -0.702858 -0.958546 -0.444258 -0.0443289 -0.232464 0.122687 0.44938 0.576766 0.628669 0.937738 1.20536 0.495687 0.193473 -0.481398 -0.385515 -0.234283 0.430418 0.928653 0.436086 0.889674 0.427621 0.022414 0.0264706 0.00811765 0.0111599 -0.231614 -0.473543 -0.453468 -0.652083 -0.576903 -0.516229 -0.257429 -0.4421 -0.248715 -0.0619842 0.283017 0.23911 0.679739 1.14295 0.99985 0.938975 0.323958 0.0386245 -0.470658 -0.122347 0.0401591 -0.138947 0.0207008 -0.0951531 0.00155744 0.00776464 0.00811765 0.0433896 -0.134666 -0.522396 -0.759511 -0.608847 -0.545589 -0.798503 -0.88139 -1.04758 -0.969577 -1.03138 -0.592077 -0.093241 0.205134 0.28729 0.624324 0.835623 0.531879 0.39982 0.0673257 0.286963 0.11736 -0.151409 -0.264703 -0.329109 -0.0482129 0.000705828 0.0268235 0.011999 -0.29976 -0.501493 -0.681636 -0.586188 -0.888924 -1.5873 -1.66493 -1.49258 -1.29583 -1.64341 -1.64772 -0.968071 -0.654002 0.155225 0.435338 0.338709 0.340806 0.265525 0.357388 0.497992 0.377355 -0.0254159 0.0983939 0.0838732 -0.0613882 0.0215294 0.00211765 0.00289946 -0.225841 -0.381604 -0.340894 -0.618673 -1.21458 -1.74462 -1.81153 -1.30025 -0.910377 -1.35154 -1.90727 -1.41125 -0.949826 0.0789241 0.252332 -0.456832 -0.557385 -0.456559 -0.421383 0.0640152 -0.0445009 -0.225481 0.313743 0.148319 -0.0600724 0.03 0.0303529 0.0487289 -0.0363483 -0.0595233 0.0144193 -0.376951 -0.868352 -1.04099 -1.12278 -1.36623 -1.25346 -1.52834 -2.23286 -1.82887 -0.990097 -0.087534 0.883087 -0.0861418 -1.06592 -1.14361 -0.783576 -0.424209 -0.772692 -0.622877 0.345716 0.238948 -0.0405942 0.0169411 0.0232941 0.0458707 0.274454 0.350455 0.5062 0.37605 -0.0281155 -0.0124088 -0.129048 -0.734812 -1.24024 -1.9473 -2.14369 -0.923414 -0.581141 0.174597 1.43112 0.256879 -1.19971 -1.47959 -1.76258 -1.37024 -0.828522 -0.341194 0.325658 0.0359081 -0.0232632 0.006 0.00952941 0.061595 0.198724 0.36803 0.598113 0.642535 0.589089 0.682689 0.453647 -0.185064 -0.863312 -1.70873 -1.15995 -0.245064 0.0636874 0.607843 0.221689 -0.389564 -0.716748 -0.838815 -1.27393 -1.14695 -0.466224 0.124281 0.435277 -0.0408978 0.00155581 0.0342353 0.0172941 0.00999075 -0.00898494 -0.0759018 0.095929 0.222195 0.533339 0.872591 0.692338 0.197483 -0.245545 -0.275875 -0.0908167 0.301377 0.723188 0.0938345 -0.538415 -0.755446 -0.479902 -0.457384 -0.299523 -0.311794 -0.283194 -0.272592 -0.193155 -0.302577 -0.00400938 0.00388235 0.0141176 -0.0115608 -0.526518 -0.881336 -0.855015 -0.713931 -0.593681 -0.485608 -0.680661 -0.377294 0.0204542 0.570372 0.518807 0.136736 -0.0054005 0.316778 -0.253663 -0.255878 0.130914 -0.419258 -0.410988 -0.677195 -0.923451 -1.01515 -0.796037 -0.369904 0.00598659 0.0285936 0.00120723 -0.0666721 -0.874787 -1.20074 -1.21147 -1.2678 -1.58044 -1.10765 -0.831801 -0.141728 0.236288 0.306334 0.119243 0.329485 0.381852 0.479452 -0.0128142 -0.266873 -0.52542 -1.0686 -0.966209 -0.68495 -0.786778 -0.695155 -0.759372 -0.459654 -0.0257753 0.0265028 0.00284386 -0.0479294 -0.734724 -1.41529 -1.61111 -1.47211 -1.11323 -0.452133 -0.0709875 0.647131 0.350418 0.603552 0.64979 0.849789 0.937324 0.188146 -0.741008 -0.817965 -1.1156 -1.02371 -0.750917 -0.56749 -0.464063 -0.527498 -0.688282 -0.385538 -0.0177898 0.0254118 0.0204706 -0.0400707 -0.887347 -1.51392 -1.32921 -0.889857 -0.485527 0.205437 0.216935 0.638548 0.876061 0.672583 0.280574 -0.0360529 -0.501743 -0.826973 -0.968315 -1.05303 -1.01286 -0.885045 -0.667691 -0.629808 -0.524591 -0.422646 -0.433484 -0.158469 -0.0194702 0.00247059 0.00882353 -0.0166275 -0.352708 -0.899165 -0.550277 -0.196955 0.00911948 0.0546798 0.345612 0.9826 0.497469 -0.130892 -0.840849 -0.603601 -0.423807 -0.353502 -0.412406 -0.704086 -0.890915 -0.776028 -0.971321 -0.851264 -0.319078 -0.225542 -0.248399 -0.0363049 -0.00421574 0.0201176 0.0201176 0.0329203 -0.332973 0.164077 0.552915 0.76355 0.293288 0.22694 0.904968 0.660113 0.142329 -0.297278 -0.555332 -0.447968 -0.275281 -0.46971 -0.72974 -1.04247 -1.31815 -1.04846 -0.903034 -0.808778 -0.566908 -0.425061 -0.356454 -0.02994 0.0062344 0.0264706 0.00317647 -0.0892016 -0.836386 0.375659 1.37322 0.692404 -0.0393662 0.927254 1.14307 0.640256 0.507101 0.275124 -0.150375 -0.164763 -0.196658 -0.339374 -0.522638 -0.999047 -0.922338 -0.674531 -0.502018 -0.418354 -0.352305 -0.202904 -0.111807 -0.128156 0.00297827 0.00847059 -0.0172419 -0.238564 -0.496377 0.9731 1.76089 1.26442 0.933977 1.14407 1.1751 0.307238 0.187036 -0.437031 -0.839178 -0.479494 -0.378205 -0.374364 -0.264888 -0.497369 -0.667444 -0.783801 -0.774782 -0.847205 -0.636991 -0.24269 -0.146161 -0.103031 -0.00360297 0.0176471 -0.00423781 -0.0791144 -0.214411 0.441758 1.46308 1.31871 0.94899 0.686463 0.304172 -0.215425 -0.357686 -0.902636 -0.885895 -0.341911 -0.289996 -0.20017 -0.234635 -0.392061 -0.571095 -0.79674 -0.780202 -0.853433 -0.560586 -0.164268 -0.136758 -0.0502427 0.024289 0.0292941 -0.00671223 0.00820721 0.110713 -0.147604 -0.0139721 0.244404 0.230811 0.0251709 -0.150623 -0.258036 -0.22702 -0.413044 -0.358529 -0.164307 -0.163756 -0.202735 -0.25998 -0.243495 -0.119341 -0.218595 -0.232217 -0.215829 -0.108612 -0.00372148 -0.0488331 0.00533325 0.0219922 0.0109412 0.0199647 -0.00697021 0.000151805 -0.053872 -0.0996288 -0.0356869 0.0541634 0.0112308 -0.0427807 -0.044796 -0.0261829 0.000666866 0.000184681 0.0142632 -0.0072928 -0.0190698 0.00110213 -0.00238335 0.0308186 -0.000297593 0.023066 0.0162185 0.00374693 0.0229495 0.0177579 0.0276742 0.0215044 0.0342353 0.00423529 0.0261176 0.0261176 -0.029974 -0.0295461 -0.0286543 0.013023 0.0160325 0.00270263 -0.0133626 0.0269624 0.00423529 0.00388234 0.0331067 0.00267481 0.0236469 0.0141176 0.00458823 0.0331765 0.0172941 0.00670588 0.0314117 0.00882352 0.0197647 0.0158824 0.0331765 0.0345882 0.00847059 0.0204706 0.0102353 0.000705882 0.0211765 0.0187288 0.00795007 0.0297893 0.024829 0.0120093 0.0355253 0.0175423 0.00988244 0.0253674 0.0180123 0.023335 0.0189402 0.0260564 0.0248246 0.0165082 0.0233343 0.0264984 0.0284858 0.0102355 0.0239991 0.0169407 0.0310588 0.0102353 0.0296471 0.0137647 0.0162397 0.0307315 0.0322611 0.0273516 -0.0100525 -0.0163429 -0.00124711 -0.00352368 -0.00887393 -0.0077407 0.00725886 -0.042068 -0.0122285 0.00118735 0.032929 -0.0110398 0.0417685 -0.0417703 0.063724 0.174865 0.0372667 0.00854849 -0.0250899 0.0200526 0.0320501 0.0313399 0.0317664 0.00211765 0.0215015 0.0404709 0.0108334 -0.0263999 -0.095765 0.00281501 0.0573648 -0.167273 -0.348026 -0.291867 -0.185442 -0.181061 -0.10593 -0.148954 -0.151025 -0.290618 -0.246762 -0.0304027 0.12037 0.272535 -0.0495474 -0.178236 0.150819 0.282422 0.179676 0.057261 0.00916957 0.0314118 0.00323839 0.113153 0.328085 0.16072 0.0719204 0.283417 0.329095 0.0134376 -0.516882 -0.712262 -0.386993 -0.35364 -0.372746 -0.52364 -0.562976 -0.532771 -0.293994 -0.161762 -0.509493 -0.502826 -0.192963 -0.291425 0.123476 0.264064 -0.168491 0.0325338 0.0242552 0.00388235 0.0228789 0.143508 0.308457 0.47164 0.388866 0.300607 0.371076 0.526731 0.254108 0.199741 0.242262 -0.263269 -0.385416 -0.334958 -0.296858 -0.150527 -0.0523038 -0.161904 -0.228364 -0.164511 -0.229012 -0.302217 0.128711 0.391431 -0.0685619 -0.0180706 0.0341033 0.0289412 0.00849945 0.110538 0.323215 0.254306 -0.00262474 -0.593163 -0.904154 -0.409507 0.202128 0.81201 0.517058 0.128527 -0.108406 -0.161547 0.0534493 0.2451 -0.0415649 -0.128491 -0.371011 -0.324649 -0.432974 -0.60561 0.00072289 0.367968 0.0822979 0.0202274 0.0349412 0.00388235 0.0398402 0.234149 0.428804 0.115429 -0.167749 -0.235279 -0.558949 -0.758772 -0.327919 0.712231 0.44027 0.520019 0.409004 0.115063 0.00288333 -0.693257 -0.681418 -0.383988 -0.265278 0.158201 -0.473033 -0.630986 0.0698955 0.532329 -0.227828 -0.118537 0.0102353 0.0148235 0.0511612 0.159953 0.0595865 0.210107 0.22748 0.420889 0.238418 -0.359055 -0.374404 0.142155 -0.0341442 0.203441 0.284459 -0.246864 -0.440863 -1.00884 -1.00197 -0.590238 -0.32246 -0.107483 -0.338955 -0.380158 -0.413877 -0.314651 -0.171571 -0.16469 0.0112941 0.0201176 0.00365409 0.248347 0.429924 0.354128 0.919073 0.718294 0.517889 0.349549 0.446661 -0.245083 -0.358536 0.227147 0.528645 0.217658 -0.262006 -0.363487 -0.147982 -0.209689 -0.804178 -0.673482 -0.338802 -0.355261 0.0317062 0.161141 0.199866 0.00805308 0.0107472 0.0296471 0.00622319 0.431714 1.37299 0.547168 0.485225 0.208604 0.504546 0.544358 0.226572 -0.744639 -0.866531 -0.423662 -0.109845 -0.384962 0.093236 0.0769525 0.323757 -0.145168 -0.684799 -0.565664 -0.377083 -0.89144 -0.225611 -0.16905 -0.628154 -0.0528772 0.026252 0.00529412 -0.0937456 -0.253906 0.707138 0.729706 0.656465 0.313134 0.694992 0.682223 0.194637 -0.0483714 0.150602 0.306831 0.646804 0.249037 0.288018 -0.233573 0.440557 0.307832 -1.15749 -1.45311 -1.43037 -0.908906 -0.259377 0.797351 0.184435 -0.144509 0.00847059 0.0310588 -0.166213 -0.74162 0.442953 1.57519 0.948807 0.388717 1.03174 0.607158 0.453244 0.532861 0.631562 0.79258 1.06766 -0.255253 -0.10826 -0.407645 -0.439508 -0.832568 -1.35255 -1.69242 -1.65755 -0.604746 0.221301 0.997729 0.875551 -0.0245867 0.0310588 0.0183529 -0.130941 -0.9609 0.250312 0.872439 0.623955 0.588858 0.285223 0.14903 0.609765 0.942282 0.949894 1.6622 1.50632 0.258452 0.191214 -0.228833 -0.255035 0.0420062 -0.298136 -0.178734 -0.241968 -0.353774 -0.587655 0.426247 0.607553 -0.00794836 0.00250594 0.006 -0.0837606 -1.3958 -1.30546 -0.91045 -1.00698 -1.28571 -1.62215 -2.08836 -0.682334 -0.0120325 -0.0533488 1.30701 1.85309 0.615441 -0.42809 -0.705858 -0.718378 0.176472 0.211275 -0.296378 -0.380211 -0.154203 -0.238076 0.888827 0.436549 -0.036688 0.0165882 0.00988235 -0.291968 -2.90688 -4.10524 -3.83081 -3.7542 -4.2499 -3.33914 -1.90907 -0.0896478 0.142339 -0.283028 0.178758 0.841203 0.20041 -0.607412 -0.243918 -0.209498 -0.211055 -0.34073 -1.09544 -0.914836 -0.432871 0.176364 0.461025 0.330136 -0.00594782 0.00635294 0.0328054 -0.354672 -3.73693 -5.21365 -4.91715 -5.01501 -3.44507 -0.903351 -0.0766908 0.585114 0.381093 -0.0114336 -0.55819 -0.603086 -0.204715 -0.0955655 0.141364 0.489475 -0.489054 0.0573023 -0.485612 -0.406914 0.0930356 0.136001 0.313234 0.139763 0.0369273 0.0137647 0.00346281 -0.367146 -3.53525 -4.75659 -3.66946 -1.98587 -0.21867 0.539257 1.2293 1.46965 0.768328 0.362751 -0.254834 -0.798415 -0.30276 0.267697 0.113719 -0.0763575 -0.318223 -0.361744 -0.165272 -0.802992 -0.620271 -0.44949 -0.257203 -0.247554 0.00422718 0.0123397 0.0207013 -0.319755 -1.78869 -2.27547 -0.243365 1.19685 1.27966 1.82036 2.22731 1.66099 0.149383 -0.256193 -0.76216 -1.10063 -0.72039 -0.136906 -0.226459 -0.609273 -1.03734 -1.14098 -0.655497 -0.820049 -0.823552 -0.471646 0.0798068 -0.0183195 0.0131289 0.00670588 0.00918901 -0.107676 0.134259 0.846266 1.14101 1.0428 0.910538 0.755095 1.03091 1.46252 0.53299 -0.819995 -1.36459 -1.27913 -0.369757 -0.622767 -0.788358 -0.747175 -1.09947 -0.779563 -0.068642 0.0448807 0.170306 0.218823 0.54955 0.185591 0.0629839 0.03 0.0208235 0.0815235 0.0785376 0.919896 0.245549 -0.0645481 0.0966165 0.450349 1.42502 1.27659 -0.551148 -2.17227 -1.82787 -1.47846 -0.802247 -0.244498 0.0458224 -0.134258 -0.559127 -0.452791 0.200993 0.375548 0.328818 -0.035791 0.190735 0.0683975 0.0482305 0.0112941 0.00635294 -0.219432 -0.922174 -0.33925 0.313258 0.144889 0.492024 0.673379 1.27319 -0.417443 -2.39053 -3.33296 -2.41084 -1.52188 -1.18824 -0.189002 0.708507 0.761838 0.2351 -0.200626 -0.0719289 -0.303297 -0.361742 -0.114237 0.0804811 0.0123813 0.0532481 0.00529412 0.0187059 -0.107643 -0.309453 1.06923 1.0047 0.772714 0.426164 0.530127 0.0285899 -2.16579 -2.85734 -2.50538 -1.86465 -0.94474 -0.662276 -0.212474 0.272367 0.921376 0.659966 0.230665 0.243951 -0.299947 -0.469199 -0.712995 -0.153426 0.0182872 -0.00727383 0.0194118 0.00635294 -0.0465606 -0.135448 1.61303 1.43465 0.33238 -0.192786 -0.255041 -1.53664 -2.72547 -2.96908 -2.27474 -1.68513 -0.858783 -0.558074 -0.760059 -0.71651 -0.190899 0.00602712 0.0667371 0.284613 -0.0892514 -0.353913 -0.640855 0.0250534 -0.0982252 -0.00840138 0.00917647 0.00620899 -0.120288 -0.0637801 1.18841 1.25732 0.283706 -0.432432 -1.36051 -1.65395 -2.28469 -2.28781 -1.66911 -1.07257 -0.613049 -0.373027 -0.653943 -1.01074 -0.693018 -0.489571 -0.235897 -0.216149 -0.151661 -0.0183313 0.0894874 0.460973 0.114433 0.0211343 0.00458824 0.0194306 0.000175468 0.400792 1.103 0.772245 -0.465153 -0.598591 -0.374485 -0.564185 -0.8597 -0.984556 -0.653433 -0.487749 -0.437233 -0.469979 -0.801536 -1.05286 -0.500161 -0.715793 -1.01131 -0.787068 -0.571567 -0.286727 -0.0183694 0.400964 0.211275 0.0174811 0.00105882 0.0242176 0.165345 0.480441 0.508066 0.0167616 -0.470734 -0.273359 0.217234 -0.0276911 -0.160744 -0.193727 -0.122416 -0.142224 -0.139684 -0.200916 -0.409646 -0.388549 -0.133491 -0.312005 -0.445223 -0.261609 -0.345312 -0.201122 -0.151986 0.0257128 0.0355448 0.0128829 0.0268235 0.00423701 0.0235311 0.0194072 0.0785589 -0.0400617 -0.0301183 0.027421 -0.00686284 -0.0225342 0.00382913 0.0185535 0.0207464 -0.00245104 -0.00527617 -0.00667013 -0.00225507 -0.0302424 -0.0149112 -0.00710263 0.00494938 0.0163143 -0.00131405 -0.0050786 -0.0152665 0.0107157 0.0329372 0.0135782 0.0285882 0.0310588 0.0254118 0.0176471 0.0115884 0.00476097 0.00971124 0.0216788 0.0253746 0.0196976 0.0134568 0.0187059 0.0317647 0.0017647 0.0109411 0.00141168 0.017647 0.0307059 0.0162353 0.0109412 0.0201176 0.0307059 0.0150239 0.0250588 0.00176471 0.0183529 0.0204706 0.0342353 0.0169412 0.0144706 0.0321176 0.00776471 0.0151765 0.00528577 0.033146 0.0344518 0.0224021 0.0194593 0.0132638 0.0339204 9.54117e-08 0.0211774 0.0229421 0.0309749 0.0183509 0.0262263 0.0122727 0.024262 0.00317615 0.0307085 0.00635421 0.0165882 0.0211765 1.0535e-08 0.0271765 0.00458824 0.0349412 0.0328235 0.0296504 0.00996649 0.0122579 0.0108426 0.00699535 -0.0452094 -0.00110064 -0.0251355 -0.129804 -0.0552681 -0.011851 -0.0430813 -0.0772965 -0.0681788 -0.0697722 -0.0905545 -0.098154 -0.0879177 -0.0767306 -0.106716 -0.0555211 -0.0153754 0.00917641 -0.00724354 0.018389 0.0321899 0.0042353 0.0254118 0.00433489 0.0290214 0.0406745 -0.0386696 -0.22818 -0.32099 -0.474601 -0.864508 -1.07273 -0.8248 -0.809803 -0.724985 -0.859215 -0.983035 -1.05532 -0.986153 -0.961628 -1.1007 -1.52031 -1.58562 -1.34884 -0.611389 -0.523487 -0.227485 -0.114105 0.0075291 0.0172948 0.0254118 0.014629 -0.0641113 -0.0618753 -0.251614 -0.321394 -0.495345 -0.601546 -0.857158 -1.1259 -1.0388 -1.28485 -1.02618 -1.16677 -1.51687 -1.56505 -1.54394 -1.33669 -1.39164 -1.8465 -1.75616 -1.75425 -0.531914 -0.50627 -0.564952 -0.267956 0.0242545 0.00635361 0.00282353 -0.00299472 -0.0906192 -0.113192 -0.316164 -0.153148 -0.189768 -0.141747 0.218584 0.18468 0.198458 0.0275153 -0.051546 -0.918465 -1.55877 -1.01353 -0.426644 -0.545235 -0.737017 -0.752526 -0.53886 -0.564284 -0.107241 -0.639795 -0.987888 -0.487377 -0.013643 0.0338825 0.0130588 0.0420974 0.0855915 0.0690308 -0.154613 0.0703731 0.246218 0.232296 0.492064 0.0907901 -0.0437265 0.22603 0.0375697 -0.658982 -1.03923 -0.518153 0.396621 0.515424 -0.520042 -0.365048 -0.471362 -0.862436 -0.559351 -0.488368 -0.943989 -0.632394 -0.0258578 0.0123529 0.0201176 0.0188287 -0.115674 0.0500719 -0.459038 0.164267 0.636936 0.787635 0.0218548 -0.0479036 0.163939 0.441806 0.527475 -0.195139 -0.137848 -0.0564833 0.580247 0.244462 -0.857204 -0.406798 -0.144883 -0.399327 -0.988286 -0.540511 -0.973188 -0.877714 -0.0522534 0.00882353 0.0275294 0.0111808 -0.238426 -0.156462 -0.852869 0.348571 0.769836 0.654049 0.0379454 -0.211781 0.367107 0.662883 0.659059 0.363983 0.645107 0.590102 0.713015 0.340813 0.0994149 0.201705 -0.41793 -0.448038 0.033893 0.650288 -0.087158 -0.762702 -0.0371643 0.00141176 0 -0.0277444 -0.288095 -0.2775 -0.469402 0.64778 0.463065 0.177817 -0.120219 -0.57989 -0.301196 -0.0992769 0.16358 0.958045 1.23742 1.19546 1.85187 1.57904 0.645956 0.174058 0.000797737 0.466933 0.59843 1.43111 0.732092 -0.526028 -0.0858802 0.00382535 0.0204706 -0.105302 -0.492651 -0.660507 -0.837712 0.316919 0.0343868 -0.1062 -0.319605 -0.293679 0.163926 0.485322 0.131194 0.267702 0.873917 1.23815 1.65463 1.4394 0.491537 0.927844 0.596397 0.716339 0.551064 1.03499 0.52701 0.0826097 -0.0372634 0.0239501 0.0303529 -0.065538 -0.562503 -0.210553 -0.366855 0.533459 0.454089 0.443796 0.122799 0.269485 0.0222336 -0.316476 -0.0414142 0.389612 1.14339 1.29887 1.36487 1.365 0.694034 0.464639 0.57244 0.547101 0.395339 0.657464 0.574159 0.0247567 0.0258414 0.012 0.00247059 -0.0801435 -0.0498449 -0.051534 -0.00633182 0.556273 0.448487 0.0109103 -0.257852 -0.0497106 -0.435864 -0.546925 -0.319084 0.228561 0.690979 0.713143 0.848914 0.808016 0.0702032 -1.61201 -0.696141 0.866731 1.27995 1.24681 0.301851 -0.335624 -0.0204472 0.00282353 0.0109412 -0.159124 -0.361893 -0.345612 0.578337 0.774342 0.140392 -0.443202 -0.0675239 -0.156471 -1.03092 -1.09876 -0.743263 -0.242205 -0.449103 -0.157327 -0.461203 -1.15364 -1.19088 -1.88867 -0.989081 0.580053 1.06779 0.594754 0.00137452 -0.650347 -0.0354658 0.0229412 0.0289412 -0.156085 -0.664319 -0.149644 0.334266 0.335413 0.791726 0.265548 1.40718 1.15021 -1.19878 -1.93062 -1.82107 -0.747999 -1.21912 -1.74488 -2.35594 -2.64528 -2.36663 -2.12562 -1.29818 -0.0406348 0.255215 -0.565211 0.159511 -0.558619 -0.107717 0.00635294 0.0303529 -0.0316432 -0.814961 -0.464891 0.28311 0.812239 1.53764 1.02517 1.61742 1.10672 -1.27107 -2.47596 -2.76829 -1.99759 -2.71803 -3.56856 -3.38593 -3.08655 -2.25608 -1.70549 -0.906213 -0.575416 -0.783547 -0.765186 -0.0727211 -0.583603 -0.153725 0.0247059 0.0099784 -0.0922761 -0.742409 -0.358274 0.280808 0.600296 0.887287 1.21203 1.63318 1.12404 -0.561954 -2.47688 -2.47384 -2.99692 -3.95928 -3.81223 -2.55993 -1.67036 -1.36424 -1.05067 -0.231884 -0.391896 -0.594729 -0.729848 -0.685235 -0.866937 -0.135672 0.00564706 0.00847078 -0.137158 -0.718431 -0.45496 0.0581819 -0.284887 -0.0649081 0.277657 1.28046 1.5323 0.184869 -1.52339 -1.95286 -3.18586 -3.85071 -2.82892 -1.19334 -0.285858 -0.434497 -0.852104 -0.582263 -0.686047 -1.16835 -1.04217 -1.43472 -0.965576 -0.132251 0.0169413 0.00331758 -0.131278 -0.816194 -0.826588 -0.0577746 -0.0245882 -0.135194 0.129058 1.42226 2.37043 1.40902 -0.396426 -1.53901 -1.88185 -2.26576 -1.09076 0.29758 0.394434 -0.00109901 -0.394052 -0.983162 -1.47326 -1.12095 -1.08006 -1.42955 -0.889457 -0.159502 0.0268229 0.0183726 -0.0950748 -0.875303 -1.13819 0.061213 0.495734 0.382722 -0.0136647 1.47279 2.21866 1.25348 -0.397228 -1.22962 -1.32923 -0.823677 0.246021 0.35449 0.201973 -0.241394 -0.887967 -1.45665 -1.72687 -1.2371 -1.62338 -2.13136 -1.15048 -0.205704 0.0243529 0.024 -0.104256 -1.35343 -1.88583 -0.625704 0.13948 0.274428 -0.191752 1.39967 1.43045 0.27658 -0.692359 -0.320889 -0.186943 0.477964 0.675724 0.147044 -0.201064 -0.642112 -0.963276 -0.83478 -0.755098 -0.925336 -2.06491 -1.80258 -1.00872 -0.175268 0.0187059 0.0218824 -0.0944398 -1.90962 -1.93951 -0.931963 -0.327912 0.0161647 -0.121969 1.30396 1.57643 0.338794 0.479955 1.0554 0.996771 0.649549 0.91447 0.617719 -0.104084 -0.399635 -0.869647 -1.16845 -1.07085 -1.49882 -1.97267 -1.83843 -0.983586 -0.18139 0.00352941 0.0289412 -0.0580504 -1.86306 -2.15152 -0.641076 -0.494299 -0.432156 -0.162615 0.638786 1.48586 1.11177 1.04397 1.23794 1.37465 0.773393 0.940738 1.19405 0.289292 -0.0826703 -0.522489 -1.07042 -1.15862 -2.02787 -2.04872 -1.91341 -1.07397 -0.13685 0.00705882 0.0264706 -0.0319822 -1.29525 -2.55883 -0.673286 -0.134354 0.145725 -0.292667 -0.15516 0.656571 0.787964 0.815068 1.15851 1.56493 1.49629 1.36441 1.46281 0.462441 -0.376174 -0.785085 -1.88498 -2.52346 -2.71367 -2.33187 -1.92556 -0.942638 -0.0569793 0.0268235 0.0240004 -0.0128756 -0.952578 -1.96729 -1.18712 -0.580627 0.314892 0.523508 0.616774 1.05025 1.1488 1.05001 0.898574 1.53784 2.27319 1.99053 1.55013 0.507575 -0.927576 -1.64542 -2.35732 -2.72807 -2.51682 -1.94653 -1.35012 -0.591431 -0.0142905 0.0243529 0.0314125 0.00957275 -0.652673 -1.36281 -1.62434 -1.55469 -0.925378 -0.595672 -0.315835 -0.00759265 0.0877557 0.449832 0.464096 0.983418 0.995335 0.531726 0.059157 -0.74838 -1.19992 -1.20767 -1.37921 -1.65976 -1.47186 -0.917806 -0.665638 -0.195324 0.0236456 0.0261176 0.00529454 0.00171254 -0.255289 -0.474424 -0.814468 -1.07201 -1.2778 -1.14021 -0.507881 -0.0939809 0.0159341 -0.0564832 -0.0617321 0.00564228 0.0250457 -0.205491 -0.337581 -0.600808 -0.726127 -0.461739 -0.30013 -0.462804 -0.44344 -0.423068 -0.217801 0.0177196 0.000337139 0.00705882 0.0225882 0.0181261 0.016292 -0.0336964 -0.0128695 -0.0614897 -0.120329 -0.0514684 -0.070654 -0.0282418 -0.00331 -0.053008 -0.0609408 0.0139275 0.0444037 0.0186548 -0.00904099 -0.0340165 -0.0423275 -0.00220806 0.00549747 -0.0212738 -0.00496735 -0.032065 -0.0066388 0.0200174 0.0321228 0.00917647 0.03 0.00317647 0.0292941 0.00776405 0.0306423 0.00415163 0.00214878 0.0156433 0.00211124 0.0328247 0.0211765 0.0141176 0.0141176 0.00317646 0.0218823 0.0342353 0.00670588 0.00211765 0.0331765 0.0112941 0.00776471 0.0145315 0.0289549 0.00635294 0.0190588 0.0342353 0.00917647 0.0285882 0.0130588 0.0296471 0.00352941 0.019387 0.0226309 0.0138261 -0.00376825 0.0262836 0.0434961 0.051389 0.0529731 0.0260146 0.0301572 0.0126443 0.0311395 -0.00536063 -0.012333 0.00653969 0.0169878 0.0193775 -0.00163938 -0.00662244 0.0017802 0.0310588 0.0275294 0.0282353 0.00176471 0.0257647 0.0317647 0.0285839 0.0305398 0.00241532 0.00809757 -0.0809229 -0.175449 -0.0956929 -0.00379233 -0.0122694 -0.0307256 -0.0637708 -0.058312 0.0686719 0.144571 0.101547 0.0631474 0.0829869 -0.0293378 -0.0255828 -0.043687 -0.062195 -0.0389636 -0.0283982 0.0222465 -0.000969143 0.0137746 0.012 0.0342353 0.0147964 -0.0258617 -0.293158 -0.414377 -0.603856 -1.11667 -1.13819 -1.08779 -1.08149 -0.925976 -0.656021 -0.153347 0.127792 0.526743 0.657758 1.07219 1.24589 0.540445 -0.0468857 -0.328676 -0.783796 -0.632243 -0.436679 -0.122404 -0.0213353 0.0237055 0.00246891 0.00741176 0.0051352 -0.164934 -0.607151 -0.76133 -1.19723 -1.65796 -1.72334 -1.7149 -1.57857 -1.09346 -0.572774 0.123599 0.621971 0.927183 1.39032 1.9878 1.8022 1.55176 0.734975 -0.0171847 -0.862455 -1.14849 -0.759244 -0.23493 -0.01238 0.00296483 0.000351342 0.0201176 0.0184758 -0.244714 -0.836578 -1.0708 -1.22249 -1.08833 -1.05923 -1.04652 -0.669156 -1.00931 -0.724741 -0.65807 0.723701 1.29061 1.47593 1.42086 0.7047 0.498854 0.522625 0.227976 -0.438746 -0.763812 -0.683126 -0.373701 -0.0704119 0.00473198 0.0331762 0.0130588 0.0283727 -0.0123887 -0.687379 -0.889554 -0.656144 -0.0347717 0.060553 -0.428554 -0.841629 -1.56988 -1.78133 -0.857094 0.64303 1.36184 1.42749 0.858 0.000270481 -0.761873 -0.456039 0.234005 -0.130057 -0.6769 -0.794216 -0.797761 -0.350217 -0.0143669 0.0225882 0.0144706 0.156934 -0.0260941 -0.526203 -0.679814 -0.504484 0.170371 0.412784 0.359989 -0.417571 -1.55276 -1.0451 0.159664 1.12345 1.42058 1.16501 0.795427 0.112912 -0.57268 -0.555103 0.418108 0.229163 -0.190249 -0.660882 -0.952903 -0.238227 0.0215055 0.0165882 0.0225882 0.142617 0.024411 -0.102814 -0.726756 -0.812877 -0.188335 0.0654202 -0.752178 -0.658814 -0.147784 0.336529 0.653218 0.401089 0.381772 0.646487 0.732712 0.578486 0.408294 0.330848 0.675548 0.709496 0.036939 -0.815441 -1.44559 -0.134004 0.0648182 0.0236471 0.00564706 0.140782 0.461997 0.119437 -0.498928 -0.498622 -0.310107 -0.612249 -0.990546 -0.614843 0.31962 1.31365 0.875691 -0.547104 -0.981446 -0.689605 -0.664656 0.321776 1.18949 0.995424 0.545893 -0.0251256 -0.24912 -0.434952 -1.46768 -0.4061 0.00514653 0.0282353 0.0109412 0.0563921 0.692549 -0.185032 -0.511853 -0.207979 0.352674 -0.0957119 -0.328635 0.204393 0.925749 1.43427 0.370296 -1.10689 -2.05646 -2.05023 -1.60354 -0.353781 0.394371 -0.218593 0.0217378 -0.603191 -0.387916 -0.12012 -0.902633 -0.555032 0.033493 0.0123529 0.0169412 0.0308601 0.725925 -0.402114 -0.128375 -0.670777 -0.574525 0.248226 0.0587613 0.491388 0.888493 0.610776 -0.823086 -2.16243 -2.83469 -2.16727 -1.30738 -0.557541 -0.456425 -0.0335399 0.204829 -0.737997 0.167353 0.0470595 -0.391727 -0.648067 0.049127 0.00529412 0.0285882 0.0322521 0.550232 -0.299217 -0.163789 -1.06612 -0.474027 0.0803189 -0.082943 -0.0543336 -0.867669 -1.36252 -1.81511 -2.35264 -2.58832 -1.52275 -0.866021 -0.510255 -0.547091 -0.399253 -0.515137 -0.599751 -0.0358645 0.0369325 -0.100721 -0.699725 0.0224723 0.0254118 0.0331765 0.0571422 0.271374 -0.290725 -0.698142 -0.869263 0.152512 0.216513 -0.32479 -1.14348 -1.73385 -2.27648 -1.95487 -2.45928 -2.19698 -1.26085 -0.617918 -0.250731 -0.748319 -1.2748 -1.77129 -1.1051 -0.734708 -0.897324 -0.686845 -0.569551 0.0746245 0.0105882 0.0296471 0.0478949 0.524142 -0.288357 -0.810787 -0.350332 -0.08264 -0.162057 -0.20555 -0.799019 -1.44886 -1.8251 -1.31393 -1.66712 -1.93558 -1.21531 -0.13054 -0.709381 -0.953917 -0.987173 -1.55444 -0.654503 -1.08008 -1.77628 -1.32258 -0.518469 0.104502 0.00564706 0.0134118 0.0623934 0.661674 -0.38694 -0.909734 -0.239708 0.252774 0.103581 0.346674 0.12622 -0.611443 -1.12947 -0.730603 -1.45735 -1.01335 -0.082677 0.451515 -0.278866 -0.811954 -1.23051 -1.34434 -0.986804 -1.70785 -2.03004 -1.02221 -0.260424 0.0556033 0.0278824 0.0335294 -0.0127514 0.0866451 -0.622273 -0.852033 -0.204429 0.0096097 -0.527693 0.192649 0.644206 0.990356 0.159762 -0.204411 -0.479234 -0.201146 0.322258 0.798981 1.29447 1.44551 0.555784 -0.18584 0.242817 -0.207151 -0.889285 -0.473683 -0.158667 -0.0369912 0.00494118 0.0292941 -0.0184249 -0.202192 -0.392783 -0.355298 0.426828 0.350142 -0.356277 -0.289216 0.0386452 1.02688 0.718232 0.561822 1.07213 0.923276 1.2912 2.12916 2.04853 1.77994 0.581179 -0.0482266 0.97271 1.39095 0.809644 0.240905 0.132069 -0.0143112 0.029059 0.0210242 -0.0381423 -0.053021 -0.856826 -1.1087 -0.133907 -0.25602 -0.815277 -1.27707 -0.965162 0.0854694 0.437158 0.987065 1.47604 1.76238 2.25596 2.61021 2.38366 1.69154 1.02377 0.963768 1.60488 2.11981 1.27705 0.695524 0.450409 0.0521021 0.00601958 0.0294946 -8.61976e-05 -0.178459 -1.04145 -1.13299 -1.05232 -0.981096 -0.694062 -1.06924 -0.819133 -0.923688 -0.104748 0.332076 0.55755 1.25156 1.10689 2.09692 1.7281 0.762539 0.574276 0.540268 0.85893 1.32215 1.27036 1.2429 0.822273 0.175744 0.00352941 0.00458824 -0.0221817 -0.000532641 -0.36679 -1.03956 -1.52037 -1.36275 -0.688604 -0.600336 -0.469402 -0.569749 -0.572069 -0.272007 0.430502 1.00296 0.707081 1.11169 0.853825 0.268434 0.456237 1.39771 0.645552 0.742983 1.26494 1.62787 0.681179 0.010684 0.0317647 0.0215294 0.0269682 0.178923 -0.0445982 -1.07835 -0.945473 -0.770163 -0.317591 -0.455406 -0.613343 -0.715681 -0.671498 -0.105756 0.108641 0.244668 0.0948714 0.0827663 -0.168539 -0.0332751 -0.0581018 1.28944 0.687892 0.925425 0.661073 0.586471 0.287661 0.0234588 0.0225882 0.0134118 0.0213591 0.0689275 -0.676201 -1.12804 -0.955264 -0.693047 -0.0228857 -0.594062 -0.765872 -0.608897 0.161456 0.372288 -0.118726 -0.380925 -1.27928 -1.31876 -0.951991 -0.42614 0.154959 1.26439 1.43614 1.61436 0.58886 -0.0999749 0.179271 0.207981 0.0345882 0.0225882 -0.00871984 -0.538104 -1.23626 -1.09315 -1.66439 -2.1868 -1.67371 -1.50383 -1.08211 -0.756684 -0.862547 -0.834622 -0.978242 -1.55458 -1.90822 -2.03881 -1.63976 -0.450273 0.294152 1.06468 1.62703 1.53418 0.474913 -0.225427 0.0357279 0.161504 0.0254118 0.0123519 -0.00214051 -0.381461 -0.962302 -0.978535 -1.59215 -2.3605 -2.11508 -1.82662 -1.91644 -2.45757 -2.17134 -1.96401 -1.72132 -2.22968 -1.8836 -1.52477 -0.75653 0.101657 0.0806452 -0.0330227 0.638063 0.834925 -0.238762 -0.317641 0.0922112 0.0687425 0.0208235 0.000351136 0.0304153 -0.274599 -0.53594 -0.301325 -0.903692 -2.04155 -1.62774 -1.31015 -1.42701 -1.93398 -1.9478 -1.89007 -1.69306 -1.79988 -1.39528 -0.691862 -0.364038 -0.347687 -1.03199 -1.32525 -0.494972 0.263059 -0.075897 -0.0669464 0.0320442 0.0388701 0.00141176 0.0268225 0.0105078 -0.013045 -0.15459 -0.117511 -0.451826 -1.17617 -0.941852 -0.776765 -0.76494 -0.752948 -0.880801 -0.862429 -0.868713 -0.943967 -0.599104 -0.434829 -0.626302 -0.443661 -0.468834 -0.68859 -0.566429 -0.0366053 -0.0790415 -0.0326229 -0.0113848 0.0337404 0.006 0.0176471 0.0298415 0.00346818 0.0307344 -0.000728217 0.019982 -0.0617129 -0.0459597 -0.0634064 -0.0742729 -0.0501388 -0.0288632 -0.0595489 -0.0614425 -0.0559036 -0.0421276 -0.0679805 -0.115396 -0.110634 0.00640204 -0.0175943 -0.0324322 0.0146095 0.0446025 0.0433638 0.026413 0.0270655 0.0264706 0.0338824 0.0151765 0.0162353 0.0310588 0.0215294 0.0285884 0.0345509 0.0111837 0.0159288 0.031517 0.00737436 0.0130588 0.00705629 0.0138982 0.0241653 0.0109099 0.00705122 0.0310462 0 0.0324706 0.0105882 0.00536548 0.00817329 0.00705882 0.0331765 0.0218824 0.0112941 0.0215294 0.00670588 0.0144706 0.00635294 0.00882354 0.0076924 0.0194716 0.027722 0.0165362 0.00801369 0.0378502 0.00406834 0.0133437 0.0318053 0.0129626 0.031068 0.0818376 0.0453593 0.0221778 0.0292887 0.00796344 0.0275435 0.00154131 0.0244158 0.031057 0.0278815 0.018 0.0285882 0.00811765 0.0338824 0.00367197 0.0220988 0.0572434 0.0725623 0.0486803 0.0626255 0.0203886 0.0505935 0.0943963 0.0537569 -0.0285355 -0.0106345 0.0344248 0.0569568 0.108749 0.0527232 -0.0242915 -0.00373689 -0.0143527 -0.0834005 -0.0188063 -0.0154811 -0.047791 -0.0659489 -0.0268393 0.034175 0.0176478 0.0151765 0.0186271 0.114571 0.250395 0.411324 0.515037 -0.0178466 -0.330579 -0.347488 -0.0411278 -0.0379324 -0.17619 -0.0361569 0.108551 0.111838 -0.0229443 -0.357697 -0.559539 -0.750851 -0.987487 -0.995474 -0.84914 -0.526683 -0.387598 -0.33369 -0.193209 0.020801 0.0276891 0.0155294 0.00918853 0.10553 -0.0749728 0.448216 0.709223 0.417464 0.0326112 -0.337891 -0.153574 0.350088 0.000407122 -0.392349 -0.630773 -0.570501 -0.532233 -0.769147 -1.58223 -1.85463 -1.50713 -1.23698 -1.2733 -1.13806 -0.643104 -0.0885428 -0.2179 -0.0058363 0.00757254 0.0236471 0.0104062 0.047022 -0.512129 0.26595 0.331363 0.326641 -0.310434 -0.706824 -0.262149 -0.2619 -0.580355 -1.09144 -1.06462 -0.682849 -0.614426 -0.735722 -1.54833 -1.51714 -1.04675 -1.11068 -1.00828 -0.888572 -0.855284 -0.212988 -0.296195 -0.0040073 0.00108587 0.0176471 0.0269332 0.00443433 -0.2457 0.300865 0.0535036 0.256315 0.0369342 -0.750825 -0.861789 -0.853419 -1.36484 -1.22717 -0.661489 0.295912 0.580943 -0.19986 -1.2932 -0.943776 -0.810282 -1.18829 -1.20747 -1.12531 -1.01638 -0.699087 -0.86149 -0.048844 0.00105882 0.00211765 0.037723 0.194184 0.854839 0.866817 0.324422 0.679046 0.879889 -0.109247 -0.908321 -1.00312 -1.83673 -1.28696 -0.130661 1.47285 1.22739 0.67813 -0.822084 -0.992989 -1.18353 -1.65184 -1.26554 -1.17273 -1.01334 -0.183119 -0.323113 0.0415683 0.0218824 0.00247059 0.00637656 0.315445 0.788849 0.524893 0.353805 0.746358 1.34038 0.520614 -0.454587 -0.974692 -1.30027 -0.662141 0.0986838 0.979812 1.45516 1.63451 0.986277 -0.69679 -1.86142 -1.58731 -1.21572 -1.42695 -1.04084 -0.366705 0.0961035 0.030633 0.0127059 0.0278824 -0.00623096 0.252671 0.900383 1.09025 0.484839 0.476956 0.629589 0.183176 -0.500948 -1.15018 -1.32286 -1.10666 0.0417414 1.00907 1.73095 1.02981 0.24242 -0.621203 -2.17537 -2.26839 -1.81971 -1.51073 -0.957806 -0.51613 0.125954 0.0529473 0.0163388 0.024 0.0356163 0.210761 0.298806 0.558924 -0.0707058 -0.0750145 -0.212695 -0.156837 -0.857638 -1.12645 -1.31219 -1.93642 -0.786664 0.664257 1.60626 1.03047 0.752831 -0.175439 -2.16347 -2.63875 -1.25339 -0.591186 -0.116071 0.62056 0.795287 0.188412 0.00899706 0.000705882 0.0499912 0.468364 0.0679288 0.478281 0.113072 0.262265 0.274796 0.234755 -1.2895 -2.02146 -2.31132 -2.62569 -1.01827 0.0720293 1.35496 1.97256 1.99687 0.589919 -2.00614 -2.20688 -0.848045 -0.385728 -0.106271 0.381508 -0.128827 -0.0431619 0.0116471 0.0331765 0.00837601 0.581431 0.402453 0.642582 0.481535 0.378371 0.236123 0.998693 -0.452165 -1.15116 -1.28274 -1.54248 -0.384385 0.42444 1.77477 2.56726 2.95758 1.45165 -1.57653 -1.9928 -0.752771 -0.281721 -0.58011 0.475209 -0.310306 -0.0183145 0.0172941 0.000352941 0.111297 0.120582 0.64972 0.887987 0.398523 0.0598343 -0.0258368 0.68483 -0.00193432 -0.162197 -0.357376 -1.19644 -0.795536 -0.296333 0.916732 1.60658 1.68083 1.39598 -1.17602 -2.49733 -1.57534 -0.829958 -0.771776 0.193407 -0.736349 0.068355 0.00811353 0.0314118 0.173065 0.375259 0.573927 1.0522 1.26544 0.470616 0.87313 0.774678 -0.288655 -0.46325 -1.39574 -1.90684 -1.12522 -0.632966 0.128471 0.912825 1.92062 2.18245 -0.268983 -1.8885 -1.51271 -0.728659 -0.728371 -0.71338 -1.00614 -0.0766306 0.0314118 0.00847059 0.0708892 0.296586 -0.413547 0.186933 0.862639 0.404084 0.95161 0.315386 -0.18192 -0.332329 -1.4502 -1.57688 -0.699227 -0.00689602 0.376674 1.46402 2.01867 1.53379 -0.342588 -2.1575 -1.76297 -0.978842 -0.310755 -0.690908 -1.01935 -0.0878187 0.0158824 0.00557738 0.0393376 -0.558793 -1.4324 -0.364124 0.4064 0.5128 0.537128 -0.445978 -0.552765 -0.680469 -1.14254 -0.918864 -0.587694 -0.211493 0.609109 1.11654 1.20697 0.643171 -1.24942 -2.48479 -2.48532 -1.61856 -0.659499 -0.635509 -1.09954 -0.14624 0.0345882 0.0165708 0.0365744 -0.594397 -1.17485 -0.404971 -0.118718 0.342864 0.401338 -0.182966 0.4896 0.863011 -0.751668 -1.20712 -1.04466 0.556016 1.38232 1.38487 0.820267 -0.29213 -1.58532 -2.08499 -1.55289 -0.605661 -0.0721648 0.175576 -0.409034 0.00987854 0.0317267 0.0268878 0.246662 -0.264029 -0.609706 0.371432 0.837093 -0.040899 0.378113 0.804745 1.00117 -0.0801512 -1.44285 -1.7617 -0.82933 0.887931 1.39581 1.4162 1.16469 -0.494358 -1.88497 -1.92043 -1.09168 -0.083146 0.29004 0.433531 0.146435 0.0641549 0.0254119 0.0278071 0.257639 0.322746 0.436176 1.06393 0.786799 0.15629 -0.0760682 -0.124527 -0.711296 -1.06964 -1.49841 -1.31712 -0.325083 1.09708 1.56808 1.38082 0.776351 -1.55501 -2.26263 -1.72618 -0.687728 0.704881 0.459352 0.302341 -0.130697 -0.0765069 0.0116471 0.00529412 0.0670396 0.630768 0.484359 0.706262 0.446534 0.652907 0.545433 0.171888 -0.340323 -0.565939 -0.678512 -0.466672 -0.374075 0.23173 0.898439 1.01355 -0.0658447 -2.41616 -2.56696 -1.57736 -0.560397 0.220985 0.177497 -0.185914 -0.760205 -0.168717 0.0268235 0.012 0.0269369 0.702513 1.26332 1.27362 0.66262 1.04296 1.21874 0.0702047 -0.369171 -0.135912 -0.148716 -0.206925 -0.318932 0.809358 1.89064 1.67854 0.0547708 -1.59561 -1.99685 -1.42819 -0.759806 -0.133651 -0.343696 -0.683647 -1.01455 -0.178531 0.0342353 0.0321176 0.0790227 0.709112 1.27168 0.366419 0.0718463 0.709622 0.882697 0.25218 -0.005454 0.00993224 -0.201165 -0.315132 0.239941 1.24998 1.74798 1.20433 0.0821162 -0.941006 -1.4653 -1.42564 -0.953682 -0.859725 -1.05146 -0.925987 -1.00752 -0.2009 0.0169412 0.00564706 0.0391223 0.318646 0.48417 0.170932 -0.23344 0.120886 -0.252088 -0.416528 -0.27167 -0.184835 -0.108587 0.0178501 0.677381 1.0673 0.928328 0.200193 -0.599942 -0.567364 -0.61419 -0.907263 -1.15933 -1.2351 -1.37927 -0.861536 -0.828967 -0.15153 0.0151765 0.0251553 -0.0422887 -0.238122 -0.284524 -0.245798 0.15195 0.141801 -0.0541124 -0.284171 -0.269875 -0.413916 0.242046 0.489352 0.742709 1.15383 0.909689 -0.264198 -1.07389 -0.870845 -0.765485 -0.887852 -1.14738 -1.00419 -0.781353 -0.267373 -0.295301 -0.0139929 0.0127059 0.0181716 -0.00387891 -0.0347906 -0.479802 -0.302498 0.653209 0.991641 1.01961 0.444293 0.064791 0.261617 0.376218 0.641139 0.645739 0.412619 0.24524 -0.357649 -0.759529 -0.731774 -0.811959 -0.603632 -0.547511 -0.37253 -0.260445 -0.0869164 -0.220501 -0.0162137 0.00564706 0.00468866 0.00661046 0.0377422 -0.353832 -0.573394 -0.0228779 0.642953 0.606018 0.134745 0.118554 0.0311495 -0.071739 0.0364661 -0.0227634 -0.177825 -0.261928 -0.1776 -0.197733 -0.242718 -0.309562 0.00335301 -0.0634228 -0.098265 -0.043881 -0.12573 -0.182393 0.00211646 0.0137647 0.016589 0.0248163 0.0157706 -0.0201467 -0.0772586 -0.0470588 0.1309 0.0670371 0.0175474 0.0631338 0.0165306 0.0134218 -0.0116638 0.0138291 0.0295513 -0.00392325 -0.00785721 0.0758602 0.0689568 0.0923991 0.0997392 0.0315072 0.0288678 0.0241046 -0.0101803 0.00759179 0.0187459 0.0187059 0.0127059 0.0218824 0.0112941 0.0247148 0.0278949 0.01024 0.0169233 0.0183512 0.0259986 0.0312123 0.00530594 0.00494118 0.0282353 0.0304381 0.00219777 0.0264701 0.00141165 0.00530168 0.0285882 0.0204706 0.00988235 0.0293087 0.0243551 0.0271765 0.00847059 0.0278824 0.0278824 0 0.0134118 0.0141176 0.0232941 0.0307059 0.0258174 0.013289 0.0152028 -0.0212023 -0.0261686 0.00823754 0.0188223 0.00424541 2.83446e-05 0.0197778 0.00437905 -0.0176509 -0.0303672 -0.046663 0.0257968 0.00529418 0.00811768 0.027884 0.0261176 0.012 0.0317647 0.00670588 0.0345882 0.00741176 0.00741176 0.00826862 0.0355624 0.0283283 0.00883027 0.0973585 0.0834338 0.0044089 0.0149655 0.0838996 0.117352 0.0424377 0.0603529 0.0449805 -0.0779804 -0.147864 -0.148833 -0.0279235 0.02102 -0.0678582 -0.0810693 0.0350204 -0.093261 -0.114151 -0.141149 -0.0590451 0.0290607 0.000836447 0.0349412 0.0421901 0.0901519 0.103611 -0.0343867 0.0114498 -0.0365869 -0.075686 -0.030605 0.00289846 0.110215 -0.013782 0.0950217 -0.0165763 -0.0305028 -0.0491696 -0.354213 -0.185311 -0.0471853 -0.399135 -0.546087 -0.0318869 -0.433444 -0.802402 -1.04063 -0.582873 -0.0118895 0.050374 0.0303529 0.0516036 0.136438 0.157152 -0.0669093 -0.0921059 -0.103627 0.04528 0.0798364 -0.332127 -0.544579 -0.578621 -0.544523 -0.520551 -0.478836 -0.812051 -0.859126 -0.654468 -0.906442 -1.09595 -0.710474 -0.318737 -0.494921 -0.748825 -1.27346 -0.633564 0.0388652 0.0533309 0.0271765 0.0421906 0.175077 0.13773 0.112557 0.208733 0.385386 0.338653 -0.0806834 -0.900135 -0.881442 -0.761055 -0.596909 -0.756158 -1.14273 -1.24615 -0.723438 -0.107705 -0.526131 -0.83132 -1.19266 -1.47136 -0.866005 -0.333474 -0.897259 -0.523808 0.0707001 0.00691157 0.0127059 0.042717 0.205958 0.466615 0.610373 0.69725 0.853233 0.048098 -0.590917 -0.809725 -0.527339 -0.606999 -0.677461 -0.783024 -0.366533 -1.1061 -0.411131 0.612282 -0.0742109 -0.476474 -1.39104 -2.23097 -1.44776 -0.570857 -0.554214 -0.38608 0.0497588 0.0222353 0.00705882 0.0560692 0.281854 0.645763 0.769276 0.733669 0.632158 -0.170586 -0.46664 -0.200494 -0.353382 -0.731814 -0.715743 -0.840556 -0.45974 -0.444136 0.375878 0.549139 0.589225 0.173243 -1.02093 -1.4501 -1.93825 -1.61209 -0.984967 -0.473766 0.0193729 0.00141176 0.00882353 0.0779752 0.444172 0.813967 1.30741 1.32078 0.366235 0.193265 -0.32499 -1.0075 -0.617454 -0.459502 -0.422183 -0.133204 0.0542896 -0.176832 -0.465782 -0.646649 0.385659 -0.219297 -0.459726 -0.427996 -1.45168 -1.33716 -0.470339 -0.449573 -0.193334 0.018 0.0190588 0.0937188 0.907168 1.60493 1.51825 1.55933 0.994931 0.71228 0.28685 -0.243809 -0.421432 -0.322308 0.135416 -0.328978 -0.249949 0.198953 0.834893 0.421074 0.219624 -0.531725 -0.79115 -1.2319 -2.57294 -1.19152 0.132076 -0.280933 0.0331517 0.0269921 0.012 0.0912231 1.2843 1.92422 1.67426 1.51631 1.2139 0.673748 0.135412 0.115939 -0.299515 0.39997 0.951748 -0.0507093 -0.203927 1.20862 0.223939 -0.380451 0.728314 0.767591 0.0933011 -0.873282 -2.54818 -1.99535 -0.120632 0.00975459 -0.0296001 0.0218745 0.00494118 0.121094 1.54507 2.58125 2.00046 1.5812 0.389557 -0.552085 0.111924 0.637524 0.238005 0.808119 0.640302 0.247294 0.349895 1.3071 -0.256322 0.262915 1.54199 0.450067 -0.208426 -0.400342 -1.79949 -2.3695 -0.872002 0.0218463 -0.0295167 0.0105882 0.0292941 0.164451 1.76538 2.71312 1.70975 1.53296 0.943071 0.505061 0.0653763 0.447093 0.70941 0.165221 0.282614 0.629583 0.0484545 0.114722 0.0238886 0.735935 1.00187 0.288461 -0.0301509 -1.02407 -2.21844 -2.28288 -1.01916 0.267399 0.113397 0.0127059 0.0345882 0.171406 1.27729 1.72797 0.455738 0.31375 1.02275 0.47091 -0.897095 0.543511 0.384362 0.863744 0.627528 0.423134 0.8838 1.5749 1.09221 -0.0815325 -0.494308 -0.29503 -1.38575 -2.18358 -2.93968 -2.9516 -1.31529 0.838623 0.28198 0.00139997 0.0105882 0.284355 0.962601 0.654196 -0.29893 -0.309363 0.368031 0.0841292 -0.718555 0.801682 0.0598041 -0.0696952 0.832695 1.34302 0.519465 0.726119 0.414893 -0.668862 0.0592063 0.452021 -0.302976 -0.932278 -2.04507 -1.92507 -0.651065 0.407102 0.0875342 0.0162353 0.0257647 0.323291 1.95937 2.0565 1.51407 0.366886 0.593611 0.536567 -1.31195 -1.15095 -0.76615 -0.0920775 0.658326 -0.560734 -1.82438 -1.52908 -0.678586 -0.132575 1.46234 1.11417 0.353021 -0.332263 -1.68984 -1.63318 -1.10856 -0.309612 0.0625859 0.018 0.00470538 0.433191 2.53446 2.1967 1.74807 1.46902 1.41936 0.0091271 -1.14433 -1.83636 -1.98519 -1.24065 -1.99819 -2.09793 -2.02775 -2.34635 -1.71815 -1.5626 -0.619892 -0.332322 -0.490767 -1.43892 -2.58465 -2.10994 -1.14517 0.0627984 0.106617 0.00282353 0.0406867 0.45037 1.23547 1.69187 2.10456 1.86205 1.72513 0.853966 -0.831575 -2.69328 -3.32834 -2.26729 -1.73927 -0.929032 -0.392787 -0.791076 -1.56495 -1.69937 -1.05146 -0.855386 -1.5158 -2.51543 -2.74665 -2.54464 -1.46386 -0.130144 0.00929791 0.0226615 0.0280016 0.113458 1.60755 2.21233 1.07365 1.29173 1.95759 0.269445 -0.509178 -1.07012 -0.737312 -0.307099 -0.265037 -0.0733458 -0.123676 -0.579178 -0.820233 -0.489515 -0.517546 -1.38273 -2.79482 -2.9651 -3.11332 -2.48808 -1.33053 -0.0986341 -0.0188398 0.0130703 0.0300448 0.180959 1.93226 1.02208 0.301498 0.680475 1.37499 0.554753 0.113853 -0.358245 -0.0231946 0.500749 0.407596 0.351912 0.430957 0.964283 0.286667 0.395246 -0.687879 -1.59341 -2.78252 -2.77932 -2.30051 -1.86796 -1.35111 -0.597951 -0.0723133 0.0264706 0.00847059 0.0859835 1.14932 1.17542 0.657568 1.00721 1.57092 1.5182 1.01821 -0.436233 -0.067005 0.355167 -0.285275 -0.173829 0.133472 0.413396 0.658222 0.398265 -0.839149 -1.85553 -2.1377 -1.89819 -1.89248 -2.26943 -1.98497 -1.09731 -0.0667437 0.00458824 0.00635294 0.113851 1.26257 2.09626 1.34239 0.975788 0.603376 1.05316 0.229706 -0.202432 -0.202263 -0.387098 -0.672567 -0.137652 0.524153 0.688335 0.908635 0.350089 -1.62401 -2.41217 -2.31532 -2.18424 -2.13096 -2.2564 -1.98613 -1.31487 -0.0754428 0.00564706 0.0243529 0.267886 1.35804 1.22261 0.640494 0.0878468 0.448744 0.741381 1.28928 0.411187 0.430434 0.505783 0.474529 0.912088 0.629064 0.524709 0.135468 -0.921048 -2.79902 -2.91016 -2.77939 -2.6966 -2.59958 -2.29842 -1.70664 -1.02066 -0.0179607 0.0204706 0.00811765 0.144111 0.104113 0.7926 1.07342 0.429489 0.698703 0.754988 0.858581 -0.123105 -0.00193457 0.0640137 -0.00442265 0.637601 0.105395 0.414669 0.0654978 -1.22341 -2.37754 -2.38953 -2.2843 -2.32235 -2.16585 -1.84297 -1.28241 -0.804928 -0.0303388 0.0211765 0.0215759 0.104443 0.29116 1.01591 2.03084 2.1206 0.943135 0.603735 0.599872 0.276729 0.563556 0.21951 0.162677 0.147813 -0.233454 -0.219175 -0.804393 -1.29249 -1.60055 -1.3567 -1.36869 -1.55254 -1.44851 -1.06073 -0.902308 -0.68183 -0.0202705 0.0254118 0.0622148 0.0854691 0.324999 0.910255 1.6584 1.26056 0.907538 1.25881 1.37772 1.6541 1.44123 1.14454 0.92845 0.189532 -0.329609 -0.684664 -0.989456 -1.10393 -1.15089 -1.07975 -1.09408 -1.15097 -0.97715 -0.777791 -0.752122 -0.574104 -0.0182471 0.00494118 0.0359934 0.0179545 -0.178833 0.0495281 0.762752 0.656703 0.591397 0.430455 1.07545 1.30945 1.00076 0.601877 0.0988057 -0.244904 -0.419483 -0.675302 -0.616449 -0.596101 -0.47892 -0.532812 -0.514944 -0.472636 -0.421163 -0.341409 -0.389451 -0.306956 0.0132429 0.0208235 0.0184835 0.0445798 -0.0135861 -0.0706035 0.026771 0.166069 0.268004 0.21986 0.124802 0.0984937 0.00968565 -0.0330521 -0.0658383 -0.013647 -0.0685499 -0.111505 -0.0990368 -0.0017143 0.00358694 -0.0280096 -0.0298103 -0.0116992 -0.0186237 0.00773089 -0.0258709 -0.0374633 0.0259511 0.0109412 0.00105882 0.00741176 0.0116471 0.033162 0.0190968 0.000624325 0.0151718 0.0117843 0.00749534 0.0225798 0.00696161 0.0134118 0.0342354 0.0292987 0.0314161 0.0215307 0.0254121 0.00600002 0.00317647 0.0264706 0.0257647 0.00988289 0.0310588 0.0162353 0.0342353 0.0127059 0.00352941 0.0229412 0.00564706 0.0268235 0.0275294 0.0271765 0.0274958 -0.0214762 -0.00963357 -0.0259387 -0.0494132 -0.0551952 -0.0119848 0.031389 0.0243697 0.019425 -0.00587155 0.0087969 0.0278633 0.0313074 0.0087238 0.0314069 0.00868181 0.0201827 0.0144297 0.012353 0.0211765 0.00882353 0.00811765 0 0.0158824 0.0229391 0.0181469 -0.00650398 -0.01775 -0.0388821 -0.0579374 -0.0215615 -0.0576827 -0.0679446 -0.0309641 0.0216765 -0.0164859 -0.0419447 0.00794412 -0.00697961 -0.0170415 -0.0576377 -0.070588 -0.0199674 0.0206363 -0.0238893 -0.00270134 0.0855188 0.0264324 0.0170139 0.0105105 0.0190623 0.03 0.0284392 -0.0171973 -0.150034 -0.249472 -0.228227 -0.302324 -0.321985 -0.172558 -0.123196 0.125076 0.521161 0.110709 -0.192769 -0.268045 -0.439754 -0.709015 -0.781442 -0.797832 -0.694851 -0.550876 -0.409563 0.140691 0.561899 0.45007 0.0216186 0.035842 0.00247404 0.000352941 0.0367156 -0.0579861 -0.216556 -0.360718 -0.450776 -0.492591 -0.58181 -0.655356 -0.367224 0.0853594 0.420554 0.563693 0.207686 -0.263731 -0.982843 -1.76987 -2.27136 -2.24338 -2.00556 -0.910618 0.00129656 0.753918 1.0162 0.795632 0.11446 0.0266472 0.0245858 0.0349412 0.0173928 -0.0785734 -0.167833 -0.540443 -0.794829 -0.719381 -0.92411 -0.963787 -0.268317 0.0582284 0.486567 1.22347 1.08916 0.429541 -0.218058 -1.64927 -2.72606 -2.29172 -1.39141 -0.31455 0.410399 0.616025 1.039 1.19148 0.285877 -0.00596233 0.0243929 0.006 0.00795683 -0.206917 -0.263515 -0.646385 -1.12736 -1.10438 -1.10161 -0.905716 -0.10286 0.663766 1.31243 1.55534 1.75031 1.17896 0.0969273 -1.62912 -2.3326 -1.65115 -0.953254 -0.235265 0.186905 0.657879 1.32851 1.45139 0.607711 -0.0283553 0.0342353 0.0123529 0.00181733 0.0278753 -0.121525 -0.484607 -0.663441 -1.09939 -1.30699 -1.10904 0.00707199 0.899075 1.03112 0.774305 0.938421 1.37826 -0.12557 -1.58876 -2.0192 -1.45972 -0.790946 -0.354074 0.308427 0.808345 1.06603 0.838832 0.178385 0.128441 0.0144706 0.0271765 0.016341 0.260015 0.0131165 -0.311092 -0.412921 -1.05012 -1.18148 -0.706909 0.183387 1.04096 0.794645 -0.028426 -0.849922 0.175528 0.196156 -0.892449 -1.27697 -1.03559 -0.773626 -0.234727 0.269796 0.811492 0.770087 0.848458 0.492252 0.128792 0.0148235 0.0250588 -0.0054942 -0.241513 -0.877137 -1.13715 -1.24116 -1.3026 -1.25362 -0.569767 -0.0405478 0.845054 1.48354 1.32784 -0.175828 0.366505 1.15646 -0.193193 -1.22662 -0.518251 -0.232678 -0.34498 0.517357 0.767925 0.276841 0.23163 0.260123 -0.0208685 0.00639694 0.0218824 -0.0111456 -0.394257 -1.19043 -1.5985 -1.79319 -1.61108 -1.34488 -0.914634 -0.423348 0.0186769 1.19227 0.860252 -0.207018 1.41473 1.26379 -1.05077 -1.26116 -0.23655 -0.199127 0.368855 0.370212 0.0465422 0.231868 0.923375 0.59109 -0.0609557 0.00930285 0.0144706 -0.0209928 0.0140214 -0.810245 -0.963103 -0.986557 -0.496506 -0.497753 -0.80979 -0.942965 -0.482895 0.931559 0.919598 0.541804 0.613756 0.886726 -0.222131 -0.0645344 -0.405545 -0.471327 -0.451473 -0.0697082 -0.637785 -0.753574 1.06564 0.826122 -0.0282826 0.0141176 0.0201176 0.00877992 -0.287371 -1.21105 -1.14364 -0.950804 -0.939484 -0.597352 -0.65216 -0.0904606 0.530033 0.759355 0.887671 -0.0424165 -1.08146 0.412704 0.208494 0.168925 -0.0435772 -0.452268 -0.796902 0.29157 -0.0160353 0.242317 1.17604 0.318661 -0.0795535 0.0285882 0.0197647 -0.11625 -0.649355 -1.3702 -1.68826 -1.68876 -1.05893 -0.472118 -0.16698 0.482551 1.2814 1.14354 0.700483 0.0238451 -0.404063 -0.18886 -0.387084 0.0794834 -0.248938 -0.360024 -0.525296 0.604269 0.151332 -0.140037 0.585971 0.0481755 0.0856784 0.00189007 0.0109412 -0.0527619 -0.0671598 -0.339791 -1.46517 -1.54701 -0.785513 -0.419931 -0.538553 -0.696848 0.791868 0.958586 0.827172 1.13925 0.43703 -0.315392 -0.768783 -0.247919 -0.725071 -0.437175 -0.411067 0.243273 0.821578 0.170947 0.939421 0.373541 0.139009 0.0211765 0.0211765 -0.0811784 0.166179 -0.26382 -1.89982 -1.72806 -0.823199 -0.503758 -0.577922 -0.0407177 1.84121 1.09501 0.58603 0.579185 0.690958 0.439337 0.0233712 -0.229418 -0.965031 -1.21595 -0.284789 0.265209 0.632517 0.336721 0.822779 0.844824 -0.00333459 0.0148235 0.0148632 -0.151113 -0.241224 0.0046419 -0.914082 -1.51586 -0.978955 -0.523544 -0.234435 0.497189 1.8694 1.40583 0.383874 -0.86802 -1.24714 -0.377597 -0.153009 -0.890662 -1.82388 -1.79886 -0.327903 1.45389 2.35531 1.33912 1.52506 0.839893 -0.00033548 0.0109412 0.010734 -0.476026 -0.262275 0.0409458 -0.591112 -1.06158 -0.738278 -0.45908 -0.574393 0.358519 1.18803 1.25159 0.220504 0.0152017 -0.713715 0.284278 -0.205761 -1.68545 -2.31504 -1.3625 -0.327075 0.792395 1.8314 1.86532 1.76952 0.483642 0.00985688 0.0260684 0.00679285 -0.360857 -0.826225 -1.0432 -0.956542 -0.857979 -0.544507 -0.624248 -0.526212 0.318708 0.806826 0.233075 0.334274 0.976553 0.447732 0.940302 -0.496943 -2.74572 -3.06041 -2.10816 -1.21433 -0.105134 0.699709 1.56052 1.75876 0.531628 0.0197909 0.0238807 0.00738547 -0.26366 -1.55536 -1.97272 -1.85217 -1.18955 -0.955136 -1.22941 -0.333981 0.728013 0.931773 0.0401811 0.69289 0.813429 0.647676 1.24584 -0.643019 -2.79461 -2.76155 -2.14583 -1.05398 -0.363705 -0.191844 0.863997 1.68021 1.0575 0.0770618 0.0261176 0.00352941 -0.258243 -1.46544 -1.76115 -1.8657 -1.42987 -1.37422 -1.71477 -0.935408 0.441821 1.22913 0.190424 0.481825 0.977672 1.20662 1.35559 -1.30169 -3.08259 -2.76766 -1.79374 -0.634658 -0.277669 -0.498871 -0.642916 0.985812 0.832379 0.100879 0.0112941 0.0218824 -0.0855371 -0.777837 -0.877956 -1.35397 -1.23528 -1.70544 -1.54314 -1.00914 0.383044 0.671877 -0.0788137 -0.247801 0.713011 1.10984 0.928298 -1.79448 -2.90202 -2.56393 -1.58365 -0.476106 -0.213969 -0.960816 -0.730786 -0.0721975 0.282999 0.0332023 0.0183529 0.0338824 -0.0578048 -0.450806 -1.04877 -1.30986 -2.01174 -1.92174 -1.57378 -0.647511 0.496564 0.677048 0.329997 0.862756 1.05634 1.1263 0.760426 -1.40313 -2.23928 -2.10853 -1.38966 -0.270207 0.0162441 -0.916963 -0.851442 -0.32458 0.377389 0.0291708 0.0172941 0.0144706 -0.0767734 0.0314312 -0.388712 -1.15808 -1.73804 -1.4716 -0.906024 -0.452533 -0.0747383 -0.0911314 0.0423751 1.12927 0.871354 1.21418 0.663677 -0.987672 -1.68452 -1.60989 -0.932252 -0.0405673 -0.0444378 -0.642082 -0.784318 -0.194591 0.166001 0.00120117 0.0321176 0.00995782 0.0199633 0.0685188 -0.174079 -0.694794 -1.29252 -1.11807 -0.836458 -0.672278 -0.298442 -0.332924 0.222732 1.06172 0.71016 0.785319 0.428744 -0.619179 -0.869218 -0.830419 -0.548924 -0.149908 -0.393881 -0.72948 -0.387583 -0.0171546 0.00318997 0.0401629 0.00529412 0.0272326 0.0501118 -0.108317 -0.387863 -0.689304 -0.889117 -0.798058 -0.786983 -0.597336 -0.169721 -0.226386 0.254599 0.73998 0.0675939 -0.230412 -0.37584 -0.726476 -0.813513 -0.751017 -0.407145 -0.187653 -0.336435 -0.492063 -0.194094 -0.0120235 -0.0253191 0.0148635 0.0155294 0.0117401 0.00713017 -0.173564 -0.332073 -0.522931 -0.465272 -0.355906 -0.468613 -0.593127 -0.255952 -0.191341 -0.0611324 0.134709 -0.264534 -0.237043 -0.19346 -0.479317 -0.462404 -0.395882 -0.220921 -0.133906 -0.141822 -0.19184 -0.122728 -0.0822995 -0.046597 0.00796416 0.0250588 0.0204741 0.0239986 -0.00270354 -0.0493631 -0.0112113 -0.0202782 -0.116083 -0.130921 -0.036151 -0.0109643 -0.0211025 -0.0331611 0.0243387 -0.0346698 0.00775018 -0.0274694 -0.0161059 -0.0383094 -0.0500738 -0.0420579 -0.0138994 0.036003 0.0106322 0.00505476 -0.0217085 -0.00129359 0.0174176 0.0261176 0.03 0.0307059 0.00105882 0.0373584 0.0244943 0.0331343 0.00782021 0.0110475 0.0274684 0.0225827 0.0328234 0.0345882 0.0141176 0.0222369 0.00106031 0.012 0.0109412 0.0250588 0.000705882 0.0257647 0 0.0327579 0.0314118 0 0.0169412 0.0211765 0.0218824 0.00494118 0.00352941 0.00352941 0.0162353 0.00673071 0.040271 0.0529334 0.0191683 0.00316612 0.0154269 0.00212351 0.0229366 0.0274635 0.0168354 0.032404 0.0327333 0.0291857 0.00710069 0.01253 0.0290343 0.00347104 0.0344673 0.0105751 0.00832357 0.0222353 0.00282355 0.0338824 0.0275294 0.0275294 0.0278824 0.0315071 0.0107789 0.0136875 0.036461 0.0664707 0.0129329 -0.0214798 -0.0419881 0.0231036 0.03959 0.0656551 0.032027 0.000892385 0.00337451 0.0282428 0.0367717 0.0507093 0.0238208 0.0109137 0.0133884 0.0185938 0.00851178 0.0018806 -0.000354825 0.00453706 0.0119874 0.0342683 0.0211765 0.0145198 0.0236416 0.0380469 -0.0299914 -0.155155 -0.208863 -0.298169 -0.328949 -0.325007 -0.194124 -0.232163 -0.136329 -0.12569 -0.00772635 0.0381449 0.0831984 -0.0152067 -0.052367 -0.238589 -0.273138 0.0275853 0.0288835 -0.12254 0.00112893 -0.0196782 0.00484498 0.0317168 0.0211765 0.0289999 0.0512778 0.0765263 -0.00874679 -0.202016 -0.441967 -0.562066 -0.543762 -0.619372 -0.727162 -0.818317 -0.579874 -0.563892 -0.672374 -0.718076 -0.582889 -0.395105 -0.176546 -0.449378 -0.447792 -0.012727 0.00761721 -0.370527 0.139364 0.396561 0.0829194 0.0147768 0.0268235 0.013589 0.108217 0.169167 -0.0359735 -0.211782 -0.439484 -0.579567 -0.824316 -0.937603 -0.938541 -0.933627 -0.392342 -0.754518 -1.3733 -1.34988 -1.00334 -0.867848 -0.553215 -0.429598 -0.290443 0.1899 0.208771 0.0621305 0.590877 0.668572 0.148468 0.0157037 0.0229412 0.031242 0.074897 0.0124507 -0.395599 -0.718211 -0.903543 -0.922751 -0.789821 -0.588591 -0.741578 -0.667715 0.0207081 -0.366042 -1.1459 -1.35223 -0.965622 -1.0836 -0.944286 0.0165308 0.454757 0.591509 0.90439 1.21976 0.924357 0.263586 0.0395105 0.0116471 0.0190588 0.0180672 0.10425 0.120246 -0.162682 -0.524677 -0.664292 -0.578923 -0.372039 -0.420107 -0.459672 -0.326824 0.0268387 -0.749901 -1.26232 -1.37461 -0.961454 -0.880513 -0.438752 0.563041 0.208979 -0.477587 -0.561644 0.256723 0.398741 -0.106571 0.049857 0.00529412 0.00952941 0.00258017 -0.0640256 0.132222 0.0638744 -0.362915 -0.112852 -0.091522 -0.276744 -0.516337 -0.66494 -0.873721 -0.706236 -0.675533 -0.883799 -1.24903 -1.00486 0.0165504 0.452437 0.393989 -0.0515151 -0.111585 -0.446546 0.0977859 0.136181 -0.477911 -0.120803 0.00247059 0.00811765 0.0311113 -0.0895672 0.238277 0.0549955 -0.0686837 -0.439666 -0.740258 -0.771673 -0.786204 -0.995138 -0.79897 -0.375633 -0.158546 -0.808165 -0.756254 -0.752639 -0.594794 -0.322562 -0.186005 0.183534 0.816445 0.244919 0.301932 0.613705 0.261961 -0.183073 0.0254064 0.0310588 0.0331147 0.234957 0.299619 0.377931 -0.523421 -1.04933 -0.922809 -0.396371 -0.322354 -0.190073 -0.257481 -0.229672 -0.568059 -0.535414 -0.514927 -0.5294 -0.137818 -0.236572 -0.588236 0.268684 -0.0631559 0.395643 0.676462 1.53214 1.00088 -0.0782627 0.000328378 0.0201176 0.0100306 0.289447 0.287716 0.34719 -0.469336 -0.684729 -0.52565 -0.379681 -0.741537 0.0309914 -0.123871 -0.219034 -0.56177 -0.479093 -0.730427 0.0593891 -0.0116413 -1.09636 -1.11899 -0.780216 -0.0865217 0.378693 0.80582 0.680837 0.185451 -0.00676495 0.0232941 0.00952941 0.0518504 0.0952883 -0.0820844 -0.258289 -0.399789 -0.320122 -0.851358 -0.474059 0.0717631 -0.0132309 -0.602296 -0.831974 -1.06618 -0.19885 -0.639741 -0.0302787 -1.33853 -1.37381 -0.977983 -0.920776 -0.360591 0.133403 0.169892 0.368531 -0.406248 -0.195114 0.0296471 0.0271765 -0.0604566 -0.129746 0.217914 0.183173 0.0273009 -0.470853 -0.67592 -0.439358 -0.202732 -0.195609 -0.993757 -0.998635 -1.25132 -0.756967 -0.607603 -0.837203 -1.48892 -1.76354 -1.64742 -2.17304 -1.61785 -0.435373 -0.0653337 0.212594 -0.863709 -0.154871 0.0105978 0.0222353 -0.0358116 -0.337813 0.138775 -0.172816 -0.576972 -0.774691 -0.825859 -0.894121 -0.277716 -0.697662 -1.39838 -0.829185 -1.12026 -0.71009 -0.522851 0.0464564 -0.803531 -1.46248 -1.83145 -2.10048 -1.4911 -0.50535 -0.189684 -0.393582 -1.13653 -0.169253 0.0314118 0.0215294 -0.117631 -0.0939394 0.642955 -0.306715 0.00155143 -0.813093 -1.47325 -1.42616 -0.616227 -1.44376 -1.4918 -1.21345 -0.772945 -1.02275 -0.420262 0.646156 -0.283847 -1.64372 -2.49569 -2.13428 -0.990337 -0.116811 -0.00250279 -0.178191 -0.809489 -0.0600515 0.0307059 0.0218823 0.0046794 0.543832 1.417 0.511958 0.390414 -0.492968 -1.74495 -1.68125 -0.966142 -1.30714 -0.793252 -0.571271 0.118712 -0.583712 -0.37209 0.201922 -0.45161 -1.69298 -1.9256 -1.14303 -0.647786 -0.39723 -0.331558 -0.385617 -0.59164 -0.0748899 0.00141176 -1.83105e-07 0.142305 0.908086 1.35899 1.12756 0.942932 0.124432 -0.481374 0.132646 0.0692955 -0.0124171 0.210295 -0.155965 0.28653 0.0741872 0.0982637 -0.584795 -1.66884 -2.12032 -1.73791 -1.08313 -0.874859 -0.501134 -0.654326 -0.251999 -0.357173 -0.0774739 0.0177205 0.0214136 0.248886 1.37306 2.33559 1.24906 0.865468 1.50175 1.78559 1.66594 0.763175 0.088658 0.371328 -0.204782 0.458911 0.211679 -0.556835 -1.63082 -1.7446 -1.85509 -1.34766 -0.931348 -0.843363 -0.252779 0.101756 0.155549 -0.090407 -0.065233 0.0203013 0.0106444 0.13754 1.28359 2.06964 0.956181 1.35017 2.11541 2.14614 1.63733 1.04283 1.06793 0.244502 0.873228 1.75313 1.20942 0.0471641 -1.13593 -1.69035 -1.86775 -1.44134 -0.990615 -0.587581 0.0801726 0.422926 0.437359 -0.322773 -0.0828197 0.0158824 0.00635294 0.119585 0.874443 0.615039 0.509702 0.721975 1.47514 1.3197 1.64717 1.57452 1.91642 0.980757 1.27395 2.70971 1.67409 0.257905 -0.91175 -1.38696 -1.47051 -1.52914 -1.03081 -0.338231 0.129508 0.172488 -0.438996 -0.819881 -0.0830045 0.0271765 0.00705882 0.20769 0.496341 0.63349 0.473286 0.885969 1.15016 0.96056 1.63852 1.94056 1.68914 0.734917 0.942804 1.46221 0.763655 -0.386403 -1.42958 -1.73908 -1.97764 -1.96914 -1.63178 -0.590672 -0.220052 -0.0168253 -0.517896 -0.604625 -0.0507916 0.00141176 0.0314118 0.0898911 0.188389 0.457968 0.1512 0.631663 1.13869 0.498523 1.08129 1.09138 0.916293 0.210136 0.453637 0.832855 0.756399 -0.390515 -1.41246 -1.82704 -2.22337 -2.12313 -1.43402 -0.70029 -0.310421 -0.0525772 -0.0969959 -0.269396 0.0154109 0.03 0.00988235 -0.13696 0.240018 -0.0296264 -0.489365 0.556478 1.12107 1.21526 1.52956 1.47761 1.30302 0.338104 0.356203 0.127939 -0.124344 -0.61802 -1.34696 -2.0322 -2.01992 -1.47782 -0.933668 -0.417647 -0.235221 -0.0534627 0.140228 -0.0704413 0.0285838 0.00705882 0.0262565 0.051659 0.0458131 0.0323435 -0.157568 -0.299929 0.265039 1.01853 1.58368 1.48296 0.868185 0.302757 -0.180577 -0.413093 -0.784722 -0.894371 -1.2604 -1.48664 -1.37526 -0.938915 -0.492447 -0.337822 -0.246426 0.139017 0.213047 -0.0222536 0.0132824 0.0285882 0.0184465 0.0680982 0.0203385 0.284694 0.170954 -0.160385 0.16965 0.739971 1.74581 1.20749 0.473789 0.127601 -0.121977 -0.336904 -0.691013 -0.868931 -1.01721 -1.10841 -1.03592 -0.957204 -0.571517 -0.228056 -0.0405835 0.206535 0.237303 -0.0345197 0.00439449 0.012 0.0373624 0.0215553 0.0123503 -0.0105944 -0.0759279 -0.409355 -0.180856 0.313844 0.675284 0.280844 0.0220403 0.0300061 -0.0221836 -0.0961009 -0.177966 -0.295813 -0.360337 -0.398697 -0.424376 -0.523456 -0.424495 -0.216005 0.0792611 0.213746 0.169365 -0.0155328 0.0131856 0.0349412 0.0130918 0.0340122 0.0427035 0.0153468 -0.012516 -0.04437 -0.00371746 0.0659113 0.0388742 0.00791072 0.00526694 -0.010956 -0.00430734 -6.9798e-05 0.0219447 -0.00353068 0.0177162 -0.00388483 -0.00760853 -0.0102176 -0.0429928 0.00408242 0.0223504 0.0481141 0.0343363 0.0295927 0.0218833 0.0172941 0.0278824 0.0335294 0.0292941 0.0179999 0.00917625 0.00811832 0.0214874 0.0316547 0.0291857 0.0306744 0.00282309 0.000705882 0.0225882 0.00882353 0.00423529 0.00917647 0.00458824 0.0310588 0.0229412 0.0169412 0.0211765 0.0326518 0.027721 0.0345882 0 0.00494118 0.0137647 0.00247059 0.0204706 0.0345882 0.0296471 0.031743 -0.00388092 0.0204344 0.0600444 0.0397483 0.0112827 0.00160786 0.0228343 0.0169523 0.0226137 0.0281545 0.000812976 0.0192035 0.0207752 0.0622996 0.0189878 0.015328 0.0129133 0.0149465 0.00607609 0.0229412 0.0187059 0.0292941 0.00917647 0.00494118 0.0127059 0.0161036 -0.00140464 0.00830414 0.036825 0.058781 0.0525512 -0.00352101 -0.0427225 -0.0779056 -0.0620041 -0.0379689 -0.0546891 -0.0331647 -0.00406893 0.0256334 0.0041642 -0.00173159 -0.0723202 0.00150022 -0.0815575 -0.125789 -0.0218617 0.0272976 0.000564007 0.0171162 0.0346462 0.00502634 0.0324706 0.00496788 0.012566 0.144079 0.471707 0.533242 0.109078 -0.182402 -0.301367 -0.314827 -0.434724 -0.450313 -0.388179 -0.108784 -0.0344395 0.0712887 0.284474 0.160447 -0.429818 -0.72757 -0.718536 -0.323183 -0.358499 -0.166254 0.240241 -0.110045 0.0245286 0.0373216 0.0137647 -0.000339949 0.0862823 0.362229 0.72461 0.783428 0.298134 -0.313717 -0.359331 -0.575048 -0.745871 -0.844297 -0.802485 -0.14163 0.328085 0.837679 0.951095 0.885193 0.783796 0.31992 -0.405321 -0.149616 0.236759 0.242952 0.55628 -0.0275491 0.00693756 0.041621 0.0183529 0.00213816 0.164668 0.36339 0.471553 0.522001 0.275702 -0.240128 -0.34722 -0.586805 -0.776762 -0.76375 -0.772161 -0.639373 -0.332475 0.389159 0.408928 0.386185 0.502824 0.262317 0.217951 0.505643 0.195753 0.283803 0.625493 0.114936 -0.0096414 0.0274119 0.0289412 -0.0293005 0.00227153 0.131008 -0.0423101 -0.18062 -0.797917 -0.629056 -0.522394 -0.508466 -0.031926 0.0812163 -0.581775 -0.556251 -0.0939583 -0.167122 -0.497568 -0.204961 0.0344177 -0.0208892 -0.268842 -0.448335 0.332023 0.737017 0.574571 -0.024501 -0.0370941 0.0190588 0.0141176 0.0291322 0.382168 0.843462 0.192036 -0.416084 -1.21713 -0.94588 -0.384835 -0.113419 0.55517 0.944753 -0.0407888 0.0979404 -0.0876061 -1.00647 -0.417982 0.665228 -0.00449408 0.233827 0.663423 0.501584 0.560685 0.199944 -0.170676 -0.391946 -0.0274308 0.0321176 0.00988235 0.042867 0.511515 0.772653 0.379506 -0.391608 -0.805084 -0.724661 -0.309664 -0.497549 0.186544 0.827626 0.136931 -0.520809 0.178067 -0.323325 -0.406125 -0.269837 -0.586654 0.0661386 0.851919 0.633997 -0.0122273 -0.665458 -0.639613 -0.560206 -0.040109 0.0155294 0.0247059 0.0159905 0.273463 0.201142 0.244354 0.37149 -0.267206 -0.0369674 0.100357 -0.0960726 -0.411119 -0.29178 -0.280627 -0.0924842 0.113135 0.264748 -0.181303 -0.294476 0.142041 -0.343383 0.291096 0.449043 0.896438 -0.192505 -0.322017 -0.451353 -0.0478951 0.00355929 0.0105882 0.0114655 0.00615467 -0.0930472 0.27941 0.212558 -0.294515 -0.592045 -0.558984 -0.210399 -0.332406 0.386085 0.289373 0.202298 0.147745 0.559619 0.206283 -0.316376 -0.652704 -0.765308 0.078283 0.308258 0.75468 0.248962 -0.118212 -0.65177 -0.0672478 0.0116504 0.00741176 -0.000828149 0.229788 -0.272443 -0.405486 -0.770078 -0.706859 -0.679132 -0.20214 -0.39146 -0.368567 0.291046 0.151615 0.2159 -0.167151 0.641234 0.838178 0.427653 -0.111038 -0.864246 -0.819716 -0.511496 0.53053 0.62195 -0.372309 -1.03808 -0.133462 0.012 0.0172941 -0.012072 0.128339 -0.638088 -0.966299 -1.15808 -0.950155 -0.505334 -0.289398 -0.506252 -0.425959 0.784993 0.99116 0.531002 0.252086 1.30308 0.888824 0.473656 -0.398289 -1.31782 -1.93762 -1.76921 -0.291753 -0.265681 -1.23313 -1.46266 -0.0994214 0.0307059 0.0278824 -0.0223165 0.0459095 0.0811446 -0.0872 -0.40187 -0.971607 -0.632045 0.122799 -0.202613 -0.574577 0.17665 0.758259 1.23671 0.182711 -0.107649 0.478605 0.925091 0.488518 -0.644427 -1.82568 -2.2162 -1.12471 -1.22947 -1.26349 -1.15944 -0.0814211 0.023294 0.0183529 0.00883722 0.184925 -0.290044 -0.456249 -0.59794 -1.06329 -0.818712 -1.00304 -1.19258 -0.665226 -0.870197 0.600516 0.616967 -0.695405 0.0465505 1.19856 0.805809 0.782877 0.149074 -1.27822 -2.36928 -2.94962 -2.58658 -2.32119 -1.61658 -0.134044 0.00988235 0.00317647 0.000875631 0.321573 -0.0761111 -0.0834523 0.0847943 0.280331 0.0299366 -0.380157 -0.623974 -0.548204 -0.455023 0.509931 -0.01128 -0.566675 0.0421053 0.533027 1.52305 1.64903 1.42357 -0.837266 -2.48419 -4.29377 -4.48496 -3.8527 -2.41429 -0.187532 0.0172941 0.0137739 0.0592589 0.279533 0.0530978 0.247622 0.608675 0.574569 0.151775 -0.694142 -0.408142 -0.880701 -0.282754 0.63676 1.13929 1.11842 1.61283 0.240198 1.01703 1.47344 2.48847 1.93534 0.80735 -1.613 -3.89436 -4.61439 -2.76852 -0.167527 0.0109412 0.00991621 0.0139146 1.05818 1.42104 0.691072 0.425963 -0.00530445 -0.156687 -0.730366 -0.931977 -0.970507 -0.540974 0.212134 1.07345 1.0954 1.44886 0.496804 0.482861 0.44446 1.33117 2.70282 2.98071 1.28468 -0.939783 -3.08761 -1.59725 -0.110651 0.0250516 0.0248906 0.00265481 0.774133 0.898313 0.236617 0.0435682 -0.435358 0.0414839 0.136563 -0.665761 -0.12965 -0.0132371 0.0965733 -0.335732 -0.655388 -0.037637 0.727171 0.977823 0.171319 0.115634 1.2108 2.46797 1.84446 0.46035 -1.14882 -0.258429 -0.0376556 0.0271765 0.00626501 0.00879485 0.423018 -0.154548 -0.512892 -0.173063 0.0211222 0.905219 0.223265 -1.29016 -0.955686 -0.33278 -1.07193 -1.91019 -2.02836 -1.97863 -1.19259 0.0674789 0.884508 0.789737 0.491821 1.28324 1.53819 1.45432 0.365122 0.0904049 0.0422848 0.0236471 0.0296471 0.0233181 -0.175972 -0.546254 -0.707913 -0.0854338 0.276482 0.78419 -0.637156 -1.52084 -0.765868 -0.837045 -1.74266 -2.06605 -2.82998 -3.58499 -3.48533 -1.92878 -0.390458 0.581203 0.744659 1.28408 0.940859 0.94986 0.647817 0.513751 0.0739126 0.00705882 0.0324706 -0.012659 -0.400769 -0.230215 -0.366045 0.0612956 -0.338197 -0.325383 -0.415457 -0.721061 -0.414953 -0.296761 -0.243988 -0.802761 -2.26239 -3.25668 -3.46182 -2.55161 -1.00439 0.531095 1.32001 1.39771 1.18779 1.02335 0.414182 0.208289 0.0413713 0.00211765 0.00847059 -0.0278709 -0.862997 -0.734371 -0.865489 -0.232033 -0.173546 0.0614564 0.404397 0.307195 0.454751 0.667022 0.553367 -1.08605 -2.08335 -2.39767 -2.38512 -1.69621 -0.822607 0.733865 1.4925 1.70311 1.79498 1.82429 1.00047 0.418639 0.0218021 0.0130588 0.0165882 0.0473781 -0.658763 -0.649956 -0.411498 -0.121136 -0.233005 -0.358513 -0.270258 -0.243425 0.0883719 -0.259017 -0.637171 -1.7079 -2.2819 -2.25688 -1.67826 -1.17771 -0.988014 0.271722 0.902272 1.34224 1.73132 1.90621 1.37618 0.670641 0.0513063 0.0112941 0.043214 0.0127753 -0.562859 -0.638337 -0.111872 0.280471 -0.000754283 -0.727978 -0.829936 -0.35625 -0.224339 -0.627331 -1.2747 -1.79575 -2.44231 -2.00345 -1.07539 -0.755084 -1.02986 -0.198681 0.366737 0.983804 1.00362 1.1638 1.1423 0.517943 0.0117901 0.0278824 0.0502462 0.0149172 -0.412616 -0.475117 -0.710679 -0.493978 -0.786412 -0.801611 -0.306704 -0.0641741 -0.17954 -0.582518 -1.47851 -1.85054 -1.89904 -1.25884 -0.632659 -0.676398 -1.08081 -0.601777 -0.282453 -0.42817 -0.454574 0.476296 0.631186 0.178458 -0.0205555 0.00529412 0.030581 0.00599817 -0.243877 -0.119797 -0.492835 -0.270075 -0.364896 0.0545113 0.241445 0.0368746 0.0601043 -0.391053 -0.996595 -1.08219 -0.92679 -0.650168 -0.381883 -0.339066 -0.451993 -0.0491953 -0.0636683 -0.621979 -0.490304 0.127698 0.141491 -0.000254273 0.0224202 0.00247059 0.00079105 0.0376233 0.0178289 0.013755 -0.0146429 0.0452293 0.0606078 0.0261814 -0.00545152 0.0087736 0.0286212 -0.0200335 -0.033504 -0.057746 -0.0480158 -0.0374383 -0.0368115 -0.00708288 0.00166785 0.0155136 0.00302981 -0.0053476 -0.00150898 0.043446 0.0267831 0.0152363 0.031443 0.0335294 0.0321176 0.0134118 0.0218824 0.0190675 0.0286006 0.0257611 0.0305711 0.0266019 0.00171683 0.00381327 0.00811194 0.0158824 0.0199515 0.0191278 0.0314808 0.00642194 0.00161933 0.0251263 0.00741176 0.0296471 0.00882353 0.00503208 0.0307059 0.0250588 0.0285882 0.00917647 0.00847059 0.0215294 0.000352941 0.0232941 0.00776471 0.024 0.0275153 0.0013382 0.0326182 0.0045671 0.00613543 0.0322073 0.0123293 0.0144707 0.0165891 0.00988261 0.0181291 0.0253015 0.0284877 0.0342262 0.0211735 0.0125543 0.0116793 0.0420588 0.0208234 0.00176471 0.0172941 0.00670588 0.0296471 0.0211765 0.0338824 0.0102388 0.024693 0.00771712 0.00324464 -0.0169853 0.0270137 0.0308678 0.0267899 0.00380526 -0.0158699 -0.0268319 -0.0097243 0.0259029 -0.0240056 -0.019689 -0.0748812 0.0385696 0.0457562 -0.0104257 -0.0205474 -0.00715289 -0.00587356 -0.00595191 -0.00121254 0.0161692 0.0101765 0.0271765 0.0215294 0.00235643 0.0276183 0.0242456 -0.0661499 -0.0850985 0.0373211 0.225697 0.119651 -0.100259 -0.184036 -0.28532 -0.179098 -0.146106 -0.292668 -0.271524 -0.282298 -0.0151911 0.211568 0.258408 -0.0124794 -0.339732 -0.272117 -0.229218 -0.150401 -0.0715005 0.00087334 0.0172989 0.00352941 0.0101981 0.0563449 0.0885224 0.144252 0.475741 0.600935 0.43506 0.13499 -0.23187 -0.679372 -0.974934 -0.789693 -0.850474 -1.0566 -1.10234 -0.663598 -0.210185 0.312329 0.347483 -0.342554 -0.311093 -0.241447 0.210792 0.21057 0.0337959 0.00631774 0.00847542 0.00352941 0.00432077 -0.0908248 0.0193846 0.152302 0.156975 0.205149 0.110844 -0.0119658 -0.556099 -1.61202 -1.84071 -1.58512 -1.47013 -1.36733 -0.935779 -0.375609 -0.229077 0.0875742 0.0730745 -0.341242 0.1396 0.51612 0.891514 0.703732 0.137956 -0.0337997 0.0261185 0.0130588 -0.00637937 -0.264641 -0.110425 0.081858 -0.00853622 -0.171932 -0.254766 -0.208537 -0.694828 -1.55842 -1.96378 -1.6323 -0.797994 0.00212105 0.246189 0.279997 0.0390733 0.253932 0.34803 0.474147 0.900054 0.696292 0.84868 0.628642 0.280869 0.0315923 0.0324706 0.0271765 0.00506727 -0.118082 -0.0435523 0.00336935 -0.160197 -0.256929 -0.0224054 -0.108901 -0.786407 -1.41395 -1.73493 -1.08653 -0.0156516 0.625362 0.0895846 -0.359284 -0.050048 0.0382279 -0.0073906 0.388282 0.576521 0.118381 1.01444 0.414033 -0.0712357 -0.00949835 0.00352941 0.0116471 0.00762685 -0.0905655 -0.173995 -0.192913 -0.399666 -0.0848019 0.603501 0.0480222 -0.891556 -1.51881 -1.62319 -0.40658 0.205065 0.149899 -0.282009 -0.137272 0.120492 0.23777 0.775287 1.20247 