0.00280702 0.01 0.0112281 0.00682247 0.0108462 0.0150155 0.0275049 0.0172152 0.00591318 0.00123174 0.002934 0.0172918 0.00260828 0.00707049 0.017504 0.00289639 0.00150716 0.00507935 0.0150635 0.0125081 0.0149675 0.0078799 0.0128009 0.00386259 0.0131594 0.0157895 0.00368421 0.01 0.00824561 0.00406595 0.0111888 0.019207 0.0282882 0.0178715 0.0222744 0.0294247 0.0604573 0.0145843 0.0290594 0.0187283 0.0080733 0.0495169 0.0703048 0.0626629 0.122958 0.10559 0.0189096 -0.00927549 0.068705 0.0892972 0.0338148 0.0241215 0.00403196 0.0178739 0.0142753 0.00192909 0.0157895 0.00874945 0.0435315 0.0961016 0.0924582 -0.0762164 -0.0983684 0.0430244 0.0816207 -0.0942668 -0.0157727 0.0348494 0.255757 0.406781 0.447517 0.595529 0.733414 0.594658 0.238151 0.0862534 -0.10659 -0.120309 -0.0897527 -0.217131 -0.159516 0.0682055 0.0224884 0.0172198 0.0054386 0.0148479 0.0423877 0.05591 -0.0450356 -0.346174 -0.365227 -0.24196 -0.360329 -0.715402 -0.531459 -0.200948 0.231316 0.497272 0.705324 1.14603 1.3027 1.12365 0.840692 0.489241 -0.0214112 -0.428134 -0.309802 -0.356602 -0.209263 0.0327944 0.0145315 0.00932573 0.00842105 0.00455079 -0.050978 -0.067652 -0.0978662 -0.357145 -0.447825 -0.542799 -0.792219 -0.67729 -0.602724 -0.557671 -0.334458 -0.0567919 0.415144 1.0262 1.07511 0.925501 0.869485 0.623745 -0.0626762 -0.162718 -0.288515 -0.0583169 0.101313 0.247708 0.0267019 0.00822147 0.0133333 0.00993728 0.0570706 0.016659 -0.041236 -0.123729 -0.371787 -0.194239 -0.163541 -0.288122 -0.542064 -0.896289 -0.588479 0.0908886 0.346067 0.773849 0.877488 0.668282 1.02856 0.692217 0.189202 0.243151 0.320924 0.392102 0.647404 0.668625 0.0972349 0.0054386 0.00298246 0.0208746 0.130477 -0.0948351 -0.364327 -0.340431 -0.448605 -0.227921 -0.369298 -0.354839 -0.657809 -1.12913 -0.538263 -0.0225995 0.0797944 0.353452 0.546356 0.824721 1.02306 0.389619 0.260115 0.25225 0.17138 0.792209 1.12629 0.747728 0.0978678 0.014386 0.00315789 0.00899521 -0.235742 -0.459017 -0.62093 -0.604104 -0.444704 -0.218972 -0.149503 -0.234011 -0.27594 -0.942045 -0.786181 -0.668035 -0.348631 -0.131526 0.34229 0.798965 0.938104 0.609949 0.220917 0.273004 0.305489 0.621361 0.870394 0.784214 0.111396 0.00210526 0.0108772 -0.00649071 -0.356452 -0.748431 -0.930275 -0.838663 -0.638981 -0.563458 -0.166847 0.133821 -0.148601 -0.838643 -0.807218 -1.21759 -1.42824 -0.989109 -0.0493692 0.699095 1.14942 0.808833 0.225493 0.36382 -0.0359064 -0.194608 0.622431 0.59071 0.0750908 -0.00141022 0.0133333 0.00873815 -0.270448 -0.661839 -0.70862 -0.649027 -0.841758 -0.751607 -0.0937738 0.273341 0.0744527 -0.383066 -0.694019 -0.880162 -1.07761 -1.10786 -0.199644 0.564733 1.07231 0.853187 0.54297 0.525083 -0.0659599 -0.00546879 0.712915 0.728239 0.136703 0.0140431 0.00684211 0.0302837 -0.131192 -0.322265 -0.290332 -0.439339 -0.721867 -0.642823 0.0880423 0.876747 0.0818811 -0.657829 -1.04451 -0.841759 -0.391667 -0.814169 -0.10196 0.69686 0.904882 0.710653 0.486973 0.279053 0.119616 0.79158 0.769274 0.843105 0.105392 0.0131579 0.000526316 0.00236898 -0.177672 -0.258468 -0.440923 -1.03498 -0.893129 -0.450646 0.599866 1.3706 0.158728 -0.725041 -0.818779 -0.673776 -0.263812 -0.6208 0.272726 1.28522 1.2779 0.712512 0.0860131 -0.176742 -0.156909 0.219165 0.642248 0.956179 0.0859101 0.000701754 0.0119298 -0.00669062 -0.175051 0.128902 -0.66446 -1.62537 -1.08888 -0.0439895 0.883448 0.850053 0.123124 -0.242113 -1.01023 -1.00526 -0.00396697 0.0690546 0.40185 0.718626 0.739499 -0.108571 -0.504352 -0.575936 -0.256046 0.288606 0.827071 1.02282 0.0266983 0.013717 0.0115789 0.0690494 -0.0331629 0.0832921 -0.688467 -1.42038 -0.658351 0.181711 0.532622 0.828675 0.424522 -0.170401 -1.08278 -0.877233 -0.424151 -0.610646 -0.128434 0.253207 0.641161 0.433683 0.1738 -0.0837801 -0.0855094 -0.135232 -0.150836 0.170971 -0.0344976 0.0170175 0.00491228 0.0680902 0.169082 -0.0341907 -0.729096 -0.831194 -0.628485 -0.549377 -0.244222 0.307469 -0.0104969 -0.848059 -1.391 -1.20201 -1.44639 -1.14779 -0.444738 0.627202 1.19916 0.705926 0.391349 0.504681 0.373068 0.212071 0.207401 -0.0563069 -0.0677186 0.00263158 -0.000182788 0.0640409 0.423562 0.0702392 -0.468153 -0.627779 -0.778242 -0.646334 -0.244504 0.0545957 -0.397593 -1.0585 -1.17285 -1.13236 -1.24338 -0.254149 0.0821364 0.980899 1.31458 0.730259 0.561889 0.742042 0.258693 0.29124 0.48247 0.228259 0.052429 0.000701754 0.0100143 0.0721725 0.235271 -0.118652 -0.31966 -0.28194 -0.43139 -0.306496 0.207764 0.430993 -0.392071 -1.11933 -1.15434 -1.06479 -0.707561 0.34096 1.09987 2.06783 1.60674 0.803301 0.120483 0.128659 0.204588 -0.179104 0.107476 0.209409 0.108566 0.00855604 0.012988 0.0393214 0.0136888 -0.576113 -0.421033 -0.550337 -0.964291 -0.597091 0.140025 0.0703603 -0.165951 -0.369401 -0.777196 -0.0558137 0.439352 1.39334 1.88433 2.86263 1.83766 1.06468 0.431012 0.286381 -0.0109053 -0.18646 -0.150395 0.312633 0.0785634 0.0138617 0.000323044 0.0389763 -0.0675696 -0.680057 -0.419146 -0.948031 -1.15688 -1.05199 -0.261573 -0.364087 -0.530793 -0.638203 -0.422841 0.452668 1.15082 2.17415 1.86064 2.10405 1.32449 0.886084 0.432615 0.296504 -0.240129 -0.071703 0.0849759 0.503502 0.125958 0.00912281 0.00824561 0.0569073 0.182117 -0.433803 -0.332866 -0.709555 -1.21938 -1.50946 -0.562423 -0.444116 -0.370761 -0.586913 -0.143494 0.861955 1.79506 2.32241 1.69118 1.4627 0.490912 0.60966 0.0160666 -0.175661 -0.426891 0.0819736 0.41315 0.614534 0.0950919 0.00807018 0.00719298 0.0581332 0.16838 -0.0381214 -0.034415 -0.695502 -1.43399 -1.26851 -0.317047 -0.21487 -0.264239 -0.117613 0.79472 1.71084 1.89963 1.8666 1.75412 1.23509 0.333859 0.387525 -0.242254 -0.547352 -0.551697 0.0329628 0.341893 0.462842 0.0851038 0.00421053 0.00684211 0.0281779 0.0395693 0.216378 0.184146 -0.769007 -1.54698 -1.22581 -0.447727 -0.495447 -0.451155 0.294019 1.16427 1.94401 1.98312 1.73679 1.50653 1.12785 0.419704 0.389356 -0.348416 -0.681388 -0.224961 0.283793 0.176632 0.0298441 0.0312102 0.0054386 0.0122807 0.0594841 0.212956 0.171399 0.0746279 -0.612878 -1.02555 -1.07251 -0.883806 -0.988248 -0.421139 0.373014 1.40747 2.0655 2.05054 1.98503 1.86749 1.21611 0.508407 0.216867 -0.213056 -0.402201 -0.00477625 0.198201 -0.10664 -0.18203 0.012525 0.0101754 0.00534885 0.0255454 0.0154794 -0.439521 -0.246581 -0.91894 -1.25117 -0.791511 -0.707265 -0.712637 -0.0714074 0.698115 1.62492 2.05972 1.86346 1.69882 1.4377 0.955134 0.489348 0.243698 0.0943358 0.0561973 -0.0251466 -0.182097 -0.368115 -0.236059 0.00675088 0.00701754 0.010893 0.0120302 0.0233791 -0.442978 -0.400671 -0.556043 -0.607124 -0.314723 -0.192053 0.0621324 0.495863 0.772132 1.33684 1.61189 1.51447 1.32696 0.909926 0.230789 0.121714 0.361553 0.195927 0.00939075 -0.313896 -0.406661 -0.354615 -0.053018 0.0192639 0.0142105 0.00745043 0.015144 0.0586251 -0.0412192 -0.0282522 -0.0272475 -0.189232 -0.241731 0.0542009 0.0731327 0.188674 0.462591 0.636975 0.735496 0.703609 0.690067 0.527628 0.290693 0.236908 0.153699 -0.0373275 -0.0706657 -0.190581 -0.209957 -0.116703 -0.0046559 0.000865824 0.00350877 0.0138589 0.00480052 0.00905701 0.0190588 0.0487012 0.0365937 -0.0208636 0.027497 0.129172 0.027878 0.0350707 0.0559224 0.0229656 0.0568005 0.0599327 0.10633 0.0942967 0.0623719 0.0439253 0.0319989 0.00244651 0.0102729 0.0109655 0.00676537 -0.00655698 0.00589872 0.0114228 0.0129825 0.00315789 0.00719298 0.00263158 0.00880048 0.00322624 0.0115149 0.0106923 0.0120368 0.00403708 0.00765987 0.00017551 0.00947368 0.00145428 0.00980748 0.00910572 0.0145443 0.00857337 0.0061399 0.00438596 0.00280702 0.0170175 0.0131547 0.014524 0.00964912 0.0140351 0.0054386 0.015614 0.0163158 0.0140351 0.0164912 0 0.0131587 0.015128 -0.00172059 0.00869841 0.00338724 0.0185248 0.0124417 0.000427138 0.00200491 0.013586 0.00394134 0.0154926 0.00260309 0.00854023 0.00090387 0.0148347 -0.000850403 0.0119586 0.00943765 0.0119119 0.0103353 0.0149045 0 0.000175439 0.015614 0.0119298 0.0117402 0.0174511 0.0291834 0.0143442 -0.004646 -0.00743938 -0.0336434 0.00124262 0.0170158 -0.00524182 0.00618889 0.0396491 0.0389362 0.0319836 0.0462284 -0.00360034 -0.0224545 -0.00571662 0.0195263 0.0409574 0.0421089 0.0353264 0.0238927 0.0118504 0.0283744 0.0106774 0.00807921 0.0147368 0.0155335 0.00926499 0.110567 0.176435 0.214892 0.244263 0.30124 0.3074 0.193493 -0.0640742 -0.157151 0.0556792 0.114115 0.0348567 0.0708548 -0.141113 -0.361508 -0.321007 0.0120313 0.363657 0.482837 0.335386 0.153414 0.285609 0.230358 0.0209105 0.0116487 0 0.0149563 0.111865 0.239917 0.476511 0.463103 0.340067 0.357042 0.176423 -0.0631665 -0.22751 -0.294351 -0.0954771 0.110901 0.0157757 0.167857 -0.0326594 -0.184998 -0.140005 0.369719 1.07378 1.09052 0.831978 0.373492 0.411439 0.36326 0.050123 0.00534178 0.0149123 0.00853918 0.0912092 0.139337 0.363361 0.356984 0.268925 0.111453 -0.0819808 -0.287994 -0.355961 -0.265881 -0.125483 0.0159892 0.162 0.372096 0.60203 0.649906 0.651875 1.11041 1.41564 1.14041 0.820707 0.324506 0.141944 0.250585 0.0419163 0.0032894 0.00122807 0.00555194 0.0966922 0.0778712 0.111339 0.0984093 0.0148528 -0.0657878 -0.127552 -0.337989 -0.26285 0.202937 0.0556939 0.129479 0.237553 0.323386 0.696484 0.528042 0.604841 0.769543 0.801503 0.50254 0.325505 -0.103254 -0.124567 0.0968339 0.0208292 0.0173684 0.00245614 0.0235089 0.193375 0.27429 0.224688 0.33699 0.00382339 -0.0367689 -0.0154935 -0.0989751 -0.101163 0.203238 0.220087 0.272422 0.492025 0.53509 0.472468 0.212935 -0.0306228 0.0127841 -0.241232 -0.650281 -0.49778 -0.405902 -0.509878 -0.0934474 0.0122692 0.0115789 0.00315789 0.0469616 0.272113 0.400928 0.439614 0.663555 0.341587 0.629161 0.49072 0.067024 0.0299768 0.225673 0.141168 0.193186 0.291593 0.551005 0.566959 0.764175 0.885858 0.874369 0.52971 -0.104121 -0.661272 -0.700333 -0.45522 0.0150342 0.0636502 0.00368421 0.0168421 0.0135781 0.226698 0.431252 0.545662 0.580045 0.533743 0.881974 0.810108 0.317198 -0.115803 0.0474367 0.218852 0.731882 1.23566 1.59818 2.01818 1.49023 1.25403 1.05442 0.790721 0.423856 -0.219914 -0.690395 -0.511098 0.119192 0.121492 0.0148538 0.0135088 0.0241605 0.31899 0.405487 0.350432 0.706245 0.554789 0.749784 0.784458 0.563516 0.23293 0.520285 1.02498 1.50335 2.11233 2.54157 2.27363 1.48113 0.676052 0.425988 -0.0301643 -0.172266 -0.143689 -0.643572 -0.588509 0.360895 0.103692 0.0159775 0.015614 0.0256736 0.376719 0.316801 0.458533 0.945418 0.612772 0.122841 0.160285 0.57782 0.757759 1.29838 1.80159 1.98742 2.21991 1.88824 0.563826 -0.492566 -1.12538 -0.941249 -0.622319 -0.0981434 0.11457 -0.252276 -0.319027 0.451844 0.107217 0.00578947 0.00192982 0.0514888 0.299881 0.311036 0.554092 0.826919 0.448208 0.0960534 0.0400357 0.305106 0.558705 1.24269 1.44556 0.923375 0.6852 0.0994482 -1.04619 -1.94672 -1.84124 -0.826117 -0.146304 0.438347 0.595878 0.0997426 -0.413746 0.303541 0.0990312 0.0147368 0.0105263 0.0519603 0.299959 0.391883 0.579861 0.37117 0.260644 -0.0939834 -0.114189 -0.0447421 0.342681 0.383565 -0.0311474 -0.857374 -1.23501 -1.24336 -1.74046 -2.08714 -1.57356 -0.536303 0.153001 0.702344 0.372819 0.0745547 -0.577831 -0.00146606 0.0621555 0.00808194 0.0166667 0.0702305 0.510639 0.730153 0.482329 0.124233 0.146358 0.0447496 -0.331363 -0.267027 0.0697075 -0.179594 -0.4309 -1.30948 -1.18898 -0.949349 -1.55475 -2.01576 -1.72384 -0.778782 0.246925 0.556525 0.0512819 -0.145388 -0.273173 0.0210612 0.0362299 0.00175439 0.0117544 0.0765998 0.628958 0.874663 0.60092 0.155838 0.0197752 -0.0844525 -0.496977 -0.652648 -0.388792 -0.275852 -0.691139 -1.52692 -0.812105 -0.616358 -1.51488 -1.977 -1.78138 -0.912359 -0.470286 -0.338027 -0.372164 -0.468361 -0.427318 0.0658569 0.0429277 0.00929825 0.0121044 0.0758537 0.299087 0.206909 -0.104124 -0.305344 -0.491431 -0.677638 -0.829251 -0.651208 -0.0932408 -0.00905167 -0.662988 -1.25342 -0.665784 -0.707101 -1.06776 -1.36767 -1.48464 -0.902884 -0.738248 -0.695075 -0.463379 -0.473765 -0.531249 -0.132006 0.0379277 0.0164912 0.0137945 0.0867334 0.167652 0.119935 -0.363075 -0.369011 -0.820307 -0.981376 -0.602371 -0.0914556 0.12166 -0.10739 -0.618775 -1.29398 -1.22586 -1.00611 -0.67144 -1.01065 -1.27081 -0.856863 -0.736292 -0.855181 -0.44601 -0.274414 -0.29572 -0.0289299 0.0571513 0.00797336 0.00798404 0.0611015 0.261799 0.167083 0.14881 -0.0356139 -0.530575 -0.347042 0.0401411 0.325416 0.363912 0.0664038 -0.0118582 -0.801361 -0.869539 -0.543605 -0.434832 -1.20412 -1.15007 -0.740149 -0.91479 -0.748173 -0.573705 0.0144267 -0.279363 0.0343473 0.0798131 0.0171172 0.0170357 0.0371009 0.221084 -0.177921 0.604448 0.696416 0.0831535 -0.197024 0.389861 0.37773 -0.147845 -0.293549 0.242262 0.360754 0.203532 -0.338986 -0.782355 -1.23275 -0.870665 -0.221275 -0.445068 -0.56844 -0.495011 -0.320572 -0.57075 -0.163285 0.0402621 0.0136842 0.0168421 0.0260229 0.0384487 -0.885537 -0.170727 0.485451 0.744041 0.52862 0.268387 -0.475252 -0.758246 -0.599735 -0.173184 0.32908 0.24926 -0.0314203 -0.763399 -0.859188 -0.709715 -0.261953 -0.511783 -0.411411 -0.52627 -0.867789 -0.891467 -0.167127 0.0475388 0.014386 0.00368421 0.0198446 -0.0530217 -1.10524 -1.03134 -0.213364 0.769776 0.593556 0.177038 -0.52024 -0.569853 -0.339043 -0.125222 -0.0827772 -0.197406 -0.426882 -0.674793 -0.6366 -0.815634 -0.913536 -0.783905 -0.567718 -0.802869 -0.998683 -0.812435 -0.0267249 0.0717923 0.00280702 0.00789474 0.0357137 -0.102719 -0.836168 -0.925603 -0.461723 0.2914 0.230446 -0.0913324 0.0922112 0.210799 -0.0706401 -0.308524 -0.48721 -0.309163 -0.537483 -0.486253 -0.639536 -0.598427 -0.533213 -0.862599 -0.843327 -0.829366 -1.20393 -0.66822 -0.0592146 0.0448282 0.00649123 0.00789474 0.0334582 -0.110125 -0.456691 -0.536067 -0.260378 0.0495524 0.136408 0.00380515 0.315839 0.552778 0.323511 -0.168731 -0.180967 0.177348 -0.0338234 -0.212995 -0.468788 -0.560313 -0.544681 -0.683506 -0.915133 -0.868793 -1.10527 -0.548356 -0.149515 0.0278976 0.00578947 0.013207 0.0320635 0.110037 -0.0736788 -0.116631 0.134998 0.259476 0.0874564 0.164129 0.589512 0.69877 0.569091 0.155775 0.189681 0.70185 0.612047 0.192294 -0.239357 -0.129777 -0.0876263 -0.192519 -0.625549 -0.768688 -0.753466 -0.403761 -0.202051 0.0212289 0.0170175 0.0189771 0.010584 0.00735445 -0.0692647 -0.154139 0.121853 0.577921 0.429085 0.367159 0.441389 0.4026 0.33622 -0.0103922 -0.0121082 0.150856 0.297631 0.182461 0.21024 0.18339 0.190456 0.0737055 -0.461395 -0.393233 -0.379486 -0.264234 -0.151377 0.0114805 0.0145614 0.00623457 0.0207368 0.0319221 -0.0338247 -0.0774312 0.083659 0.342063 0.471495 0.315231 0.204743 0.0256209 -0.00066492 -0.0383522 -0.0120099 -0.0464394 0.0398415 0.166475 0.262688 0.271897 0.308426 0.0107617 -0.155703 -0.112704 0.00741966 0.0463011 -0.0378514 0.00196145 0.0138596 0.0133424 0.00807868 0.0310678 0.00685321 -0.0107978 -0.018062 0.00286804 0.0121116 0.0425096 0.029609 0.0124404 0.00881622 -0.0033261 -0.00840762 -0.00922036 0.00620985 0.0251645 0.0552024 0.0221823 0.0213492 0.0248612 0.0169384 0.0149097 0.0121456 0.0172896 0.00266182 0.00143528 0.0145614 0.0142105 0.00105263 0.00947368 0.00160826 0.0155077 0.00537195 0.0155064 0.00660535 0.00362257 0.00612703 0.0108758 0.00666667 0.00140351 -0.00169216 0.0138666 0.0149123 0.00122807 0.0143796 0.0107018 0.0045614 0.00964912 0.0321624 0.00699053 0.00614035 0.00649123 0.0152632 0.00929825 0.00245614 0.000877193 0.00192982 0.0161404 0.0129857 0.00719821 0.0109011 -0.00543772 0.00634086 -0.00303686 0.0165367 0.0010356 0.00758462 0.011085 0.00244966 0.0014191 0.0118152 0.00714425 -0.00625964 0.00544827 0.00600296 0.0171492 0.0287151 1.74032e-05 0.0110526 0.00982456 0.00877193 0.00263158 0.00526316 0.00947368 0.00991628 0.00198287 0.00408366 0.00345948 -0.0588864 -0.0787441 -0.0447028 -0.0158077 -0.00759701 -0.00788752 -0.0119184 -0.0187677 0.00626437 0.0164085 0.032254 -0.0192287 -0.04666 -0.0419248 0.0050879 0.0116812 0.0228911 0.0266139 0.0145103 0.0101093 0.0167985 0.00558074 0.013004 0.0108772 0.00422411 -0.00148891 -0.0545171 -0.161465 -0.263185 -0.175956 -0.153772 -0.180428 -0.12222 -0.117775 -0.0937496 -0.108296 -0.0909018 -0.0110388 0.0438323 -0.00905431 -0.223003 -0.294404 -0.277538 -0.126812 -0.00216258 0.0719103 -0.0835203 -0.170161 -0.0425857 0.0116779 0.0103212 0.00473684 0.0124825 -0.0132009 -0.130533 -0.272133 -0.339715 -0.346961 -0.339607 -0.387706 -0.266433 -0.252515 -0.244741 -0.340245 -0.43085 -0.27785 -0.122301 -0.147978 -0.439822 -0.627045 -0.694855 -0.656296 -0.312927 -0.234651 -0.2912 -0.296064 -0.0443226 0.0278404 0.00647062 0.00789474 0.0123406 -0.00829923 -0.155723 -0.278207 -0.403695 -0.520286 -0.622041 -0.54058 -0.402546 -0.33172 -0.436701 -0.631161 -0.770505 -0.636508 -0.40348 -0.46871 -0.718737 -0.80946 -0.877765 -0.754915 -0.662177 -0.683172 -0.294729 -0.199783 0.151692 0.0268524 0.0116684 0.00192982 -0.0126593 -0.0750646 -0.212992 -0.297303 -0.464935 -0.652609 -0.739802 -0.608223 -0.545191 -0.574036 -0.689305 -0.885638 -0.926514 -0.777437 -0.775041 -0.803045 -0.960728 -1.11843 -1.07803 -0.706023 -0.67372 -0.447306 -0.202138 -0.146757 0.0420915 0.012683 0.00578947 0.00315789 -0.0356021 -0.0479461 -0.0137997 -0.209756 -0.368215 -0.358715 -0.336071 -0.387139 -0.398348 -0.452873 -0.725298 -0.92167 -0.848734 -0.764159 -0.784961 -0.827066 -0.904661 -1.12459 -0.674424 -0.392969 -0.325182 -0.0801714 -0.144348 -0.301883 -0.0395663 0.0555987 0.00175439 0.00719298 -0.0261108 0.0901268 0.286194 0.159231 -0.187657 -0.199387 -0.198424 -0.187711 -0.402837 -0.40148 -0.511499 -0.506712 -0.344501 -0.320962 -0.370625 -0.340316 -0.307458 -0.588682 -0.358689 0.102549 0.45689 0.521861 0.0635351 -0.106705 0.252508 0.0609266 0.00122807 0.00614035 -0.0363997 0.25102 0.486162 0.3914 0.0735657 -0.147435 -0.320954 -0.218794 -0.373458 -0.300496 -0.396783 -0.0802954 0.224601 0.0550975 0.106665 0.22321 0.263282 0.287971 0.326867 0.3086 0.522801 0.617934 0.597396 0.739611 0.535863 0.0595356 0.000281812 0.00982456 0.018943 0.311799 0.346434 0.129446 -0.146 -0.237882 -0.0767314 -0.309892 -0.544963 -0.686275 -0.524722 -0.0263547 0.175421 -0.0692102 0.13089 -0.32579 -0.377456 0.112288 -0.0655986 -0.242317 0.364789 0.407936 0.28612 0.157509 -0.0296297 0.00463084 0.00760084 0.00210526 -0.0311114 -0.316566 -0.188514 -0.176719 -0.323888 -0.658752 -0.348479 -0.506423 -0.459471 -0.374098 -0.47969 -0.147323 0.0614461 0.271137 0.0398106 -0.469375 -0.509621 -0.639824 -0.993983 -0.476951 0.337697 0.664637 0.293469 -0.93689 -1.38683 -0.119868 0.00438596 0.00842105 -0.0489404 -0.469902 -0.311929 -0.359013 -0.525863 -0.556484 -0.256903 -0.261447 -0.241369 -0.283451 -0.346434 -0.0113831 0.0277159 0.0758815 0.237433 -0.0459183 -0.232813 -0.315219 -0.473293 -0.155928 -0.272923 -0.810088 -1.56483 -2.23406 -1.88817 -0.212647 0.0157895 0.0161404 0.0098535 -0.0453095 -0.119703 -0.253512 -0.870043 -0.612157 -0.120714 -0.100746 0.0830366 0.158476 0.0560457 0.0579572 -0.0980173 -0.0396429 0.267791 0.714443 0.565239 0.365643 0.362667 -0.433496 -1.63557 -2.24821 -2.79911 -3.1407 -2.08479 -0.213661 0.00157797 0.0163158 -0.0440314 -0.299314 -0.564327 -0.685043 -1.05043 -0.709067 -0.238622 0.171071 0.229874 0.0536455 -0.298404 0.188896 0.26575 0.239015 0.335025 0.323874 -0.0442899 0.15117 0.0150483 -0.806358 -2.05503 -2.75917 -3.03337 -2.85856 -1.85658 -0.148139 0.000877193 0.00175439 -0.0435513 -0.182121 -0.359516 -0.393214 -0.352459 -0.0128011 0.0800504 0.185741 -0.104195 -0.276063 -0.42955 0.0857013 0.212183 0.27027 0.0803856 -0.0287237 -0.237199 0.318106 0.0865303 -0.692821 -1.61879 -1.32554 -0.959416 -1.27547 -1.1752 -0.109951 0.00824561 -0.00130003 0.00834915 0.288965 -0.162544 -0.352302 0.0363446 0.0605479 -0.196212 0.0240331 0.149048 0.0786483 -0.399089 -0.0546854 0.146617 -0.199844 -0.438244 -0.0988365 0.287494 0.577487 0.454511 -0.170533 0.269213 0.821191 0.699736 0.109403 -0.659468 -0.108318 0.00491228 0.00129376 -0.0175958 0.438885 -0.154296 -0.407548 -0.257 -0.000355756 0.310687 0.473052 0.542809 0.16248 -0.295642 0.176771 0.273915 -0.265116 -0.566307 0.188545 0.163294 0.0930636 0.68431 0.720897 1.35792 1.57256 1.09889 0.0811772 -0.35247 -0.0421681 0.0150806 -0.00136669 -0.0515517 0.339602 -0.581975 -0.723115 -0.440499 -0.275698 -0.0290075 0.164573 -0.219594 -0.403163 -0.348401 0.00693665 -0.0472851 -0.278038 -0.115219 0.520855 0.2359 -0.588285 0.38056 1.22207 1.50388 1.30311 0.853561 0.488793 0.0554646 0.0244742 0.00857336 0.0154279 -0.0356221 0.0871559 -0.482896 -0.406326 -0.00944197 0.119362 0.195475 -0.106723 -0.44746 -0.159208 0.0258947 -0.101654 -0.157264 -0.296835 0.265569 0.352073 -0.020063 -0.708107 -0.435325 0.474009 1.28679 1.02962 1.24544 1.21944 0.446436 0.108703 0.00894737 0.00719298 0.0379823 0.142907 -0.19199 0.19935 0.262218 0.331134 0.376947 -0.204887 -0.214229 0.0327695 -0.0881788 0.0939296 0.145815 -0.0550991 0.0536686 0.143455 -0.0839769 -0.565678 -1.16391 -0.594533 0.366436 0.477383 0.454278 0.274944 0.597483 0.0437412 0.0115789 0.0159649 -0.00507291 0.134364 0.0290963 0.231153 -0.119496 -0.0693425 -0.0186964 0.0273476 0.00967078 0.0964407 -0.0561813 0.167382 0.336826 0.0696251 -0.475594 -0.413387 -0.153148 -0.426963 -0.700133 -0.280081 -0.203424 -0.226096 0.0226302 0.185724 0.218332 0.00201806 0.00824561 0.0135088 0.0319913 0.155199 0.0970595 -0.268591 -0.119584 -0.0876429 0.0218957 0.199632 0.0967435 0.217865 0.324431 0.518194 0.586039 0.66424 0.099741 -0.276188 -0.39024 -0.680675 -0.884192 -0.35801 -0.509619 -0.571806 -0.351532 -0.293701 -0.105393 -0.043453 0.0173684 0.0107018 0.0449676 0.0842665 -0.15993 -0.33923 -0.247487 -0.406133 -0.232944 -0.225562 -0.112243 0.256897 0.399065 0.522209 0.36097 0.242487 0.0566953 -0.172646 -0.470384 -0.64433 -0.556081 -0.210223 -0.597259 -0.71914 -0.612584 -0.523475 -0.0922893 -0.0133794 0.0149123 0.0115784 0.00589416 -0.0727081 -0.277048 -0.530813 -0.471772 -0.420889 -0.256006 -0.214882 0.00846588 0.1842 0.264468 0.393472 0.261198 0.12719 -0.0369116 -0.272178 -0.395109 -0.651478 -0.490033 -0.197298 -0.278483 -0.440313 -0.588437 -0.446467 -0.123837 0.0104968 0.0157895 0.0185394 0.0370139 -0.0472469 -0.298032 -0.613878 -0.520022 -0.234799 -0.331968 -0.111411 -0.158571 -0.226809 -0.16512 -0.179204 -0.158345 -0.179142 -0.210112 -0.262632 -0.329388 -0.500586 -0.36748 -0.323699 -0.253541 -0.288756 -0.324666 -0.264989 -0.054906 0.00292272 0.00473684 0.00361605 0.0132308 -0.0191776 -0.174712 -0.242265 -0.108085 0.028311 -0.136934 -0.009072 -0.109189 -0.0794743 -0.105883 -0.0843467 -0.106501 -0.0843764 -0.0586018 -0.168326 -0.16007 -0.171439 -0.209401 -0.217245 -0.0590698 -0.0240759 -0.0973744 -0.0942144 -0.0171943 0.00745381 0.0161404 0.00546016 0.0142084 0.00920882 -0.011257 -0.0260871 -0.00987709 0.0248047 -0.00232504 -0.0187417 -0.00309995 0.0152609 0.0139939 -0.000831457 -0.0237868 -0.00200832 0.0149868 -0.0147861 -0.0420763 -0.0202145 -0.0110456 -0.00504426 0.0430212 0.0194669 0.0165768 0.00399228 0.000810918 0.0059549 0.00421053 0.00578947 0.0145614 0.000175439 0.00540155 0.0140273 0.0167661 0.00912108 0.00740175 0.00617384 0.00859137 0.00666666 0.00438596 0.0107018 0.0152616 0.01456 0.0138596 0.00280701 0.016491 0.0166667 0.00982456 0.0142105 0.017535 0.00807363 0.00842105 0.00280702 0.00473684 0.000350877 0.00701754 0.00877193 0.0114035 0.0170175 0.00208865 -0.0139279 -0.0166184 -0.00924031 -0.0123735 0.00399241 0.0223171 0.00511544 0.00771426 0.0029445 0.0067653 0.0169088 0.0372544 0.0310276 -0.016329 -0.012923 0.00747132 0.00102653 0.0112771 0.000350735 0.0142104 0.00561396 0.000701754 0.000175439 0.017193 0.0152632 0.00964125 0.0136891 -0.000859338 -0.0191183 -0.0562206 -0.105869 -0.0344355 0.00740242 -0.0197673 -0.0602878 -0.0317301 -0.0422449 -0.0252365 -0.00374116 0.00830274 -0.0228249 -0.0831959 -0.0828474 -0.0315103 -0.0351476 -0.0387382 0.00271671 0.0462179 0.0348556 0.0181335 0.0107332 0.017003 0.0054386 0.00428501 -0.0438917 -0.0571112 -0.19624 -0.282486 -0.355164 -0.289964 -0.259365 -0.131798 -0.0636485 0.00984104 -0.0505974 -0.15394 -0.163005 -0.308642 -0.454002 -0.504871 -0.550649 -0.508941 -0.371801 -0.123578 0.147917 0.255924 0.191094 0.0330515 -0.000427736 0.00232626 0.00508772 -0.0129391 -0.222949 -0.224836 -0.244274 -0.241899 -0.189589 -0.312583 -0.427663 -0.174784 0.281385 0.364171 0.11455 -0.282707 -0.721967 -1.10558 -1.1819 -1.39819 -1.08806 -0.596663 -0.251988 0.236169 0.546211 0.526255 0.404546 0.111223 -0.00342758 0.00249714 0.0149123 -0.00534967 -0.217894 -0.561196 -0.649009 -0.56159 -0.434645 -0.508931 -0.309917 0.0654963 0.723221 0.797081 0.383482 -0.344598 -1.28736 -1.84796 -1.95994 -1.621 -1.07695 -0.65852 -0.24619 0.570613 1.13017 1.11898 0.702907 0.0183503 -0.0161119 0.0156523 0.00140351 0.0158681 -0.241168 -0.623248 -0.788671 -0.659054 -0.220973 -0.324286 -0.210099 0.163368 0.927461 1.00613 0.716186 -0.412034 -1.52805 -2.08761 -2.02718 -1.58428 -1.05965 -0.467501 0.195316 0.856979 1.3237 1.61062 0.876022 0.15036 0.0179907 0.000350877 0.00473684 0.00416403 -0.163225 -0.495667 -0.525736 -0.458643 -0.10788 -0.140943 -0.306332 0.08491 0.854408 1.14296 1.23549 -0.0565074 -1.45988 -2.19618 -2.3139 -1.92559 -0.983818 -0.170311 0.150341 0.671887 1.02855 1.04285 0.214352 -0.244654 -0.0484567 0.00526316 0.0119298 0.00276964 -0.0700667 -0.177699 -0.104383 -0.334369 -0.365182 0.029318 0.0565644 0.274864 0.874021 1.75776 1.90181 0.574196 -1.31498 -2.40821 -2.65748 -1.94554 -0.699222 0.0109412 0.371174 0.75564 0.366506 -0.0604752 -0.27917 -0.3065 -0.036686 0.00491228 0.0126316 0.00251972 -0.0994901 -0.0544607 0.0377022 -0.406679 -0.269198 -0.191081 -0.65076 -0.579383 0.56453 1.59926 1.45378 0.641035 -1.16697 -2.45702 -2.76398 -1.906 -1.00063 -0.173878 0.44606 0.734704 0.093748 -0.116779 0.420902 0.326611 0.0252106 0.0107239 0.00929825 -0.00603056 -0.332306 -0.282887 -0.0385544 -0.11806 0.24463 -0.15624 -0.330348 -0.135706 0.338457 0.971701 0.697471 0.258269 -0.73764 -1.25958 -1.67137 -1.41795 -1.02125 -0.273705 0.177538 0.256812 -0.300642 -0.150629 0.0735624 -0.0791815 -0.047774 0.000857775 0.0129825 -0.107807 -0.526601 -0.500007 -0.141209 0.0769833 -0.0642168 -0.261415 -0.348297 -0.264693 0.0923828 0.212497 0.335582 0.140653 -0.530557 -0.212475 0.0828255 -0.13793 -0.530755 -1.03729 -0.737711 -0.428149 -0.319031 0.0492002 0.245963 -0.401868 -0.106291 0.0161404 0.00596491 -0.0574474 -0.37953 -0.150299 0.197614 0.199187 0.120292 0.0831904 -0.277433 -0.436466 -0.259135 -0.215295 0.127504 -0.133837 -0.165984 0.0994307 0.244026 -0.310271 -0.874083 -1.1949 -1.05922 -0.464398 -0.00458251 0.136934 0.151525 -0.447884 -0.172045 0.0140351 0.00719298 -0.0624139 -0.530406 -0.195959 0.180706 0.267234 -0.052337 0.266272 -0.151567 -0.471977 -0.31045 -0.464941 0.133855 0.0759197 -0.161301 0.0115459 0.27763 -0.200518 -0.550466 -0.666379 -0.480576 0.0780261 0.0296744 -0.193519 0.091395 -0.476837 -0.168134 0.00566319 0.0166667 -0.0510059 -0.534574 -0.213429 0.238537 0.39123 0.0629615 -0.0570139 -0.612902 -0.618942 -0.0452882 0.0740572 0.186994 0.164377 -0.258519 0.00224128 0.594239 0.117303 -0.374992 -0.622786 -0.609214 -0.339512 -0.0424239 -0.228007 -0.0704238 -0.058069 -0.0803107 0.00631579 0.0122807 -0.0964924 -0.707427 -0.41746 -0.0951446 0.0139877 -0.267832 -0.631375 -0.774235 -0.190768 0.806189 0.586825 -0.0185781 0.59705 1.01152 0.544168 0.624711 0.0506907 -0.674205 -1.17164 -0.875278 -0.466513 -0.281496 -0.605026 -0.0242161 0.0490252 -0.0253996 0.0108772 8.36383e-05 -0.187871 -0.704651 -0.582505 -0.310358 -0.616716 -0.767679 -0.294295 -0.03226 0.543972 1.08631 0.844466 0.593967 0.80544 0.788814 0.453146 0.750742 0.157867 -0.637924 -0.687395 -0.26707 0.130329 0.0857254 -0.23234 0.0406826 0.181782 -0.00802677 0.00824561 0.00649428 -0.285857 -0.49729 -0.42029 -0.257365 -0.503961 -0.750142 -0.190607 0.447576 1.08558 1.31405 1.06261 0.89994 0.688683 0.279949 -0.0746467 -0.138923 -0.456931 -0.627476 -0.385316 -0.0376203 0.0853942 0.184071 0.344392 0.383466 0.353177 0.0368073 0.0138641 0.0176013 -0.165378 -0.207599 -0.615338 -0.687446 -0.686868 -0.520091 0.0714725 0.943017 0.848689 0.445529 0.243049 0.522266 0.100941 -0.156183 -0.229923 -0.610041 -0.769921 -0.379129 -0.23146 -0.0832546 0.0265725 0.202566 0.0232193 0.42661 0.401353 0.0534574 0.00616966 0.0101811 -0.0601335 -0.247589 -0.0550443 -0.36535 -0.385051 0.402207 0.356902 0.553807 0.790148 0.633461 0.447509 0.369136 -0.38838 -0.562398 -0.27667 -0.335552 -0.18109 -0.139388 0.200955 0.486639 0.654059 -0.0303187 -0.120889 0.167253 0.0897256 0.0225165 0.00754386 0.0105263 -0.0508626 0.0464345 0.105093 -0.436599 -0.190375 0.26726 0.0690583 0.172759 0.792835 0.821969 0.716824 0.413894 -0.121527 -0.402468 -0.286915 -0.10841 0.236063 0.535715 0.567116 0.593138 0.149917 -0.49962 -0.31726 -0.235348 -0.241392 0.00156063 0.0157895 0.0131579 -0.0587724 -0.1842 -0.363903 -0.686717 -0.272619 0.193722 0.261737 0.506484 0.496456 0.594178 0.479927 0.360795 0.262974 -0.104918 -0.0341089 -0.0484345 0.0189937 0.0275201 -0.0864951 -0.350018 -0.567939 -0.531661 -0.267676 -0.160275 -0.184108 -0.013657 0.0142105 0.00859649 -0.0415845 -0.508001 -0.267209 -0.502035 -0.410853 -0.338799 -0.304184 0.0669023 0.209839 0.262353 0.126483 0.188739 -0.0340922 -0.0906615 -0.192998 -0.176465 0.0836791 -0.0467287 -0.327776 -0.393917 -0.267407 0.0424501 0.199359 0.218441 -0.0469296 -0.00543367 0.0101754 0.0110526 -0.0198156 -0.537321 -0.362305 -0.220627 0.24691 0.303451 0.527661 0.606202 0.50158 0.21492 0.272109 0.126452 -0.248935 -0.331679 -0.295719 -0.335486 -0.101521 -0.179324 -0.540989 -0.456112 -0.347639 -0.345331 -0.0137515 0.0482317 -0.198548 -0.0133222 0.00964912 0.000506929 -0.0629604 -0.411959 -0.499895 -0.579253 -0.119658 0.185388 0.456405 0.240887 0.000880624 0.0231888 0.145131 -0.138017 -0.414387 -0.34383 -0.40241 -0.325768 -0.28419 -0.555747 -0.696996 -0.377512 -0.391173 -0.430253 -0.189151 0.0273266 -0.124881 0.000584616 0.0173684 0.00403799 0.00736849 -0.0854958 -0.41003 -0.252601 -0.189648 -0.210044 -0.0196519 -0.281487 -0.355869 -0.18118 -0.111552 -0.154241 -0.212463 -0.441474 -0.562471 -0.526903 -0.483146 -0.558264 -0.720084 -0.665862 -0.581164 -0.40624 -0.0495174 0.06161 0.00123612 0.0137746 0.017193 0.013943 0.00562017 -0.111845 -0.336393 -0.164552 -0.240755 -0.286351 -0.328853 -0.347966 -0.346461 -0.186828 -0.0388085 -0.0394056 -0.10819 -0.325807 -0.468969 -0.47032 -0.46373 -0.467456 -0.447194 -0.448285 -0.364785 -0.285173 -0.116085 -0.0260681 -0.0016996 0.00150706 0.00157895 0.0106872 0.00746091 0.0023935 -0.00622571 0.0276878 -0.0143502 -0.00780165 -0.0045752 -0.0629117 -0.0771885 -0.00678011 0.0135314 0.0104864 -0.00804481 -0.0377469 -0.0489272 -0.0668743 -0.0476392 -0.0508036 -0.0512948 -0.0618301 -0.0237542 -0.0641488 -0.0517556 -0.0307901 0.0113823 0.0114035 0.000526316 0.00701754 0.0149123 0.00789474 0.00824802 0.00869759 0.000537011 0.0175828 0.0131325 0.013952 0.0150273 0.0114035 0.00561404 0.0107017 0.00122762 0.0087715 0.000526246 0.00666665 0.0115788 0.0119298 0 0.00210526 0.0109919 0.0126462 0.0154386 0.0168421 0.00877193 0.00333333 0.00157895 0.00333333 0.0126316 0.00649123 0.00701689 0.00120887 0.0184502 0.0149909 0.0314628 0.011176 0.00388756 0.00989858 0.0081347 0.0180071 0.0170588 0.0018409 0.0052543 0.00944779 0.017351 0.0161724 -0.00723721 -0.0265602 -0.0234112 0.00654228 0.00120525 0.0112167 0.000526316 0.015614 0.00421053 0.0022807 0.0162255 0.00340261 -0.00175933 -0.00625855 0.00456577 0.00843168 0.0712295 0.0272568 0.0161474 -0.0165045 -0.0372784 0.0415971 -0.00126031 0.0301044 0.0723934 0.015801 0.010126 0.0953891 0.0334027 0.0479872 -0.0319178 -0.0628426 -0.0193121 -0.0142726 0.0169603 0.0348082 0.0166695 0.000701754 0.00862761 -0.0282144 -0.0675388 -0.116457 -0.0763772 -0.103 -0.118622 -0.251857 -0.370869 -0.50855 -0.567679 -0.373641 -0.34209 -0.212958 -0.267495 -0.127286 0.167805 0.312757 0.121756 0.0425665 0.00508219 0.000803218 -0.160118 -0.193312 -0.0455715 0.0328977 0.0409195 0.000350877 -0.00901215 -0.121056 -0.257395 -0.230074 -0.25403 -0.362104 -0.419332 -0.686374 -0.937384 -1.00987 -0.969118 -0.865849 -0.834184 -0.727388 -0.320141 0.0504187 0.411214 0.540266 0.346891 0.271005 0.219792 0.361864 0.179739 0.00612919 -0.0199207 0.0535205 0.0423288 0.00491228 -0.00129481 -0.171265 -0.403079 -0.410312 -0.421615 -0.608388 -0.700003 -0.987998 -1.18473 -1.22323 -1.1258 -0.981629 -0.774274 -0.539799 -0.131977 0.107047 -0.00444745 -0.126553 0.176925 0.218115 -0.107617 0.137931 -0.247614 -0.302678 -0.181735 0.0465566 0.0138476 0.00491228 0.0140345 -0.185402 -0.612819 -0.764486 -0.870924 -0.9613 -1.05648 -1.28419 -1.23551 -1.13141 -0.798435 -0.292373 -0.450298 -0.18592 -0.251796 -0.357439 -0.131129 0.220255 0.124521 -0.183573 -0.251546 -0.164713 -0.571311 -0.163053 -0.0779977 0.0233867 0.0168421 0.012807 -0.00925178 -0.275462 -0.718693 -0.927908 -1.13054 -1.13777 -1.19954 -1.64016 -1.27094 -0.779783 -0.13783 0.21986 0.0377711 0.0106345 -0.329037 -0.256378 0.0721822 0.0770052 -0.107692 -0.236487 -0.616529 -0.591914 -0.485545 -0.120628 0.328225 0.094 0.00140351 0.00333333 -0.0149646 -0.423457 -0.94428 -1.22669 -1.3234 -1.41235 -1.51675 -1.84439 -0.780785 0.108342 0.576597 0.524128 0.181515 -0.301118 -0.764966 -0.280561 0.025333 -0.216291 -0.153101 -0.123634 -0.455486 -0.592364 -0.223962 0.289917 0.713187 0.0671011 0.00438596 0.000175439 -0.0162988 -0.423754 -0.946643 -1.12464 -1.41391 -1.53804 -1.90275 -1.63961 -0.598459 0.291548 0.978282 0.245631 -0.138275 -0.213299 -0.0642612 -0.0405708 -0.656393 -0.750274 -0.673876 -0.344104 -0.316074 -0.315819 -0.140455 0.351428 0.98026 0.287763 0.017641 0.015614 -0.0219452 -0.479806 -1.07661 -1.25508 -1.48002 -1.55005 -1.62379 -0.487879 0.329778 0.961169 0.708998 -0.272829 0.0484535 0.0778411 0.158183 0.0773774 -0.519901 -0.889853 -1.19609 -0.678113 -0.343786 -0.400568 -0.441869 0.167104 0.99183 0.306178 0.00649272 0.0135088 -0.0207578 -0.495532 -1.29398 -1.39382 -1.4618 -1.39096 -0.236771 0.715165 0.926462 1.05868 0.473459 0.554587 0.643251 0.379444 0.331257 0.020416 -0.353501 -0.411273 -0.505705 -0.36655 -0.979509 -1.26163 -0.322778 0.563008 0.440911 0.0848281 0.0168421 0.0145614 0.00481584 -0.422278 -1.45868 -1.67811 -1.39755 -0.783965 0.369085 0.999849 1.41613 1.25329 0.617953 0.307088 0.172561 -0.0690662 -0.0329999 0.415407 -0.237631 -0.607997 -0.720593 -0.638332 -0.828843 -0.64153 0.166416 0.700545 -0.0657852 0.0974999 0.0159649 0.0168421 0.00699083 -0.53953 -1.78693 -1.69911 -0.88943 -0.0733555 -0.1975 0.163231 0.955118 1.16573 0.381062 -0.317498 -0.202648 -0.190284 0.435933 0.109947 -0.00438095 -0.136621 -0.571707 -0.557654 -0.265632 0.0807925 0.0457665 -0.080361 -0.251891 0.0414583 0.0174941 0.0108772 0.0931372 -0.343177 -1.28673 -1.03183 0.00499391 0.189315 -0.256352 -0.0274637 0.578011 0.219546 0.077757 -0.238441 -0.169979 0.229761 0.239175 0.371524 0.342593 0.342335 -0.155366 -0.205084 0.266323 0.1759 0.0185696 -0.332696 -0.512501 0.0110957 0.0161404 0.00982456 0.267435 0.41096 -0.379373 -0.327516 -0.315011 0.0789409 0.269142 -0.0839424 0.719479 0.25445 -0.0407253 -0.341169 -0.674168 -0.918241 -0.81327 -0.246805 -0.00985004 0.121146 -0.102919 -0.50646 -0.207934 0.0873806 -0.249861 -0.444022 -0.277289 0.0758282 0.00245614 0.0144365 0.273503 0.702325 -0.0136166 -0.436018 -0.491621 -0.32966 -0.425631 -0.0401667 0.0872462 0.287856 0.218373 0.0511412 -0.145141 -0.996953 -0.828096 -0.0416216 0.0938165 0.287977 0.143038 -0.332133 -0.492114 0.0958359 -0.00345112 -0.382808 -0.426372 0.018692 0.0168421 0.019551 0.374573 1.07563 0.707193 0.178326 -0.451449 -0.345309 -0.0524113 0.0688588 -0.519262 -0.306286 -0.194162 -0.105509 -0.308487 -0.405817 -0.121911 0.471984 0.288321 0.248995 -0.150865 -0.542061 -0.153588 0.167223 -0.180274 -0.723726 -0.511153 -0.0394896 0.000593832 0.0117313 0.601406 1.55409 1.90451 1.02939 -0.105723 0.0615183 0.571214 -0.136802 -0.702844 -0.79296 -0.399517 -0.40086 -0.124677 0.109786 -0.109698 -0.0472426 0.263228 0.1836 0.00649448 0.0539708 -0.0884993 -0.138689 -0.463251 -0.515806 -0.220913 0.0194142 0.0179437 0.0156446 0.531423 1.74083 2.29703 1.81547 0.572256 0.00301285 0.0594398 -0.549038 -1.14004 -0.733344 -0.420255 -0.10172 -0.132941 -0.139524 -0.178352 0.0103582 0.152658 0.177414 0.0224081 0.161577 -0.376617 -0.401749 -0.617302 -0.410443 -0.302126 -0.0104354 0.0150877 0.00947368 0.230648 1.90183 2.00513 1.65037 0.916939 0.164091 -0.116598 -0.378477 -1.05587 -0.32978 -0.101697 -0.205613 -0.0688797 -0.17989 0.292284 0.770349 0.466997 0.104152 0.0213791 0.0943492 -0.269826 -0.29563 -0.432772 -0.305328 -0.272248 -0.0121997 0.000701754 0.01 0.207289 1.29943 2.16792 1.71245 1.37868 1.06608 0.794952 0.143255 -0.472223 -0.21801 -0.484648 -0.506053 -0.253291 -0.358307 -0.0494848 0.441742 0.412383 0.378538 0.770538 0.511269 -0.214812 -0.616473 -0.554908 -0.165001 -0.0399917 0.00786422 0.00912281 0.0142105 0.103655 1.09722 1.49448 1.48385 1.45909 1.21445 0.819281 0.364864 -0.0192909 -0.236935 -0.0039774 -0.158404 -0.223157 -0.0260605 0.117752 0.227046 0.167922 0.363485 0.591293 0.372707 -0.128851 -0.475716 -0.61852 -0.106272 0.0608484 0.0183241 0.00245614 0.0136842 0.0628891 0.811754 0.76727 1.19403 1.15438 1.0549 0.764112 0.725112 0.381038 0.174353 0.00311561 -0.247934 -0.241369 0.272003 0.308963 0.0505558 0.347533 0.305682 0.194362 0.0099163 -0.323525 -0.590094 -0.695672 -0.219404 -0.00597731 0.00971646 0.00859649 0.0384136 0.0944487 0.502838 0.618279 0.757492 0.857316 0.766191 0.8038 0.287342 0.208366 -0.137941 -0.335255 -0.222342 -0.223994 -0.0332316 0.0486665 -0.00221673 0.182154 0.105075 -0.0980557 -0.177072 -0.149821 -0.394357 -0.393261 -0.136723 -0.0783548 -0.00692906 0.0164912 0.0493827 0.0932985 0.320382 0.211484 0.0747978 0.466326 0.661789 0.419582 0.168276 0.273779 0.27696 0.203313 0.184287 0.0985202 0.153226 0.108899 0.120123 0.00481232 -0.260056 -0.190593 0.0276796 0.0586374 -0.131916 -0.135656 -0.0232269 -0.0497904 -0.00473746 0.00701754 0.0293048 0.0336595 0.0909164 -0.0782853 -0.0775627 0.205831 0.127954 -0.0411568 0.0809148 0.275602 0.302639 0.206937 0.247931 0.165639 0.186813 0.12913 0.142 0.0541756 -0.0938564 -0.0211772 0.00206595 0.0217157 0.0317462 0.0690858 0.0658807 -0.033662 0.00113179 0.0145614 0.0138625 0.0301393 0.018861 -0.00150169 -0.000975392 -0.00997618 -0.0511809 0.0305878 0.0187048 0.00792395 0.0233994 0.0385578 0.0599201 0.0810008 0.0628927 0.0119882 0.0198501 0.00739301 -0.00324845 0.0128023 0.00010158 0.00225026 0.0299794 0.0238573 0.0282522 0.0132252 0.0163453 0.00157895 0.00719298 0.00192982 0.0126316 0.00658105 -0.0123898 -0.00666859 0.00995432 0.00615063 0.0122839 0.00521996 0.00911427 0.00491228 0.00690772 0.00318132 0.0140291 0.00847005 0.0121267 0.00123513 0.00473684 0.0164912 0.00842105 0.00292802 0.0115936 0.0124561 0.0022807 0.0170175 0.0166667 0.00929825 0.0170175 0.00666667 0.0108772 0.00843071 0.0163239 0.0242038 0.0355577 0.0206939 0.0271941 0.0123111 0.004448 0.00138097 0.0160473 0.0147661 0.0175946 0.0379397 0.0330198 0.0346388 0.011024 0.00479865 0.0235703 0.0157728 0.00154078 0.00359257 0.0164454 0.0157895 0.015614 0.00140351 0.0154386 0.00832119 0.00763285 0.014178 0.0170315 0.0427101 0.0618925 0.0317778 0.0431155 0.060517 0.00453969 0.0725103 0.105964 0.0773686 0.159921 0.167167 0.0938484 0.0438929 0.00977028 -0.0201014 -0.0273155 -0.0381529 -0.025954 -0.0578172 -0.00402425 0.0109366 0.0108485 0.0154626 0.00929825 0.00160616 -0.0358472 -0.0733109 -0.0631745 0.040542 0.0558245 0.0703341 0.12969 0.164524 0.235458 0.39856 0.620672 0.754828 0.714486 0.52238 0.387695 0.258732 0.146476 -0.215839 -0.435008 -0.430608 -0.290406 -0.351053 -0.0977869 0.112611 0.0291944 0.00501612 0.00631579 0.0059589 -0.0514428 -0.159099 -0.271167 -0.244199 -0.151263 0.0170595 0.270983 0.455767 0.633243 0.95667 1.24054 1.06594 0.737888 0.504158 0.404372 0.153132 -0.241303 -0.569301 -0.725912 -0.721255 -0.601491 -0.688836 -0.123426 0.069773 0.0453637 0.0134971 0.000175439 0.012392 -0.132348 -0.317592 -0.36999 -0.184953 0.0293202 0.137519 0.185242 0.235257 0.650147 0.919347 0.655374 0.0725926 -0.280048 -0.284585 -0.447576 -0.70204 -0.447683 -0.638738 -1.01067 -0.71787 -0.249849 -0.749425 -0.421209 -0.225545 0.0127496 0.0169118 0.000350877 -0.00181768 -0.0853904 -0.0743471 -0.0310011 0.137147 0.130531 0.111832 -0.0171993 0.287386 0.655478 0.661143 -0.16541 -0.782332 -0.997113 -1.29764 -1.3518 -1.09875 -0.485258 -0.405046 -0.499773 0.133693 0.388165 0.120901 -0.397021 -0.109001 -0.00224873 0.000701754 0.00894737 -8.5394e-05 -0.180714 -0.421477 -0.20182 0.113085 0.0276118 -0.208531 -0.696002 -0.214596 0.364311 0.265146 -0.358552 -0.991289 -1.32963 -1.5715 -1.39294 -1.40471 -0.713404 -0.287285 -0.511678 -0.299183 -0.172814 -0.270274 -0.296435 0.268938 0.084624 0.0105263 0.0157895 0.0071848 -0.256907 -0.502654 -0.338369 -0.355837 -0.704598 -0.90221 -0.72612 0.0152452 0.628984 0.216157 -0.891469 -1.06509 -1.16446 -1.60677 -1.54888 -1.35181 -0.914808 -0.424604 -0.995125 -0.99457 -0.510804 -0.352518 -0.139408 0.426179 0.0849309 0.00666667 0.00333333 0.0254537 -0.0534012 -0.20179 -0.278257 -0.315893 -0.589297 -0.365839 -0.0477287 0.124635 0.317486 -0.169416 -1.3139 -1.24464 -1.1307 -1.20299 -1.41191 -1.18453 -1.55052 -1.32093 -1.85912 -1.59621 -0.939277 -0.405899 0.000642497 0.482544 0.0367352 0.00632514 0.0114035 0.0607579 0.123779 -0.143436 -0.237906 -0.474704 -0.808559 -0.250582 0.250982 0.580507 0.366587 -0.216503 -0.811847 -0.760115 -0.461113 -0.395072 -1.02073 -1.51679 -2.27147 -1.85312 -2.25181 -2.12663 -1.57861 -0.690041 -0.166302 0.161848 -0.00289779 0.0072411 0.0164912 0.0435521 0.299064 0.0974989 -0.0375298 -0.625719 -0.874696 -0.0735422 0.0403414 0.163241 0.139872 0.166927 0.463077 0.865234 0.992041 0.668112 0.00454699 -0.49637 -1.38044 -1.66872 -2.02303 -2.11557 -1.13983 -0.240058 -0.306217 -0.243556 -0.00218699 0.00122807 0.0145614 0.0510748 0.0673913 -0.154644 -0.0673571 -0.507862 -0.536808 0.093321 0.498146 0.544079 0.574777 0.98107 1.84182 2.48235 2.47172 1.67135 1.61583 1.07536 0.35589 0.0534306 -0.885344 -0.902335 -0.433945 -0.121977 -0.246165 -0.500924 0.0201129 0.00754386 0.00438596 0.0596068 -0.0448611 0.148416 0.16348 -0.214099 -0.217802 0.529784 0.965422 0.858628 1.11887 1.55742 2.04673 2.40211 2.52277 2.24194 2.42755 2.06927 1.8674 1.3603 -0.145445 -0.792736 -0.838691 -0.444996 0.183186 -0.248157 0.0472119 0.00211294 0.00649123 0.0921741 0.376267 0.540409 0.380068 0.631732 0.362736 0.61607 0.467207 0.297027 1.05579 1.27546 1.10876 1.14544 1.51591 1.3736 1.75304 2.2602 2.15281 2.19266 0.672939 -0.329273 -0.532155 -0.384128 0.20062 -0.0175069 0.0557375 0.0022807 0.01 0.142122 0.65409 0.551017 0.635417 1.35219 0.847219 0.875134 0.331336 -0.447559 -0.157874 -0.305886 -0.115465 0.0570156 0.459848 0.363041 0.511748 1.25355 2.01782 1.91918 0.688986 -0.0449536 -0.561486 -0.522495 -0.134717 -0.255777 0.037743 0.000701754 0.0140347 0.112723 0.527319 0.367122 0.687917 1.54445 0.938925 0.705257 -0.280086 -1.43556 -1.13037 -1.31587 -0.634485 -0.749492 -0.452159 -0.351157 0.187776 0.468484 1.44548 1.44889 0.495585 -0.0608885 -0.529337 -0.513645 -0.344998 -0.187113 0.0252449 0.00140351 0.0128056 0.112517 0.380666 0.417828 0.793713 0.913017 1.08886 1.07924 -0.147148 -0.800464 -0.988605 -1.08463 -1.00266 -1.0577 -0.512329 -0.237322 -0.151202 -0.0168391 0.426668 0.818163 -0.0460682 -0.036056 -0.424344 -0.553587 -0.688922 -0.34348 0.0309273 0.000877458 0.0122515 0.155467 0.468025 0.349623 0.263266 0.0742143 0.260841 0.63583 0.581703 0.100139 -0.261213 -0.664155 -1.28717 -1.55361 -0.918964 -0.329653 -0.144305 -0.290393 -0.15334 -0.0438155 -0.289282 0.0495604 -0.18218 -0.210493 -0.427683 -0.322248 -0.0176134 0.012729 0.00159427 0.117938 0.605904 0.381241 0.169228 0.29722 0.583858 0.814193 1.26335 0.751948 0.462159 -0.4262 -0.756546 -0.891667 -0.791007 -0.478787 -0.1948 -0.0933275 0.0288077 -0.216894 -0.578952 -0.219819 -0.167878 -0.301706 -0.224999 -0.337818 -0.0393884 0.00719298 0.0159649 0.0632321 0.516746 0.747359 0.218149 0.0704376 0.125816 0.294408 0.736664 0.626498 0.655663 0.374871 -0.0248643 -0.281846 -0.194332 0.0998857 0.108398 0.00289674 -0.16576 -0.122391 -0.441395 -0.294891 0.110809 -0.252813 -0.197306 -0.2158 0.00422805 0.00491228 0 0.0470556 0.20095 0.695491 0.274894 -0.131515 -0.554811 -0.447647 -0.221362 0.519627 1.13956 0.699848 -0.0222232 -0.436737 -0.211865 0.149582 0.0297492 -0.0724171 0.0792071 0.116297 -0.439938 -0.644006 -0.169596 -0.0577137 0.323885 0.0668759 -0.000304525 0.0138596 0.0112281 0.0856862 0.236717 0.158528 0.191771 0.256255 0.051276 -0.233065 0.00799727 0.287285 0.568126 0.293455 -0.422845 -1.21058 -0.579267 -0.141671 -0.124068 -0.196751 -0.291116 -0.153384 -0.0228616 0.124066 0.294982 0.111408 0.291897 0.25059 0.0201665 0.00964912 0.0164912 0.0775545 0.494801 0.51413 0.313461 0.475814 0.406264 0.00506347 0.181335 0.368966 0.539403 0.320151 -0.0642584 -0.459008 0.0176965 0.458009 0.267193 0.265518 0.0140586 0.161114 0.347358 0.240427 0.0406657 -0.00512935 0.216406 0.242292 0.0163059 0.00122807 0.00766042 0.0423455 0.269201 0.169159 0.0783099 0.669997 0.534969 0.0666167 0.12665 0.0740214 0.314152 0.386845 0.160009 -0.109567 0.1334 0.454318 0.498982 0.487701 0.330368 0.531496 0.837908 0.534881 0.169217 0.301577 0.530151 0.361447 0.0449047 0.00210526 0.0192352 0.0162792 0.150592 0.142886 0.128475 0.753526 0.524146 -0.0610129 -0.220089 -0.119548 0.344406 0.757641 0.523577 0.257153 0.242235 0.475784 0.441056 0.351048 0.14064 0.307016 0.464657 0.438935 0.433251 0.488168 0.573089 0.254962 0.0426633 0.00526316 0.0123416 0.0265195 0.157559 0.0900331 0.0112601 0.318499 0.257449 -0.0702212 -0.116664 -0.172649 -0.0302875 0.30963 0.294221 0.269713 0.276533 0.351627 0.352772 0.142244 0.109292 0.090968 -0.180335 -0.0398326 0.169824 0.161696 0.154009 0.0740861 0.0131926 0.00807018 0.00511168 0.00288313 0.0497296 0.0581303 0.0515687 0.050675 0.0414191 0.0406726 0.0604357 0.0292154 0.0364164 0.0335897 -0.00970728 0.0098599 0.0351433 0.043829 0.0513801 -0.0108181 -0.0005366 0.0243909 -0.00786769 0.02847 0.0368783 0.00952739 0.0220114 0.00862476 0.00919654 0.01 0.00701754 0.0149123 0.0054386 0.00481914 0.0172869 0.00176573 0.0184759 0.0159958 0.0135003 0.0232512 0.00193232 0.0161404 0.00905122 0.0130283 -0.00082753 -0.000941346 0.00417121 0.000718394 0.00263158 0.0150877 0.015614 0.0110827 0.0142434 0.00947368 0.0154386 0.0149123 0.00368421 0.00105263 0.000350877 0.0145614 0.0170175 0.00263326 0.0112164 0.00640311 0.00926172 0.0126618 0.0139012 0.00496387 0.0187356 0.0109363 0.0114064 0.00698971 0.00829653 0.00899683 0.00326161 0.00454774 0.00806764 0.00556308 0.0580343 0.030364 0.000775576 0.000477785 0.0117301 0.00526316 0.00596491 0.00596491 0.00842105 0.0147385 0.0093502 0.00702724 0.036265 0.027524 0.0705165 0.067975 0.0528484 0.159918 0.100199 0.0618868 0.0616791 0.0200417 0.0241885 0.0424077 -0.0163979 -0.0027147 -0.0130817 0.078282 0.180142 0.141791 0.044752 0.0113799 0.0439837 0.02771 0.00279281 0.0154389 0.00982456 0.00349579 0.0435607 0.144027 0.442878 0.526123 0.606737 0.579307 0.577812 0.816016 0.307586 -0.135138 -0.217413 -0.31327 -0.0639803 0.209594 0.0761127 -0.0132237 0.357624 0.700407 0.886737 1.09849 1.0804 0.573432 0.206487 0.127693 -0.00189133 0.0072562 0.0168421 0.0197313 0.131605 0.31344 0.530385 0.475626 0.520409 0.545118 0.485274 0.472786 -0.228125 -0.733157 -0.697751 -0.445956 0.3113 0.393923 0.0907059 0.275362 1.19958 1.66542 1.19374 1.13679 1.39828 0.837606 0.113254 0.156308 0.022792 0.00181792 0.00333333 0.00386444 0.234801 0.396913 0.638188 0.557575 0.339285 0.261313 0.211254 0.167653 0.160911 -0.106766 -0.156537 -0.060544 0.537002 0.336486 0.332126 0.677718 1.29889 1.50929 1.53627 0.891634 0.545342 0.493674 -0.035392 0.266755 0.0324858 0.00965976 0.00280702 0.017525 0.260032 0.451271 0.770968 0.378058 -0.102396 0.0398853 -0.0699679 0.0769398 0.29445 0.0904192 0.0919472 0.526767 0.385136 0.418649 0.825039 1.0864 1.15694 1.63568 1.96876 1.13913 0.0544985 0.152865 0.364846 0.37697 0.0323573 0.00807018 0.0126316 0.0124516 0.266447 0.506657 0.754225 0.33612 0.0708466 0.0483143 -0.0472314 -0.11965 -0.0987836 0.252364 0.486522 0.729335 0.932367 0.735251 0.789339 2.13889 1.99729 2.09482 1.98647 0.599897 -0.0155693 -0.128785 -0.176949 0.0757661 -0.00702603 0.00192982 0.00315789 0.0428065 0.391322 0.812443 0.573578 0.275026 0.427429 0.660607 0.339371 0.0189105 -0.248352 0.178867 0.472302 0.968792 1.15957 1.254 1.52035 1.97098 1.76183 1.17608 0.12049 -1.15775 -1.4321 -1.71638 -1.62233 -0.685096 -0.0401729 0.0108772 0.00964912 0.0349086 0.371395 0.818715 0.643828 0.450295 0.300641 0.525272 0.370987 -0.00234282 -0.210062 0.46645 1.156 1.80469 1.54197 1.25322 1.29291 0.827773 -0.198745 -1.20876 -2.32032 -3.1397 -3.36583 -3.66325 -2.806 -1.13393 -0.0198922 0.00666138 0.0138596 0.0294862 0.300608 0.55674 0.50269 0.129259 -0.264365 0.0704021 0.0857046 -0.379465 -0.316302 0.390325 1.67709 2.07311 1.16018 1.15471 0.38965 -0.854655 -2.28227 -2.94777 -2.97301 -3.17602 -3.56769 -3.66609 -2.68611 -1.22821 -0.0719448 0.0143633 0.00982456 0.0222077 0.14899 0.311233 -0.0780915 -0.174869 -0.201994 0.125722 0.160021 -0.0170428 0.118342 0.810317 1.27937 0.8769 0.139055 -0.102736 -0.887109 -1.17144 -1.96818 -2.28773 -1.59532 -1.70356 -2.30268 -2.51854 -1.9236 -0.944183 -0.0576953 0.00596491 0.012807 0.0176185 -0.130092 0.0559691 -0.484078 -0.153632 0.235469 0.407907 0.135082 -0.194218 0.159412 0.318599 0.147697 0.15421 -1.02809 -1.45624 -0.867114 -0.447474 -1.16921 -1.14296 -0.48029 -0.443266 -0.915655 -1.36663 -1.14064 -0.573608 -0.0574105 0.0054386 0 -0.00317291 -0.152009 0.153376 -0.199186 -0.0511649 0.521414 0.636735 0.241827 0.168163 0.392412 0.129138 -0.598458 -0.731273 -1.46947 -1.08098 -0.388056 -0.656469 -1.13051 -0.69312 -0.0129502 0.524562 0.221616 -0.490964 -0.555022 -0.233173 -0.0604427 0.00631552 0.0140351 -0.0116871 0.0134794 0.455813 -0.151858 -0.321263 0.501209 0.675651 0.301484 0.0407201 0.390446 0.252259 0.126424 -0.617173 -0.877063 -0.473401 -0.311053 -0.880874 -1.595 -0.974175 -0.497922 0.260414 0.412256 -0.229078 -0.424649 -0.0662603 -0.0208236 0.00947368 0.00368421 0.0273593 0.346987 0.600868 -0.110789 -0.491331 -0.0415593 -0.0253897 -0.0904584 -0.130729 0.150276 -0.0472345 0.0399769 -0.556275 -0.644113 -0.751394 -0.850537 -1.29467 -1.55408 -0.946284 -0.99742 -0.173178 0.306017 -0.150256 -0.336668 -0.166839 -0.0665878 0.00438596 0.0107017 0.0356728 0.309423 0.478813 -0.206698 -0.621272 -0.158846 -0.0272656 -0.283633 0.0345441 0.0516591 -0.0603426 -0.0930521 -0.101889 0.0403213 -0.520034 -0.567455 -1.44834 -1.13243 -0.748577 -0.379721 0.129883 0.482138 -0.0370814 -0.221513 -0.117645 -0.0178213 0.0164912 0.0115786 0.00944522 0.119241 0.342125 -0.135545 -0.522106 -0.0601013 0.0470797 -0.0121296 0.261741 0.208772 -0.133942 -0.036457 -0.326277 -0.699228 -0.735746 -0.463794 -0.534049 -1.0262 -0.833392 -0.288373 0.434419 0.152716 -0.348282 -0.406564 -0.224578 -0.026766 0.0164892 0.0114034 0.0153197 -0.0769074 -0.3184 -0.355742 -0.241937 0.18155 -0.141209 -0.537937 -0.247101 0.107706 -0.165513 -0.12447 -0.843964 -0.95851 -0.673936 -0.35566 -0.842667 -1.11065 -0.482588 -0.320583 0.14727 -0.0106689 -0.303732 -0.384386 -0.143691 -0.0182181 0.00824556 0.00122803 -0.00404058 -0.293802 -0.546219 -0.264151 -0.207886 0.385652 -0.0852254 -0.448483 -0.335856 -0.342663 -0.339668 -0.104897 -0.481491 -0.108489 -0.279347 -0.478104 -0.819985 -1.03398 -0.268488 -0.13063 0.119122 0.00148193 -0.314555 -0.433782 -0.247284 -0.0207088 0.00789474 0.0136842 -0.00679263 -0.277548 -0.501468 -0.289741 -0.309239 0.0527208 -0.311825 0.23405 0.275594 -0.0297634 0.0773922 0.201411 0.212496 0.600189 0.393755 -0.13457 -1.22345 -1.14578 -0.419174 -0.169844 -0.0868579 -0.385832 -0.0318418 -0.252413 -0.177943 -0.0183934 0.0122807 0.0154386 0.0174956 -0.0768405 -0.530192 -0.792634 -0.253413 0.11472 0.134381 0.763948 0.434511 -0.220184 0.151319 0.297352 0.0202531 0.423075 0.718772 0.677326 -0.60786 -0.825575 -0.435802 -0.382971 -0.314628 -0.136511 0.170308 0.00320984 0.119391 -0.00244564 0.00508772 0.00508772 0.0107101 0.00588653 -0.230086 -0.232216 0.241867 0.188719 0.0660379 0.114266 -0.1199 -0.179836 0.207886 0.362171 -0.193491 -0.0795369 0.523957 0.923468 -0.0958484 0.143559 0.00601593 -0.498436 -0.501021 -0.196478 0.0460048 0.0785025 0.134813 -0.0256163 0.0157895 0.0101754 0.036352 0.0586726 -0.103766 0.278194 0.237526 -0.253071 -0.742459 -0.473171 -0.614756 -0.425715 0.0606245 -0.0373002 -0.705069 -0.540992 0.218116 0.355523 -0.0918757 0.0690729 -0.210697 -0.593676 -0.627991 -0.241673 0.0520811 0.210807 0.133456 -0.014199 0.00824561 0.00635397 0.00683006 0.0155346 -0.349945 0.0298746 -0.0671408 -0.372185 -0.612196 -0.447679 -0.00393145 0.23445 0.104117 -0.141783 -0.365159 -0.0370773 -0.0265201 -0.470431 -0.508358 -0.249767 -0.167317 -0.269961 -0.0614221 0.155222 0.290624 0.326971 0.0367499 0.00949539 0.0133333 0.0162083 -0.0153023 -0.0839376 -0.37255 -0.396332 -0.267579 0.376894 0.387175 0.233721 0.485598 0.372183 0.561515 0.202685 0.0295959 0.221536 0.201878 -0.395486 -0.513056 -0.104651 0.271345 0.198213 0.555131 0.316681 0.374198 0.43437 0.140064 0.0158387 0.0022807 0.00828536 0.00214158 0.0828347 0.00363834 -0.0720805 0.069384 0.422705 0.479588 0.269127 -0.0879524 -0.0403811 0.330474 0.135626 0.164763 0.382892 0.430569 -0.272394 -0.175824 0.280041 0.715943 0.467979 0.399938 0.219988 0.189008 0.184767 0.0358208 0.00505331 0.0103509 0.0105266 0.0027213 0.0196942 0.00754476 -0.000865506 -0.0238094 0.0540702 0.0536157 -0.00436664 -0.00714238 -0.00153352 0.036509 -0.0666416 0.0697837 0.0718642 0.0666698 -0.0226477 -0.0101928 0.0719649 0.0950975 0.0932561 0.0822912 0.0423619 0.0172954 0.00174443 0.00159331 0.00389196 0.0163158 0.0166667 0.00263158 0.00684211 0.016664 0.00143648 0.00993116 0.00193931 0.0129263 0.0136832 -0.00179524 0.00186649 0.00824561 0.00616056 0.00600987 0.00589461 0.000892565 0.011815 0.0163353 0.0126316 0.00263158 0.0124561 0.012464 0.0158305 0.00649123 0.00526316 0.00807018 0.00333333 0.00982456 0.0166667 0.0103509 0.00912281 0.0152418 0.00444891 -4.17414e-05 -0.00103675 -0.00714978 0.00396646 0.0185597 0.0130889 0.00288152 0.0166137 0.00231516 0.00321306 0.00312071 0.016514 0.020404 0.00426608 0.0056521 0.0207278 0.00940294 0.0108474 0.000877793 0.0154389 0.0159649 0.00964912 0.0166667 0.0077193 0.0171875 0.00191198 0.00879495 0.0152811 0.0339012 0.0221506 0.0031998 -0.0028295 0.0336238 -0.00462271 -0.0131605 -0.0310021 -0.0383616 -0.0297508 0.0353684 0.0260569 0.0370372 0.0276254 0.0652343 0.0768632 0.107783 0.0409513 0.0352774 -0.00187215 -0.00355268 0.00264738 0.0143887 0.0140351 0.0157988 -0.0114212 -0.0437062 0.0334131 0.315373 0.248233 0.0806329 0.165448 0.166374 0.0742872 -0.0642289 -0.164473 -0.178551 -0.361961 -0.367872 0.0893024 0.605949 0.826692 0.686802 0.355804 0.105135 -0.0372517 -0.18437 -0.146896 -0.0646977 -0.0108528 0.0168629 0.0135088 0.0108854 -0.141893 -0.166957 -0.0455687 0.478352 0.740104 0.582381 0.30789 0.0620998 0.0160799 -0.220387 -0.583201 -0.794359 -0.886935 -0.804495 -0.0316857 0.905655 1.07053 0.920569 0.400253 -0.230749 -0.48629 -0.759474 -0.481676 -0.268022 -0.0238203 0.00746726 0.0140351 -0.000972298 -0.177095 -0.373699 -0.368269 0.354771 0.759409 0.801153 0.411697 0.140055 -0.261269 -0.520618 -0.953291 -1.3779 -1.65046 -1.20067 -0.335212 0.520666 1.04922 0.985801 0.401 0.0470521 -0.608034 -1.17631 -0.916562 -0.358389 -0.00599299 0.00592863 0.0150877 0.0136386 -0.202741 -0.471866 -0.521035 0.276822 0.682093 0.893718 0.587867 0.349949 0.00457048 -0.424606 -1.22562 -2.16408 -2.28429 -1.33628 -0.234921 0.60962 1.06625 0.617801 0.374881 -0.0901181 -0.918903 -1.22053 -1.0713 -0.332742 -0.0127985 0.0124561 0.000877193 0.0121522 -0.169223 -0.492559 -0.525113 0.0803087 0.184963 0.48777 0.418038 0.236386 0.443427 -0.0916696 -1.42442 -2.29988 -2.44285 -1.39122 -0.419397 0.946273 1.57545 1.07026 0.649155 -0.0569062 -0.733206 -1.00181 -1.21409 -0.51123 -0.0220442 0.00736842 0.00666667 -0.00460268 -0.192344 -0.440398 -0.481556 -0.308702 -0.170421 0.33262 0.465266 0.475705 0.67164 -0.397656 -1.39181 -1.82192 -1.79085 -1.11555 -0.287437 1.17342 1.20375 0.9231 0.759978 -0.00697576 -0.727931 -1.06751 -0.970772 -0.410539 -0.0537465 0.00508772 0.0122807 -0.0169189 -0.311795 -0.585731 -0.682998 -0.645869 -0.395835 0.306715 0.592857 0.538667 -0.027613 -0.773554 -1.38753 -1.65609 -1.54656 -1.22894 -0.386203 0.524039 0.398554 0.362076 0.279541 0.0800943 -0.24746 -0.645143 -0.735201 -0.20125 -0.0104804 0.0015571 0.00842105 -0.0182269 -0.244925 -0.517093 -0.687389 -0.74905 -0.516003 0.381073 1.03612 0.860746 0.14888 -0.451014 -1.44152 -1.67999 -1.22368 -0.807543 -0.19916 0.164389 0.13096 -0.0521552 -0.260148 -0.306228 -0.23538 -0.533128 -0.570872 -0.118682 0.0149997 0.0133566 0.0138596 -0.0160133 -0.299114 -0.89855 -1.04094 -1.098 -0.672542 0.377768 1.20068 1.14784 0.451461 -0.0557625 -1.20624 -0.822856 -0.505758 -0.456446 -0.199883 0.328289 0.173364 -0.317063 -0.448032 -0.759031 -0.561739 -0.682018 -0.765431 -0.222568 0.0288954 0.0164912 0.00508772 -0.00772369 -0.252269 -1.0141 -1.08331 -0.833083 -0.376643 0.448193 0.691176 0.748407 0.777482 0.683737 -0.0441391 0.109636 0.30871 -0.63197 -0.548618 0.0833089 0.0435436 -0.0416195 -0.330863 -0.661324 -0.458058 -0.616874 -0.841082 -0.353765 0.00111438 0.00596491 0.00210526 -0.013544 -0.236965 -0.942442 -1.07394 -1.07525 -0.558418 0.247175 -0.0349898 0.198674 0.927994 1.22026 0.834332 0.469043 0.116526 -0.744759 -0.668742 -0.704749 -0.609495 -0.215345 0.0628688 -0.296187 -0.234485 -0.279237 -0.641624 -0.369227 -0.0158448 0.0158909 0.0117544 -0.00422415 -0.348353 -0.997731 -0.969636 -1.1375 -0.755311 -0.407484 -0.0394621 0.435101 1.02936 1.4182 0.55538 0.00624841 -0.0753495 -0.347464 -0.557642 -1.14057 -0.811034 -0.146435 0.432267 -0.0707948 -0.314098 -0.199347 -0.647004 -0.350791 -0.0165381 0.0142105 0.000877193 -0.0204968 -0.259447 -0.587456 -0.600716 -0.71217 -0.816229 0.0763989 0.220107 0.171846 0.616924 0.972042 0.539488 0.613579 0.327824 0.00258518 -0.663079 -0.969437 -0.925933 0.0724558 0.466661 -0.233437 -0.182557 -0.0126286 -0.535773 -0.301299 -0.00571665 0.0115789 0.00937588 -0.00530324 -0.249572 -0.461572 -0.265228 -0.213736 -0.260682 0.454888 0.329507 -0.0363309 0.0351025 0.458123 0.611271 0.722895 0.750994 0.720903 0.0467518 -0.0601083 -0.000649039 0.20864 0.444436 -0.289022 -0.395517 -0.371559 -0.752556 -0.392508 -0.0101306 0.0112281 0.00607491 -0.0116485 -0.401843 -0.795117 -0.676767 -0.297115 0.302987 0.79469 0.379958 0.113157 -0.261097 -0.280136 -0.201791 0.264623 0.664368 0.480656 0.0881107 -0.120934 0.153243 0.0777947 0.125807 -0.398458 -0.277203 -0.631266 -0.952489 -0.485028 -0.0212665 0.0168481 0.00503538 -0.0495622 -0.524518 -0.863715 -0.725098 -0.389958 0.587726 0.847705 0.659914 0.522565 -0.321362 -0.649912 -0.218334 0.409721 0.720343 0.316443 -0.181931 -0.0153419 0.236862 0.0913934 -0.0783649 -0.548726 -0.39406 -0.507365 -0.955777 -0.518774 -0.0322818 0.00231609 0.00573494 -0.00894253 -0.313907 -0.957221 -1.02705 -0.236847 0.388398 0.775164 0.795467 0.20376 -0.781515 -1.00852 -0.622335 0.243106 0.50437 -0.188521 -0.269916 -0.016431 -0.137278 -0.187433 -0.102758 -0.503014 -0.0982131 0.0638189 -0.553409 -0.333215 -0.00861855 0.0119298 0.0152632 0.035345 -0.323758 -1.07716 -1.03277 -0.2009 0.353253 0.985931 0.800137 0.208216 -0.907074 -1.23058 -0.775683 -0.20384 0.281328 0.0223149 0.179064 0.120488 -0.468267 -0.781053 -0.343182 -0.348413 0.0882167 0.352893 -0.200036 -0.0676616 0.0227643 0.012807 0.00684211 -0.0217676 -0.520939 -1.16978 -1.1093 -0.261262 1.0217 1.45092 0.752127 -0.0135418 -0.898149 -1.16786 -0.771528 -0.369605 0.234987 0.362523 0.499415 0.185265 -0.275322 -0.500742 -0.146101 -0.140945 0.0806468 0.170074 -0.197145 -0.104332 0.0135188 0.0173684 0.00403509 -0.0113609 -0.404083 -0.973744 -1.07489 -0.104973 0.8631 1.30392 0.50777 -0.668845 -0.933104 -0.733853 -0.671205 -0.525837 0.307129 0.63886 0.621572 0.121389 -0.276922 -0.524902 -0.229336 -0.0833603 0.153369 -0.00767155 -0.270693 -0.159682 -0.00606611 0.00491228 0.00754386 -0.023347 -0.520473 -0.866085 -0.586399 0.467207 0.864647 1.13197 0.404578 -0.561702 -0.694982 -0.545678 -0.68432 -0.433676 0.252569 0.732332 0.696053 0.149314 -0.162774 -0.532648 -0.310241 -0.161936 0.28117 -0.0557728 -0.242914 -0.152594 -0.00607943 0.0149123 0.0136638 -0.014049 -0.399495 -0.740334 -0.306543 0.43844 0.755728 0.85958 0.291817 -0.344604 -0.435412 -0.381545 -0.469411 -0.283453 0.226947 0.480701 0.694539 0.505961 0.235048 -0.050018 -0.109428 0.0925105 0.299691 0.14182 -0.119589 -0.122222 0.00646028 0.00807018 0.00304391 -0.0293079 -0.114614 -0.143692 -0.222723 0.139264 0.470087 0.131349 -0.404356 -0.516276 -0.304195 -0.213387 -0.361829 -0.0801159 0.307555 0.353063 0.455389 0.468352 0.5065 0.341934 -0.106672 -0.288977 0.059945 0.0847386 -0.0681832 -0.0941823 0.0137475 0.00298246 0.0156072 -0.00177271 0.0150612 0.0595336 -0.0803844 -0.0440917 0.113156 0.0179628 -0.199609 -0.34183 -0.350651 -0.225403 -0.174296 0.077798 0.106246 0.295508 0.35353 0.39058 0.522546 0.373773 -0.131384 -0.399866 -0.197549 -0.0720655 -0.0228278 -0.0134307 0.0175463 0.0054386 0.0152659 0.0144547 0.00198362 0.0127098 0.0156701 0.0371327 0.0117506 0.0186443 0.0246186 -0.0282792 -0.0630571 -0.0291181 0.00884868 0.070899 0.0205301 0.0141695 0.0286989 0.0400362 0.0927577 0.06822 -0.0617323 -0.0666917 -0.013143 -0.00540446 0.00468609 0.017017 0.000914503 0.00947368 0.0157895 0.0149123 0.00122807 0.0155915 0.00315099 0.00511227 -0.000794262 0.0167127 0.0137998 0.00546963 0.00144168 0.00350877 0.0122804 0.0120342 0.0196646 0.0163121 0.0115781 0.00289618 0.0161404 0.00298246 0.0163158 0.0149705 0.00987718 0.00877193 0.00280702 0.0119298 0.0122807 0.00350877 0.00684211 0.0159649 0.0140351 0.00614095 0.00457761 0.00513125 0.0035901 -0.00576549 0.0135618 0.0129954 0.00949542 0.0029682 0.0163759 0.0177468 0.00734526 0.0215063 0.021446 0.00327107 0.00264506 0.00607414 0.00282808 0.00329566 0.0124891 -5.38904e-07 0.0166664 0 0.0145614 0.00824561 0.0136842 0.00052022 0.00851777 -0.00402856 0.00801736 0.0307338 0.0203436 0.037205 0.0371737 0.0362079 -0.0107088 -0.00979323 0.0394335 0.0732115 0.0497963 0.050463 0.0527193 0.0914134 0.0721464 0.0527335 0.0780863 0.081452 0.0860669 0.0579645 0.0278069 0.017083 0.0161584 0.00717847 0.0135088 0.015461 -0.0274214 -0.139015 -0.167696 -0.0793627 -0.0589572 0.019195 0.0637585 0.158327 0.0899347 -0.000403653 -0.0148685 -0.0295408 -0.101564 0.0306839 0.092189 0.408173 0.639188 0.84588 0.607798 0.50426 0.525502 0.419418 0.265327 0.159616 0.00383386 0.0140859 0.000877193 0.00779072 -0.0304802 -0.132617 -0.0796768 -0.0124319 -0.228957 -0.221896 -0.0128632 0.289296 0.244456 -0.00546975 -0.151762 -0.287833 -0.281742 -0.25125 -0.0171484 0.574215 0.852264 0.818254 0.40611 0.144369 0.147652 0.245825 0.27753 0.286674 0.032668 0.0114609 0.00350877 0.0164035 0.063436 0.025462 -0.0128305 0.0486367 -0.218373 -0.201008 -0.0733088 -0.043196 -0.0623819 -0.233648 -0.339413 -0.31831 -0.203201 -0.251448 0.163276 0.511688 0.305268 0.29579 -0.0897739 -0.176034 0.0987949 0.372846 0.37212 0.262407 0.0517548 0.00980486 0.00947368 0.0278412 0.133456 0.149517 0.150943 0.0373296 -0.16669 0.0144152 -0.16204 -0.172536 -0.402738 -0.36545 -0.23757 -0.0452524 -0.182459 -0.162198 -0.105475 0.104021 -0.346621 -0.476852 -0.293225 0.0984695 0.37841 0.646948 0.207289 0.191034 0.0506011 0.00877193 0.017193 0.0294819 0.0696583 0.0205161 0.0899576 -0.0866981 -0.139142 0.0261688 -0.201163 -0.437175 -0.689689 -0.418748 -0.137222 0.0274339 -0.0849714 -0.11958 -0.139687 -0.0307904 -0.306955 -0.710696 -0.222846 0.639467 0.946694 0.800587 0.378106 0.370673 0.00482984 0.0122807 0.0124561 0.0323403 0.195919 -0.0489229 -0.145727 -0.515037 -0.663251 -0.336809 0.0372052 -0.248247 -0.22277 -0.0502475 0.159723 0.226823 0.0863884 0.416814 0.462349 0.0572655 -0.935781 -1.07685 -0.0264654 0.833567 0.867734 0.946605 0.695849 0.2637 -0.0638179 0.00736842 0.0122807 0.0500729 0.0746312 -0.0460612 -0.0719714 -0.302162 -0.364009 -0.107026 0.0139579 0.032392 0.221822 0.0120842 -0.149324 0.0596511 0.26048 0.433247 -0.0155129 -0.55034 -1.33335 -0.835264 -0.0983988 0.269966 0.282786 0.633876 0.562145 0.0356326 -0.11814 0.0108407 0.00105263 0.0354974 -0.0358384 -0.0789546 -0.0486826 0.043335 -0.0435019 0.276725 -0.295891 -0.0770493 0.236752 0.423374 0.158759 0.246962 0.0168107 -0.422814 -1.1128 -0.888454 -0.878218 -0.508572 -0.204076 -0.301724 -0.280456 0.300893 0.162416 -0.100903 -0.0542392 0.00784381 0.0077193 0.020588 -0.12088 -0.157605 -0.283987 -0.0694545 -0.2673 -0.0347113 -0.5269 -0.46217 -0.492376 0.0931557 -0.33808 -0.148617 -0.402018 -0.938616 -0.817045 -0.0802649 0.097222 -0.12272 -0.122552 -0.326633 -0.359489 -0.0279093 -0.09582 0.0210139 0.0293779 0.015614 0.00824561 0.0158286 -0.0738146 -0.327742 -0.623669 -0.38319 -0.171958 -0.270004 -0.386697 -0.482585 -0.176459 0.113096 -0.255841 -0.388343 -0.437128 -0.420949 0.251224 0.608328 0.846726 0.338351 0.0814919 -0.147093 -0.371268 0.0301522 0.0769662 0.247267 -0.0223675 0.00421053 0.0110526 -0.0160334 -0.1196 -0.473507 -0.648799 -0.136691 0.0663807 0.222889 0.275229 -0.280842 -0.345417 0.0702475 0.113577 -0.178222 -0.34381 0.129223 0.626557 1.12432 0.77784 0.501701 0.195539 -0.0481451 -0.411055 -0.470068 -0.228591 -0.00984452 -0.0437932 0.0115686 0.00789474 -0.0602727 -0.219338 -0.390126 -0.231136 0.0171574 0.079534 -0.0395364 -0.427994 -0.795691 -0.594438 0.0180369 0.218148 -0.0597351 0.0361124 0.3815 1.15423 1.08777 0.66716 0.290726 -0.332927 -0.595314 -0.669852 -0.570323 -0.171548 0.0528908 -0.0369533 0.00824561 0.0103509 -0.100372 -0.438077 -0.403365 0.10976 0.285282 0.101721 -0.133387 -0.0822238 -0.119451 -0.0183458 0.0684387 0.327066 0.465981 0.772786 0.948235 1.23126 0.836825 0.0429109 -0.677556 -0.800211 -1.07112 -0.873491 -0.539003 -0.498936 -0.261174 -0.0366609 0.0157895 0.0109844 -0.086756 -0.362989 -0.249452 0.0385141 0.0304839 0.249033 0.280065 0.310705 0.315321 -0.116658 -0.00361263 0.496948 0.632731 0.677601 0.17781 0.34754 -0.429031 -1.79789 -2.06701 -1.5501 -1.28011 -1.13775 -0.919767 -0.872147 -0.455873 -0.0494295 0.00368421 0.0146046 -0.0863971 -0.22721 0.0347186 0.0779941 -0.0980647 0.626611 0.773582 0.343865 0.303342 0.105668 0.342398 0.480191 0.296416 -0.351682 -0.897431 -0.901287 -1.72575 -2.27727 -1.97467 -1.29821 -0.969858 -0.776063 -0.78783 -0.848162 -0.373546 -0.0216614 0.012805 0.00482887 -0.123436 -0.523446 -0.350958 -0.11976 0.00464857 0.0817294 0.232322 0.331178 0.31454 0.000996534 -0.0125626 -0.402258 -0.878821 -1.32517 -1.66967 -1.67036 -1.83655 -1.65042 -0.903932 -0.494226 -0.29846 -0.497818 -0.763102 -0.754018 -0.197099 0.000709307 0.0152631 0.014217 -0.147324 -0.758154 -0.282175 -0.180729 -0.146875 0.237787 0.309785 0.458504 0.27908 -0.409102 -0.680492 -0.792212 -1.41798 -1.74401 -1.66451 -1.54609 -1.12519 -0.539383 -0.206178 -0.0308618 -0.102957 -0.408693 -0.490413 -0.332259 -0.00195227 -0.0047426 0.0149123 0.00736842 -0.0835835 -0.184774 0.299308 -0.2358 -0.120548 -0.0197411 -0.0280729 0.111423 -0.0103782 -0.642552 -0.778894 -0.78902 -0.999995 -0.864006 -0.624663 -0.358371 -0.155073 0.11546 0.0848538 -0.0995349 -0.346769 -0.623739 -0.573593 -0.335852 -0.066529 -0.00252978 0.00807018 0.0136842 -0.026553 -0.182174 0.0110214 -0.344777 -0.321547 0.109574 -0.111239 -0.0417765 -0.0746539 -0.53741 -0.859245 -0.523052 -0.208071 0.34104 0.475396 0.472769 0.257892 0.214068 0.264342 0.00195699 -0.31961 -0.419743 -0.387263 -0.226941 -0.110397 -0.00289779 0.00438596 0.00614035 0.0594449 0.111482 0.152076 -0.230297 -0.483162 -0.0414643 -0.264926 -0.344048 -0.481018 -0.249506 -0.231042 0.016213 0.301596 0.728933 0.948698 0.854661 0.432649 0.188885 0.0461795 0.0256694 -0.113394 -0.141605 -0.158718 -0.211793 -0.0949082 -0.0120802 0.0150877 0.0145614 0.0446059 0.100584 0.189772 -0.295972 -0.553777 -0.264854 -0.526121 -0.624504 -0.293883 0.38654 0.536556 0.582697 0.668196 0.606991 0.473031 0.31135 0.106599 0.0377688 -0.115332 0.0806219 0.236903 0.074969 -0.0724776 -0.0917857 0.0166163 0.0178941 0.00789474 0.0027908 0.0166706 0.0391812 0.289421 0.00469359 -0.267811 -0.25733 -0.512631 -0.135675 0.19912 0.567523 0.681619 0.376795 0.19078 0.0599011 -0.134426 -0.289856 -0.136539 -0.14125 -0.230876 -0.121361 -0.00454735 -0.0131466 -0.135609 -0.00923089 0.225781 0.0333504 0.00666667 0.00228925 0.0270384 0.304776 0.611352 0.716938 0.714817 0.393015 -0.0191645 0.384474 0.274829 0.458871 0.27979 -0.0515245 -0.213819 -0.235095 -0.141042 -0.141021 -0.0941229 -0.0153728 -0.0288759 -0.235166 -0.250875 -0.215184 -0.229182 -0.0760228 0.170417 0.0317762 0.0112281 0.0107884 0.0211884 0.367708 0.550244 0.861266 0.727732 0.472977 0.0168027 0.257466 0.167859 0.22539 0.106549 -0.0158914 -0.139508 -0.0400147 0.0656221 0.0680062 0.125124 0.11215 -0.0452209 -0.103933 -0.0628332 -0.102806 -0.134531 -0.0322628 0.0748169 0.0179423 0.00964912 0.00630128 0.0151178 0.0511174 0.134036 0.133157 0.0918176 0.0124454 0.0267526 0.0993819 0.0435017 0.0246605 0.0334385 -0.0116383 0.0248472 0.0179918 0.00284014 -0.0144838 -0.0170737 0.0177661 0.0128929 0.0242234 0.0284896 0.0154652 -0.000430779 -0.00220017 0.0121589 0.00884751 0.0138596 0.0115789 0.0129825 0.00964912 0.0127419 0.0218522 0.00984305 0.00805805 0.0158299 0.0116857 -0.00481412 0.00622677 0.00122807 0.0165855 0.00193419 0.00323039 0.00782918 0.00835295 0.000317017 0.0138596 0.0108772 0.0126316 0.00236337 0.0089191 0.00368421 0.00842105 0.00105263 0.0045614 0.0161404 0.0164912 0.0045614 0.00754386 0.0144032 0.0121072 -0.00278703 -0.00234942 0.00759106 0.010138 0.00311877 0.00517068 0.016666 0.0165566 0.0159593 0.000516772 0.0155747 0.0127826 0.013002 0.0114677 -0.000161692 0.0141854 0.00536061 0.00307574 0.0154186 0.0147269 0.00859649 0.0107018 0.0161404 0.0152632 0.00534297 0.000538924 0.00711757 -0.00871764 -0.0289998 -0.0556781 -0.0268992 -0.0201786 0.00507662 -0.0157585 -0.00558538 -0.0477447 -0.061672 -0.0586814 -0.0456475 -0.0372104 -0.00153749 -0.00463732 -0.0115453 -0.0142294 -0.0320149 0.00554439 0.0400931 0.0404762 0.0112337 -0.0210728 0.0143571 0.00315789 -0.000238566 -0.0750977 -0.0052197 -0.0570257 -0.20147 -0.218763 -0.23633 -0.315092 -0.255226 -0.325284 -0.173274 -0.186193 -0.189924 -0.195024 -0.2165 -0.284829 -0.227635 -0.220677 -0.184597 -0.0240868 -0.198657 -0.0657515 0.200379 0.237267 0.137358 -0.0010608 -0.0393312 0.0173684 0.00396792 -0.067784 -0.134141 -0.118193 -0.288501 -0.435215 -0.658991 -0.764435 -0.694065 -0.677422 -0.38889 -0.139302 -0.0857472 -0.154263 -0.353145 -0.433502 -0.295896 -0.448845 -0.399256 -0.169095 0.179299 0.131792 0.485731 0.560765 0.270135 -0.0151804 -0.0332777 0.00508772 0.00411334 -0.0530312 -0.210958 -0.0323797 -0.0703897 -0.426308 -0.908457 -0.91627 -0.79995 -0.666252 -0.393535 -0.0828062 0.0631379 0.039864 -0.2632 -0.405672 -0.392614 -0.36814 -0.271075 -0.136439 -0.0521773 -0.120916 0.148652 0.203127 0.268249 -0.0137617 -0.00209084 0.0161404 0.00184344 -0.206217 -0.280369 0.133857 -0.0920632 -0.553847 -1.04496 -0.99606 -0.76898 -0.636719 -0.355402 0.0297092 0.559145 0.484113 0.360375 0.071544 -0.243379 -0.380308 -0.168232 0.0713014 -0.160776 -0.311819 0.0513892 0.180181 0.213781 -0.00935139 0.00333333 0.0077193 -0.0298513 -0.203066 -0.399472 -0.0986201 -0.106427 -0.349155 -0.654203 -0.733267 -0.764803 -0.692965 -0.244804 0.119724 0.402846 0.654084 0.228152 0.0731034 -0.0104019 -0.154175 -0.0620262 -0.150306 0.0123966 0.386383 0.172173 0.408984 0.161607 0.0204915 0.00964912 0.00894737 -0.04373 -0.31923 -0.61036 -0.378529 -0.487589 -0.418139 -0.341375 -0.542169 -0.42925 -0.246764 -0.0942184 -0.332355 -0.263737 0.0417342 0.471228 0.493024 0.222182 -0.346202 -0.544146 -0.883907 -0.425823 0.164298 0.0172906 0.14165 0.229241 0.000460818 0.00561404 0.00526316 -0.0584073 -0.431052 -0.603965 -0.336553 -0.504549 -0.404337 -0.539031 -0.754696 -0.353581 -0.00636435 -0.0306427 -0.0273718 -0.237456 -0.0889158 0.531925 0.417009 0.193823 -0.0593147 -0.0890258 -0.465104 -0.463208 -0.411464 -0.560563 -0.219693 0.228607 -0.0729622 -0.00908566 0.017193 -0.0165859 -0.107347 -0.422346 -0.149315 -0.300726 -0.377388 -0.567469 -1.13613 -0.899106 -0.661325 -0.113705 0.258528 0.200634 0.62893 1.05905 0.803678 0.226911 -0.295822 -0.41532 -0.601886 -0.316784 -0.650534 -0.432145 -0.232953 -0.154791 -0.0900033 0.0009314 0.0108772 -0.0772648 -0.202034 -0.460241 -0.537046 -0.258642 -0.427099 -0.61124 -1.10021 -1.00835 -0.495225 0.103739 0.314989 0.666674 0.748483 0.707237 0.462977 0.638218 0.415572 -0.062946 -0.279273 0.0887313 0.177694 0.382013 0.286225 -0.0101391 -0.1148 0.0161404 0.00350877 -0.0631961 -0.334182 -0.717149 -0.702347 -0.427471 -0.326831 -0.681283 -1.38077 -1.08972 -0.0317101 0.162085 -0.0771111 -0.0986296 0.396857 0.815124 0.449279 0.675986 -0.235903 -0.662011 -0.489043 0.130587 0.48021 0.431696 0.432243 0.129859 -0.0461592 0.00122807 0.00333333 -0.0357588 -0.378145 -0.286827 -0.530361 -0.696624 -0.594486 -0.639995 -1.17309 -0.872027 -0.00220864 0.166951 -0.110392 0.0702302 0.233502 0.359686 0.788827 1.02782 -0.144701 -0.284155 -0.20291 0.277806 0.153743 0.134501 -0.0767732 -0.324527 -0.0790271 0.00763091 0.0147368 -0.0353451 -0.0419804 0.128834 -0.305582 -0.681306 -0.421679 -0.778484 -1.10991 -0.47986 0.239038 0.312262 0.595794 0.595907 0.456599 -0.1442 0.272058 0.511389 0.0649828 0.00186047 -0.613402 0.00276168 -0.235229 -0.227946 -0.555424 -0.278503 -0.0798293 0.0157895 0.00245614 -0.051863 -0.0244463 0.0263335 -0.208941 0.090749 0.31815 -0.287065 -0.584169 -0.31756 0.301737 0.464164 0.756779 0.821882 0.767268 0.0929836 0.0254825 0.341547 -0.148414 -0.47045 -0.818582 -0.039769 -0.31355 -0.166749 -0.318236 -0.197448 -0.0307597 0.00105263 0.00845386 -0.109575 -0.169881 -0.172963 0.189011 0.12129 -0.03949 -0.654496 -1.31122 -0.369373 0.922813 1.16643 0.338036 0.451239 0.480607 0.273311 -0.147785 -0.234609 -0.860287 -0.93624 -0.679498 0.166399 0.284907 0.436979 0.178256 -0.0870591 -0.0248398 0.00824561 -0.00838817 -0.219553 -0.504374 -0.441836 -0.168425 -0.557304 -1.27175 -1.88293 -2.28505 -0.230959 1.68841 1.45691 0.245816 0.147721 -0.0925771 -0.0110365 0.0505712 -0.283611 -1.09113 -0.857313 -0.468278 -0.101993 0.106329 0.690139 0.629476 0.284846 0.0065416 0.0173783 0.00519263 -0.144891 -0.956303 -1.03031 -0.983568 -1.25998 -2.01011 -2.84431 -2.12801 0.558087 1.79625 1.06312 0.327095 -0.0175536 -0.282466 -0.288871 -0.0459622 -0.143792 -0.716607 -0.424683 -0.337186 0.0175339 -0.0134135 0.492668 0.506348 0.206458 0.000556657 0.00654424 0.00540688 -0.218458 -1.38903 -1.54689 -1.36978 -1.3833 -2.13934 -2.73503 -1.07014 0.990144 1.33235 0.728485 0.0587311 -0.239977 -0.491829 -0.113772 0.168413 0.108633 -0.107705 0.295423 0.289868 0.862016 0.342291 0.481198 0.558607 0.380127 0.01056 0.0152632 0.00789474 -0.171554 -1.5942 -1.75833 -1.29337 -1.71468 -2.14917 -1.20776 0.481779 1.44044 1.39973 0.38223 0.0806374 -0.211647 -0.328632 0.321762 0.562836 0.114943 -0.366689 -0.0631474 0.33403 0.966221 0.426708 0.0966564 0.322993 0.372738 0.0317054 0.00491228 0.00578947 -0.133601 -1.56847 -1.8012 -1.34644 -1.72212 -1.4443 -0.176654 1.05313 1.08689 0.843709 0.661351 0.420012 0.240237 0.304674 0.437566 0.45861 0.0394939 -0.34199 -0.105524 0.316728 0.719862 0.449424 0.0519021 0.262636 0.0234099 -0.00915323 0.00491228 0.0124561 -0.101488 -1.03266 -1.45569 -1.06955 -1.08509 -0.428918 0.703156 1.07372 0.946746 0.916372 0.931585 1.4029 0.993566 0.855823 0.244724 -0.0350162 -0.402003 -0.771558 -0.764792 -0.220437 -0.0866134 -0.312334 -0.224536 0.0775538 0.160444 -0.013948 0.0105263 0.0170175 -0.0318903 -0.730753 -0.888509 -0.90667 -0.800867 0.164091 0.499352 0.96831 0.912329 0.609338 0.999322 1.45981 1.05376 0.797003 -0.0908493 -0.426824 -0.853661 -0.997698 -0.607381 -0.476107 -0.36373 -0.0703412 0.180142 0.249868 0.139156 -0.00254925 0.00280702 -0.0142182 -0.0489001 -0.233214 -0.230799 -0.330142 -0.149634 0.274446 0.424518 0.761922 0.770629 0.986789 1.00562 0.972549 0.903126 0.720167 -0.256949 -0.698669 -0.857588 -0.766153 -0.544806 -0.536218 -0.210355 0.132797 0.422209 0.282382 0.107994 0.00672032 0.00596491 -0.0318688 -0.0477366 0.0992967 0.165774 -0.227859 -0.0917995 0.422967 0.260626 0.272528 0.408796 0.498768 0.228214 0.104821 0.238003 0.278415 -0.175647 -0.311196 -0.525469 -0.462182 -0.143906 -0.113952 0.087715 0.245452 0.349599 0.211553 0.110277 0.00227357 0.0103509 -0.0250641 -0.0128844 0.0862761 -0.0337112 -0.162441 -0.0579161 0.277805 0.0850321 -0.160896 -0.13529 -0.0538312 -0.0744684 -0.201309 -0.134104 0.00465937 -0.0757286 -0.158761 -0.342469 -0.238074 0.103741 0.162914 0.0473365 0.158439 0.0503275 0.0373943 0.0246468 0.00337315 0.00736842 0.0050589 -0.0186829 -0.0112801 -0.0259578 -0.0131513 -0.0206665 0.0214918 -0.0287589 -0.0419327 -0.0144554 -0.00796711 0.0144498 -0.00946082 0.0117421 0.0282607 -0.0210314 -0.031802 -0.043764 -0.0335765 0.00244776 0.00891032 0.00437589 0.0185393 0.00940987 0.00337518 0.017071 0.00489933 0.00508772 0.0168421 0.00719298 0.000175439 0.000735537 0.00893847 0.0196898 0.0166135 0.00897129 0.0147012 0.0148708 0.0168416 0.00421053 0.0129764 0.00587735 0.00605358 0.00378557 0.000332858 0.00540448 0.0136842 0.0122807 0.0163158 0.0131295 0.0113939 0.00807018 0.0114035 0.000526316 0.0115789 0.0054386 0.0152632 0.00122807 0.0133333 0.0056169 0.0108797 0.00190451 0.0137316 0.0142484 0.00914428 0.00154852 0.0164646 0.0013545 0.0108285 0.0107686 0.00681845 0.020833 0.0176089 0.0062786 0.0173841 0.0318043 0.0180095 0.0205861 0.0145815 0.00649122 0.00543859 0.00701754 0.0150877 0.0045614 0.00385965 0.00682751 0.0127231 7.24456e-05 0.0180747 0.0140415 0.00111948 -0.0106505 -0.00841856 0.0627839 0.0654744 0.0198828 -0.0196964 -0.030088 -0.0706614 -0.0380643 -0.042319 0.0146407 0.0219178 -0.00579286 0.0447784 -0.0154109 0.0184013 0.0132097 0.0271628 -0.0070249 -0.00311808 0.0142735 0.00368421 0.013274 0.0249752 0.142267 0.185125 0.0779242 -0.0737356 -0.179157 -0.247257 -0.141765 -0.0525056 0.0190514 -0.175861 -0.402963 -0.567476 -0.540489 -0.360282 -0.18451 -0.237089 -0.382939 -0.17122 -0.00946352 0.268991 0.252023 0.0567077 0.0457147 -0.00622588 -0.00797217 0.00614035 -0.00168801 0.0330163 0.268348 0.298574 0.00712696 -0.22243 -0.364618 -0.543044 -0.429331 -0.290272 -0.363169 -0.555937 -0.529008 -0.645884 -0.454619 -0.0631912 -0.187843 -0.497956 -0.55455 -0.478248 -0.0393249 0.334879 0.411837 0.370033 0.0861474 -0.019403 -0.0157433 0.0136842 0.0137171 0.0518124 0.223715 0.429675 0.186776 -0.0047943 -0.401854 -0.53228 -0.379217 -0.130392 -0.13736 -0.175656 -0.0159896 0.00381718 0.173423 0.129073 -0.141669 -0.669994 -0.633987 -0.358343 0.405355 0.66291 1.07655 1.12544 0.475053 -0.016351 0.00147874 0.00421053 0.010192 0.0689073 0.226279 0.580669 0.523781 0.23973 -0.0847872 -0.0840587 -0.150614 -0.0194721 0.0128257 -0.00882634 0.188831 0.170456 0.0675855 -0.358206 -0.843114 -0.658409 -0.483997 -0.219971 0.368976 0.848247 1.3861 1.00044 0.355822 -0.0390274 0.00473684 0.000350877 0.00448436 0.113226 0.187687 0.34022 0.0568889 0.123402 -0.0818337 0.0423306 0.10163 0.508543 0.74737 0.72004 0.457927 0.133615 -0.318726 -0.559398 -0.536689 -0.309154 -0.293311 0.0612591 0.4847 1.22293 1.43035 1.08926 0.276007 -0.0526853 0.00210526 0.00807018 -0.00493654 0.137934 0.15994 0.540341 0.567217 0.497148 -0.0687869 -0.284115 -0.304682 0.465655 1.13185 1.13735 0.483401 0.000855411 -0.235389 -0.64864 -0.425132 -0.246099 0.00841823 0.857944 1.32292 1.26292 0.836456 0.0114047 -0.197265 -0.0191837 0.00614035 0.00578947 0.00849643 0.431267 0.524788 0.80817 0.806644 0.451682 -0.293859 -0.600373 -0.337824 0.4651 1.10816 0.672063 -0.0243256 -0.338178 -0.344795 -0.538748 -0.3931 -0.248511 0.207387 0.720449 0.81168 0.777511 0.434837 -0.146024 -0.389114 -0.13401 -0.000497821 0.0159649 0.0144936 0.212912 0.0162181 0.19702 0.242762 0.322736 0.184891 -0.0225924 0.399352 0.660203 0.757886 -0.179315 -0.811696 -1.02025 -0.571087 -0.0905871 -0.03877 0.164388 0.555036 1.008 0.653821 0.235281 -0.20928 -0.249459 -0.00148973 -0.0270942 0.00509238 0.00982456 -0.032039 -0.438029 -0.719486 -0.329031 -0.0799309 0.172871 0.322799 0.205189 0.425312 0.584881 0.100254 -1.10373 -1.43215 -0.983128 -0.00590009 0.646548 1.14798 1.00206 0.980999 1.22838 0.873896 0.422128 0.00561005 -0.637638 -0.354195 -0.0640703 0.0173684 0.0077193 -0.0712962 -0.693668 -0.808635 -0.471711 -0.289074 0.041849 0.059392 0.0861649 0.060302 -0.158709 -0.731799 -1.32405 -1.18996 -0.450161 0.205732 0.645414 1.70653 1.42664 1.37717 1.65142 1.00347 0.218447 -0.715975 -1.50048 -1.06869 -0.12683 0.0121053 0.00491228 -0.0722436 -0.619623 -0.745407 -0.758672 -1.06417 -0.624511 -0.241597 0.19875 0.457173 0.38321 -0.01351 -0.158117 0.0442982 -0.276854 -0.376219 0.52443 1.73447 1.51066 1.61165 1.20592 -0.0495579 -1.01538 -1.40167 -1.86586 -1.23311 -0.101012 0.00929364 0.0112281 -0.038474 -0.523566 -0.999851 -1.11301 -1.26813 -1.04058 -0.561169 0.207727 0.946682 0.802533 0.289393 0.744852 0.820514 -0.0454859 -0.355522 0.691997 1.05129 0.336359 0.169554 -0.223905 -1.01998 -1.52874 -1.79678 -2.17838 -1.28541 -0.095695 0.0121053 0.0121053 -0.0252905 -0.792171 -1.2618 -1.24525 -1.25728 -1.4995 -0.94571 -0.101609 0.627108 0.341199 -0.39838 0.489526 0.722352 0.369972 0.00537024 0.588287 0.19779 -0.583138 -0.710245 -0.717752 -1.00509 -0.710641 -1.171 -1.61747 -1.08813 -0.127109 0.00666667 -0.000438127 -0.0703427 -0.860366 -1.42902 -1.31502 -1.26781 -1.01982 0.0614577 0.467079 0.562956 -0.239749 -0.521189 0.105464 -0.123712 -0.0443971 -0.139569 0.058305 -0.100805 -0.656915 -0.589924 -0.482491 -0.125305 0.0279315 -0.542506 -0.561438 -0.374459 -0.0272329 0.00824561 -0.00408238 -0.00865504 -0.483447 -0.927564 -0.83189 -0.264795 0.218807 0.522552 0.0126641 -0.0590322 -0.0532343 -0.141394 -0.27437 -0.464942 -0.520297 -0.707343 -0.209348 -0.237456 -0.424938 0.226185 0.50281 0.609685 0.731223 0.488602 0.193699 0.246891 0.0546787 0.0149104 -0.00194703 -0.00819075 -0.0995014 -0.305916 -0.682524 -0.22128 -0.0248081 -0.136582 -0.283313 -0.24444 -0.175383 -0.468032 -0.828846 -1.0191 -0.448057 -0.402567 -0.109754 0.309143 0.0385778 0.645906 0.762252 0.58623 0.657007 0.797355 0.784309 0.302655 0.00984652 0.00350874 0.00926747 -0.0999135 -0.262719 -0.0816549 -0.263227 -0.196244 0.19498 -0.345316 -1.08732 -1.21784 -1.01019 -1.23515 -1.36058 -1.35592 -0.618998 -0.515963 -0.692671 -0.123736 -0.0449888 -0.126212 0.115757 0.345974 0.335453 0.881297 0.964327 0.259519 0.0193897 0.0142105 0.00245614 -0.0240476 -0.371812 -0.256391 -0.135596 0.0167768 0.230185 -0.181348 -1.1412 -0.968444 -0.960011 -1.25406 -1.16233 -1.1133 -0.516175 -0.200422 -0.595393 -0.0617667 0.264427 -0.157391 -0.33158 -0.366124 -0.215938 0.585228 0.757779 0.342199 0.0215903 0.00649123 0.00964912 -0.067223 -0.386098 -0.295402 0.0574554 -0.206119 -0.186538 -0.574052 -1.14724 -1.09832 -1.10209 -1.00724 -0.683254 -0.426508 -0.103061 -0.174961 -0.549027 -0.500814 -0.344313 -0.39429 -0.159231 -0.416225 -0.305304 0.469874 0.514857 0.212951 0.0082635 0.00526316 0.0101754 -0.0700224 -0.0767466 0.350832 0.455657 -0.104086 -0.401871 -0.985347 -1.31413 -1.3497 -1.27903 -0.79676 -0.480621 0.00141107 0.217964 -0.127833 -0.25117 -0.133957 -0.230821 -0.411331 -0.240825 -0.633326 -0.330083 0.21162 -0.00222968 0.101572 0.0299485 0.000526316 0.0138596 -0.0316828 0.125465 0.595874 0.00947598 -0.630047 -0.943002 -1.20899 -1.27473 -1.07041 -0.910579 -0.502991 -0.314603 -0.300399 -0.343866 -0.323408 0.0578792 0.0448915 -0.0379967 0.0203325 0.0230811 -0.495575 -0.0780844 0.103134 -0.154286 0.140328 0.0356314 0.0131579 -0.00406622 -0.059014 0.0404214 0.161386 -0.33062 -0.911174 -1.07561 -1.15798 -0.953572 -0.59787 -0.498992 -0.212024 -0.218173 -0.396217 -0.357554 -0.293697 0.187018 0.329331 0.272693 0.374284 0.211991 -0.170349 -0.0310957 0.33845 0.147778 0.0927603 0.0181036 0.00526316 -0.0163251 -0.0212731 0.0394473 -0.172744 -0.519169 -0.697021 -0.604224 -0.506609 -0.569774 -0.519057 -0.4029 -0.166877 -0.279583 -0.302636 -0.300643 -0.244018 0.042131 0.0117582 -0.0375198 -0.047343 -0.268754 -0.307322 -0.209919 0.171574 0.207287 0.0545848 0.00657511 0.00807018 -0.00655815 -0.00371718 -0.0273206 -0.197055 -0.460039 -0.552582 -0.234018 -0.149516 -0.347255 -0.338128 -0.120332 -0.0541955 -0.165204 -0.14052 -0.0941722 0.00328438 0.062073 -0.199801 -0.127268 -0.05922 -0.1931 -0.210768 -0.0985167 -0.0650192 0.0766582 0.0567613 0.00326684 0.0115789 0.0125192 -0.0120403 -0.017046 -0.0392046 -0.0633177 -0.134902 -0.0586255 -0.0308089 -0.0175297 0.0187305 -0.00254009 0.00257389 -0.0130851 0.0396338 0.033327 0.017507 0.0169983 -0.0288174 -0.016433 -0.0148378 -0.0378633 -0.00512895 0.00879714 -0.005732 -0.0066599 0.0129303 0.00368746 0.0173684 0.00192982 0.0157895 0.00964912 0.00420158 0.013754 0.00884945 0.0167562 0.0120468 0.00422283 0.0118343 0.0119299 0.0159649 0.00957527 0.0228715 0.0151258 0.00821199 0.00609424 0.0127952 0.00631579 0.00350877 0.0159649 0.0168759 0.0101871 0.0147368 0.0122807 0.00912281 0.0122807 0.00122807 0.00315789 0.0170175 0.00421053 0.00942459 0.0112316 -0.00181585 -0.00751161 0.0136958 0.00454057 0.00550404 0.00943505 0.0124449 0.00271012 0.0142351 0.0108396 0.00567614 0.00892231 0.00488885 0.00329571 0.0082428 -0.00155716 0.00182333 0.0131461 0.00614035 0.00578947 0.00666667 0.0022807 0.0161404 0.01 0.00087743 0.0129407 -0.00307785 -0.0298622 -0.051825 -0.0666803 -0.0453539 -0.0231168 -0.0514497 0.0150288 0.017236 0.004947 0.017216 0.0192392 0.00513705 -0.0873032 -0.13026 -0.0778085 -0.0427445 -0.0592704 -0.0519871 -0.0384233 -0.018708 -0.017562 0.00029074 0.00627937 0.000703033 0.00596491 0.0107165 -0.014338 -0.126879 -0.35314 -0.524519 -0.496228 -0.471028 -0.448109 -0.392926 -0.0597474 0.204741 0.322167 0.160571 -0.0756866 -0.238768 -0.508851 -0.680239 -0.764678 -0.656361 -0.635262 -0.671258 -0.539349 -0.388859 -0.193786 -0.0953256 -0.00668562 0.00710033 0.00403509 0.00331872 -0.0653348 -0.236088 -0.4773 -0.673613 -0.787637 -1.05621 -1.02214 -0.445854 0.201834 0.315293 0.303918 0.0722198 -0.00961087 0.0158104 -0.320721 -0.919599 -1.11352 -1.19443 -1.23308 -1.17639 -0.742004 -0.614831 -0.376513 -0.126743 -0.00991721 0.00077994 0.00192982 0.00989189 -0.114804 -0.278201 -0.419191 -0.622819 -0.76894 -1.01452 -0.856893 -0.0321614 0.567938 0.476815 0.560377 0.706943 0.9569 0.961713 0.542699 -0.347673 -0.957269 -1.45989 -1.69994 -1.6887 -0.993026 -0.724533 -0.612973 -0.308561 -0.0138105 0.000566104 0.0142105 -0.00608066 -0.23697 -0.463374 -0.666073 -0.886535 -0.644638 -0.671299 -0.217031 0.488861 0.868692 1.24143 1.3978 1.57969 1.55799 1.63409 1.20937 0.263382 -0.664302 -1.16936 -1.40189 -1.39508 -1.0771 -0.894046 -0.746793 -0.537373 -0.0311648 0.0166667 0.00842105 -0.0137675 -0.385858 -0.529392 -0.511877 -0.608287 -0.581415 -0.506368 -0.0114069 0.292263 0.275194 0.521442 0.826812 1.04172 1.33422 1.06088 0.618502 -0.17656 -0.890772 -0.982703 -1.22434 -0.972257 -0.850558 -1.13432 -1.1178 -0.65655 -0.035634 0.00298246 0.00807018 -0.0275844 -0.480493 -0.616655 -0.54693 -0.633735 -0.795285 -0.696574 -0.024843 0.138098 0.259024 0.318528 0.700372 0.863623 1.01437 0.541246 0.102029 -0.161174 -0.533137 -0.464425 -1.07443 -0.653675 -0.624988 -1.09228 -1.50537 -0.916531 -0.0559382 0.00877193 0.00298246 -0.0351002 -0.56613 -0.893488 -0.784344 -0.563506 -0.470987 -0.508504 -0.24104 -0.254973 -0.24356 -0.0983295 0.434535 0.731728 0.782553 0.849107 0.643153 0.633736 0.368139 0.290138 -0.194702 -0.328928 -0.623582 -1.23137 -1.72906 -1.15434 -0.0733475 0.00874634 0.00175439 -0.0255607 -0.535768 -0.941745 -0.733766 -0.250761 -0.244759 -0.301659 -0.198485 -0.253704 -0.0658325 -0.0709254 0.00772145 0.638717 0.911143 0.890252 0.899735 0.712379 0.546105 0.743754 0.584187 0.135531 -0.123845 -0.726832 -1.25982 -1.0245 -0.079563 0.00268656 0.0152632 -0.0451419 -0.513499 -0.80518 -0.355672 -0.193962 -0.466551 -0.23663 -0.214114 -0.535322 -0.47114 -0.167891 0.179084 0.584711 0.193873 0.190163 0.0792247 0.0427442 0.0681244 0.656705 0.461692 0.12003 0.348922 0.566552 -0.162994 -0.562843 -0.0729545 0.0138596 0.0110526 -0.0208036 -0.33565 -0.742606 -0.686519 -0.632324 -0.310446 -0.130303 0.0492205 -0.22458 -0.535925 -0.307127 -0.0171284 -0.333031 -0.826113 -0.896768 -0.942357 -0.682786 -0.199824 0.45286 0.733637 0.133749 1.03843 1.32097 0.498294 -0.236456 -0.00685623 0.0147368 0.00894737 -0.015455 -0.374373 -0.907548 -0.836984 -0.559479 -0.351738 -0.549222 -0.330155 -0.0968285 -0.54648 -0.365883 -0.359507 -0.824866 -1.01994 -1.07342 -1.20256 -1.31241 -0.624131 0.267439 0.951878 0.306907 0.945793 1.28848 0.654982 0.0645364 0.02071 0.01386 0.00666667 -0.0250733 -0.577739 -0.979575 -0.462483 -0.154037 -0.00571704 -0.365402 0.221144 0.265742 -0.32953 -0.48542 -0.711998 -1.01029 -0.930528 -0.939573 -1.32813 -1.46794 -0.751104 -0.0655989 0.737052 0.504709 0.991185 1.35843 0.813326 0.24632 0.0276075 0.00649123 0.00894737 -0.0559323 -0.62028 -0.632114 -0.147091 0.199323 0.178217 0.298339 0.9223 0.429295 -0.378198 -0.628612 -1.15113 -1.01481 -0.62605 -0.914036 -1.37126 -1.23695 -0.745302 -0.0992207 0.317093 0.677986 1.18538 1.06674 0.36209 -0.0244844 0.0223037 0.0150877 0.0159201 -0.0562807 -0.605155 -0.683838 -0.0817791 0.134089 0.0976673 0.293419 0.746835 0.576599 -0.0862646 -0.361578 -0.709579 -0.493278 -0.0437019 -0.66494 -1.18076 -0.940769 -0.819092 -0.165066 -0.00873524 0.435689 0.660251 0.213816 -0.644868 -0.347272 0.00157863 0.0119298 0.008081 -0.00162874 -0.524706 -0.979779 -0.462628 -0.266683 0.0185146 0.543579 0.877287 0.819492 0.652339 0.081234 -0.44789 -0.311538 -0.296851 -0.872449 -1.45663 -1.01726 -0.839384 0.216825 0.503997 0.642661 0.321937 -0.350565 -1.09176 -0.479849 -0.00670841 0.0114112 0.0157195 -0.00594069 -0.461543 -0.706746 -0.187625 -0.336853 0.15467 0.6263 1.06424 0.965622 0.54516 -0.0352552 -0.335193 -0.0793213 -0.415893 -1.17995 -1.36716 -0.908432 -0.417254 0.605922 0.768622 0.366838 -0.120417 -0.65052 -1.09829 -0.463089 -0.00765864 0.0127628 0.00768776 -0.00777841 -0.524072 -0.44203 0.0847216 0.25841 0.399015 0.386696 0.942554 0.587297 0.0330701 -0.0693754 -0.167279 0.197286 -0.0205587 -0.909895 -1.0352 -0.641658 -0.0513956 0.670549 0.514356 0.231328 -0.338909 -0.717965 -0.820611 -0.410825 -0.0157081 0.00245614 0.000175439 -0.0428145 -0.615833 -0.47327 0.0285116 0.12449 0.657904 0.739386 0.531318 0.198309 0.123243 0.296351 0.267636 0.12964 -0.360277 -1.07663 -1.20431 -1.03245 -0.0134079 0.437476 -0.0256761 -0.106778 -0.393978 -0.837533 -1.16541 -0.577688 -0.0131103 0.017193 0.00210526 -0.0597732 -0.756108 -0.815434 -0.189181 0.200434 0.623 0.772071 0.72339 0.270959 0.257135 0.322797 0.378904 -0.106499 -0.740771 -0.998369 -0.656173 -0.41971 0.550542 0.331195 -0.266957 -0.568191 -0.370253 -0.724312 -1.16919 -0.454388 -0.00504031 0.0166667 0.017193 -0.0505888 -0.738925 -1.08712 -0.487359 0.13332 0.522131 0.711056 0.792922 0.632132 0.451834 0.126169 0.127747 -0.411528 -0.653605 -0.430242 -0.267532 0.0457277 0.561379 0.0698963 0.0364743 -0.138142 -0.239557 -0.874454 -0.996435 -0.408042 -0.0054629 0.00105263 0.0117544 -0.0520449 -0.59698 -0.865548 -0.495873 0.217088 0.404744 0.657254 0.281739 -0.0870436 0.173489 0.0451388 -0.00791368 -0.172567 -0.145759 0.00413711 0.0370669 0.287704 0.740403 0.219049 0.13708 -0.197659 -0.345094 -0.954957 -0.90801 -0.329761 -0.0163175 0.0157895 0.0152437 -0.0100256 -0.295148 -0.542178 -0.49396 -0.239708 -0.292501 -0.350917 -0.543655 -0.537527 -0.218838 -0.327644 -0.332163 -0.392478 -0.18037 0.0692543 0.379523 0.506943 0.490509 -0.153078 -0.310951 -0.59223 -0.695495 -0.830556 -0.648013 -0.140494 0.00850137 0.0101754 0.0132599 7.77136e-06 -0.130405 -0.266287 -0.665764 -0.679873 -0.878708 -0.849444 -0.70686 -0.43386 -0.200407 -0.360348 -0.426858 -0.447713 -0.408592 -0.467198 -0.164903 -0.0501581 -0.120249 -0.423199 -0.700588 -0.99409 -0.713343 -0.564644 -0.358436 -0.0627916 0.0127618 0.0101754 0.0113904 -0.00797114 -0.0555525 -0.125889 -0.356063 -0.536696 -0.673286 -0.520187 -0.339736 -0.345256 -0.26336 -0.267752 -0.322024 -0.295895 -0.289505 -0.370535 -0.378059 -0.248638 -0.217455 -0.128234 -0.373375 -0.404217 -0.219753 -0.220813 -0.128675 0.00889963 0.0158971 0.000350877 0.0173697 0.00167345 0.0127157 -0.0137591 0.00393727 -0.0279341 -0.102715 -0.0656372 -0.0482438 -0.0238249 -0.012826 -0.0354141 -0.0111496 -0.0111372 -0.0097192 -0.0543187 -0.0544858 -0.0341534 -0.0159395 0.0135197 -0.0215743 0.00197976 -0.0102884 -0.0146095 0.00670775 0.0163469 0.0106735 0.00192982 0.0152632 0.00666667 0.0159649 0.0165323 0.0291969 0.0162993 0.00957777 0.0160813 0.00869925 0.00984695 0.00210526 0.015614 0.0170169 0.0108624 0.00033654 0.00858868 0.0045595 0.00614012 0.00736842 0.0166667 0.0117544 0.0185195 0.000677483 0.00263158 0.00842105 0.015614 0.00403509 0.00631579 0.0145614 0.0129825 0.00508772 0.00368393 -0.00634187 -0.00668149 -0.0324071 0.0105055 0.0197358 0.0191324 0.0264108 0.00637201 0.00789602 0.0109473 -0.00847237 -0.0159519 -0.0135858 -0.00014855 0.00278895 0.023328 -0.000263416 0.0231065 0.0183 0.0164164 0.011717 0.0121053 0.0135088 0.0114035 0.017193 0.00733317 0.0135378 0.00684506 -0.00570698 -0.0428537 -0.15062 -0.0939037 -0.046547 -0.0087789 0.00955047 -0.00116081 -0.0243941 -0.0438887 -0.00876722 0.0295071 -0.0546001 -0.00888766 0.0662465 -0.00912406 0.0684884 0.0257893 -0.0243401 -0.015879 0.012397 -0.00430942 0.0164923 0.00807524 0.0164912 0.0041689 -0.032472 -0.0843497 -0.022138 -0.105347 -0.152665 0.0222499 0.0663427 0.103763 0.285955 0.0857819 -0.00956057 -0.194768 -0.135715 -0.0927141 -0.23822 -0.222597 0.00417804 0.0878795 0.0301055 -0.213229 -0.235913 -0.056594 -0.0674293 -0.097722 -0.00233941 0.0161117 0.00789474 -0.00744516 -0.115339 -0.233487 -0.245845 -0.295225 -0.328141 -0.101623 0.212017 0.499499 0.821468 0.594544 0.252498 -0.0922473 -0.197695 -0.412804 -0.534784 -0.580087 -0.389648 -0.21105 -0.331743 -0.36004 -0.396004 -0.400184 -0.316424 -0.170718 -0.000351011 0.00922436 0.00298246 0.00962472 -0.0934594 -0.205948 -0.196638 -0.207216 -0.355861 -0.172497 0.148465 0.603522 1.30197 1.15991 0.630296 0.0232753 -0.306715 -0.685635 -0.865705 -1.02165 -1.10145 -0.963007 -0.531726 -0.179519 -0.377334 -0.497522 -0.357284 -0.281785 -0.0384899 0.00185143 0.00473684 0.0201849 -0.121833 -0.256794 -0.485209 -0.570078 -0.630078 -0.439176 -0.0202702 0.73959 1.39704 1.37866 0.790608 0.297227 0.00930187 -0.37853 -0.844941 -1.41363 -1.36721 -1.19473 -0.456976 -0.0901702 -0.199311 -0.159305 -0.390112 -0.322912 -0.0423518 0.00315789 0.00508772 0.0311005 -0.22881 -0.651142 -0.83738 -0.686775 -0.582783 -0.310333 0.0254877 0.432579 1.02005 1.1616 0.796401 0.375306 0.147228 -0.187303 -0.850381 -1.16764 -1.26569 -1.05294 -0.521085 -0.0994589 0.0950657 -0.00269596 -0.43517 -0.582839 -0.109012 0.0150877 0.0077193 -0.00459259 -0.366673 -0.674029 -0.724051 -0.673242 -0.454079 -0.063466 0.26524 0.264544 0.603276 0.595582 0.392635 0.227768 0.033363 -0.371521 -0.777794 -0.852867 -1.01854 -0.728663 -0.444856 -0.260338 -0.0906539 -0.322681 -0.562552 -0.483218 -0.0748351 0.0133333 0.00385965 -0.00852903 -0.220818 -0.343832 -0.572039 -0.406971 -0.100874 0.209667 0.366078 0.313544 0.158588 0.272574 -0.0134938 -0.424659 -0.729229 -0.859381 -1.09636 -1.07032 -1.26402 -1.03088 -0.784957 -0.329987 -0.0757393 -0.335522 -0.502415 -0.402651 -0.084031 0.00395227 0.00649123 0.00203197 -0.112446 -0.235527 -0.23638 -0.145908 -0.0529943 0.265564 0.174244 0.310703 0.0843227 -0.171769 -0.417492 -0.691999 -0.747623 -0.904827 -0.945142 -0.837886 -1.09808 -0.79445 -0.829358 -0.536796 -0.472586 -0.53576 -0.777496 -0.478919 -0.124214 0.0136786 0.0149123 -0.0239826 -0.22697 -0.0808903 -0.0826674 0.12871 0.064524 0.491444 0.641128 0.935141 0.85438 0.159728 -0.648975 -0.778017 -0.423216 0.166482 0.472984 0.788271 0.148511 -0.324146 -0.76258 -0.985582 -1.0352 -0.678834 -1.06585 -0.708068 -0.0937619 0.0121053 0.00315789 -0.0314923 -0.182515 -0.0683945 -0.031655 0.194121 0.655145 0.779201 0.791806 1.05666 1.26035 0.429774 -0.461284 -0.503216 0.339679 1.00764 1.20353 1.36273 0.829605 0.159619 -0.729125 -1.00812 -0.80258 -0.291979 -0.305655 -0.180057 -0.0338924 0.0154386 0.00368421 -0.0403596 -0.310606 -0.118654 -0.31472 -0.238563 -0.0753139 -0.207226 0.247808 0.810523 0.772642 0.073956 -0.368762 -0.483055 0.402419 0.908871 1.25417 0.914631 0.293379 0.146564 -0.581236 -1.00049 -0.844523 -0.070545 -0.130203 -0.394349 -0.029929 0.0130921 0.00947368 -0.0452294 -0.417274 -0.632451 -1.20958 -1.23082 -1.09824 -1.14809 -0.6396 -0.209431 -0.0240595 0.199872 0.128898 0.0695775 0.0865587 0.388921 0.332985 0.134669 -0.342983 -0.191448 -0.0360797 -0.377654 -0.477707 -0.0806755 0.0860092 -0.555755 -0.0338932 0.00719298 0.0140351 -0.0802971 -0.807946 -1.25984 -1.90124 -1.90242 -1.85692 -1.61881 -0.997245 -0.509264 -0.201169 0.137987 0.436002 0.734041 0.505104 0.381118 -0.393894 -0.63113 -0.413072 0.0990602 0.498185 0.0325966 0.110909 -0.0989115 0.00710417 -0.342135 -0.0405422 0.00666667 0.0122499 -0.109137 -0.849885 -1.61467 -2.0567 -1.78954 -1.69428 -1.54735 -0.818343 -0.181566 -0.149759 0.414311 1.34518 1.13845 0.463583 0.107326 -0.118198 -0.614546 -0.705638 -0.328801 -0.0794817 -0.102088 -0.149532 -0.258172 -0.0789521 0.0938426 -0.0130427 0.00578947 0.00478342 -0.0851724 -0.860623 -1.96395 -1.94613 -1.45913 -1.28321 -0.881363 -0.490997 0.157938 0.38827 1.04727 1.14795 0.577414 0.152027 -0.194589 -0.0748585 -0.378751 -0.582253 -0.418864 -0.0648173 -0.0391374 -0.176374 -0.0966484 -0.190842 -0.0789748 -0.0395263 0.0154365 0.0103764 -0.0756669 -0.886605 -1.99597 -1.58204 -0.930319 -0.3296 -0.099354 0.357182 0.540421 1.02281 1.31682 0.547093 0.0726427 -0.275332 -0.499926 -0.197598 -0.298797 -0.352292 -0.293626 -0.416236 -0.310735 0.0201356 -0.00941115 -0.351225 -0.178617 0.0150194 0.000525673 0.00701839 -0.0306106 -0.392552 -1.39318 -1.05419 -0.475846 0.183659 0.258516 0.596661 0.381246 0.744233 1.09694 0.288753 0.0863684 -0.129777 0.16581 0.178995 -0.253951 -0.550604 -0.572191 -0.470642 -0.124967 -0.0117168 0.0138744 -0.334377 -0.150447 -0.00675275 0.00824561 0.012807 -0.00101875 -0.0404529 -0.589344 -0.716275 -0.00126171 0.248152 0.226711 0.364319 0.0546064 0.353964 0.37764 -0.146529 -0.22015 -0.0514131 0.565694 0.756117 0.000260219 -0.742471 -0.653703 -0.543731 -0.096879 -0.0464407 -0.169877 -0.464984 -0.213027 0.00452256 0.00350877 0.00350877 -0.0334906 -0.241004 -0.291872 -0.053976 0.30353 0.66656 0.56134 0.308112 0.287261 0.199778 -0.144525 -0.205287 -0.292236 -0.201733 0.509553 0.516847 0.102197 -0.621033 -0.658331 -0.360622 -0.36724 -0.192065 -0.268396 -0.520011 -0.166432 0.0144003 0.00719298 0.000701754 -0.0527874 -0.549326 0.375416 0.738228 0.286068 -0.0124503 0.0959056 0.294241 0.176747 0.00586539 0.0928397 0.453971 0.316192 0.321186 0.362329 0.366033 -0.0462866 -0.561671 -0.715156 -0.376519 -0.397035 -0.328173 -0.293608 -0.322374 -0.154671 0.0121316 0.0140351 0.0168421 -0.0651905 -0.324768 0.56137 0.791268 0.452718 0.367641 0.365692 -0.0118825 -0.110779 -0.101458 0.240394 0.395547 -0.0675703 -0.0231954 0.278554 0.498984 0.218978 -0.367111 -0.602758 -0.417161 -0.493689 -0.548789 -0.317258 -0.160441 -0.223276 0.00300593 0.0077193 0.00728513 -0.0475041 -0.196388 0.0451143 0.52827 0.597462 0.551107 0.495955 -0.115677 -0.214464 -0.187142 0.00882297 -0.0446992 -0.309457 -0.293902 -0.0339041 0.0927759 0.0441871 -0.292169 -0.344224 -0.163732 -0.320394 -0.466742 -0.405587 -0.337077 -0.194109 0.0149722 0.0115789 0.0172404 -0.0350165 -0.26354 -0.117503 0.306236 0.195989 -0.123203 0.0638628 -0.221085 0.0393696 0.081897 -0.0332191 -0.241298 -0.17146 -0.249989 -0.293219 -0.135655 -0.185746 -0.294722 -0.218007 -0.204007 -0.261164 -0.26419 -0.121607 -0.133454 -0.0652143 -0.000193624 0.00842105 0.0116964 0.00644544 -0.0222506 0.0122658 0.0315685 -0.121408 -0.316741 -0.161577 -0.214051 -0.114836 -0.150379 -0.0430322 -0.186536 -0.0912617 0.0560914 -0.0349433 -0.0578443 -0.199963 -0.254679 -0.149987 -0.287783 -0.211069 -0.105555 -0.0943101 -0.00837424 -0.0134627 0.00541102 0.0114035 0.00579454 0.00531692 0.0105322 0.0604276 0.0273539 -0.0641744 -0.0808397 -0.0101793 -0.0340125 -0.0312185 0.0103796 0.0217458 -0.0387623 0.0478971 0.0675464 0.0168579 0.0161341 -0.0536584 -0.0166984 0.00875059 -0.0413129 -0.021594 -0.0232142 -0.00580038 0.01201 0.0151208 0.014421 0.00192982 0.00105263 0.00421053 0.00245614 0.00678683 0.0111646 0.0135471 0.00560847 0.00839019 0.00443014 0.00896129 0.0145567 0.00578947 0.00806537 0.0177487 0.017599 0.00187061 0.0108628 0.00171979 0.00438596 0.00140351 0.00122807 0.0182668 0.0038083 0.00877193 0.0119298 0.00403509 0.0114035 0.00964912 0.00701754 0.0173684 0.0164912 0.00491015 0.0121326 -0.00735645 -0.0456103 -0.0531513 -0.0236975 -0.00730208 0.0130178 0.00109809 0.0115657 0.00679532 0.0076086 0.00126685 