0.0107018 0.0140351 0.0114035 0.0159292 -0.000148347 -0.0259475 -0.0502976 -0.0521327 -0.044826 -0.0500768 -0.00233534 0.0154268 0.00225027 0.00151363 0.00315952 0.00157156 0.0134685 0.0138577 0.00773777 0.010775 0.0170821 0.00629798 0.00174615 0.00999116 0.000609617 0.0145614 0.00368421 0.0119298 0.00877193 0.0127743 0.0136952 0.01119 -0.0183765 -0.0263406 -0.0106627 -0.0252767 -0.0465737 -0.0228115 -0.0346085 -0.0222755 -0.0646582 -0.0397356 -0.0240963 0.0246779 0.0658484 0.0512949 -0.00335513 0.00947625 0.0228392 0.051028 0.0237843 0.0154975 0.0188057 0.0108383 0.0103297 0.0052409 0.00736842 0.00814614 0.0143453 -0.0411015 -0.124012 -0.0924654 -0.0696757 -0.125332 -0.135945 -0.159665 -0.275253 -0.281694 -0.301512 -0.262328 -0.084683 0.00629757 0.0985116 0.21162 0.341997 0.348361 0.0141027 -0.0180378 -0.144894 -0.11912 -0.000815662 -0.0317844 -0.00116741 0.00778558 0.00350877 0.00713859 0.0127326 0.0542626 -0.00891819 0.0634266 0.0512241 0.0219041 -0.106086 -0.308644 -0.502617 -0.496992 -0.345416 -0.122615 -0.00893901 0.140515 0.352025 0.392366 0.342298 0.419765 0.0794461 -0.207979 -0.328677 -0.195782 -0.00529063 -0.0856098 -0.00014656 -0.00332949 0.00789474 -0.00375649 -0.107068 -0.0459085 0.0200687 0.0791251 0.141054 0.0976691 -0.00882611 -0.0910593 -0.350931 -0.399331 -0.356939 -0.153361 0.0337584 0.257157 0.529501 0.528278 0.449666 0.447636 0.224785 -0.179909 -0.37744 -0.332371 -0.157215 -0.0820968 -0.00882817 0.00020512 0.00157895 -0.0222449 -0.0465465 0.105142 0.0862298 0.0756854 0.0905632 0.069096 0.0162099 -0.0207923 -0.352911 -0.407163 -0.347552 -0.187451 0.0467098 0.204108 0.205304 0.266599 0.3635 0.495793 0.209991 -0.0668022 -0.300309 -0.471509 -0.334959 -0.175931 -0.0104841 0.0109314 0.00350877 -0.0281173 0.12353 0.307755 0.242688 0.100125 0.0419122 -0.045714 -0.220277 -0.324394 -0.482571 -0.372259 -0.132575 -0.137363 -0.252785 -0.248109 -0.300558 0.0417846 0.338681 0.477902 0.360118 0.165759 -0.127124 -0.305903 -0.143496 -0.086919 -0.00395518 0.0103509 0.0163158 -0.0383571 0.0307777 0.184865 0.212916 0.172048 -0.0930977 -0.294975 -0.411428 -0.435387 -0.268041 -0.015296 0.0498052 0.0380522 -0.0773037 -0.0403347 0.0274199 0.0868738 0.33402 0.331765 0.348753 0.286005 -0.0720016 -0.16147 -0.210556 -0.196259 -0.0339205 0.00403509 0.00368421 -0.0564775 -0.156774 -0.0721259 0.109161 0.102885 -0.262737 -0.493431 -0.674726 -0.525026 -0.0242592 0.197516 0.17417 0.00227308 0.0615212 0.0753444 -0.0808142 -0.136055 0.308628 0.344465 0.37943 0.193478 -0.104924 -0.145831 -0.162536 -0.306847 -0.0508448 0.00155357 0.00982456 -0.042094 -0.155882 -0.097323 0.0102116 -0.0566335 -0.290522 -0.593338 -0.836286 -0.663144 -0.0599132 0.287049 0.200313 -0.0415189 -0.089586 -0.321521 -0.537787 -0.303903 0.156858 0.198551 0.040813 0.198388 -0.154347 -0.00533199 0.0970612 -0.0855068 -0.0157592 0.00195344 0.0173684 -0.032431 -0.106052 -0.0305112 -0.0735187 -0.149426 -0.179328 -0.342624 -0.581024 -0.493923 -0.0794923 0.328427 0.183283 -0.0612004 -0.174212 -0.301154 -0.595997 -0.429983 -0.0953639 -0.00693807 -0.0168003 0.071854 -0.04906 -0.193794 0.00506228 -0.10688 -0.000987271 0.00701754 0.00614035 -0.0283688 0.0168663 0.0293141 0.0230343 -0.0570616 -0.189592 -0.288014 -0.425468 -0.346668 0.201302 0.440979 0.314522 -0.0715146 -0.281337 -0.480274 -0.709131 -0.502554 -0.357036 -0.207253 -0.0456597 -0.0881702 -0.167684 -0.304392 -0.155278 -0.186804 -0.00922201 0.01 0.0131579 -0.0395141 -0.108251 -0.185017 -0.296829 -0.248454 -0.217442 -0.529932 -0.495013 -0.194019 0.29307 0.471802 0.129699 -0.0678795 -0.31183 -0.640834 -0.712795 -0.659958 -0.463447 -0.181854 -0.0288124 0.0557157 -0.277834 -0.326822 -0.215522 -0.0586913 0.0136367 0.0142022 0.0133333 -0.0294953 -0.0291008 -0.20024 -0.357425 -0.392865 -0.40401 -0.519467 -0.510066 -0.0636974 0.35982 0.560919 0.175486 -0.00170996 -0.232987 -0.35612 -0.648254 -0.765541 -0.36129 0.198469 0.136159 -0.0302364 -0.184768 -0.0277654 -0.0120137 0.0452722 0.0135089 0.0168421 0.0155475 -0.0262756 -0.07158 -0.277231 -0.397077 -0.403885 -0.505056 -0.726497 -0.579164 -0.0574988 0.216435 0.321727 0.184564 0.146237 -0.0444772 -0.362502 -0.501764 -0.593327 -0.202307 0.0926742 -0.0559031 -0.00362364 -0.0206951 0.145182 0.0959844 0.225052 0.0161236 0.00421935 0.0098353 -0.046764 -0.189538 -0.366048 -0.337563 -0.259206 -0.500129 -0.796091 -0.453478 0.110802 0.19656 0.16859 -0.0507918 -0.0101766 0.0128315 -0.109607 -0.357212 -0.168645 -0.0704837 0.0390708 -0.0803389 0.234706 0.214609 0.197369 0.276442 0.269889 0.00691454 0.0111647 0.00503597 -0.0538371 -0.160266 -0.27712 -0.30224 -0.217687 -0.521777 -0.68588 -0.24052 0.123097 0.283644 0.123562 -0.119864 -0.192776 0.147678 0.0562031 -0.261791 -0.246037 -0.0279312 0.15653 0.0306574 0.281158 0.329055 0.271929 0.443408 0.207738 -0.0052657 0.00436571 7.04058e-05 -0.0714077 -0.112379 -0.0712874 -0.210756 -0.311838 -0.492483 -0.446814 0.0211739 0.125949 0.0829544 0.0432101 -0.0470926 -0.164067 0.126285 0.152614 -0.0496773 0.0965285 0.26949 0.177189 0.111671 0.181709 0.0802233 0.15914 0.46677 0.238172 -0.0228342 0.00264316 0.00112101 -0.0702139 -0.164122 0.00476115 -0.0691328 -0.227951 -0.284151 -0.197648 -0.0258558 0.00199659 0.0607427 0.112441 -0.000167716 0.00613641 0.0832129 -0.02121 -0.0500357 -0.170224 -0.0166913 -0.188322 -0.0108154 0.130787 0.0636009 0.171909 0.576536 0.2559 -0.0141342 0.0045614 0.0149123 -0.0328501 -0.228979 -0.110222 -0.148285 -0.199186 -0.15357 -0.222195 -0.162617 0.107457 0.158372 0.454761 0.455333 0.182809 -0.0423968 -0.204924 -0.338802 -0.369684 -0.264844 -0.251212 0.111985 0.258166 0.261404 0.397324 0.479322 0.250924 -0.00532298 0.00491228 0.00859649 -0.018442 -0.0933565 -0.0672502 -0.189391 -0.159558 -0.0529152 -0.0316533 0.104407 0.0454645 0.300805 0.35062 0.457937 0.119381 -0.0613103 -0.143259 -0.243157 -0.265342 -0.207282 -0.129053 0.189857 0.201214 0.258287 0.475971 0.50904 0.190435 0.00834092 0.0054386 0.0105369 -0.044671 0.0474837 0.142333 -0.120946 -0.226278 -0.130312 -0.0634372 0.0430314 0.0670499 0.0995961 0.0404686 0.12394 0.137091 0.0681325 0.244102 0.229055 0.0938028 -0.00752389 0.0198792 0.169718 0.208436 0.450776 0.564903 0.559624 0.16496 0.00246006 0.00859649 0.00900154 -0.0337654 -0.0772753 0.0224262 0.103213 -0.0443465 -0.156209 -0.274057 -0.113429 0.101283 -0.202218 -0.281863 -0.126778 -0.100272 0.0107592 0.063865 0.156251 0.227276 0.383658 0.445798 0.400727 0.354675 0.616814 0.543895 0.326203 -0.0312519 -0.0163406 0.00614035 0.00272372 -0.0304532 -0.0896145 0.0116259 0.208934 -0.00712356 -0.0915118 -0.224632 0.0306297 0.0265882 -0.211927 -0.209385 -0.175934 -0.215392 -0.263003 -0.163159 0.0730262 0.326117 0.503313 0.59399 0.457109 0.504897 0.69538 0.378233 0.0797673 -0.133524 0.00190854 0.00824561 0.00517108 0.00287786 -0.0183706 0.0751847 0.138417 0.135688 0.0473063 -0.0988921 -0.0138381 -0.0524985 -0.109031 0.00355228 -0.140628 -0.208617 -0.171273 -0.140389 -0.0292978 0.158501 0.304621 0.34853 0.355334 0.402297 0.388125 0.050471 -0.0753143 -0.0880484 -0.00695602 0.00263158 0.00752474 -0.0207404 -0.0634012 -0.0778195 -0.155598 -0.0865879 -0.0970893 -0.150311 -0.177883 -0.119204 0.0141417 0.0228489 -0.101992 -0.152868 -0.135973 -0.127894 -0.11579 -0.098402 0.0517311 0.0854377 0.188324 0.199397 0.0529771 -0.0199793 -0.0202441 -0.0418147 -0.0109198 0.014386 0.00471459 -0.0014106 0.00122238 0.0261293 -0.00956008 -0.0352245 0.00604737 0.000966142 -0.0223115 -0.0181254 0.00292184 0.0170418 0.0181746 -0.0088107 -0.00758064 0.00401004 -0.0038504 -0.00542341 0.00753509 0.00532378 0.0240155 0.0200789 0.0023501 -0.00602702 0.00693619 -0.00140745 0.0133776 0.014386 0.0136842 0.00122807 0.00578947 0.00913898 0.00772081 0.00660182 0.0139967 0.0166519 0.0163164 0.0115986 0.0073941 0.00982456 0.00386083 0.0029411 0.00924986 0.00545322 0.00193338 0.00211062 0.0077193 0.0022807 0.0170175 0.00128012 0.0104124 0.0135088 0.00192982 0.0115789 0.00157895 0.0149123 0.014386 0.00192982 0.00350877 0.0135092 0.00923867 0.0128665 0.0137416 0.00694515 0.0131415 0.000923128 0.0129167 0.006836 0.01327 0.0171191 0.00590673 0.0104884 0.00501058 -0.0115571 0.0135635 0.00725422 0.0126239 0.00915191 0.0170136 0.0120973 0.00385568 0.0129825 0.0124561 0.00684211 0.00368421 0.00490055 0.0134783 0.0137296 0.0238632 0.0116885 -0.0387067 -0.0240842 -0.0450236 -0.111146 -0.0540356 0.00732162 0.00355346 -0.0159252 -0.0206079 -0.0361884 -0.0933037 -0.0743685 -0.0509276 -0.0391252 -0.0974878 -0.0668308 -0.0491819 -0.00304965 0.00832977 0.00898644 0.00817465 0.00648862 0.00473684 0.0094923 0.00724802 0.0472116 0.030906 -0.0563504 -0.122134 -0.177714 -0.156853 -0.181966 -0.268625 -0.19571 -0.168585 -0.166161 -0.150021 -0.246111 -0.42869 -0.533656 -0.61064 -0.619201 -0.594442 -0.286627 -0.291934 -0.194918 -0.0965435 0.0841235 0.0246408 0.0126313 0.0159649 -0.00152061 -0.0126031 0.0439739 -0.0567896 -0.143055 -0.0965208 0.140962 0.185267 -0.0880227 -0.379785 -0.344664 -0.401247 -0.422459 -0.420282 -0.680856 -0.967817 -1.10638 -0.834479 -0.514962 -0.331872 -0.166271 -0.142412 -0.150529 -0.221934 -0.0431012 0.0392755 0.0162833 0.0115789 0.0112784 -0.147128 -0.171895 -0.140235 -0.108109 -0.0171829 0.356155 0.608545 0.385619 0.16159 0.113205 -0.147543 -0.463684 -0.76685 -1.16385 -1.06255 -0.449251 -0.0652488 0.0873018 0.277087 0.698051 0.585483 0.225429 -0.364962 -0.126097 0.0266979 0.0166692 0.0022807 0.0127728 -0.145321 -0.192662 -0.24274 -0.232267 -0.194376 0.00677546 -0.00886582 -0.0397891 0.0175679 0.110981 0.208923 -0.155166 -0.479657 -0.646861 -0.179494 0.17698 0.272856 0.299162 0.333881 0.743716 0.532507 0.159661 -0.258119 -0.143922 0.0137406 0.000840898 0.00508772 0.00579896 0.0343361 0.115598 -0.203562 -0.29196 -0.21097 -0.162538 -0.385592 -0.433144 -0.461155 -0.295559 -0.240946 -0.109722 0.158831 0.188319 0.494266 0.577715 0.677054 0.590636 0.419374 0.622536 0.146772 0.0125054 0.0813298 0.0328654 0.013185 0.00631579 0.0112281 0.0202076 0.185464 0.0530506 -0.18026 -0.141681 -0.186241 0.0670818 0.00289351 -0.0945994 -0.186063 -0.174352 -0.00169265 0.398568 0.421747 0.642026 0.90633 1.00591 0.991131 1.00483 0.809952 0.745741 0.362556 0.68458 0.764212 0.045609 -0.0199814 0.0150877 0.000877193 0.0223617 0.221058 0.341204 0.313163 0.37585 0.233534 0.398664 0.809902 0.788297 0.201245 0.157354 0.359068 0.551774 0.836694 1.2627 1.52842 1.57365 1.40339 1.26218 1.19693 0.968537 0.712695 1.04439 1.08682 0.0331765 -0.0601193 0.0148212 0.00157895 0.0079063 0.298481 0.461134 0.372545 0.293837 0.508187 0.115961 0.334777 0.0160286 -0.0586581 0.254858 0.467146 0.513291 0.419879 0.927533 1.13081 1.20771 1.06452 0.636356 0.787563 0.557879 0.1391 0.0897368 0.133666 -0.192755 -0.0474376 0.000122441 0.0168421 -0.0169486 -0.131466 0.188062 0.0197895 -0.0922731 0.305711 -0.170936 -0.0782033 -0.510157 -0.0813107 0.0879469 0.268192 -0.296232 -0.274929 -0.0749395 0.133845 0.23512 0.240877 -0.14835 0.068063 -0.298961 -0.749151 -1.0832 -0.839686 -0.613037 -0.0629171 0.0154386 0.00421053 -0.0407853 -0.42218 -0.173522 -0.0226398 0.353562 0.530913 0.0508438 -0.0948718 -0.146863 -0.154388 -0.254478 -0.304534 -0.136204 -0.549504 -0.587794 -0.729118 -0.438068 -0.864437 -1.46183 -1.3002 -1.37529 -1.74218 -1.70078 -1.33803 -0.956554 -0.122043 0.00298246 0.0117544 -0.0386094 -0.208122 0.128035 0.349599 0.366496 0.194383 0.0894613 -0.303277 -0.311683 -0.203081 -0.494475 -0.364795 -0.103792 -0.430614 -0.82504 -1.03007 -0.563409 -1.49428 -2.05095 -1.9533 -1.79132 -2.00716 -1.70813 -1.48483 -1.11442 -0.119586 0.0164878 0.00684211 -0.0387703 -0.306335 0.120051 0.118648 0.0184181 -0.072945 0.136522 -0.16483 0.097316 -0.18506 -0.435614 0.0466623 -0.0641804 -0.816936 -1.08921 -0.915713 -0.495532 -1.43133 -2.00038 -1.99335 -1.65653 -1.30226 -0.998568 -1.15405 -0.90047 -0.0878156 0.00473684 0.00123528 -0.0325804 -0.169186 0.0917897 -0.115124 0.0622347 0.0311995 0.0108721 -0.232157 -0.0729264 -0.349947 -0.400651 0.278156 -0.0627032 -0.97286 -0.836946 -0.602481 -0.366109 -1.10978 -1.23526 -1.02155 -0.712938 -0.634735 -0.434898 -0.862001 -0.784607 -0.0725129 0.0110897 0.00171569 -0.0417592 -0.124695 -0.422825 -0.303812 -0.049657 -0.20906 -0.308298 -0.250416 -0.0839602 -0.196141 -0.440483 0.219223 0.0368233 -0.641075 -0.233168 0.00243233 -0.176581 -0.522464 -0.400203 -0.155825 -0.0628826 -0.37296 -0.513709 -0.746376 -0.791623 -0.0518288 0.00737528 0.00286675 -0.014635 -0.225393 -0.525942 -0.39307 -0.100576 -0.139049 -0.487252 -0.306933 -0.00401482 -0.1792 -0.370825 0.277822 0.101119 -0.241165 0.22151 0.21163 0.254136 0.202566 0.447699 0.659159 0.490041 -0.211796 -0.558813 -0.846378 -0.666426 -0.0415062 0.0129805 0.0154819 -0.0106694 -0.0958701 -0.118793 -0.0413418 0.414184 0.0743153 -0.780485 -0.525591 -0.022934 -0.301522 -0.491477 0.182957 0.141514 0.0400843 0.436333 0.3675 0.314699 0.0844549 0.225827 0.517666 0.520306 0.141614 -0.358831 -0.916645 -0.45898 -0.00938305 0.00787859 0.0108744 -0.00862972 -0.179559 -0.33506 0.0211764 0.362671 -0.123476 -0.757982 -0.839825 -0.497434 -0.695756 -0.633521 0.115903 0.103971 0.0722011 0.242321 0.159014 0.00485169 -0.227664 -0.316459 0.0352055 0.254215 0.370609 0.0940758 -0.625774 -0.333465 0.016497 0.0150877 0.00210526 -0.00877944 -0.207378 -0.509827 0.0991291 0.0839577 -0.244528 -0.618945 -0.578963 -0.729783 -0.695445 -0.608099 -0.506192 -0.341126 0.00035314 0.29786 0.111825 -0.235455 -0.195016 -0.12089 -0.0229576 0.215763 0.415149 0.366727 -0.163041 -0.222741 -0.0124969 0.00561404 0.00122807 0.00304211 -0.00455976 -0.361441 -0.305742 -0.45278 -0.646722 -0.393163 -0.0156174 -0.138772 -0.360219 -0.513916 -0.595627 -0.357818 0.107036 0.576047 0.497161 0.222198 -0.106845 -0.435729 -0.479922 -0.117225 0.538265 0.491417 0.0943938 -0.271442 -0.0139387 0.00122807 0.00283411 -0.0203804 0.00592785 -0.323789 -0.658931 -0.733999 -0.11422 0.420365 0.67635 0.255951 0.199695 -0.136409 -0.0153701 0.0940618 0.0963958 0.447157 0.386147 -0.0343668 -0.277235 -0.325284 -0.366 -0.274517 0.0270717 0.262975 -0.0436371 -0.344845 -0.0241384 0.00736842 0.00347248 0.012773 -0.0946531 -0.300558 -0.230542 -0.20906 0.372178 0.462215 0.812903 0.457607 0.131034 -0.110771 -0.127023 0.171288 0.261078 0.34402 0.197863 -0.18686 -0.218547 -0.112709 -0.28294 -0.454758 -0.304744 -0.13909 -0.32673 -0.312385 -0.0405106 0.0117544 0.00845388 0.0413827 0.0757226 0.0674498 0.428437 0.440571 0.383908 0.241156 0.621203 0.545558 0.250428 -0.0629306 0.0908936 0.105888 0.18869 -0.003837 -0.296857 -0.385847 -0.301593 -0.0227319 0.0397173 -0.150696 -0.171481 0.024041 -0.172237 -0.228864 -0.0290409 0.0121053 0.0115396 0.0587642 0.137394 0.154546 0.52919 0.463917 0.389623 0.0450936 0.403033 0.363296 0.0919301 -0.26001 -0.442341 -0.155248 -0.146649 -0.332648 -0.596627 -0.584162 -0.541559 -0.27798 -0.171117 -0.221787 -0.250421 -0.0818373 -0.175534 -0.140782 -0.0172403 0.000877193 0.00440576 0.0463151 0.090608 0.0862216 0.00965059 0.0504173 -0.0098822 -0.354507 -0.0176404 0.0120647 -0.129273 -0.301145 -0.356023 -0.333798 -0.23514 -0.285506 -0.409393 -0.396357 -0.305554 -0.136209 -0.0707367 -0.16298 -0.166756 -0.127732 -0.147694 -0.00899852 0.00189642 0.00561404 0.000874586 0.00979279 0.000542958 0.0249144 -0.0108018 -0.0585378 -0.0452126 -0.185374 -0.0426992 -0.0117105 -0.000839198 -0.0165225 -0.0424749 -0.0177233 -0.00487908 -0.0257659 -0.0369396 -0.0330451 -0.0209422 -0.00521846 -0.00602419 0.00335582 -0.000229137 0.0180699 -0.0037027 0.0178215 0.00688302 0.00859649 0.00315789 0.00210526 0.0150877 0.011182 0.0140012 0.0117946 0.00863015 -0.0301117 0.0020725 0.0133714 0.00915142 0.00631579 0.00453775 0.00224349 0.017244 0.00532229 0.00905184 0.0105407 0.00964912 0.00789474 0.00842105 0.0165264 0.00528434 0.0101754 0.00789474 0.0117544 0.01 0.00245614 0.0119298 0.00333333 0.00684211 0.00788122 -1.99086e-05 0.00407522 -0.00453624 0.000782904 -0.00983758 0.00201807 0.0100247 0.00497893 0.00309972 0.00802771 -0.00206446 0.00839162 0.00834063 0.0097346 0.0135717 0.0156349 0.00969964 0.00202505 0.00320202 0.00685422 0.0108832 0.00350877 0.000701754 0.00649123 0.00807018 0.0135937 0.00936936 -0.00357231 -0.0223461 -0.0369986 -0.0289224 -0.0361114 -0.0623841 -0.0374209 -0.0258736 -0.0188964 -0.0528802 -0.050933 -0.0626149 -0.0309246 0.00126106 0.00334013 -0.0407329 -0.0475575 -0.0318192 -0.0052562 0.000400977 -0.0219575 -0.01812 0.00226141 0.00472628 0.0166486 0.00350877 0.0122935 -0.00990711 -0.0392168 -0.106346 -0.190949 -0.135681 -0.110525 -0.163301 -0.189845 -0.20846 -0.213884 -0.243951 -0.256568 -0.222084 -0.114688 -0.109411 -0.031995 0.0873934 -0.050292 -0.0495741 -0.0150517 -0.0862805 -0.201626 -0.198641 -0.0818264 -0.000841624 -0.000315813 0.00175439 0.00763645 -0.0112669 0.0226498 -0.027649 -0.0797458 -0.0749466 -0.100396 -0.182107 -0.192306 -0.24509 -0.212495 -0.113234 -0.149694 -0.128738 -0.230949 -0.422314 -0.390395 -0.0965032 0.0663143 -0.0787167 -0.0164687 -0.0627968 -0.243763 -0.321801 -0.219452 -0.014667 0.0118121 0.0142105 -0.00410975 -0.0625659 -0.0712393 -0.103517 -0.128038 -0.112076 -0.222637 -0.268676 -0.113796 -0.0566575 -0.0362474 0.141143 0.197755 0.263218 0.0632518 -0.136103 -0.136606 0.0291694 0.138746 0.0176652 -0.209908 -0.127605 -0.232003 -0.427441 -0.282389 -0.0394782 0.0136656 0.0133333 0.0037496 -0.0776599 -0.0865189 -0.170727 -0.202454 -0.310927 -0.424286 -0.36333 -0.157394 -0.0371919 0.272747 0.477545 0.348952 0.175395 0.0748106 0.0400361 -0.0152628 -0.136992 -0.0138218 -0.0396053 -0.103403 0.0744554 -0.0727525 -0.223658 -0.227512 -0.00530249 0.0132215 0.0140351 0.000409066 -0.012022 -0.0634027 -0.062224 -0.147038 -0.388969 -0.568164 -0.531444 -0.271252 -0.119118 0.102938 -0.00832063 -0.122735 0.0349901 0.202956 0.299379 0.0181786 -0.249489 -0.297827 0.0131667 0.161678 0.43877 0.205205 0.0432666 -0.0729837 -0.0459044 0.014386 0.0154386 -0.0113796 0.0412875 0.0964517 0.118899 -0.0348353 -0.256516 -0.335455 -0.196676 0.0433928 0.0653693 0.0958446 -0.0765169 -0.197358 -0.16162 0.0330724 0.194827 0.120059 -0.196927 -0.224305 -0.0516356 0.0873534 0.374622 0.286456 0.1064 -0.105157 -0.0374497 0.00614035 0.00263158 -0.00770282 0.0231056 0.0760263 0.124086 0.290333 0.18484 0.0272045 0.0370182 0.10579 0.0483728 -0.0941964 -0.24983 -0.454591 -0.185729 0.0499871 0.0169725 -0.0898357 -0.235056 -0.293845 -0.157076 -0.0713671 0.306161 0.27122 0.217459 -0.191616 -0.0415894 0.0141442 0.0121053 -0.030999 -0.109448 -0.123762 0.0517476 0.359814 0.364422 0.366556 0.268226 0.0789465 0.00851503 -0.0954917 -0.229064 -0.413126 -0.0945629 0.200216 -0.0788011 -0.0431626 -0.0819788 -0.27118 -0.312939 -0.201183 0.297781 0.449349 0.437389 0.0617003 0.00148566 0.0120096 0.00736842 -0.0537489 -0.22606 -0.238904 0.0551492 0.32802 0.389748 0.22722 0.207397 -0.0854568 -0.32354 -0.0995255 -0.0946494 -0.207597 0.0410375 0.0126138 -0.0174672 0.0452953 -0.0834745 -0.414073 -0.431683 -0.075772 0.580921 0.541689 0.671869 0.30542 0.0180722 0.00684211 0.0142105 -0.036361 -0.261341 -0.273921 0.0882991 0.141771 0.137029 0.118987 0.101816 0.056049 0.120315 0.106172 -0.114455 -0.191357 -0.215589 -0.49758 -0.349451 -0.0564497 -0.272085 -0.526443 -0.379677 -0.170549 0.313392 0.237886 0.468814 0.220462 0.027561 0.00842105 0.00385965 -0.0403528 -0.184077 -0.126549 -0.0197222 -0.121963 -0.231569 -0.0416089 -0.0138544 0.194463 0.324598 0.217802 -0.177852 -0.394859 -0.330741 -0.601893 -0.437312 -0.279907 -0.553372 -0.56641 -0.359508 -0.261638 0.150998 0.230132 0.366069 0.067495 0.00706867 0.00244614 0.000350877 -0.0349805 -0.262966 -0.420625 -0.233703 -0.307086 -0.448949 -0.20873 -0.250189 -0.189218 -0.029115 -0.122745 -0.550046 -0.452599 -0.352088 -0.601517 -0.547943 -0.658728 -0.613602 -0.388923 -0.305495 -0.423874 0.00897112 0.273672 0.343789 0.150725 0.0119382 0.0122807 0.0032469 -0.0580958 -0.53125 -0.863683 -0.668309 -0.785277 -1.02381 -0.887749 -0.828865 -0.61117 -0.296635 -0.508525 -0.830177 -0.686629 -0.529877 -0.426206 -0.62191 -0.83915 -0.497948 -0.360177 -0.396461 -0.356167 -0.172899 -0.0519748 0.187175 0.104589 0.0315874 0.00762567 0.00528031 -0.0882369 -0.814308 -1.16807 -1.04143 -1.06902 -1.43587 -1.37372 -1.16481 -0.801625 -0.477365 -0.640721 -0.706568 -0.522046 -0.130364 -0.157577 -0.445996 -0.281668 -0.0267526 -0.155398 -0.28024 -0.287036 -0.361432 -0.108946 0.247246 -0.0540497 0.0136541 0.0143036 0.00997059 -0.112185 -0.783671 -1.06291 -0.989821 -0.905803 -1.13453 -1.18927 -1.05029 -0.787773 -0.41645 -0.295036 -0.0187996 0.117147 0.312113 0.120556 0.0499661 0.25311 0.155514 0.0140695 -0.0118424 0.124489 -0.0295037 -0.155275 -0.0168873 -0.189408 -0.0234803 0.00926653 0.00716518 -0.0928049 -0.583678 -0.606727 -0.511309 -0.424556 -0.580635 -0.617577 -0.454084 -0.406334 -0.2028 0.0154892 0.187834 0.32553 0.277618 0.178526 0.108111 0.342561 0.0432651 0.122243 0.0875185 0.204453 0.0335788 -0.21262 -0.113052 -0.104114 -0.0343776 0.0110869 0.00266321 -0.0796692 -0.383198 -0.151767 0.0922973 0.187348 0.139287 0.135565 0.428168 0.581528 0.5089 0.315868 0.387096 0.361629 0.319385 0.382562 0.341745 0.344028 0.0851086 0.105114 0.0301173 0.0521557 -0.0991166 -0.0730129 0.0661309 0.000658213 -0.011847 0.00982456 0.00807018 -0.0242396 -0.16822 0.0102157 0.314958 0.56062 0.316162 0.277017 0.407363 0.670794 0.656054 0.471209 0.28139 0.365704 0.449109 0.473438 0.00331419 0.0385711 -0.0593312 0.0628183 -0.00535429 -0.168096 -0.177321 -0.0134365 0.115095 0.0596905 -0.00218785 0.0045614 0.00385965 -0.0144774 -0.147267 0.00914327 0.225531 0.277662 -0.0156324 0.169396 0.209177 0.407939 0.324091 0.312531 0.319407 0.18969 0.516198 0.436238 0.269145 0.27216 -0.0264938 -0.120832 -0.0379839 -0.0620311 -0.129688 -0.0587994 0.0160183 -0.0276592 -0.00830049 0.00666667 0.0168545 -0.0347693 -0.071645 0.214365 0.266623 0.180867 -0.12781 -0.0953266 0.0369474 0.121858 0.0040895 0.184969 0.27409 0.229066 0.234141 0.25931 0.218033 0.0496087 -0.0995922 0.00816684 0.0184074 -0.0733143 0.0708008 0.133064 0.108437 0.0612526 0.0107397 0.0142105 0.00304606 -0.0282328 -0.0793707 0.0797298 0.269723 0.380937 0.231706 0.258717 0.0986445 0.16188 0.0802671 0.179372 0.273368 0.283409 0.109347 -0.106866 -0.349076 -0.272952 -0.00319781 0.096053 -0.0113878 -0.0931765 0.0610555 0.102299 0.19789 0.072674 0.0185971 0.0115789 0.00656799 0.00798217 -0.134664 -0.0973657 0.00872793 0.179661 0.190007 0.22925 0.199154 0.107482 0.136664 0.298384 0.219543 6.60416e-05 -0.202972 -0.277195 -0.447323 -0.25928 -0.142304 -0.0824405 -0.099344 -0.140104 0.109506 0.0821171 0.0157351 -0.0504019 0.00214659 0.00315789 0.00853602 0.0205393 -0.0883777 -0.0686541 0.00752425 0.14984 0.0362695 -0.133807 -0.128902 -0.0448377 0.00842898 0.0457592 -0.0900044 -0.206433 -0.239726 -0.247335 -0.273976 -0.185853 -0.2023 -0.220692 -0.16652 -0.149822 0.087048 -0.00162003 -0.117276 -0.132019 -0.0164303 0.00403509 0.0106882 0.0267295 -0.0831188 -0.258057 -0.223101 -0.131249 -0.177494 -0.193561 -0.120985 -0.0200399 0.0343562 -0.0613563 -0.130315 -0.191772 -0.202865 -0.175389 -0.155384 -0.168593 -0.166689 -0.18293 -0.0407654 -0.0173689 0.0383182 -0.04953 -0.122258 -0.0761835 -0.01804 0.01 0.0119118 0.00166582 0.0144822 -0.0326648 -0.0461793 -0.0603831 -0.0502923 -0.0455594 -0.054516 -0.0507307 -0.0165704 -0.00419283 0.00966519 -0.0159864 -0.0268933 -0.0258064 -0.0178747 -0.00888118 -0.0212249 -0.0141919 0.0111627 0.00171249 0.000514212 0.00611883 0.00411774 0.00644345 0.0135349 0.0129825 0.0131579 0.0170175 0.00719298 0.0147067 0.0123647 0.00980564 0.010883 0.000225173 0.00858762 -0.00144495 0.00787054 0.00105263 0.00315424 0.0120076 0.0167475 0.00802509 0.00139254 0.00491618 0.000350877 0.0157895 0.000350877 0.0150431 0.0159474 0.014386 0.0129825 0.00438596 0.00122807 0.00350877 0.0138596 0.00859649 0.00596491 0.00999979 0.00414535 0.0155708 0.0198855 0.0167417 0.00851162 0.00606007 0.0126339 0.00592365 0.0129651 0.0025802 0.00395375 -0.000628409 0.00311998 0.0085746 0.00208651 0.0140018 -0.000100475 0.0179548 0.0166431 0.00403342 0.00666583 0.0150877 0.00333333 0.0149123 0.000526316 0.00781917 0.00730688 0.0125824 0.0479137 0.0403177 -0.0242479 -0.0678779 0.0119919 0.014078 -0.0204932 0.00159007 0.0112362 0.00517937 0.0642268 0.0373645 0.0147005 -0.0318184 -0.0245526 -0.0467008 -0.0436401 0.00895459 -0.0158645 -0.0172059 -0.00314262 0.0173126 0.0155941 0.00754433 0.00561404 0.0155168 -0.0173579 0.114183 0.268354 0.327598 0.157466 -0.195538 -0.122992 0.00624955 -0.0671364 -0.201981 -0.273003 -0.279847 -0.291359 -0.271023 -0.0717528 -0.173112 -0.315862 -0.456042 -0.431942 -0.326832 -0.177253 -0.259988 -0.199655 -0.0279413 0.00793839 0.0143046 0.00964912 -0.00877401 -0.010156 0.286837 0.538113 0.577574 0.312278 -0.16733 0.00382558 0.113971 0.0926808 -0.295832 -0.475893 -0.378856 -0.247994 -0.154315 -0.125175 -0.0437153 -0.0810533 -0.373298 -0.507876 -0.351042 -0.216491 -0.410302 -0.420499 -0.156652 0.0084422 0.00342798 0.00561404 -0.00571608 6.38325e-05 0.283241 0.609249 0.566977 0.365996 0.00902715 0.353652 0.398255 0.454577 -0.0213424 -0.0201283 0.201709 0.2994 0.0583758 -0.208986 -0.256207 -0.396125 -0.504846 -0.357951 -0.096644 -0.257576 -0.540339 -0.703886 -0.380018 -0.0204747 0.0165071 0.00508772 0.0179736 0.11753 0.327554 0.43298 0.472948 0.352627 0.265392 0.55394 0.326802 0.320237 -0.184625 0.14267 0.459458 0.286736 -0.391707 -0.571804 -0.480394 -0.668946 -0.636667 -0.572564 -0.155529 -0.469407 -0.862882 -1.04609 -0.580937 -0.0412199 0.0162053 0.00157895 0.0129062 0.0464471 0.359917 0.518264 0.616727 0.322753 0.203825 0.580417 0.0205804 0.0138036 0.0525447 0.257951 0.350244 0.160145 -0.270597 -0.39244 -0.460522 -0.795045 -0.417747 -0.328839 -0.344925 -0.191221 -0.378792 -0.871596 -0.476412 0.00230521 0.0140351 0.0108772 0.00896294 0.0328211 0.420378 0.530161 0.702336 0.65876 0.297963 0.266535 -0.375566 -0.342265 0.268845 0.44538 0.429777 0.326406 0.195733 0.181975 -0.208806 -0.581201 -0.473768 -0.353482 -0.467993 -0.0900115 -0.0402146 -0.514315 -0.250329 0.017582 0.00491228 0.0122807 -0.0161597 -0.0631947 0.381374 0.504785 0.628191 0.285156 0.200576 0.4719 0.0453497 -0.0566148 0.0670897 0.100825 -0.149873 -0.226627 0.0554042 0.0805453 -0.333636 -0.265703 -0.135613 -0.102165 -0.551457 -0.279944 0.144116 -0.127816 0.0362036 0.0583349 0.00665808 0.00421053 -0.0151032 -0.178698 0.21434 0.493717 0.876502 0.418578 0.49135 0.665824 0.259927 0.300455 0.0978178 -0.407547 -0.281847 -0.00277884 0.574334 0.55422 0.223461 0.161499 0.000209203 -0.175948 -0.784161 -0.25008 -0.265381 -0.265872 -0.0850192 0.0295671 0.000124246 0.0142105 0.0155317 -0.140434 0.0376641 0.420774 1.07459 1.06714 0.962553 0.839775 1.00457 0.753234 0.337414 -0.166412 -0.273855 -0.405721 -0.0420371 0.233223 0.242581 -0.40485 -0.697395 -0.569516 -0.878604 -0.26308 -0.180006 -0.347767 -0.0707904 0.0429843 0.0138596 0.0154386 -0.0336997 -0.423529 -0.356136 0.271149 0.928747 0.566921 0.563873 1.15402 1.6836 1.04395 0.216845 -0.00256653 -0.230677 -0.462806 0.297275 0.70286 0.548992 -0.396453 -1.05289 -1.00116 -0.900846 -0.492504 0.122171 -0.112199 0.0512405 0.0216746 0.015614 0.0022807 -0.0358993 -0.697311 -0.477217 0.429362 0.154704 -0.579621 -0.174073 1.15561 1.68927 0.755668 -0.095307 -0.0676235 0.1135 0.169516 0.599653 0.547866 0.258811 -0.222983 -0.661513 -0.819346 -0.605552 -0.386521 0.205187 0.518066 0.286589 0.00965506 0.0142142 0.00175439 -0.0397951 -0.464808 -0.286957 0.202804 -0.414659 -0.792717 0.230293 1.89555 1.93239 0.887737 -0.545279 -0.725706 -0.349833 -0.362306 -0.58664 -0.676441 -0.384962 -0.419221 -0.540501 -0.674687 -0.542918 -0.00540529 0.350304 0.495664 0.288172 0.0365265 0.00754386 0.0148578 -0.0321994 -0.395813 -0.49923 -0.413426 -0.352804 -0.128958 0.656983 2.04288 2.2107 0.370058 -1.58497 -1.678 -2.02732 -2.21562 -2.17741 -1.90674 -1.26523 -0.83205 -0.538283 -0.664197 -0.376601 0.380742 0.421281 0.658394 0.417693 0.0492943 0.00691288 0.0141085 -0.094128 -0.384402 -0.204829 -0.285039 -0.603166 0.165084 1.19548 2.2925 1.71504 -0.879329 -2.50685 -2.39874 -2.77238 -2.78815 -2.44914 -1.89429 -1.24873 -0.88378 -0.406168 -0.540188 -0.236793 0.291458 0.191565 0.348577 0.360543 0.03039 0.0127551 0.00361385 -0.152384 -0.212187 0.133191 0.0427797 -0.093779 0.784017 1.8643 2.02907 0.665164 -1.73906 -2.53091 -1.89218 -2.20432 -2.08011 -1.83095 -1.41397 -0.958366 -0.581179 -0.404568 -0.384736 -0.255709 0.331049 0.0877411 0.391218 0.334514 0.0071814 0.00242362 0.00389221 -0.0716396 0.15214 0.361499 0.444543 0.594152 1.02193 1.62261 1.07586 -0.458213 -1.79644 -1.83793 -1.06696 -1.15108 -1.01431 -0.924633 -0.914093 -0.756344 -0.792762 -0.692434 -0.116849 0.113939 0.584803 0.32156 0.668302 0.374248 -0.00504435 0.00231016 0.0036811 -0.0180669 0.359244 0.801967 0.654347 0.417588 0.92095 1.08055 0.336717 -0.867977 -1.18373 -0.765718 -0.153914 0.0037481 0.134367 -0.00468341 -0.143493 -0.346617 -0.508339 -0.103539 0.18317 -0.0057647 0.194747 -0.000725258 0.164627 0.127655 0.0104721 0.00736842 0.0142105 -0.0581467 0.23767 0.734272 0.654279 0.0999049 0.647552 0.340814 -0.294407 -0.730494 -0.561877 -0.291463 0.455614 0.61395 0.539656 0.18619 0.0339134 -0.0389532 -0.00365031 0.146568 -0.311606 -0.40807 -0.0939975 0.121256 0.059402 -0.0318249 0.00703955 0.00842105 0.00947368 -0.0578022 0.20368 0.613368 0.15043 -0.12621 0.0704712 -0.288357 -0.381801 -0.314503 -0.0945913 0.0240776 0.31174 0.599596 0.794277 0.330404 0.268103 0.369954 0.305393 -0.225752 -0.721702 -0.778074 -0.182262 0.00123436 -0.205982 -0.125655 -0.0219576 0.0166667 0.0163673 -0.0079275 -0.0269782 0.418189 0.324658 0.147643 0.10895 -0.348287 -0.462766 -0.230119 0.106717 0.0451339 0.118207 -0.0491953 0.0493229 -0.134867 -0.132597 0.048164 0.261761 0.183617 -0.278684 -0.480049 -0.00908723 0.0978043 -0.181975 -0.181138 -0.0582486 0.0163158 0.00848603 0.0153311 -0.193353 0.0616367 0.0600917 -0.194922 -0.00157187 -0.0974552 -0.376616 -0.439208 -0.160116 -0.346633 -0.346384 -0.281922 -0.334176 -0.463933 -0.485243 -0.300828 0.0374412 0.445976 0.300378 0.179944 0.038717 -0.0700062 -0.354988 -0.370308 -0.0489739 0.014386 0.00444281 -0.00397174 -0.300907 -0.573314 -0.333392 -0.113394 0.219456 -0.107572 -0.367359 -0.383333 0.0300652 -0.075777 -0.0868736 -0.197481 -0.178669 -0.206085 -0.310401 -0.0828764 0.039541 0.336251 0.289938 0.300462 0.0448445 -0.304207 -0.331635 -0.182855 -0.00887053 0.0154386 0.0102765 0.0138868 -0.193745 -0.70167 -0.506746 -0.248484 -0.186211 -0.456015 -0.744078 -0.592612 -0.0736756 0.100762 0.141938 -0.154425 -0.132374 -0.274054 -0.449423 -0.236589 -0.0480494 0.187349 -0.113709 0.0126951 0.0514639 -0.0899192 -0.117569 -0.0564923 -0.00795683 0.00298246 5.91741e-05 0.00724908 -0.124421 -0.23411 -0.369864 -0.359884 -0.393595 -0.513427 -0.481649 -0.205004 -0.0511635 -0.00925778 0.0251587 0.0432573 0.0024753 -0.0606273 -0.206051 -0.172856 -0.0823981 -0.030429 -0.161332 -0.0215455 0.0906278 0.0680334 0.0290117 0.0367917 0.0151985 0.00385965 0.0145619 8.74115e-05 -0.00333477 -0.013755 -0.00355478 -0.0539427 -0.0726814 -0.0979866 -0.0466372 0.0291907 0.0516928 0.036238 0.0405593 0.0129093 0.0231879 0.0248834 0.0199689 0.0123461 -0.0304744 -0.00808117 -0.00901757 0.0315222 0.0341705 0.0162816 -0.00124891 0.00800335 0.0126685 0.0108772 0.0114035 0.00894737 0.000877193 0.00373858 0.000652154 0.00284954 0.0112535 -0.00998255 0.000927429 0.0049617 0.0143806 0.00491228 0.00860967 0.00602696 0.00603287 0.00489932 0.00688163 0.0108763 0.0173684 0.0101754 0.00859649 0.0197029 0.00289397 0.0108772 0.00614035 0.00912281 0.00438596 0.00754386 0.0168421 0.00719298 0.00614035 0.000175512 0.0125804 0.0065366 0.00597935 0.00843081 0.0169887 0.0135235 0.0119793 0.0128524 0.00303291 0.0107619 3.36205e-05 -0.00600832 -0.0131932 -0.0138893 0.00271284 0.00606004 0.00252057 0.0112727 0.00229384 0.00487594 0.00384148 0.0173684 0.0022807 0.015614 0.0107018 0.0145705 0.00969768 0.0144036 -0.0479067 -0.0651482 -0.0276534 -0.00433811 0.0388711 0.0061066 0.00594423 -0.0234956 -0.0280779 -0.0463758 -0.0640476 -0.0597778 -0.0797223 -0.0211342 0.00802011 -0.0622527 -0.144578 -0.112075 -0.0517635 -0.0592103 0.00407361 0.0151603 -0.00762123 0.0153692 0.00649123 0.0156302 0.0171458 0.0687453 -0.0444842 -0.13652 -0.0594808 -0.0476217 -0.0640557 -0.29064 -0.424275 -0.436891 -0.399653 -0.568013 -0.57243 -0.414297 -0.0742337 -0.111642 -0.320039 -0.394599 -0.593404 -0.589788 -0.234888 -0.293869 -0.0571835 0.126339 0.0137204 -0.0136717 0.0110526 0.0133184 0.00480202 -0.0379438 0.0043293 0.1944 0.316526 0.327274 0.242977 -0.192068 -0.558975 -0.586893 -0.475336 -0.517978 -0.552205 -0.304933 -0.0378688 0.12545 0.130228 -0.0962115 -0.521858 -0.173386 0.316877 0.124572 -0.117745 0.060131 0.019816 -0.00194088 0.0142105 0.0111596 0.0337643 -0.0521684 0.167342 0.294872 0.320236 0.358801 0.354549 -0.0309802 -0.142056 -0.0384056 0.166555 -0.400101 -0.780501 -0.622812 -0.249225 0.292749 0.672086 0.40608 0.322914 0.496983 0.428018 0.0369652 -0.29602 -0.0800542 0.0181435 0.00424736 0.0133333 -0.00254845 -0.080739 0.0275693 0.30443 0.498372 0.264327 0.204949 0.352625 0.159492 0.0162679 -0.0945146 0.0452757 -0.582663 -0.823101 -0.193076 -0.0947598 -0.0516583 0.237618 0.695926 0.708204 0.577135 0.0195086 -0.130992 -0.320053 -0.121624 0.0164505 0.00827158 0.00438596 -0.00838205 -0.208366 -0.223607 0.190813 0.40409 0.430195 0.473693 0.409192 0.371432 0.0941421 -0.435909 -0.707454 -0.779988 -0.335134 -0.155723 -0.32677 -0.546283 -0.213711 0.267288 0.0352703 -0.147834 -0.231508 -0.134152 -0.166624 0.172323 0.0912282 0.00140351 0.0159649 -0.01692 -0.124362 -0.216883 -0.128934 0.0917423 0.468913 0.870818 0.632405 0.270531 -0.356207 -0.704163 -0.849028 -0.476176 -0.196953 -0.0837824 0.0133541 -0.131461 -0.232361 -0.289411 -0.595148 -0.273744 0.262203 0.666383 -0.0512765 0.155238 0.0510139 0.0170175 0.00263158 0.0102098 0.088915 0.0909675 0.165289 0.506448 0.640086 0.634237 0.539317 0.468336 0.177578 -0.352307 -0.488196 -0.306036 -0.0730382 0.170097 -0.0803354 -0.222118 -0.117181 -0.0691727 -0.0590902 0.856353 1.01292 1.28125 0.250679 0.132693 0.0160492 0.00310308 0.0108772 0.0572884 0.129349 0.142314 0.232342 0.443948 0.160872 0.449808 0.568819 0.168124 -0.0653322 0.0353865 0.00499239 -0.0181614 0.149018 0.0917375 -0.287127 -0.581513 -0.262136 -0.0512742 -0.0396098 0.493173 0.55434 0.594829 0.285564 0.198365 0.00961851 -1.28606e-05 0.0154386 0.00119904 0.0331106 0.0742215 0.0568029 0.15922 0.0590071 0.484349 0.554296 -0.181365 -0.332105 0.158001 0.316913 0.214393 -0.0637087 -0.462885 -0.30098 -0.0796876 -0.119177 -0.372458 -0.515382 -0.11839 0.0602541 0.217426 0.282625 -0.0514278 0.00100882 0.00561404 0.00385965 -0.0242975 0.131591 0.204527 0.0447387 0.11052 -0.0204493 0.363737 0.402193 -0.00710841 -0.315938 -0.113485 -0.311941 -0.695846 -0.446312 -0.632271 -0.392956 0.120995 0.349378 -0.365618 -0.415693 -0.127064 0.0277051 0.0482842 -0.00560747 -0.0806061 0.000889922 0.00842105 0.00298246 -0.0749395 0.11803 0.327953 -0.0624407 -0.529108 -0.107144 0.164907 0.223962 0.468562 0.404515 0.444528 -0.351912 -0.939567 -0.80569 -0.91675 -0.888249 -0.660592 -0.129294 -0.548999 -0.983492 -0.48587 -0.36032 -0.479337 -0.332685 -0.343307 -0.0450626 0.00879144 0.0164912 -0.0104931 0.0827873 0.147795 -0.258387 -0.463008 0.464651 0.518542 0.759396 1.68867 1.30312 0.461489 -0.36229 -0.940882 -1.12622 -1.13085 -1.01588 -0.888479 -0.4528 -0.41941 -0.329002 0.00764333 -0.209425 -0.817485 -0.779998 -0.575368 -0.00635749 0.0101754 0.0057426 0.0210816 0.239207 0.370701 0.193496 -0.0478964 0.562722 0.652433 0.83463 1.18301 0.350601 -0.576241 -1.00336 -0.971979 -0.789437 -0.738746 -0.532193 -0.679307 -0.738331 -0.750883 -0.515752 -0.0754648 -0.489677 -0.994811 -0.806491 -0.477215 0.000305272 0.00537297 0.00720072 0.0244701 0.301028 0.563788 0.470781 -0.00353624 -0.0356585 -0.0800604 0.079236 0.163349 -0.0440031 -0.60903 -0.614654 -0.817332 -0.708624 -0.802878 -0.400015 -0.712838 -0.882023 -0.901545 -0.957131 -0.590668 -1.00872 -1.01344 -0.785986 -0.603029 -0.00931743 0.00434132 0.00711662 0.00348125 0.354769 0.31597 0.281377 -0.273075 -0.333311 -0.328305 0.484548 0.813586 0.211373 -0.0404957 0.33621 0.0314888 -0.370323 -1.11803 -1.23185 -1.14921 -1.1291 -0.849486 -1.19392 -1.03755 -1.28836 -1.16756 -0.857199 -0.701563 -0.0117457 0.00352909 0.00033304 -0.00345118 0.12336 0.262677 0.120746 -0.315967 -0.548918 -0.230609 0.754622 0.91916 0.921888 1.06001 1.5794 1.468 0.818985 0.133042 -0.601667 -0.404199 -0.865182 -0.964674 -1.29803 -1.20089 -1.13263 -0.666245 -0.59982 -0.651556 -0.00677109 0.00101381 0.00358827 0.0265351 -0.357403 -0.152995 -0.298315 -0.332279 -0.485738 -0.403058 0.149209 0.757256 1.17206 1.71339 2.41117 2.14926 2.1069 1.00295 -0.00538296 -0.219046 -0.965474 -0.947506 -0.807925 -0.745362 -0.88456 -0.40266 -0.451679 -0.541329 -0.019844 0.0115789 0.00122807 0.0087127 -0.330414 -0.494159 -0.185479 -0.451577 -0.465193 -0.393799 0.235575 0.794715 1.33173 1.55361 2.21945 2.22895 2.68394 2.10974 0.819744 -0.143959 -0.687436 -0.588798 -0.44557 -0.625975 -0.859899 -0.517366 -0.390826 -0.46277 -0.0174035 0.00122807 0.00947368 0.00732908 -0.186689 -0.433713 -0.162711 -0.551426 -0.541313 -0.129045 0.632665 0.677745 0.343448 0.532189 1.44502 2.00093 2.168 1.86077 1.1423 0.118837 -0.377616 -0.406065 -0.267901 -0.34816 -0.600846 -0.440778 -0.649143 -0.578305 -0.015597 0.00280702 0.0110235 0.00788033 -0.308086 -0.412614 0.0297076 -0.0497068 -0.0956018 0.248258 0.570407 0.110437 -0.0799482 0.332203 1.04177 1.5227 1.51255 1.41521 1.39094 0.632253 0.349963 -0.071676 -0.316319 -0.405765 -0.211423 -0.215011 -0.872031 -0.714062 -0.0279814 0.0077193 0.0137102 -0.00149053 -0.38612 -0.757335 -0.139468 0.23172 0.363082 0.284737 0.255776 -0.42243 -0.290088 0.203254 0.780604 1.33959 1.33322 1.27008 0.944806 0.791405 0.45039 -0.277989 -0.284186 -0.0829617 0.0360926 -0.086691 -0.711189 -0.560101 -0.0360244 0.00789474 -0.00829364 -0.0138128 -0.384397 -0.53418 -0.229973 0.301357 0.894463 0.407559 -0.0526204 -0.317114 -0.00368948 0.461164 0.878781 1.19159 1.02104 1.09663 0.800973 0.773968 0.538297 0.162956 -0.0201081 0.0559287 -0.0333536 -0.273897 -0.5138 -0.200118 0.0318524 0.0159649 -0.00436209 -0.0265481 -0.364052 -0.473202 -0.331584 0.18151 0.725216 0.357035 -0.0260127 -0.106542 0.0522923 0.195621 0.502899 0.89086 0.873173 0.739589 0.699047 0.625699 0.586789 0.58445 0.164469 0.237299 -0.0967163 -0.310301 -0.32439 0.000931428 0.0285677 0.00333333 -0.00407933 0.0143398 -0.10584 -0.342648 -0.486198 -0.0936815 0.0575168 -0.104279 -0.0326407 -0.324598 -0.427362 -0.0663439 0.175413 0.465882 0.350023 0.414765 0.41362 0.382502 0.317412 0.316275 0.0846695 0.216527 -0.0110316 -0.114411 -0.0707059 0.0059607 0.00500839 0.0110526 0.0160709 0.0078802 -0.00843506 -0.0605621 -0.0824452 -0.0920426 -0.0996731 0.00129939 0.0317623 -0.00612742 -0.0583799 -0.00977023 -0.0347776 0.0378169 -0.00198165 0.0289584 0.0338825 0.0214201 0.0850626 0.0348978 0.0293889 0.0351305 0.0212627 -0.0066082 -0.0126511 0.00627936 0.015805 0.0110526 0.0117544 0.0117544 0.00368421 0.00946296 -0.000216477 0.00548842 0.0131819 0.0151275 0.00793434 -0.0135213 0.0171048 0.0126316 0.0026236 0.0125775 0.0133798 0.0141122 0.00260765 0.00685266 0 0.00105263 0.0119298 0.0140039 0.0115814 0.00105263 0.00157895 0.00789474 0.0115789 0.00736842 0.0163158 0.0135088 0.00614035 0.0126289 0.0135043 0.00885031 0.00262305 0.00955671 0.014976 0.0104636 0.000839465 0.00684443 0.014291 0.00765933 -0.00456982 -0.0184418 -0.00751964 0.012414 0.0150207 0.00577756 0.011638 0.00716169 0.0118356 0.0129801 0.00245498 0.00245614 0.0173684 0.0150877 0.00807018 0.0173986 0.00468934 0.0148785 0.00314289 0.000940894 0.0133892 0.0104079 0.00518034 0.0338357 0.0088662 0.0213896 0.0264812 0.0207853 -0.00605094 -0.00982757 -0.00293812 0.0555267 0.0964107 0.0597076 0.0974889 0.0350985 0.0427899 0.0317347 0.00742383 0.000134709 0.00813423 0.00197861 0.00947368 0.00392014 -0.0107149 0.000763458 -0.00704422 -0.069407 -0.0329435 -0.008737 0.122053 0.242867 0.262186 0.228094 0.27921 0.191413 0.153075 0.0343125 -0.0128953 0.0651 0.339685 0.411916 0.375757 0.255435 0.248741 0.13643 -0.0246171 -0.0360399 0.0184116 0.0165206 0.0045614 0.0121693 -0.0450456 -0.0825016 -0.077271 -0.153872 -0.270039 -0.180501 0.0809455 0.372672 0.461389 0.478934 0.46254 0.31638 0.227742 0.00487548 -0.0981662 0.138541 0.246754 0.321568 0.153371 0.150646 0.04016 -0.0835762 -0.131008 -0.0575772 0.0123249 0.0102306 0.00175439 -0.000386225 -0.0674714 -0.153334 -0.17734 -0.316249 -0.557146 -0.510123 -0.385685 -0.0901237 0.310232 0.508496 0.520637 0.291041 0.204807 0.0476112 0.0219089 0.144764 -0.0855325 0.0272688 0.0914967 0.0230779 -0.172892 -0.191637 -0.114019 1.0071e-05 0.0201272 0.0133986 0.00789474 -0.00787899 -0.0986144 -0.216378 -0.262989 -0.429417 -0.743479 -0.75688 -0.672291 -0.348019 0.170888 0.444761 0.508629 0.512887 0.44186 0.104158 0.108988 0.0660661 -0.109851 -0.380408 -0.168301 -0.132104 -0.240914 -0.240726 -0.100968 0.00391111 0.00708503 0.0113014 0.000701754 -0.012638 -0.00914718 -0.139737 -0.258876 -0.486044 -0.765206 -0.78765 -0.531829 -0.276896 0.120159 0.568447 0.752261 0.549448 0.303686 0.210453 0.012548 -0.110915 -0.50762 -0.605041 -0.264294 9.39663e-05 -0.124118 -0.186617 -0.098639 -0.0327522 0.00191001 0.00894737 0.017193 -0.00905173 -0.041783 -0.161373 -0.252739 -0.559877 -0.741909 -0.669547 -0.386689 0.081542 0.396038 0.486923 0.366757 0.304777 0.150065 -0.105335 -0.286295 -0.627728 -0.815201 -0.39818 -0.195126 0.00802161 -0.0702761 -0.204625 -0.098026 -0.0535421 -0.010692 0.00491228 0.0163158 -0.00491557 -0.086746 -0.243467 -0.333736 -0.437099 -0.437737 -0.446452 -0.105001 0.493057 0.583811 0.378614 0.142925 0.0707088 0.0213201 -0.268474 -0.632664 -0.844162 -0.678403 -0.215895 -0.248042 -0.0180711 -0.0504326 -0.0890985 -0.028349 -0.0693368 -0.0126843 0.0147797 0.0122807 -0.00385844 -0.0743377 -0.2989 -0.403436 -0.526835 -0.481978 -0.555541 -0.0794828 0.590537 0.23139 0.0446316 0.132141 0.0590257 0.0247071 -0.271428 -0.472148 -0.398067 -0.276459 -0.106383 -0.0576232 -0.00873132 0.00751765 0.0505093 -0.0610186 -0.14937 -0.0141467 0.0128884 0.00929825 -0.0164243 -0.151144 -0.395705 -0.490393 -0.51467 -0.416716 -0.666251 -0.221082 0.257977 0.0638859 0.344388 0.225787 -0.0347422 -0.0941924 -0.102867 -0.0553409 0.123953 -0.00734402 0.0814609 0.11704 0.0621665 0.065536 0.0818156 -0.00964001 -0.022809 0.00797981 0.0133333 0.00315789 -0.0177811 -0.155426 -0.307482 -0.365491 -0.327454 -0.376069 -0.588857 -0.183164 0.225397 0.381983 0.722552 0.202996 -0.124039 -0.187966 -0.0665225 -0.0260333 0.134923 0.0190585 0.142961 -0.0549485 -0.172915 -0.118248 0.010472 0.121287 0.0560022 0.0265956 0.0157895 0.0114035 -0.0268049 -0.149359 -0.117602 -0.0194682 -0.0409763 -0.288738 -0.599733 -0.0338649 0.323905 0.440536 0.609581 0.103114 -0.202961 -0.132309 0.201402 0.191211 0.124472 0.133349 0.0166685 -0.31508 -0.406788 -0.147503 0.0241808 0.00800611 -0.0234285 0.010566 0.00963351 0.0170175 -0.0291363 -0.0919775 0.104972 0.122176 -0.151632 -0.299655 -0.367868 -0.0131012 0.266027 0.586229 0.687969 0.0472676 -0.277294 0.0460956 0.318863 0.215386 0.124465 -0.0128358 -0.27992 -0.539567 -0.536537 -0.369787 -0.104375 -0.0017852 0.101511 -0.001872 0.0133333 0.012361 -0.00531847 0.138319 0.307689 0.107931 -0.172381 -0.131153 -0.152542 0.242417 0.50709 0.557612 0.567332 -0.0214933 -0.090981 0.194269 0.277239 0.276138 0.0308383 -0.0120863 -0.24462 -0.358527 -0.442382 -0.306437 -0.102608 0.129861 0.131166 -0.010261 0.0012652 0.0112938 -0.0178523 0.163663 0.206227 -0.0544101 -0.151393 -0.123368 -0.105734 -0.0148579 0.226421 0.198571 0.188183 0.1176 0.156536 0.129215 0.0540214 -0.0589942 0.0735706 0.146358 0.00229972 -0.0249397 -0.233018 -0.259622 -0.165329 0.0838563 0.041661 -0.0149639 0.00201467 0.0201119 -0.0391501 0.00850581 -0.0985708 -0.33799 -0.135733 -0.296715 -0.242228 -0.167812 0.276496 0.226271 0.238196 0.404669 0.283815 -0.292372 -0.644209 -0.436438 0.0295498 0.142015 0.100325 -0.000302141 -0.184247 -0.13134 -0.0380653 0.0945303 0.0916943 -0.0173288 0.000942567 0.0140648 -0.0129316 -0.0578144 -0.300916 -0.308619 -0.232678 -0.412579 -0.39865 -0.100821 -0.111378 0.133594 0.313136 0.639824 0.368151 -0.562679 -0.717908 -0.376624 0.164881 0.192304 0.108731 -0.102792 -0.104475 -0.0275422 0.185855 0.0607466 -0.0127281 -0.0124205 0.013206 0.00614323 -0.0158336 -0.0703678 -0.249475 -0.324091 -0.519384 -0.655899 -0.370672 -0.0743673 -0.0280862 0.110627 0.401221 0.617744 0.35227 -0.291105 -0.312084 -0.109573 0.296223 0.306077 0.314469 0.111731 -0.0553517 0.0856915 0.165227 0.0459256 -0.056675 0.000908615 0.0077193 0.0170175 -0.0302551 -0.10005 -0.117319 -0.132889 -0.278075 -0.362977 -0.107935 -0.161335 -0.0853463 -0.120351 0.154485 0.257808 0.0380192 -0.399291 -0.386246 -0.12642 0.178302 0.247684 0.222463 0.00454925 0.012577 0.175452 0.152789 -0.0398502 -0.112421 -0.00875762 0.00403509 0.00368421 -0.0248189 -0.051175 0.160997 0.0684106 -0.0751995 -0.0922614 0.0250217 -0.0604865 0.0759285 0.105666 0.131 0.130017 0.0679624 -0.21505 -0.180452 0.11598 0.00271783 0.0469995 0.061554 -0.147883 0.0462245 0.246284 0.188596 0.0171997 -0.0782253 0.020764 0.00877193 0.013138 0.0138206 0.216731 0.382222 0.289035 0.0683688 0.0427753 -0.00386608 0.0227957 0.0743081 0.201263 0.0478362 0.23818 0.017476 -0.0266501 -0.0783302 0.0149812 -0.289519 -0.364699 -0.320375 -0.217953 -0.217731 -0.0143723 0.214443 0.146527 0.045863 0.0205846 0.00122807 0.00709086 0.0444789 0.132998 0.190027 0.170808 0.0887799 0.0804162 0.107398 0.142911 -0.123532 -0.0826269 -0.0971948 -0.071261 -0.0382585 -0.0433089 -0.0924338 -0.171858 -0.35808 -0.471597 -0.310558 -0.0432947 -0.296589 -0.204 0.0868055 0.137068 0.047168 0.00773258 0.000701754 0.0222671 0.0351325 0.112236 0.224681 0.147708 0.023002 0.0272619 0.148911 0.0634862 -0.122301 -0.0175318 -0.128465 -0.168981 0.00886786 0.042648 -0.0538972 -0.257405 -0.256774 -0.214413 -0.0433703 0.0432247 -0.224425 -0.0962348 0.0428047 0.0360017 0.0156386 0.00341966 0.0121053 0.0265505 0.0225288 0.0729637 0.0610696 -0.0951166 -0.178603 0.0316208 0.244751 -0.0143806 -0.0638713 0.0957872 -0.0451126 -0.138292 -0.0393054 -0.0076121 -0.00259027 -0.0682445 -0.0972372 -0.0183259 0.200485 0.114621 0.104384 0.0915378 0.0614321 -0.0128279 -0.0176893 0.00610235 0.00982456 0.0207567 0.026016 0.0972911 0.0369483 -0.0537394 -0.0218847 0.143088 0.262961 0.0758693 -0.0467243 -0.0784997 -0.0716291 -0.0515011 0.0417654 0.125259 0.0877181 -0.0365604 -0.0377649 -0.0305376 0.27376 0.169428 0.218414 0.168004 0.0640703 0.00956848 0.000712404 0.00212113 0.0107018 0.00864527 0.0219301 0.0174921 -0.00725706 -0.00447415 0.0339368 0.0350354 0.0633977 0.0409443 -0.0184058 -0.0233237 -0.0120625 0.00914306 0.0100601 0.00694465 -0.00649189 -0.00571297 -0.0147 0.00443841 0.0348739 0.0225507 0.0233893 0.00968041 0.0207975 0.00206008 0.0178135 0.00798732 0.00315789 0.015614 0.0166667 0.00315789 0.00104116 0.0116116 0.016069 0.0132785 0.0241557 0.0105979 0.00562527 0.0034856 0.0133333 0.0129418 0.0140582 0.0157714 0.0135331 0.00917613 0.00245426 0.0105263 0.0157895 0.00631579 0.0035325 0.0121023 0.00280702 0.0166667 0.00157895 0.00403509 0.00666667 0.00649123 0.0166667 0.0101754 0.000502228 0.00328694 0.0108691 0.0104529 0.0126882 0.0227992 0.0195548 0.000432717 0.00337399 0.00627716 0.00581655 0.0124671 0.00222629 0.0121705 0.0209784 0.02211 0.00969145 0.0143552 0.00347358 0.00883155 0.0112339 0.00193274 0.00754386 0.00140351 0.0135088 0.00140351 0.00754501 0.00642169 -0.00428022 -0.0118574 -0.0415384 -0.0377359 -0.036264 -0.0155653 -3.11495e-05 -0.0119216 -0.00140076 -0.00444172 0.00258175 0.012196 0.0154925 0.0504435 0.0787759 0.069685 0.0894821 0.051323 -0.0222939 -0.0185894 -0.00458681 -0.0054875 0.0125359 0.0121372 0.00525927 0.00789474 0.0161826 0.00650624 -0.0340174 -0.0898806 -0.166007 -0.17151 -0.153317 -0.0432856 0.0429528 0.00784327 -0.0062581 -0.0112743 -0.100444 -0.106355 -0.0669231 0.0616032 0.0640517 -0.0149563 0.15099 0.169244 0.0245297 -0.0231148 0.0197838 -0.00125714 -0.00869772 -0.00360017 0.00324943 0.00280702 0.0136463 -0.0410969 -0.0617402 -0.126151 -0.202381 -0.183679 -0.0768887 -0.0117145 -0.0190992 -0.0698869 -0.0412048 -0.0445242 -0.0538753 -0.0708212 -0.0928305 -0.180489 -0.12881 -0.0638581 -0.0524499 -0.0813542 -0.0230956 -0.028371 0.0542451 0.0470724 -0.0507679 -0.00634958 0.00197488 0.00280702 -0.00463974 -0.0516312 -0.0428251 -0.09135 -0.168429 -0.199237 -0.164855 -0.0566986 -0.0804908 -0.103623 -0.122956 0.0215274 0.112072 0.0159562 -0.227763 -0.336982 -0.245781 -0.106819 0.0416127 -0.0215381 0.0306503 0.00619547 -0.00888261 0.0342195 -0.0470784 -0.00809842 0.0131306 0.00421053 -0.0144924 -0.0114367 -0.0220683 -0.123521 -0.18552 -0.186135 -0.130661 0.0959995 0.0149745 -0.10058 -0.0802295 0.202051 0.323682 -0.00499698 -0.215515 -0.23674 -0.16034 -0.153003 0.0278087 -0.070867 -0.0702185 0.021755 0.0789863 0.0549945 -0.0270287 0.00951441 0.00831263 0 -0.0066195 0.00809121 0.00281647 -0.00142779 -0.0167427 0.00232768 0.0492521 0.111999 0.0662888 -0.0246058 0.163995 0.196196 0.00879683 -0.109962 -0.173172 -0.202636 -0.0719228 -0.0329432 0.0866342 0.0436735 -0.0692106 -0.153768 -0.0223353 0.0384718 -0.0670463 0.00266955 0.00929825 0.000877193 -0.023228 -0.046199 -0.0937818 -0.0542614 0.0652277 0.0381609 0.0617332 0.0307651 0.048397 -0.133386 -0.017993 0.02118 0.0199787 -0.0763394 0.0772261 0.0639363 0.0462152 -0.00615072 0.0601665 -0.138797 -0.448503 -0.697817 -0.457878 -0.383481 -0.333898 -0.0243589 0.01 0.0108772 -0.0338402 -0.133577 -0.357677 -0.314246 -0.183659 -0.172258 -0.00256925 -0.146356 -0.13365 -0.11154 -0.00659979 0.0664528 -0.0867057 -0.0878179 0.205996 -0.0151436 0.142369 0.441171 0.2569 -0.0398045 -0.283182 -0.714424 -0.573489 -0.502798 -0.359405 0.0103505 0.0135078 0.0105263 -0.0359866 -0.138442 -0.284535 -0.165991 -0.158928 -0.349846 -0.326003 -0.475353 -0.286105 0.0528208 0.424048 0.381251 -0.0457138 0.0421164 0.21206 0.121441 0.256087 0.329089 0.0980227 -0.0935957 -0.277943 -0.318319 -0.464328 -0.439419 -0.149797 0.023538 0.0170706 0.0147368 -0.0425037 -0.0548334 -0.188603 -0.23979 -0.207629 -0.322187 -0.422602 -0.601708 -0.33519 0.107034 0.484371 0.499234 0.0384113 0.287944 0.354034 -0.0108844 -0.0990853 0.00606277 0.105594 -0.0532088 0.0289892 0.0934165 -0.207405 -0.217533 -0.0659538 -0.013287 0.000526316 0.00807018 -0.0457499 -0.301051 -0.598569 -0.531278 -0.502115 -0.47979 -0.572932 -0.523458 -0.371355 -0.0716434 0.177635 0.331514 0.249783 0.225275 0.141734 -0.152129 -0.214796 -0.0388316 0.0136244 0.175538 0.269612 0.107375 -0.147952 0.0355686 0.167814 0.0515925 0.00929825 0.00807018 -0.0508148 -0.322058 -0.67381 -0.699886 -0.713075 -0.620514 -0.497116 -0.567148 -0.559781 -0.267609 -0.303684 -0.00368639 0.06622 0.0477987 -0.120827 -0.330544 -0.273667 -0.277769 -0.100694 0.227919 0.195465 0.167209 0.0502212 0.396524 0.273164 0.046413 0.00611943 0.0164912 -0.0688252 -0.318981 -0.641068 -0.902326 -0.918263 -0.518696 -0.239815 -0.326845 -0.284454 -0.0546683 -0.101062 -0.119288 -0.116891 -0.149033 -0.579026 -0.655101 -0.549301 -0.495964 -0.306835 -0.13594 -0.208044 0.201479 0.310481 0.388427 0.247255 0.0434304 0.00263158 0.00374364 -0.0596372 -0.158413 -0.505901 -0.592966 -0.249784 0.137863 0.130398 0.113067 0.105177 0.142371 -0.0983657 0.00772712 -0.28394 -0.132481 -0.33494 -0.190452 -0.47572 -0.481145 -0.411453 -0.296699 -0.187492 0.147919 0.267212 0.216635 0.186988 0.0104204 0.0113332 0.0100292 -0.0574707 -0.122357 -0.130417 0.0841654 0.299546 0.425183 0.406927 0.248893 0.0345212 0.00988104 0.056836 0.268177 0.274902 0.56905 0.422776 0.311929 0.0479088 -0.108948 0.0826838 0.111076 0.0746997 0.193004 0.0976302 0.322402 0.221722 0.0103145 0.0116439 0.0147179 -0.082389 0.0999665 0.270828 0.28256 0.478926 0.476861 0.372295 0.0749677 -0.097322 0.0567719 0.300048 0.662381 0.722257 0.752701 0.371276 0.185001 0.38934 0.276709 0.248914 0.237619 0.13062 0.15639 -0.0964826 0.160544 -0.0134737 -0.0225041 0.0127833 -0.00135504 -0.0150332 0.298724 0.302113 0.103661 0.119047 0.0147751 -0.029213 -0.248871 -0.313078 -0.496416 -0.293831 0.273728 0.645429 0.407653 0.208197 0.206134 0.336319 0.338436 0.358682 0.313461 0.118613 -0.158636 -0.149276 -0.0284259 -0.0136051 -0.00923617 0.000534135 0.0153799 0.00976366 0.0998749 0.229279 0.031926 -0.0776548 -0.246003 -0.358179 -0.64111 -0.512788 -0.436125 -0.318877 0.350067 0.901104 0.801103 0.600881 0.464843 0.423161 0.353223 0.245916 0.157897 0.189922 0.0182305 -0.0623032 0.17699 0.106749 0.0248394 0.00701754 0.0115789 -0.0438591 -0.297878 -0.200071 -0.476662 -0.59867 -0.610044 -0.748558 -0.804785 -0.714033 -0.475238 -0.47121 0.0894775 0.538326 0.692547 0.63332 0.344902 0.118226 0.107693 0.143034 -0.0320444 0.0937798 0.075454 0.0628703 0.315654 0.128671 -0.00389347 0.0164912 0.00719298 -0.0315694 -0.452239 -0.659198 -0.643922 -0.727766 -0.704158 -0.867543 -0.950405 -0.876136 -0.554623 -0.491109 -0.218649 -0.0141016 0.232416 0.277379 0.262372 -0.0422081 -0.105293 0.0319444 0.221326 0.233733 0.155372 0.0914007 0.325538 0.08056 0.00417309 0.0045614 0.0127859 -0.0509235 -0.405904 -0.607376 -0.555887 -0.709049 -0.727095 -0.711057 -0.64158 -0.40863 -0.167875 0.0797481 0.0293631 0.100064 0.0310937 -0.0878094 -0.0808189 -0.492886 -0.595022 -0.474454 -0.0776481 0.0197283 0.0117965 -0.0543887 0.0591623 -0.0149957 0.000488817 0.0108772 0.00585649 -0.0181559 -0.171055 -0.251128 -0.234266 -0.413126 -0.380452 -0.330424 -0.221171 -0.0749883 0.0459721 0.0741088 0.182909 0.215666 -0.150694 -0.421289 -0.413152 -0.527008 -0.592448 -0.372785 -0.0804009 -0.119505 -0.183655 -0.212847 -0.162998 -0.149814 -0.0156061 0.0122807 0.00145532 -0.00901639 -0.0656494 -0.104258 -0.0986549 -0.258058 -0.229579 -0.143442 -0.0762166 0.00847338 0.0338241 0.0795548 0.1198 0.184105 -0.0241371 -0.0836187 -0.230255 -0.306899 -0.343401 -0.053191 -0.0335837 -0.143378 -0.190745 -0.234368 -0.244284 -0.111151 -0.00751946 0.0103509 0.00354197 0.00915815 -0.0348258 -0.0292347 0.0234462 0.00327303 -0.0804906 -0.0573513 -0.0888803 -0.085355 -0.139885 -0.0935628 -0.034904 0.085764 0.106128 0.206891 0.0562237 -0.14819 -0.142674 0.0650279 0.0385785 0.0283556 -0.106265 -0.119426 -0.116007 -0.062006 -0.00416822 0.00912281 0.00231306 0.0140739 0.0170697 0.0549478 -0.0107599 -0.00859056 -0.0475427 -0.0838863 -0.152145 -0.173077 -0.138443 -0.103318 -0.0271417 0.1151 0.0604639 0.109172 -0.0446049 -0.138969 -0.119142 0.0141005 0.0494551 0.0814664 -0.0868913 -0.10962 -0.0698891 -0.00900452 0.0140362 0.00368421 0.00824172 0.00690385 0.0131166 0.0169015 -0.00513417 -0.0081806 0.00769392 -0.0113141 -0.0366226 -0.00773585 -0.000271374 0.0113009 0.0183641 0.0364462 0.0085274 -0.00267698 -0.00951225 -0.000994968 0.0180571 0.032715 0.0241549 0.0270254 0.00843343 0.00131037 -0.00202759 0.00966991 0.0165161 0.0147368 0.00210526 0.00385965 0.00315789 0.000925803 0.0143357 0.00655749 0.0137135 -0.00329673 0.0136491 0.0183613 0.00914516 0.00631579 0.0151584 -0.000978326 0.000203771 0.000871712 0.0131945 0.0159296 0.00508772 0.0159649 0.0152632 0.00288795 0.016453 0.00157895 0.00368421 0.00473684 0.0136842 0.017193 0.0142105 0.00649123 0.014386 0.0124565 0.0132005 0.00921059 0.00683026 0.000343241 -0.000611744 0.00684935 0.0148605 0.000512218 0.0124348 0.00264331 0.0132774 0.00850392 0.00395166 -0.00963038 0.00328718 0.00444023 0.0174344 0.0162006 0.00123167 0.00805569 0.0157822 0.00947368 0.0022807 0.0101754 0.00105263 0.00863032 0.00468446 0.0130068 0.00337477 0.00238025 0.0094913 -0.0167517 -0.0156878 -0.0205693 -0.00788458 -0.0275619 -0.0397597 -0.0269403 0.0183207 0.01656 -0.0375767 -0.0733777 -0.0355817 -0.0224379 0.0367529 -0.0451501 -0.0613663 0.000871299 0.00489045 0.0045046 0.00729631 0.00403275 0.00105263 0.0105875 0.0122178 0.0262852 0.0258327 0.164793 0.21616 0.10216 0.0322306 -0.0259763 -0.0225338 -0.087093 -0.150671 -0.016528 0.0731133 0.108574 -0.081735 -0.123107 -0.176684 0.0954147 0.262837 0.028168 -0.223558 0.149566 0.078198 -0.114897 -0.00838797 0.0149654 0.000526316 0.0112562 0.0361805 0.0213136 -0.0239484 0.22204 0.414674 0.375151 -0.0828043 -0.241582 -0.12558 -0.236578 -0.134729 -0.011457 0.00795893 0.405567 0.401709 0.44928 0.140561 -0.0902222 0.269776 0.297187 0.329921 0.417906 0.233852 -0.0710501 -0.0071776 0.0164282 0.0133333 0.0119084 0.0936502 0.119771 0.058154 0.157862 0.221784 0.247579 -0.241932 -0.588387 -0.344505 -0.241822 0.0309323 0.177971 0.36695 0.422535 0.447806 0.676331 0.630095 0.5211 0.669842 0.592149 0.564494 0.211326 -0.0271859 -0.0685287 -0.0280242 0.00515625 0.0166667 0.00501924 0.0744383 0.117973 -0.0273248 -0.146128 -0.0415208 -0.0936223 -0.447809 -0.482849 -0.383437 -0.231853 -0.139874 0.238885 0.474186 0.408052 0.589493 1.06553 0.814484 0.32048 0.175963 0.164953 -0.0312741 -0.494243 -0.478551 -0.240052 -0.0421129 0.00181186 0.000877193 0.0032507 0.0931788 0.0897193 -0.0717492 -0.182317 -0.0588418 -0.303935 -0.461775 -0.252565 -0.0134364 0.0728413 0.244608 0.23024 0.320183 0.191663 0.0196957 0.261994 0.0777702 -0.214904 -0.327605 -0.390447 -0.752805 -1.40769 -1.05499 -0.511261 -0.0558018 0.00719298 0.00105263 -0.00436419 0.0720514 0.135764 -0.0151979 -0.0681781 -0.0487549 -0.278005 -0.644568 -0.38955 0.217436 0.46588 0.49424 -0.0100385 0.332164 0.576391 0.198166 0.0681749 -0.0808653 -0.553359 -1.23365 -1.49439 -1.70951 -1.86594 -1.31257 -0.554534 -0.0599846 0.0121053 0.00649123 0.00866274 0.0141827 0.104718 0.0166769 0.0846131 -0.179534 -0.366379 -0.607996 -0.504678 -0.000319404 0.127238 0.0598372 0.211633 0.684944 0.761317 0.403612 -0.0632671 -0.677711 -1.71883 -1.80021 -1.90066 -1.93289 -1.83472 -1.18011 -0.530974 -0.0580584 0.0116637 0.0164912 0.0284664 0.117065 0.246886 0.308543 0.449624 0.428332 0.247336 -0.10677 0.309904 0.0842551 -0.286257 0.0244273 0.182478 0.715177 0.696119 0.0881477 -0.484337 -0.768579 -1.18274 -1.06833 -1.03588 -1.1503 -1.19268 -0.720104 -0.452603 -0.0384131 0.0171274 0.014386 0.00181617 -0.070957 0.319589 0.456446 0.894693 0.528179 0.171841 -0.0248922 -0.113815 -0.140074 0.167735 0.311415 0.41943 0.798861 0.599418 -0.174144 -0.667175 -0.385642 -0.318348 -0.30763 -0.308453 -0.491887 -0.307904 -0.177136 -0.357128 -0.0605219 0.0152632 0.00192982 -0.0261421 -0.0582664 0.409821 0.865821 1.01596 0.506771 0.383745 -0.143941 -0.360186 0.0256677 0.709587 0.424508 0.848838 0.606744 0.0763583 -0.680675 -0.616754 -0.0299416 -0.122055 -0.173957 -0.325703 -0.182939 0.00214628 -0.0133289 -0.384592 -0.0571932 0.00280702 0.0142105 -0.112754 -0.161204 0.604472 0.987696 0.488298 -0.0626461 0.140698 0.00401753 -0.0193255 0.565201 0.486441 0.271263 0.363426 0.024813 -0.273441 -0.44812 -0.426767 -0.486743 -0.664545 -0.371051 -0.274161 0.103273 0.0744471 -0.238618 -0.648082 -0.104344 0.00802425 0.015614 -0.0559529 -0.209402 0.454751 0.633168 0.246471 -0.0406595 0.189296 -0.171586 -0.27788 0.168088 0.0359831 0.394086 0.311496 -0.352328 -0.138 -0.0759466 -0.080964 -0.406633 -0.408953 0.101371 0.386327 0.216 0.111688 0.140018 -0.405937 -0.0291165 0.0054386 0.00102736 -0.0250685 -0.00269284 0.582277 0.405372 0.16252 -0.104168 -0.18403 -0.317356 -0.138152 -0.228688 -0.118352 0.242077 -0.0242567 -0.219595 0.0996706 0.294507 0.1251 0.0267978 0.0508057 0.472337 0.765322 0.618441 0.582393 0.727449 0.073661 -0.0333046 0.00688757 0.0102983 0.00212532 0.27779 0.458235 0.236072 -0.111932 -0.503642 -0.707802 -0.432912 -0.0507329 -0.172481 -0.46887 -0.548871 -0.559466 -0.361711 -0.150816 -0.276247 -0.666824 -0.358045 0.0841631 0.60403 0.576365 0.384093 0.361338 0.322141 0.117521 -0.00188783 0.00629172 0.00740317 -0.0180273 0.18132 0.20884 -0.0527817 -0.308844 -0.468187 -0.4914 -0.393861 -0.0601163 -0.11725 -0.867765 -1.0731 -0.731686 -0.456076 -0.499673 -0.617184 -0.675715 -0.32178 0.00266954 0.1658 -0.0446317 -0.194856 -0.290626 0.0602341 -0.0205398 -0.00362679 0.0135019 0.00990513 0.0195402 0.388256 0.360993 -0.153402 -0.218789 -0.226332 -0.479855 -0.440743 -0.304519 -0.533324 -1.00104 -1.03106 -0.356556 -0.0973029 -0.0223242 -0.195215 -0.230577 -0.0505823 -0.25438 -0.529962 -0.886314 -0.673206 -0.52858 -0.322994 -0.305465 -0.0718364 0.0171554 0.0143777 0.0279045 0.440056 0.213266 -0.118629 0.0123384 0.117122 0.0773076 -0.33918 -0.22084 -0.555688 -0.994951 -0.79439 -0.0970591 0.143644 0.391725 0.489172 0.37658 0.011467 -0.307229 -0.437907 -0.630391 -0.357475 -0.42222 -0.52757 -0.415851 -0.0622855 0.0105263 0.00842105 0.00365147 0.138171 0.273033 0.014724 0.209517 0.354141 0.200518 -0.189733 -0.111175 -0.124464 -0.616036 -0.631094 -0.0209077 0.134603 0.179966 0.441845 0.141082 -0.121423 -0.41392 -0.515517 -0.546894 -0.448528 -0.556054 -0.61967 -0.295573 -0.0141047 0.00578947 0.00789474 -0.00131043 -0.117548 0.238591 -0.0118026 0.299737 0.326769 0.285772 -0.0685337 0.094329 0.0655377 -0.0674382 -0.198428 -0.0626685 -0.0963718 0.0176626 0.023751 -0.0766808 -0.452429 -0.784285 -0.782211 -0.711309 -0.54327 -0.450101 -0.354297 -0.0884452 0.00908719 0.00824561 0.00334452 -0.00488149 -0.202876 -0.00411384 -0.177838 0.160931 0.141923 0.116866 -0.0565745 0.343024 0.190695 -0.0821162 -0.282368 -0.288496 -0.46276 -0.412481 -0.319463 -0.388131 -0.662474 -0.678794 -0.553906 -0.485903 -0.288464 -0.113586 -0.114437 -0.0506978 0.016656 0.0101754 0.0112855 0.0081009 -0.0703243 -0.0127326 -0.229108 -0.0292055 0.184174 0.0909262 0.301909 0.207582 -0.181739 -0.454893 -0.569125 -0.351516 -0.395479 -0.359356 -0.5223 -0.8065 -0.894544 -0.428819 -0.248267 -0.163023 -0.011796 -0.0904564 -0.101209 -0.0689006 0.0220643 0.00701754 0.00778438 0.00119391 0.0696387 -0.0986175 0.0147741 0.381808 0.547825 0.342592 0.420546 0.017533 -0.201479 -0.224403 -0.17229 -0.0639517 0.14913 -0.19137 -0.721523 -0.850077 -0.609218 -0.291514 -0.13614 0.0211359 0.0116388 -0.0547153 -0.0724307 -0.010963 -0.019882 0.0152632 0.0107197 0.00390419 -0.0203537 -0.205976 0.112493 0.391526 0.37022 0.150875 0.119916 -0.223722 -0.364226 -0.217473 -0.0632096 -0.0574972 -0.195939 -0.199661 -0.514921 -0.509879 -0.399735 -0.299426 -0.177207 -0.0711328 -0.166769 -0.260309 -0.057172 0.00152785 0.00403747 0.000701754 0.0042639 -0.0116071 -0.127415 -0.077507 0.0395061 -0.0986302 0.142509 0.0824712 -0.029934 -0.175136 -0.114861 -0.255354 -0.195929 -0.175399 -0.204111 -0.322575 -0.514416 -0.363636 -0.214938 -0.0821418 -0.0342549 -0.0860129 -0.0750657 -0.0940663 -0.00778812 0.00524818 0.0174129 0.0168421 0.0092959 0.0151857 -0.0073487 -0.0118542 0.00534671 -0.0546769 0.0172883 -0.0273057 -0.0783035 -0.00640701 0.0316854 -0.00141923 0.00321637 -0.0194918 -0.0119536 -0.035356 -0.0687328 -0.0346917 -0.0269057 0.00528057 0.001816 0.0131021 0.0108754 -0.00134682 0.00785548 0.00731776 0.0121168 0.00245614 0.00631579 0 0.00964912 0.0123086 0.00487991 0.000986612 0.00299356 0.0100204 0.0140803 0.00802832 0.00914948 0.00754386 0.00991675 0.00101248 0.00786878 0.00616619 0.00115375 0.0121219 0.00824561 0.0173684 0.00333333 0.0156388 0.00774018 0.0142105 0.0110526 0.0114035 0.0110526 0.0045614 0.00859649 0.00877193 0.00385965 0.0100003 0.00232938 -1.74238e-06 0.00334613 0.00274361 0.0111843 0.00733678 0.00986302 0.0161817 0.00723559 0.0067708 0.0150438 0.0140202 -0.00786982 0.000619426 0.00256406 0.0103053 0.0240374 0.0181832 0.0074644 0.0114173 0.00553322 0.00263158 0.014386 0.00894737 0.0108772 0.00631173 0.00213113 0.0331842 0.0317766 0.0482532 0.0519892 -0.00747992 0.00432762 0.0749985 0.0259739 -0.04309 0.00196545 -0.013471 -0.0711131 -0.0246625 -0.0431631 -0.133509 -0.00386819 0.0461781 0.120731 0.0383179 0.0043191 0.0237668 0.0311127 0.0334151 0.0147632 0.00912076 0.0103509 0.00520739 0.0289239 0.0862008 0.222769 0.507853 0.477321 0.264767 0.286334 0.415122 0.259673 -0.106053 -0.0711333 -0.0545803 -0.0919242 -0.300885 -0.487447 -0.446967 -0.043871 0.47464 0.553397 0.351844 0.313769 0.53891 0.539959 0.350954 0.0351599 0.00888567 0.0161404 0.00628558 0.00409673 0.0330883 0.226662 0.528571 0.654622 0.599836 0.371117 0.369183 0.665279 0.310888 0.47328 0.450269 0.271786 -0.335159 -0.793964 -0.398939 0.403317 0.326292 0.932849 1.3573 1.09218 1.04976 0.952888 0.656669 0.0625416 0.00763022 0.00105263 -0.00131524 0.035766 0.00670992 0.0506263 0.164739 0.607396 0.678257 0.015633 0.0192047 0.657279 0.485777 0.506121 0.291221 0.39151 0.429176 0.00134485 0.452119 0.918523 0.906622 1.71413 1.91274 0.986825 0.958802 0.830563 0.555718 0.0427076 0.0087963 0.000701754 0.0042225 -0.00960425 0.0656276 -0.155694 -0.0735532 0.37878 0.5482 -0.0993642 0.30298 0.678353 0.21138 0.208133 0.480021 0.5741 0.372855 0.173494 0.383674 1.21779 1.60478 1.82791 1.82491 1.04939 0.426381 0.241231 0.361675 0.0148574 0.00334983 0.0045614 0.00130795 -0.0226976 -0.205772 -0.295756 0.110928 0.455967 0.221873 -0.00613075 0.772629 0.646398 0.465372 0.725016 0.742196 0.577471 0.703746 0.406716 0.560045 1.08966 1.55953 1.58509 0.788254 0.323252 -0.278012 -0.679637 -0.360799 -0.0371905 0.012807 0.0112281 0.00809938 -0.0523039 -0.232701 -0.105097 0.268702 0.187954 0.181687 0.256226 0.710864 0.520569 0.584073 0.492925 0.574298 0.802751 1.29889 0.765139 0.994951 1.32762 1.01373 0.384258 -0.675578 -1.45905 -1.35347 -1.24475 -0.7157 -0.0456785 0.00526316 0.00596491 0.0113745 -0.0616599 -0.0996374 0.27266 0.308919 0.0784884 -0.0544503 0.0705784 0.633506 0.547438 0.381988 0.392244 0.625294 1.01537 1.15324 1.03703 1.00496 0.406879 -0.633909 -1.59146 -2.38041 -2.7537 -2.49156 -1.90246 -0.926395 -0.0406173 0.0123272 0.00789474 -0.00261083 -0.00877799 0.0511341 0.352589 0.294828 0.335883 0.217557 0.379687 0.648104 0.366027 0.644673 1.05376 1.06329 1.37658 1.1825 0.995655 0.0585897 -1.06392 -2.16976 -2.93069 -2.53226 -2.53008 -2.28905 -1.84252 -0.957464 -0.0419729 0.00891592 0.00192982 -0.0161768 -0.119962 -0.211115 -0.103219 0.383987 0.636998 0.310551 0.650558 0.848039 0.830949 1.17516 1.31472 1.43519 1.70931 1.00588 -0.535215 -1.81282 -2.5613 -2.2671 -1.81678 -0.883462 -1.44168 -1.35594 -1.33151 -0.767792 -0.0328964 0.0159649 0.00578947 -0.043556 -0.364633 -0.496337 -0.419774 0.309938 0.28858 0.370186 0.518712 0.333584 0.480455 1.33098 1.26444 1.11923 1.22026 0.631211 -0.7606 -1.79507 -2.10051 -1.30363 -0.703443 -0.0885238 -0.754545 -0.988193 -0.65621 -0.431909 -0.00450659 0.00526316 0.00701754 -0.0562068 -0.318314 -0.392875 -0.183351 -0.0110741 -0.158349 -0.0480803 0.0729787 -0.100031 0.092932 0.924865 0.804969 0.143196 0.114112 0.132642 -0.890912 -1.899 -2.12848 -1.03754 -0.115917 0.124289 -0.288733 -0.673528 -0.379557 -0.472573 -0.0121245 0.0159574 0.00912281 -0.056239 -0.193412 -0.0237497 -0.054017 -0.478398 -0.131002 -0.131182 -0.256942 -0.468 -0.0174506 0.466667 0.630113 -0.338558 -0.168516 -0.23253 -0.855055 -1.4213 -1.77389 -1.12037 -0.219993 -0.138777 -0.185744 -0.476357 -0.395666 -0.362709 0.00161875 0.012807 0.0131294 -0.0307213 0.155732 0.340611 -0.086826 -0.457261 -0.244962 -0.462869 -0.469254 -0.366911 -0.511263 0.157062 -0.0903169 -0.674443 -0.265912 -0.387435 -0.818828 -1.49336 -1.5459 -0.789661 -0.295489 -0.462937 0.132399 0.0259214 -0.183553 -0.163818 -0.0172521 0.000906161 0.0136476 -0.0181174 0.460729 0.299598 -0.151011 -0.204863 -0.32316 -0.447524 -0.300698 -0.278683 -0.537052 -0.0238383 -0.144633 -0.661616 -0.255038 -0.690802 -1.01773 -1.25055 -1.03092 -0.469892 0.0398961 0.0444989 0.181868 0.0226764 -0.381317 -0.216151 -0.0136877 0.00277989 0.0152473 -0.0194197 0.448266 0.417479 0.0672091 -0.0748661 -0.26243 -0.187548 -0.190095 0.207461 0.351006 0.258786 -0.36137 -0.551255 -0.721006 -1.01312 -1.24346 -0.691187 -0.537378 -0.316556 0.280878 0.218126 -0.174206 -0.109013 -0.506755 -0.183216 0.00200185 0.0169843 0.00590229 0.0162625 0.242028 0.570678 0.486017 0.0653975 -0.269657 0.145018 0.123804 0.277345 0.740188 0.292877 0.0591032 0.00969946 -0.177147 -0.383489 -0.28589 -0.410731 -0.239826 0.0491249 0.120385 -0.0135202 -0.266785 -0.376991 -0.832642 -0.391039 0.00245534 0.00140818 0.00317803 -0.0251667 0.193699 0.897158 0.645947 0.262324 0.114872 0.306557 0.264084 0.133918 0.0948654 -0.487731 -0.229205 0.0945068 0.17944 -0.0161945 -0.0652748 -0.543315 -0.792927 -0.383258 -0.340823 -0.615459 -0.480597 -0.50451 -0.884125 -0.390565 0.0319625 0.00508772 0.0166667 -0.0180084 0.0707082 0.757522 0.471964 0.185742 0.392921 0.0317171 -0.0165636 -0.00500275 -0.227841 -0.469895 -0.638061 -0.383734 -0.0166864 0.425874 0.225346 -0.502749 -0.772991 -0.113564 -0.540288 -0.986525 -0.609633 -0.509785 -0.592827 -0.085943 0.0224314 0.00157895 0.00859649 -0.0106756 0.0130457 0.171709 0.267633 0.284354 0.40991 0.0868468 -0.0929411 -0.226985 -0.214694 -0.24838 -0.518878 -0.387918 0.021909 0.589982 0.613214 0.0455383 -0.437204 -0.61774 -0.965372 -0.837761 -0.45963 -0.344321 -0.626725 -0.168179 0.00212381 0.00315789 0.00561725 0.00239379 -0.249452 -0.327233 0.022803 0.389344 0.191556 -0.0624316 -0.165372 -0.251185 -0.211514 -0.236645 -0.263518 -0.661175 -0.279269 0.208016 0.322678 0.0416894 -0.154828 -0.501906 -1.09581 -0.636768 -0.306486 -0.172473 -0.447922 -0.145157 -0.02238 0.0150877 0.0147533 -0.0224654 -0.356687 -0.516341 -0.0773309 0.251391 -0.0869098 0.184981 0.431722 0.0238245 0.33039 0.366685 -0.247088 -0.475064 0.0747966 0.364509 0.000723671 -0.107475 -0.374522 -0.432393 -0.562028 -0.34029 -0.144837 -0.32282 -0.336285 -0.111143 -0.00206354 0.000877193 0.0101017 0.00234529 -0.0642798 -0.385556 -0.347969 0.0977764 0.118733 0.0190839 0.0132719 0.260982 0.135901 -0.213341 -0.506554 -0.20126 0.318057 0.210595 -0.166751 -0.39919 -0.436449 -0.213986 0.0920538 0.0933118 -0.00143956 -0.119838 -0.285829 -0.0579074 0.0090574 0.00175439 0.00797784 0.00718476 0.170468 -0.0643374 -0.204325 -0.246329 -0.0602989 0.188631 0.373155 0.221137 -0.291624 -0.514143 -0.525238 -0.14783 0.0628086 0.32895 0.269567 -0.118496 -0.287424 0.151319 0.501732 0.303886 0.158977 0.0735182 -0.0298916 0.10573 0.03572 0.0105263 0.00131956 0.0315305 0.176403 0.0143101 0.0579259 -0.220196 -0.141193 0.189961 0.234522 -0.32096 -0.551763 -0.274018 -0.128814 -0.0332839 0.101256 0.154608 0.0284286 0.104102 0.123371 0.42116 0.458934 0.211536 0.0390451 -0.0214222 0.0322749 0.0474772 0.0138738 0.00140351 0.00719094 0.0154824 0.0226674 -0.0014116 0.0383512 -0.0729243 -0.0677705 0.0465816 -0.0177456 -0.0677819 -0.0395495 0.00906344 0.0327481 0.0421076 0.0289061 0.0196169 -0.0227713 0.0261678 0.0457978 0.0556189 0.019994 0.000966335 0.00247668 0.00956878 0.0182145 0.00889668 0.0171678 0.00701754 0.00614035 0.0159649 0.01 0.013691 0.00424557 0.0129122 0.00997947 0.041112 0.00741951 0.0154462 0.0165105 0.00894737 0.0157639 0.0138305 0.015919 0.0163514 0.00343208 0.0128269 0.015614 0.0110526 0.0150877 0.00605344 0.0107097 0.017193 0.0157895 0.0168421 0.0115789 0.00578947 0.0145614 0.00350877 0.0119298 0.0173679 0.0130819 -0.000259544 0.00735882 0.00182216 0.0130524 0.010051 0.0109173 0.0125626 0.000705747 0.00925144 0.0158944 0.00130685 0.0038164 0.0169197 0.006547 0.00145173 0.000914409 0.00308158 0.0017283 0.0122789 0.00912192 0.00438596 0.0022807 0.0129825 0.0166667 0.0149254 8.95635e-05 -0.000957297 -0.00559617 0.00296849 0.0052537 -0.0039257 -0.00307428 -0.0371942 -0.0273116 0.0103034 0.00980402 -0.00183295 -0.0159108 -0.0297684 -0.0132002 0.0127058 -0.00885957 -0.024456 -0.0933516 -0.0114189 -0.0261327 -0.0069499 0.00613511 -0.00497448 0.0114617 0.0154397 0.0129825 0.0153744 -2.03424e-05 -0.0518463 -0.0991568 0.0110664 -0.01981 -0.0115412 -0.0666246 -0.0070725 0.0969336 0.189951 -0.00269794 -0.0420107 -0.165852 -0.149608 -0.174454 -0.276199 -0.509613 -0.597916 -0.650526 -0.460303 -0.402662 -0.385808 -0.227252 -0.12881 0.00149454 0.0124957 0.017193 0.00737927 -0.00546753 0.0128396 0.0205652 0.125194 0.16633 0.211138 0.241933 0.344977 0.377774 0.307577 0.110277 0.297514 0.290244 0.275341 0.314524 0.429177 0.218156 -0.130139 -0.630574 -0.648554 -0.52161 -0.679858 -0.454948 -0.18674 -0.00696505 0.00179462 0.0110526 0.012719 -0.00291102 0.00876223 -0.0503895 -5.26857e-05 0.154384 0.209629 0.38927 0.53504 0.611196 0.453479 0.364355 0.337525 0.276682 0.53498 0.590506 0.66924 0.626425 0.429355 -0.352629 -0.695041 -0.530961 -0.698545 -0.611902 -0.31052 -0.0177837 0.00512368 0.0124561 0.00333753 -0.0261085 -0.0466089 0.0321245 -0.0110963 0.0939047 0.332793 0.740287 0.854782 0.681829 0.501359 0.37848 0.377375 0.358284 0.569931 0.617745 0.54248 0.595658 0.725653 -0.0960698 -0.54108 -0.537303 -0.56706 -0.510335 -0.399579 -0.0284106 0.0128328 0.0131579 0.00948836 -0.0256826 0.0385198 0.184058 0.312995 0.394357 0.735019 1.0774 0.914752 0.576564 0.4807 0.392358 0.526818 0.79122 0.536524 0.453548 0.35269 0.400072 0.60991 0.186575 -0.16113 -0.197262 -0.359053 -0.763923 -0.556782 -0.0218229 0.0112281 0.000175439 0.0111618 -0.0629201 -0.0739573 0.0476098 0.252727 0.681303 1.09985 1.37565 0.924488 0.520747 0.383214 0.698099 0.90856 1.07066 0.53586 0.399865 0.16594 0.0313739 0.260302 0.0191359 -0.275611 -0.368103 -0.147958 -0.677602 -0.66358 -0.048863 0.0110526 0.00175439 -0.00899979 -0.283208 -0.376636 -0.208783 0.0338889 0.409349 0.885793 1.1563 0.6144 0.0672978 0.0884923 0.480288 0.66622 0.664666 0.461731 0.371871 0.201032 0.290116 0.226528 0.00998459 0.20603 0.294715 0.536338 -0.114495 -0.540203 -0.0188505 0.00774274 0.0108772 -0.0174641 -0.382191 -0.63455 -0.260862 -0.185898 0.0663806 0.657246 0.633684 0.341092 -0.00441172 -0.167653 0.110278 0.23603 0.31062 0.175623 -0.0105275 0.0162859 0.0468076 0.219833 0.180185 0.384532 0.549815 0.588482 0.163488 -0.242672 -0.0132942 0.00564979 0.0166667 -0.0338353 -0.405495 -0.778498 -0.295609 -0.120071 0.0202451 0.488705 0.559949 0.457445 -0.019274 -0.295023 -0.204163 -0.298817 -0.2717 -0.39283 -0.505076 -0.557128 -0.387276 -0.0232644 0.306718 0.302355 0.349329 0.91535 0.319501 -0.192677 -0.02094 0.00385965 0.00842105 -0.0504898 -0.643244 -1.17881 -0.480546 -0.0681526 -0.267803 0.359733 0.480137 0.537937 0.244152 0.199174 -0.0648662 -0.25051 -0.526477 -0.615636 -0.770707 -0.726011 -0.470824 -0.219748 0.13201 -0.223522 -0.14756 0.678555 0.00228343 -0.190977 0.0102598 0.0168421 0.000701754 -0.0651252 -0.851805 -1.24362 -0.538132 -0.228231 -0.527637 -0.103911 0.53338 1.05018 0.654206 0.112266 -0.35117 -0.367401 -0.492261 -0.574654 -0.891624 -1.33651 -1.10391 -0.469695 0.0946616 -0.414361 -0.356236 0.368749 -0.155377 -0.1424 0.0197631 0.000528268 0.00157895 -0.0760478 -0.778118 -1.0472 -0.432776 0.124243 0.0209961 0.392809 1.44422 1.24164 0.12753 -0.588728 -0.78049 -0.56367 -0.213273 -0.295033 -0.896416 -1.70663 -1.39217 -0.589612 -0.0494395 -0.490663 -0.515079 0.398779 -0.160187 -0.149576 0.025027 0.0045614 0.00415425 -0.0488992 -0.563719 -0.647856 0.139892 0.608889 0.548753 0.709065 1.68591 0.941763 -0.270457 -0.677297 -0.91115 -0.936608 -0.384056 -0.388572 -0.999324 -1.70366 -1.34704 -0.691323 -0.185166 -0.367105 -0.330224 0.0159255 -0.396581 -0.0881204 0.0195382 0.000763201 0.00746606 -0.0499001 -0.570817 -0.431989 0.293775 0.457581 0.691411 0.487453 1.08955 0.421612 -0.624307 -1.11236 -1.14217 -0.996121 -0.356039 -0.202821 -0.688715 -1.28608 -0.824085 -0.190183 -0.20751 -0.230402 -0.0346867 -0.0125707 -0.395981 -0.11243 -0.000391728 0.000297279 0.0117539 -0.0730464 -0.774913 -0.43388 0.396788 0.391246 0.569295 0.458063 0.516678 0.44124 -0.693021 -0.971827 -1.03715 -0.880992 -0.573974 -0.528248 -0.773775 -1.20031 -0.577707 -0.0296641 -0.179348 -0.2975 0.19091 0.389399 -0.20881 -0.0378986 -0.00493024 0.0098581 0.000582664 -0.0707076 -0.780627 -0.715652 0.26282 0.431153 0.155761 0.00763457 -0.0878087 0.0929214 -0.479972 -0.597038 -0.679449 -0.644696 -0.596688 -0.479913 -0.627111 -0.992848 -0.4719 0.0369499 -0.0255464 -0.161565 0.40369 0.542056 -0.0154496 -0.0763455 -0.0118415 0.00629224 0.0141166 -0.0316741 -0.809775 -0.865862 -0.0288271 0.375382 0.216203 0.123512 0.175203 -0.133637 -0.513967 -0.43608 -0.315452 -0.275538 -0.361754 -0.326698 -0.566828 -0.608226 -0.387663 0.135982 0.0233543 -0.25066 0.0237962 0.0587615 -0.300259 -0.245744 -0.0119029 0.0166667 0.00859649 -0.0254316 -0.824642 -1.13937 -0.262245 0.233986 0.626262 0.420003 0.299409 0.0886671 -0.0909463 -0.102733 0.00664952 0.0380428 -0.178619 -0.351077 -0.770512 -0.859754 -0.443762 0.066633 -0.37039 -0.342385 -0.244789 -0.117206 -0.338596 -0.215388 -0.0106304 0.00122807 0.00736842 -0.0386008 -0.764831 -1.14158 -0.41566 0.232941 0.621836 0.205363 0.219052 0.0956123 -0.0874265 0.115188 0.298767 0.0646152 -0.081771 -0.0724067 -0.579247 -0.473119 -0.210455 -0.288038 -0.786016 -0.551899 -0.23839 -0.0109596 -0.197324 -0.233157 -0.0166184 0.0138596 -0.000161107 -0.0402485 -0.650686 -0.766812 -0.165017 0.307995 0.363867 0.0386513 -0.00134867 0.0625761 0.145834 0.0121475 0.0749491 -0.137514 -0.394404 -0.69234 -1.00431 -0.782726 -0.494893 -0.493137 -0.717198 -0.51344 -0.274748 -0.00680725 -0.180928 -0.27921 -0.0255838 0.0129825 0.0117801 -0.00999992 -0.453803 -0.488706 -0.262782 0.067683 0.150017 0.0686021 0.0307024 -0.0875911 0.0359453 0.0552565 0.0308737 -0.21874 -0.43702 -0.671675 -0.635384 -0.673642 -0.898046 -0.931403 -0.605769 -0.566997 -0.487989 -0.263404 -0.433603 -0.299048 -0.00567454 0.0164912 0.00223508 -0.00469025 -0.341362 -0.493742 -0.368527 -0.244961 -0.0448082 -0.061885 -0.0595526 -0.0653087 0.0475472 -0.0522123 0.0143789 -0.141734 -0.415739 -0.565881 -0.609394 -0.730333 -1.12012 -0.965265 -0.834034 -0.805516 -0.690688 -0.587641 -0.509156 -0.187533 0.00316215 0.017193 0.00233617 0.00179582 -0.147307 -0.251977 -0.282658 -0.302698 -0.27877 -0.25919 -0.0377844 0.146185 0.192063 -0.173478 -0.281889 -0.329582 -0.535857 -0.625894 -0.686024 -0.748592 -0.978766 -0.603451 -0.644584 -0.594406 -0.524642 -0.354804 -0.323805 -0.100348 -0.00812158 0.000526316 0.00785444 0.00214605 -0.0478414 -0.048084 -0.237032 -0.394493 -0.469395 -0.541508 -0.296402 -0.0690205 -0.117202 -0.181799 -0.244957 -0.311456 -0.44035 -0.472007 -0.422287 -0.374716 -0.405677 -0.158382 -0.202193 -0.162524 -0.165332 -0.0169775 0.0222533 -0.0151414 0.0010024 0.00859649 0.0170186 0.00725945 -0.00509001 -0.00497792 0.00413995 -0.0218862 -0.0515174 -0.105513 -0.0160537 0.0071067 -0.0087478 -0.00692306 -0.0138942 -0.0135856 -0.0304247 -0.0382344 -0.0187251 -0.00982519 -0.0117146 0.00287745 -0.0072906 -0.00573273 -0.0063464 0.0156331 0.0220781 0.0111033 0.0019511 0.00192982 0.00385965 0.00807018 0.0110526 0.0245161 0.0197238 0.0183013 0.00489239 -0.0164266 0.00464504 0.00378884 0.00263469 0.0122807 0.0161346 0.00762945 0.00934369 0.00677167 0.0143688 0.0087737 0.00859649 0.0126316 0.0114035 0.00713056 0.00528113 0.000877193 0.000526316 0.00192982 0.00684211 0.0136842 0.0138596 0.00736842 0.00315789 0.0152632 0.00785176 0.0135647 0.00401855 0.0103706 0.0103267 0.00732671 -0.000194755 0.0118456 0.0128145 0.014807 0.0100567 -0.00251851 -0.00212331 -0.00621414 -0.00833676 0.00914329 0.00637038 0.00827199 0.000975016 0.000315525 0.0098946 0.00561404 0.0133333 0 0.0152632 0.015427 0.0168263 0.0182422 0.00582907 -0.000743182 -0.0132907 -0.0330542 -0.0325875 -0.0576287 -0.0839201 -0.00518863 -0.0668777 -0.0714672 -0.0173158 -0.0238805 -0.102023 -0.112844 -0.13064 -0.0571002 -0.0792106 -0.0687386 -0.0348534 -0.00725526 -0.00720109 -0.00668648 0.000190232 0.00543532 0.0163158 0.0114129 0.00244642 0.0147212 0.0353702 -0.0545231 -0.0391805 -0.225383 -0.2416 -0.281382 -0.27789 -0.017081 -0.113028 -0.143727 -0.170575 -0.269462 -0.417508 -0.464595 -0.461145 -0.296696 -0.130126 -0.144912 -0.0605162 0.116505 0.258697 0.100527 0.00705267 0.00565386 0.0142105 0.0130797 0.00241226 0.10986 0.133538 0.109036 0.175413 -0.117365 -0.147331 -0.15237 0.121528 0.468979 0.199367 -0.113804 -0.411561 -0.693926 -0.935372 -0.636203 -0.284802 0.216564 0.360895 0.298671 0.372696 0.423452 0.374495 0.126801 0.0117993 0.00590515 0.00684211 0.0128903 0.0148085 0.0746687 0.058605 0.0868157 0.241635 -0.0128246 -0.0841013 -0.0227366 0.118336 0.406452 0.136072 -0.120742 -0.46753 -0.832391 -0.970261 -0.551153 -0.161051 0.31468 0.684502 0.780291 0.89713 0.618791 0.211495 -0.10883 -0.0206867 0.00252576 0.00684211 0.00110026 -0.0463994 -0.0786699 -0.0964327 -0.168428 -0.0765707 -0.160388 -0.201487 -0.250605 -0.178053 0.0882566 -0.0416599 -0.341788 -0.773777 -0.901929 -0.59691 -0.0279106 0.303569 0.420336 0.674973 0.555441 0.335403 0.477469 0.256684 -0.20983 -0.0313662 0.00867124 0.00842105 0.00479792 -0.047857 -0.174286 -0.326316 -0.381607 -0.325285 -0.0876691 -0.0246781 -0.0760049 -0.102592 -0.0575751 -0.11256 -0.475126 -0.721732 -0.570809 -0.0703097 0.479841 0.501815 0.54526 0.580853 0.392797 0.0677514 0.185047 0.0550138 -0.323146 -0.0273458 0.0163158 0.000877193 0.00831468 -0.0447448 -0.217239 -0.419183 -0.563754 -0.378389 0.0910708 0.173558 0.0399134 -0.0622025 -0.290739 -0.0888954 -0.110108 -0.224126 0.101815 0.400334 0.487206 0.365031 0.54713 0.62052 0.435954 -0.0615148 -0.202571 -0.122656 -0.230364 -0.0341151 0.00175439 0.00122807 0.0304693 -0.0191386 -0.265259 -0.528677 -0.712139 -0.475058 -0.108526 -0.0180796 0.0643473 0.0447144 -0.45762 -0.0804583 0.0301487 -0.0484366 0.00862932 0.307691 0.347495 0.435432 0.452602 0.422541 0.262821 -0.326663 -0.41538 -0.267262 -0.0849335 -0.0434165 0.00746428 0.0149123 0.0284394 -0.0212741 -0.267986 -0.591258 -0.627816 -0.362062 -0.0692911 0.0480601 -0.0581546 -0.215483 -0.233288 0.0250545 0.0169986 -0.366772 -0.228695 0.0257994 0.295618 0.655041 0.161767 -0.0131216 -0.0480982 -0.537837 -0.39764 -0.210462 -0.121214 -0.0451068 0.00468995 0.00438596 -0.0418945 -0.257292 -0.356207 -0.348413 -0.0985564 0.0183191 0.043343 0.123341 -0.14891 -0.195252 -0.324282 -0.131349 -0.00777031 -0.146122 -0.143854 0.159394 0.243578 0.633499 0.0659668 -0.265515 -0.505699 -0.683347 -0.203578 -0.0134931 -0.0576757 -0.0277787 0.00824561 0.00736842 -0.0544904 -0.329717 -0.320789 -0.0482332 0.103766 0.00224916 -0.116239 -0.227309 -0.183415 0.0635944 -0.165524 -0.196463 0.0956296 -0.0177781 0.0898231 0.426991 0.390818 0.258925 -0.472468 -0.555363 -0.69357 -0.381359 0.115949 0.198855 0.0674984 -0.00709795 0.00508772 0.0170175 -0.0528143 -0.409535 -0.267316 -0.00135201 -0.0709906 -0.177888 -0.42641 -0.667421 -0.234399 -0.0184693 -0.37638 -0.343539 0.168071 0.411966 0.60877 0.264834 -0.207971 -0.600055 -0.642488 -0.329931 -0.430334 -0.23503 -0.00233074 -0.0824588 -0.0590333 -0.0409686 0.0124808 0.0138596 -0.0226208 -0.30803 -0.275804 -0.229774 -0.212059 -0.28091 -0.461387 -0.710989 -0.161252 0.149275 -0.169175 -0.146627 0.257025 0.178773 0.248641 -0.307435 -0.806198 -1.07647 -0.833554 -0.312055 -0.262834 -0.133124 -0.0970066 -0.130337 -0.131409 -0.0432619 0.0129825 0.0156384 -0.00886345 0.0389103 0.193561 0.0153281 -0.182572 -0.357901 -0.427002 -0.403765 0.106481 0.629495 0.481359 0.447771 0.0287329 -0.0541823 0.143129 -0.515316 -1.00159 -1.1733 -0.562128 0.107696 0.0498352 0.0320727 -0.0145096 -0.153643 -0.104408 -0.0174074 0.00503748 0.00379286 -0.0263334 -0.00709054 0.112163 0.0438648 -0.275081 -0.51756 -0.394003 -0.197788 0.426426 0.99844 0.865818 0.403937 -0.250435 -0.431431 -0.458959 -0.574681 -0.625163 -0.607027 0.00997459 0.338617 0.143486 0.107001 0.0225156 -0.071051 -0.0812886 -0.0131901 0.0105495 0.00304403 -0.0504621 -0.0883935 0.0797074 -0.301047 -0.780043 -0.881474 -0.606173 -0.298552 0.247483 0.902019 0.869341 0.416489 -0.146117 -0.711989 -0.769109 -0.585708 -0.278432 -0.0577321 0.250892 0.277476 0.109476 0.121926 0.183883 0.135401 -0.0431456 -0.0103641 0.00788678 0.00214141 -0.0558039 0.0192024 0.00443555 -0.283797 -0.336252 -0.455871 -0.465631 -0.0522714 0.361963 0.65668 0.555641 0.534072 0.0871303 -0.609121 -0.753023 -0.551781 -0.203089 0.0590746 0.0697977 0.113977 0.370802 0.451444 0.421112 0.280193 0.0687145 -0.018977 0.00049012 0.0119472 -0.0337651 -0.0501887 -0.194686 -0.484017 -0.48495 -0.437209 -0.291919 0.102644 0.486562 0.588035 0.798259 0.694812 0.219645 -0.553982 -0.986412 -0.647748 -0.160923 0.104834 0.0625238 0.23759 0.685284 0.583517 0.497224 0.388578 0.0457716 -0.0164002 0.00508772 0.00280702 -0.0446603 -0.367397 -0.350748 -0.496124 -0.521132 -0.582029 -0.57009 -0.331639 0.322297 0.586965 0.823744 0.742692 0.218438 -0.849729 -1.18488 -0.921515 -0.531111 -0.102384 -0.0305272 0.0240644 0.356266 0.330194 0.2322 0.262092 0.0085541 -0.0136152 0.00508772 0.0114035 -0.0361383 -0.303963 -0.623519 -0.736748 -0.798698 -1.04844 -0.65183 -0.140616 0.221014 0.420353 0.744062 0.833172 0.0102032 -0.874286 -0.88266 -0.512146 -0.143516 -0.032983 0.0430139 0.010316 0.0826298 0.244124 0.225435 0.308318 -0.0367821 -0.00361721 0.0154386 0.0159795 -0.0298258 -0.280763 -0.569254 -0.441758 -0.49657 -0.590281 -0.379633 -0.167833 0.00370766 0.320821 0.366512 0.483823 -0.035073 -0.74841 -0.791096 -0.319336 -0.183081 -0.175331 0.0307567 0.163024 0.0917449 0.198228 0.205297 0.253925 -0.0562566 0.00306847 0.00947368 0.0102502 -0.0352962 -0.188925 -0.341133 -0.40943 -0.459175 -0.475368 -0.534755 -0.26417 -0.135114 0.265123 0.27134 0.348408 -0.112591 -0.505471 -0.645475 -0.630201 -0.646235 -0.452242 -0.122975 0.0832241 -0.114928 0.0857506 0.0775008 0.112082 -0.0634432 0.00186701 0.00526316 0.00731952 -0.00879762 -0.0787783 -0.219788 -0.279257 -0.340838 -0.414859 -0.354593 -0.401663 -0.236387 0.24127 0.656756 0.585189 0.038075 -0.158404 -0.513927 -0.767992 -0.733023 -0.439507 -0.14658 -0.120109 -0.114067 0.0837241 0.214271 0.150711 -0.0357353 0.002119 0.00719298 0.00385032 0.00148049 -0.151591 -0.16381 -0.19932 -0.480413 -0.460994 -0.309366 -0.260408 -0.153828 0.197309 0.539154 0.295139 -0.159107 -0.429185 -0.668514 -0.780852 -0.384703 -0.149928 -0.0330639 -0.11597 -0.109419 0.0436388 0.207053 0.158183 0.0309101 0.0175976 0.00649123 0.0139698 0.0056827 -0.0229136 -0.177291 -0.298439 -0.343666 -0.399098 -0.397611 -0.436356 -0.148582 0.214653 0.0596294 -0.155494 -0.262335 -0.320678 -0.356238 -0.340705 -0.158457 0.0253481 0.0542323 -0.0293588 0.0175662 0.0717718 0.104179 0.0671321 0.041699 0.0109317 0.00192982 0.00175111 0.00601828 0.0124029 -0.0341389 -0.0637957 -0.125625 -0.043405 -0.138122 -0.186059 -0.0892414 -0.00910143 -0.0133146 -0.00971833 -0.00941532 -0.0300198 -0.00587816 -0.0179667 -0.00526028 -0.00917088 -0.0100134 0.00218043 0.0108065 0.00923156 0.0141959 0.00796962 0.00745461 0.0167334 0.0105263 0.00561404 0.00947368 0.0129825 0.00619744 0.00318212 0.00640108 0.0064914 -0.022677 -0.00441849 -0.0115727 0.0134049 0.00982456 0.0146996 0.0142003 0.0119139 0.0128745 0.000414707 0.0149247 0.00298246 0.0115789 0.00561404 0.000330685 0.00418949 0.0131579 0.017193 0.00684211 0.00859649 0.00473684 0.0138596 0.0138596 0.0173684 0.000690678 0.00954346 0.005114 0.00542567 0.0188532 0.00672583 0.002569 0.0136275 0.0118773 0.00843283 0.00355369 0.000251652 -0.00382923 -0.0034421 -0.0195694 -0.0201411 0.0104438 0.0121686 0.00510359 0.00283051 0.00351241 0.0112299 0.00280702 0.00561404 0.00578947 0.0152632 0.0156935 0.00707783 0.00279877 0.00493515 -0.0296726 -0.0465916 -0.0728398 -0.141617 -0.0853964 -0.0548778 -0.0334991 -0.0512779 -0.0479474 -0.046163 -0.0489221 -0.0508117 -0.0187491 -0.0618515 -0.042934 -0.0521691 -0.0569959 -0.0233174 -0.0242697 -0.0174584 0.00818292 0.0117889 0.000685269 0.0147368 0.00747692 -0.0367316 -0.147391 -0.195463 -0.370382 -0.299602 -0.226111 -0.343545 -0.442715 -0.512775 -0.47618 -0.398442 -0.432555 -0.30708 -0.277805 -0.27283 -0.267605 -0.0634212 -0.0567983 -0.130665 -0.166677 -0.0595894 -0.0327573 -0.0831678 -0.0910036 -0.0104533 0.00702079 0.0163158 0.0077439 -0.022968 -0.125417 -0.242701 -0.375534 -0.410171 -0.354851 -0.481616 -0.674164 -0.903558 -0.866607 -0.729107 -0.700873 -0.47729 -0.382847 -0.426371 -0.195973 0.253601 0.314597 0.138505 0.129249 0.128003 0.110834 0.000494169 -0.0715802 -0.0227966 0.0084863 0.0142105 0.0155069 -0.00196268 0.0217915 0.0365729 -0.117012 -0.3845 -0.593072 -0.73342 -0.740478 -0.720542 -0.725557 -0.547084 -0.474286 -0.145182 -0.128505 -0.0610564 0.221891 0.468102 0.488329 0.283074 0.104484 0.0985888 0.124455 0.0801807 -0.153386 -0.0404486 0.00558503 0.00315789 -0.00552407 -0.141921 -0.0242585 0.0755825 0.0856699 -0.238169 -0.467735 -0.384653 -0.232184 -0.324613 -0.402487 -0.240855 -0.445588 -0.321334 -0.126954 -0.00935724 0.145804 0.135331 0.0553114 -0.112368 -0.242328 0.0276261 0.192731 0.229374 -0.00450946 -0.0169994 0.0140731 0.00122807 0.000761816 -0.10472 -0.140431 -0.0559394 -0.0384925 -0.195222 -0.20224 -0.139645 -0.126322 -0.165315 -0.232243 -0.239702 -0.580065 -0.318193 -0.183703 -0.0820057 -0.121662 -0.157692 -0.246356 -0.162739 -0.129218 0.276395 0.402908 0.253053 0.0470656 -0.00545424 0.0149123 0.00982456 -0.00623005 -0.0373195 -0.0117247 -0.0323713 -0.093286 -0.182044 -0.113298 0.0161858 -0.0195379 -0.035427 -0.0469373 -0.166974 -0.32295 -0.178629 -0.120376 -0.108249 -0.222728 -0.299568 -0.047204 -0.0628524 0.0131039 0.123752 0.206001 0.112594 0.0325154 0.0277317 0.00964912 0.0147368 -0.0177689 -0.0194253 0.0673717 0.0432116 0.310266 0.15315 0.0379258 -0.0813598 -0.0623672 0.0231308 0.0975785 0.0896737 -0.0236085 0.139669 0.0805364 -0.109578 -0.12468 0.00458309 0.0449668 -0.00740203 -0.108039 -0.434234 -0.342823 -0.115893 -0.0115728 0.0234702 0.0155095 0.00789474 -0.0121912 -0.0623236 -0.0603412 0.0806921 0.336612 0.0794771 0.0687218 -0.13481 -0.0327519 0.0058157 -0.0515276 0.0938 0.0202681 -0.0442869 0.00113825 -0.263362 -0.24806 0.0167036 0.0193411 -0.193933 -0.437486 -0.491385 -0.340011 -0.225434 -0.0675492 0.0135528 0.0106255 0.0126316 -0.0153658 -0.137016 -0.131198 0.0629662 0.0942911 -0.222253 0.00954838 0.0275299 0.0105744 0.057015 -0.00294551 -0.0908609 -0.026668 -0.19456 -0.388598 -0.64466 -0.388069 0.0784688 0.0527192 -0.259005 -0.344619 -0.191371 -0.227697 -0.193625 0.0251184 0.00479149 0.00491228 0.0105263 -0.00850696 -0.259029 -0.179684 -0.121683 -0.214732 -0.0974464 0.308869 0.192163 0.250657 0.199389 -0.0773664 -0.34652 -0.395244 -0.346161 -0.439196 -0.464752 -0.112908 0.280152 0.0907408 -0.0142233 -0.2023 -0.278425 -0.344893 -0.181135 0.0745148 0.016012 0.00122807 0.00614035 -0.00511585 -0.0651643 0.0161194 -0.130218 -0.187402 -0.0265498 0.245461 0.218901 0.104854 -0.0809784 -0.244975 -0.548539 -0.534604 -0.33502 -0.19787 0.0699706 0.420916 0.187431 -0.12132 -0.0364591 -0.280246 -0.194386 -0.114098 -0.172263 -0.118309 0.0164369 0.0133271 0.000701754 0.0111861 0.0187269 0.0942879 0.138032 0.00303581 0.0341739 0.300984 0.351688 0.147315 -0.115666 -0.223799 -0.529764 -0.609913 -0.402117 -0.0510249 0.540269 0.355544 0.125871 -0.0196093 0.0493219 -0.234561 -0.00323961 0.0400166 -0.20976 -0.108237 0.0138972 0.000350877 0.00500434 -0.0335352 -0.240993 -0.385542 -0.159374 -0.161313 -0.0795659 0.233719 0.388176 0.238395 -0.251284 -0.670089 -0.882302 -0.862463 -0.470065 0.137579 0.312379 0.0644562 0.194819 0.158298 -0.0513869 -0.0667572 0.124348 -0.194832 -0.304404 -0.076125 0.0343143 -0.000253376 0.0116528 -0.0382791 -0.349047 -0.589313 -0.48696 -0.580159 -0.569236 -0.15427 -0.127166 -0.257216 -0.579611 -0.91061 -1.01077 -0.880655 -0.231164 0.114858 0.125617 0.0560607 0.266371 0.0766319 -0.0445195 0.062314 -0.0322822 -0.301415 -0.279631 -0.089808 0.0310244 0.0058855 0.00994073 -0.0603727 -0.34763 -0.569952 -0.742351 -0.926044 -0.892452 -0.65857 -0.766373 -0.871004 -0.959505 -1.00045 -0.826076 -0.505561 -0.101381 -0.100654 0.121395 0.0954495 0.235181 0.210035 0.0565181 0.139814 0.0479517 -0.16353 -0.237641 -0.135232 0.0129893 0.0120705 0.014919 -0.0471106 -0.392888 -0.642785 -0.794193 -0.982322 -1.02847 -0.882464 -0.946702 -1.10988 -1.08737 -0.829883 -0.577045 -0.151695 -0.0242282 0.221008 0.421498 0.44614 0.202631 0.278539 0.182623 0.0735698 0.021128 -0.0916333 -0.175681 -0.179979 0.00938964 0.00757175 0.0114965 -0.0353513 -0.456937 -0.772389 -0.743051 -0.73262 -0.902765 -0.855095 -0.844718 -0.871952 -0.79702 -0.469503 -0.185363 0.0539753 -0.0261113 0.199209 0.340706 0.282675 0.0782005 0.339057 0.399728 0.247202 0.217253 0.0857969 0.0978901 0.0146587 0.0137037 0.00701754 0.0133333 -0.0300738 -0.425591 -0.773238 -0.590946 -0.473615 -0.657847 -0.70977 -0.716577 -0.508193 -0.0633258 0.370993 0.460729 0.533746 0.621845 0.517518 0.205399 0.246247 0.167228 0.164892 0.314528 0.353918 0.152134 0.0732834 -0.0492966 0.0144679 0.0171891 0.00736842 0.00333333 -0.0188766 -0.401138 -0.512498 -0.312843 -0.349828 -0.626683 -0.519166 -0.226477 0.230191 0.524039 0.832085 0.794366 0.677058 0.842712 0.522256 0.211104 0.146148 0.225132 0.31282 0.361565 0.345642 0.122829 0.033887 -0.058999 -0.0496195 0.0141344 0.0152632 0.0121127 -0.008973 -0.258986 -0.193248 0.150777 -0.0249829 -0.341957 -0.225376 0.274049 0.702276 0.773696 0.859891 0.793044 0.54011 0.52461 0.399826 0.266467 0.150726 0.250104 0.307331 0.31369 0.0557372 -0.0803075 -0.14769 -0.110202 -0.0802842 -0.00386548 0.0133333 0.0138977 -0.0330911 -0.16125 -0.0156644 0.19464 0.312748 0.0828269 0.331033 0.594846 0.66067 0.578993 0.431882 0.349803 0.403131 0.269225 0.149145 -0.0712518 0.0790237 0.331032 0.463292 0.493816 0.149443 -0.174995 -0.103484 -0.0186065 -0.0773942 0.00809052 0.000877193 0.00553262 -0.0156724 -0.127965 0.0347573 0.412688 0.613542 0.582984 0.535972 0.51557 0.581612 0.634633 0.657778 0.574327 0.389869 0.125374 -0.0487558 -0.207915 0.0582753 0.169475 0.311392 0.293352 0.0961833 -0.15964 -0.0481866 0.00499267 -0.0620673 -0.0132731 0.00929825 0.000808597 0.00235411 -0.0644863 0.116 0.320436 0.646095 0.703389 0.57258 0.425248 0.499284 0.418992 0.217794 -0.0211822 -0.229725 -0.265986 -0.135753 -0.0899195 -0.0773063 -0.0959834 0.00776309 0.18425 0.0331496 -0.0959119 -0.0222641 -0.0480592 -0.0660662 -0.00428266 0.0145614 0.00123967 0.0431123 -0.032649 0.027901 0.0900333 0.184766 0.200698 0.0709923 0.035293 0.156605 0.0733705 -0.107225 -0.22622 -0.220691 -0.215536 -0.230093 -0.228175 -0.375471 -0.277109 -0.0871514 0.0827102 0.0195292 -0.0626719 -0.0508923 -0.0767442 -0.0669885 0.00313902 0.0154386 0.00998351 0.0233832 0.0143288 -0.0211666 -0.0319192 -0.0540717 -0.0410255 -0.0499029 -0.0620008 -0.0983775 -0.0477761 -0.00917983 0.00443628 -0.0121217 -0.00793788 -0.0217843 -0.00316198 -0.0199473 -0.0209762 -0.010533 0.012537 0.00876029 0.00220884 -0.0142035 -0.000772359 0.00166956 0.00120212 0.00192982 0.00438596 0.00859649 0.00561404 0.00500053 0.00869439 0.0118369 0.00878136 0.00971166 0.0101869 -0.0092314 0.0073742 0.00157895 0.00419673 0.0080922 0.0121366 0.0129877 0.00013405 0.0140449 0.0161404 0.00157895 0.0121053 0.000437165 0.00595259 0.0115789 0.00280702 0.00877193 0.00421053 0 0.00631579 0.0126316 0.0145614 0.0136846 0.00171746 0.0106477 0.0163849 0.0142741 0.0186784 0.00710015 0.011892 0.00988783 0.000720858 0.00293536 0.0116665 0.0207265 0.00609888 0.00362398 0.0167759 0.000709768 0.0185151 0.0149416 0.00156832 0.00333269 0.00385933 0.00912281 0.00491228 0.000175439 0.0168421 0.00484793 0.0147224 0.00511672 0.00824302 0.0183825 0.0444308 0.0440679 -0.0239235 -0.0253234 0.113806 0.106789 0.0315457 0.0219922 0.0142194 0.0141593 -0.0246723 -0.0363474 -0.0856218 -0.0924886 -0.110178 -0.0306712 -0.0242985 -0.0786632 -0.0137134 0.00370349 0.0016011 0.00699959 0.00912281 0.0164848 0.0144935 -0.0191787 0.00896307 0.0717829 0.10245 0.0418077 0.0332245 0.155242 0.39255 0.460061 0.323491 0.198733 0.149065 -0.00577597 -0.44172 -0.633201 -0.611415 -0.485729 -0.28831 -0.270842 0.0141696 0.176604 0.0871896 0.0359978 0.0197813 0.00128644 0.00421053 0.00483848 0.0225004 -0.119635 -0.091096 0.151712 0.20716 0.0185542 -0.198894 -0.0224053 0.374715 0.359315 0.0909115 -0.0510076 -0.199036 -0.573935 -1.00901 -1.00207 -0.829785 -0.804564 -0.296506 -0.401309 0.150807 0.253086 0.0694141 0.0845052 0.0387887 0.00288914 0.00140351 0.00865431 0.0166752 -0.0949894 0.158723 0.429659 0.38427 -0.106259 -0.592487 -0.528918 0.00378981 0.122697 -0.164987 -0.222333 -0.607629 -0.906836 -0.760752 -0.339809 -0.30289 -0.370601 -0.379583 -0.0657434 0.201916 -0.199046 0.0618362 0.254346 0.0512093 0.00467893 0.0115789 0.011354 0.121852 0.136137 0.560854 1.04733 0.695542 -0.108296 -0.374422 -0.242579 -0.0379231 -0.0254701 -0.21932 -0.541328 -0.359595 -0.0697528 0.166399 0.229878 -0.159275 -0.409791 -0.490353 -0.300897 -0.147189 -0.257099 -0.342549 0.0187286 0.0599939 0.0178974 0.0138596 0.0345166 0.245487 0.489749 0.808718 1.36484 1.0572 0.397474 0.23458 0.232241 0.368631 -0.0586063 -0.273833 -0.285732 0.231487 0.269751 0.364355 -0.0217227 -0.138443 -0.306678 -0.158375 -0.172212 -0.227101 -0.635059 -0.418449 -0.00957149 -0.0407021 0.0173684 0.00350877 0.0762648 0.486093 0.836448 1.03305 1.10387 0.645068 0.489508 0.487004 0.19295 0.0464465 -0.210342 -0.000319121 0.0609685 -0.21438 -0.2482 -0.213041 -0.269646 0.207101 -0.318883 -0.55809 -0.660167 -0.990524 -0.855386 -0.55537 -0.456718 -0.062041 0.00701754 0.0115789 0.127413 0.713345 1.62381 1.13499 0.82961 0.561935 0.800269 0.748225 0.0170224 -0.64594 -1.12851 -0.374585 -0.487354 -0.0905067 0.0886743 0.37001 0.838946 0.768542 -0.13744 -0.860891 -1.34047 -1.546 -0.862183 -0.532226 -0.143034 -0.0258854 0.0156836 0.0115789 0.0312876 0.800095 1.65491 1.04248 0.521042 0.637959 0.375172 0.09771 -0.195109 -0.70085 -0.847385 -0.289103 -0.269067 -0.457295 -0.133933 -0.167819 0.688282 1.31853 0.417876 -0.191127 -0.479994 -0.787134 -0.967521 -0.710849 -0.46272 -0.0601703 4.46852e-05 0.00912281 0.0373677 0.715779 1.61235 0.760565 0.317419 0.350217 -0.349475 -0.166729 -0.108648 0.0428142 0.144719 0.0368847 -0.185738 -0.305066 -0.24731 -0.199541 0.801793 2.18095 0.754592 0.311532 -0.455551 -1.12 -1.11538 -0.15697 -0.0847764 0.00892035 0.0138596 0.00684211 0.0502836 0.709247 1.24596 0.426854 0.580613 0.411808 -0.0548645 -0.0725868 0.407281 0.823013 0.643279 0.436691 0.694235 0.363757 0.432108 0.119169 1.06914 1.65901 0.462514 -0.256424 -1.27183 -1.68889 -1.24642 -0.12246 0.112659 0.00387076 0.0115789 0.0166667 0.0990793 0.664078 0.887855 0.428437 0.481872 0.422882 0.124868 -0.847955 -0.0258119 0.0766658 -0.182967 -0.00693772 0.664578 0.528774 0.253752 0.110931 0.20453 0.122283 -0.511617 -0.95857 -1.1913 -1.35949 -1.30142 -0.727965 -0.216118 0.0106675 0.00101561 0.00701754 0.119024 0.603906 0.528448 0.429927 0.807951 0.452369 -0.437057 -0.387163 0.577789 0.177929 -0.587844 -0.491391 -0.119279 -0.253359 -0.341031 -0.457219 -0.224747 -0.135921 -0.683315 -1.20135 -1.6644 -1.88602 -2.0759 -1.44657 -0.684734 -0.0383991 0.0154386 0.00286087 0.170151 0.621596 1.1752 1.14671 0.905149 0.449924 0.815027 0.0972534 -0.0266375 -0.816787 -0.762016 -0.517107 -0.426087 -0.712665 -0.893145 -1.07845 -0.314451 -0.785905 -1.15035 -1.32567 -1.71381 -2.24716 -2.36165 -1.51217 -0.778425 -0.0849654 0.0124574 0.00358693 0.130228 0.357962 1.40393 1.36672 1.29581 0.71028 0.807069 -0.00759823 -0.192863 -0.78681 -0.926093 -1.03203 -0.516172 -0.500041 -1.07631 -0.963047 -0.368621 -0.478815 -0.768441 -1.23569 -1.49671 -1.987 -1.96176 -1.42181 -0.869717 -0.0346205 0.00967534 0.00786711 -0.0062259 -0.0431402 0.600782 0.892077 0.861646 0.530113 0.485823 -0.14761 -0.497476 -1.21964 -1.60592 -1.09595 -0.0786458 -0.315475 -0.499863 -0.285482 -0.243877 -0.275752 -0.900363 -1.35449 -1.72041 -1.87617 -1.65103 -1.33434 -0.7823 -0.031483 0.00914295 0.0138423 -0.0842468 0.198684 0.102154 0.0635461 0.609205 0.67462 0.448691 0.424456 -0.0815061 -1.04334 -1.07063 -0.428552 -0.251907 -0.433193 -0.0127425 -0.144169 -0.16475 -0.145418 -1.03855 -1.57728 -1.8687 -2.02137 -1.87606 -1.351 -0.853612 -0.0403438 0.00350336 0.00258054 -0.165053 0.11977 -0.265248 -0.0377956 0.483099 0.445752 0.652331 0.438738 0.0896764 -0.429007 -0.0482726 0.353713 -0.0598409 -0.45162 0.0385018 -0.45994 -0.0369284 -0.202007 -1.19928 -1.65249 -1.88727 -1.77118 -1.55239 -1.31997 -0.908961 -0.0426379 0.00508772 0.0129825 -0.0886405 0.220064 0.636528 0.300957 0.543927 0.695976 1.14835 0.541893 0.137679 -0.318806 0.229669 0.304646 0.0887855 0.0639517 0.0386083 -0.484884 -0.258106 -0.294057 -0.939962 -1.34774 -1.41155 -1.18397 -1.07789 -1.25522 -0.876379 -0.0448996 0.00701754 0.0138596 0.00939666 0.72156 1.21242 0.433184 0.628594 0.198656 0.532031 0.595643 0.48405 -0.0840213 -0.143622 -0.252966 0.0302587 0.133429 0.0790262 -0.64299 -0.656193 -0.880765 -1.29871 -1.40924 -1.3341 -1.31893 -1.38907 -1.29649 -0.698918 -0.0362878 0.0166667 0.0164529 0.0807492 0.78642 0.882539 0.419109 0.50002 0.16078 0.507429 0.75573 0.699565 -0.256075 -0.273424 -0.0314752 0.238466 -0.0636784 -0.283862 -0.988244 -1.13937 -1.33803 -1.66265 -1.53645 -1.53985 -1.61015 -1.4639 -1.03548 -0.48729 -0.0203148 0.00894737 0.013336 0.087483 0.217984 0.758001 0.814429 0.552302 0.406217 0.327492 0.463086 0.521547 -0.449031 -0.322688 -0.190126 0.509987 0.268863 -0.130134 -0.893531 -1.15844 -1.24349 -1.51306 -1.61733 -1.60863 -1.45242 -1.2071 -0.849709 -0.448748 -0.0451999 0.00631579 0.0146522 0.00908732 -0.264445 0.378031 0.856139 0.98358 0.388653 0.25776 0.308232 0.523786 0.0850961 0.210516 0.657701 