0.00438596 0.012807 0.00631579 0.000526315 -0.00069908 0.000150915 0.000553253 0.0116727 0.00620572 0.00922204 0.0104407 0.0168269 0.0172114 0.005261 0.0123678 0.00483741 0.0111439 0.00435971 0.00443935 0.020242 0.0100258 0.0190934 0.00495951 0.0100142 0.00965621 0.00350877 0.0117544 0.0045614 0.000350877 0.00612067 0.00238616 0.00646595 0.0149856 -0.00283281 0.0527395 0.0603231 0.0284127 0.0333672 0.0253175 0.02939 0.0203129 0.0348436 0.0331473 0.00795802 0.040825 0.0513675 0.0351334 0.0170636 0.145938 0.0671532 0.0509766 0.00815158 0.0291685 0.00444422 0.0111748 0.0149139 0.0122807 0.00451576 7.85655e-05 -0.0368051 -0.149802 -0.211701 -0.116094 -0.105199 -0.193836 0.037324 0.109396 0.0508029 -0.0956623 -0.0953336 -0.173184 -0.196072 -0.28424 -0.274635 -0.121276 0.0583369 0.414849 0.426386 0.329126 0.207972 0.241885 0.0148404 -0.0129123 0.010857 0.0119298 0.0105037 -0.100091 -0.117041 -0.162386 -0.355466 -0.357625 -0.312654 -0.122904 0.178341 0.0175739 -0.0746633 -0.250288 -0.367381 -0.487478 -0.446604 -0.512593 -0.464373 -0.33312 -0.0919742 0.399025 0.646255 0.291231 0.383262 0.360908 0.0594142 -0.00898794 0.00583982 0.0168421 0.00134204 -0.109785 -0.0798128 -0.190632 -0.529192 -0.499679 -0.223408 -0.0210812 0.0278137 -0.185791 -0.249928 -0.368306 -0.423251 -0.538519 -0.48261 -0.5269 -0.612531 -0.623097 -0.234936 0.507881 0.81611 0.565137 0.569865 0.441064 -0.0766841 -0.0521393 0.00571275 0.0135088 0.0123577 0.0383803 0.0490407 -0.228056 -0.249406 -0.165669 -0.116001 0.121147 0.0387565 -0.112908 -0.164936 -0.4497 -0.274533 -0.377768 -0.515125 -0.661491 -0.85788 -0.981565 -0.618423 0.414546 1.55286 1.42854 0.899773 0.225649 -0.263189 -0.0254806 0.011237 0.01 0.00595151 0.169056 0.168985 -0.16838 -0.0251221 0.032087 -0.116337 0.158262 0.0195679 -0.200203 -0.351353 -0.644229 -0.617811 -0.61056 -0.747751 -0.965781 -1.09435 -1.06345 -0.744099 0.466521 1.55176 1.51912 0.761206 0.121426 -0.172018 -0.0449396 0.0163158 0.000877193 -0.00681537 0.0588212 0.0670694 -0.0643441 -0.0181387 -0.057301 -0.263781 -0.168068 -0.124249 -0.403985 -0.694943 -0.785398 -0.863159 -0.698529 -0.679657 -0.887965 -1.12826 -1.0815 -0.449188 0.389919 1.44974 1.16039 0.429248 0.109886 -0.29398 -0.0814878 0.0135088 0.000701754 -0.00435205 -0.0688639 -0.0588004 0.0025443 -0.0374201 -0.415255 -0.395712 -0.452238 -0.188377 -0.370202 -1.09868 -1.03936 -0.787718 -0.592464 -0.613709 -0.800439 -0.828549 -0.661532 -0.0332132 0.330394 1.31993 0.796563 0.223367 -0.20252 -0.371078 -0.0986986 -0.0176739 0.0108772 0.00536287 -0.164234 -0.0626819 0.384192 0.373539 -0.133457 -0.0541434 -0.325262 -0.0273993 -0.134619 -0.585654 -0.478589 -0.533837 -0.585471 -0.470226 -0.493026 -0.506534 -0.159085 0.115043 0.645266 1.26407 0.387946 -0.407678 -0.610239 -0.575262 -0.129772 -0.00313538 0.0121053 -0.0156113 -0.1567 -0.0602682 0.225837 0.464166 -0.102011 0.222262 0.320721 0.594368 -0.104817 -0.607426 -0.608026 -0.46514 -0.251234 -0.122222 -0.254556 -0.164941 0.156988 0.597334 0.926847 0.779838 0.186055 -0.0209596 -0.297093 -0.626337 -0.068553 0.0124561 0.0119298 0.0139402 -0.0966784 -0.139437 0.216042 0.378967 -0.322955 -0.154871 -0.108722 -0.0478864 -0.605695 -0.425314 -0.198064 0.0262759 -0.109332 -0.454663 -0.428654 -0.20773 0.23488 0.523243 0.817264 0.799443 0.47423 0.173782 -0.201419 -0.697782 -0.0957513 0.0163158 0.00824561 0.00777001 0.107717 0.101068 0.238213 -0.240526 -0.470836 0.0242802 -0.222456 -0.258419 -0.778059 -0.53644 -0.233213 0.220888 -0.206407 -0.747988 -0.641904 0.0710596 0.396325 0.528774 0.543572 0.532626 0.465928 0.0750702 -0.118533 -0.411053 -0.0799433 0.00877777 0.0154386 -0.0141469 -0.0991133 -0.0382591 -0.0462386 -0.0372728 -0.281173 0.387559 0.242129 -0.150662 -0.723254 -0.710311 -0.293626 -0.207035 -0.585901 -0.303511 -0.0056588 0.417774 0.0691511 -0.0632095 -0.0380093 0.137453 0.552824 0.189405 -0.238903 -0.413223 -0.0808211 0.00105263 0.0015795 -0.047205 -0.130103 -0.0427569 0.0258764 -0.143253 -0.417228 0.223609 0.230477 -0.214243 -0.622737 -0.689315 -0.6506 -0.409645 0.0789731 0.166878 0.322201 0.173474 -0.203649 -0.00105466 -0.0537927 0.0918406 0.545545 0.115162 -0.40497 -0.313153 -0.0509243 0.00930107 -0.00505409 -0.110379 -0.210906 0.0697536 -0.0505163 0.0579174 0.0281148 0.0905525 -0.0182484 -0.156147 -0.31737 -0.682355 -1.09144 -0.679526 -0.104338 -0.0552793 0.224262 -0.205397 -0.613817 -0.290841 -0.17968 0.307952 0.442487 -0.00956327 -0.500427 -0.334667 -0.0405296 0.0112286 -0.0143975 -0.109476 -0.373845 0.080074 -0.245035 -0.496527 -0.536321 -0.147933 -0.0547618 -0.359545 -0.837706 -0.971879 -0.913281 -0.672465 -0.135596 0.0265142 -0.302703 -0.803132 -1.04743 -0.258059 0.342081 0.39876 0.470886 -0.138644 -0.517411 -0.391424 -0.0447475 0.00353809 -0.0147143 -0.13395 -0.121867 0.368698 -0.121475 -0.431909 -0.619839 -0.335703 -0.345611 -0.679872 -0.982198 -0.762095 -0.736803 -0.620279 -0.450936 -0.775203 -0.968856 -0.957516 -0.77767 -0.0868502 0.485264 0.509564 0.330536 -0.316723 -0.477961 -0.358248 -0.0479005 0.0127871 0.0108278 -0.109079 -0.0958823 0.165489 -0.296513 -0.0915061 -0.148166 -0.206632 -0.502841 -0.876142 -0.962725 -0.929505 -0.836623 -0.957334 -0.943182 -0.960932 -0.686769 -0.392738 -0.0319989 0.114342 0.246077 0.4053 0.373206 -0.247436 -0.487929 -0.410272 -0.0405039 0.0022807 0.000701754 -0.0439265 -0.28928 -0.168298 -0.259807 0.202751 0.230677 -0.0214405 -0.504953 -1.05296 -0.958571 -0.69151 -0.719065 -0.859776 -0.786612 -0.746604 -0.423001 -0.310162 0.0628214 0.261615 0.194909 0.315012 0.45888 -0.0913306 -0.31612 -0.256627 -0.0419869 0.0124561 0.0150877 -0.034883 -0.304734 -0.41591 -0.376087 0.18426 0.175256 0.0683681 -0.621615 -1.0006 -0.6577 -0.585527 -0.545135 -0.529908 -0.463241 -0.345864 -0.248118 -0.343988 -0.0327854 0.247305 0.114223 0.167615 0.611013 0.14983 0.0736531 -0.127829 -0.0304699 0.00912281 0.0140368 -0.0368633 -0.239902 -0.200472 -0.294587 -0.00284838 0.132522 0.494686 0.120693 -0.471775 -0.358959 -0.295115 -0.128899 -0.0768608 -0.138634 -0.0698517 -0.0978842 -0.364034 -0.0761244 0.225702 0.201797 0.174397 0.573869 0.147946 0.164307 -0.0635189 -0.01015 0.00719298 0.0105353 -0.0469213 -0.169908 -0.0375209 -0.0494913 0.0592599 0.298218 0.934778 0.550681 0.0334086 -0.112189 -0.0737246 0.0865053 0.120305 0.14844 0.0938092 -0.124303 -0.256819 -0.320888 -0.103554 0.116391 0.499775 0.692293 0.252077 0.220499 -0.00772038 -0.0011998 0.00438596 0.00142781 -0.0270237 -0.246442 -0.113032 -0.121848 0.175755 0.376841 0.854996 0.618959 -0.0522129 -0.24164 -0.0805171 0.0950478 0.105504 0.149355 0.0808745 -0.211774 -0.444865 -0.530277 -0.334958 -0.0547012 0.304047 0.427708 0.199495 0.145124 0.051304 0.00996687 0.00807018 0.011057 0.00171002 -0.227905 -0.180985 0.119946 0.426528 0.211441 0.376539 0.163603 0.117765 0.174017 0.0650204 0.0177211 0.0388651 0.0111521 -0.153605 -0.409901 -0.420626 -0.321667 -0.303764 -0.150046 -0.0615998 0.148476 0.15661 0.123357 0.0316359 0.00761428 0.00298246 0.0168746 -0.020798 -0.206787 -0.233148 -0.0237486 0.381285 0.132184 0.129989 0.0669123 0.156231 0.285523 0.245348 0.0482912 0.0269667 -0.0490884 -0.137671 -0.0741946 -0.00172703 -0.0748037 -0.0854755 -0.09809 -0.0549854 -0.00621068 -0.0778871 -0.0124924 0.00953967 0.0124362 0.000350877 0.00579111 0.00101521 -0.0098337 -0.0441243 0.00168696 0.0869478 0.0627594 0.0305487 0.0110328 0.0154206 -0.00325344 0.0254576 0.000807533 0.000729803 0.000260953 -0.00583509 0.0128633 0.00611927 -0.017249 -0.00353798 -0.0322333 -0.00996721 -0.00368632 -0.0069981 0.0111187 0.00232094 0.00327911 0.0159649 0.0129825 0.00526316 0.0140351 -0.00359689 -0.017891 -0.0144638 0.00439525 0.0212598 0.00113922 0.00518488 0.00789587 0.0150877 0.00423046 0.0160665 0.0148366 0.0148072 0.0132177 0.00070174 0.00280702 0.00666667 0.00105263 0.0156493 0.00736721 0.0136842 0.00315789 0.00403509 0.00105263 0.0142105 0.00929825 0.00929825 0.000701754 0.0133333 0.00128966 0.0123193 0.00374407 -0.0121125 0.000150922 0.0246855 0.0242791 0.00234611 0.00624912 0.0118621 0.00522669 -0.0157415 -0.0102173 -0.0139514 -0.00875111 0.0614849 0.0806139 0.0824361 0.0204909 0.012807 0.0136842 0.0131579 0.015614 0.000877193 0.0112281 0.0133334 0.0127729 0.000380915 -0.0263944 -0.0279259 0.111643 0.0526734 -0.0374918 0.125921 0.0952749 -0.0308369 -0.0452293 -0.00849926 -0.142722 -0.23684 -0.154555 -0.0950292 -0.0846686 0.0127015 -0.0182142 0.0144762 -0.0175216 -0.037463 -0.0116521 0.0132889 0.0156789 0.00298243 0.0149123 0.011956 -0.00842312 -0.0362355 -0.105486 -0.152539 0.132121 -0.049307 -0.579379 -0.587699 -0.394859 -0.385181 -0.462377 -0.535953 -0.667711 -0.602529 -0.39723 0.0714244 0.203064 0.103662 -0.412903 -0.440418 -0.349529 -0.500884 -0.266951 -0.0657249 0.00742873 0.00964407 0.00473684 0.00254764 -0.0140647 -0.0360273 -0.0806844 -0.00446578 0.0401083 -0.692033 -1.02391 -1.00211 -0.598564 -0.801023 -0.915073 -0.852628 -0.835113 -0.613261 -0.424957 0.201001 0.341999 -0.204751 -0.707424 -0.886248 -0.533093 -0.389746 -0.31846 -0.161337 0.00309101 0.0108276 0.0145614 0.0122452 -0.0479071 -0.22428 -0.303522 0.0884655 0.00412214 -0.756915 -1.15996 -1.147 -0.653266 -0.882688 -0.954985 -1.13662 -1.10371 -0.547781 -0.00158485 0.910625 1.26924 0.411562 -0.669525 -0.453553 -0.248136 -0.111553 -0.187646 -0.222824 -0.0138453 0.00345817 0.00824561 0.00672774 -0.153502 -0.447023 -0.575531 -0.056626 -0.107162 -0.887429 -1.51968 -1.27996 -0.705555 -0.835529 -1.0504 -1.41027 -1.29726 -0.665182 0.261859 1.2392 1.48898 0.89572 0.0146636 -0.394962 -0.2569 -0.024587 -0.367412 -0.416492 -0.0473949 0.00913235 0.0157895 -0.00818643 -0.232894 -0.634375 -0.799182 -0.302621 -0.254014 -1.29959 -1.79497 -1.3623 -0.9305 -0.996918 -1.19306 -1.62111 -1.70786 -1.11947 -0.0740926 0.699318 0.952979 0.908966 0.884073 0.0857872 -0.155644 -0.076648 -0.518672 -0.631128 -0.0646715 0.0108772 0.0022807 -0.00588082 -0.234882 -0.763837 -0.900157 -0.673461 -0.634965 -1.6223 -1.61458 -1.21422 -0.874307 -0.893377 -0.93195 -1.72074 -2.34677 -1.74015 -0.563085 0.184752 0.650495 0.970597 0.925444 0.193268 -0.618428 -0.366577 -0.886102 -0.670045 -0.0833185 0.0140351 0.00666667 -0.0122764 -0.256299 -0.814488 -0.875417 -0.917752 -0.782523 -1.32466 -1.41558 -1.20282 -0.76058 -0.578383 -0.714071 -1.67637 -2.17243 -2.1864 -1.67882 -0.582735 0.295716 0.167547 0.491196 0.0307428 -0.557815 -0.21396 -0.971312 -1.10775 -0.199714 -0.00810091 0.0163158 -0.0265293 -0.363696 -0.796429 -0.749558 -0.489118 -0.491423 -0.483956 -0.473426 -0.455998 -0.313361 -0.439411 -1.04235 -1.81732 -2.36397 -2.89742 -2.72353 -1.19288 -0.170749 0.0208519 0.431315 0.404859 -0.229383 0.124837 -1.06822 -1.12348 -0.136571 0.00451786 0.0135088 -0.0452633 -0.555006 -0.86622 -0.555066 -0.2971 -0.244123 0.46496 0.663466 0.873993 1.10083 0.866367 -0.0476968 -1.09077 -1.49929 -2.24987 -2.28008 -1.67075 -0.227153 0.0437517 0.256085 0.448095 0.147825 0.0410454 -1.26706 -1.35291 -0.142613 0.000175439 0.0101754 -0.0518116 -0.693923 -0.809758 -0.693147 -0.130852 -0.262817 -0.149215 0.623096 0.825381 0.765845 0.763259 0.74657 0.243347 -0.0127034 -0.72113 -1.6218 -1.6214 0.291801 0.104735 -0.0406103 -0.144134 0.0778754 0.395736 -1.31276 -1.40788 -0.181426 0.0045614 0.00964912 -0.0221306 -0.485288 -0.93148 -0.388602 0.274483 -0.0364698 0.205292 1.0036 0.750354 0.666014 0.905748 1.25975 1.37366 1.13008 0.223791 -0.58991 -0.919146 0.102155 0.125815 -0.0817642 0.0679519 0.755976 1.03964 -1.11092 -1.24448 -0.147098 0.0168385 0.014386 -0.0534211 -1.03439 -1.41182 -0.507555 0.00923365 -0.236 0.337113 0.318506 0.161941 -0.0927523 0.152258 0.298948 0.402121 0.20398 -0.209987 -0.442311 -0.545888 -0.349476 -0.19948 -0.17179 0.292931 1.00917 0.454489 -2.00054 -1.50375 -0.104981 0.00263158 0.0114042 -0.122798 -1.52215 -1.61951 -0.384037 -0.110857 0.0831794 -0.195105 -0.269774 -0.416585 -0.39914 -0.222099 -0.113578 -0.0869322 -0.509965 -0.874383 -0.388048 -0.265159 -0.228805 -0.246214 0.143219 0.250437 0.396284 -0.731487 -2.66544 -2.03794 -0.127805 0.0161439 -0.000877 -0.12707 -0.886753 -0.898155 -0.0790522 0.764416 0.859666 -0.078034 -0.68633 -0.865487 -0.504918 -0.0427265 0.240879 0.00619082 -0.0221341 -0.401488 -0.157737 0.398517 0.54072 0.43845 0.404203 0.242598 0.124426 -0.283371 -1.88393 -1.5339 -0.0866203 0.0015796 -0.00553452 -0.0934238 -1.05756 -1.47058 -0.505791 0.651476 0.99242 0.594361 0.0788675 0.265114 -0.275984 -0.351065 0.448027 0.424361 0.588044 0.507951 0.409436 0.64558 0.674094 0.341798 0.646215 0.0431125 -0.301098 -0.0913141 -1.1457 -1.1816 -0.085576 0.00356165 0.00493291 -0.153205 -1.17921 -1.428 -0.243613 0.484221 0.359947 0.129739 -0.0691789 -0.0273267 -1.22878 -1.65831 -0.82567 0.19642 0.961718 0.719674 0.719079 0.591869 0.644505 0.800494 1.09128 0.412361 0.163577 -0.0237445 -0.83719 -0.627674 -0.0602025 0.00716773 0.00193235 -0.141757 -1.33203 -1.93146 -0.615361 0.415335 0.196 0.235883 -0.0542602 -0.582756 -1.70031 -1.85084 -0.96737 0.0427714 0.646345 0.519861 0.805383 0.617395 0.610641 0.751783 0.637359 0.370234 0.255166 -0.00912304 -1.06291 -0.618595 -0.0917079 0.0145614 0.00157895 -0.0903508 -1.09188 -1.56691 -0.504248 0.0334765 0.0822683 0.058053 -0.0402574 -0.888618 -2.0377 -2.17135 -1.15099 -0.306787 0.304217 0.318057 0.758298 0.703194 0.355521 0.360388 0.221227 -0.388586 -0.73008 -0.899995 -1.07563 -0.499593 -0.062425 0.00298246 0 -0.0779901 -0.809277 -1.09052 -0.395191 0.00392076 0.709681 0.899581 0.348316 -0.863591 -1.86538 -2.04901 -1.04185 -0.328653 0.529597 0.801942 1.32545 0.869263 0.0500697 0.281039 0.0682504 -0.51866 -0.894713 -0.736005 -0.677232 -0.435171 -0.0323721 0.00245614 0.00298431 -0.0879185 -0.784647 -0.915264 -0.975734 -0.203372 0.717018 0.96568 0.413756 -0.276968 -1.74451 -1.9164 -1.10935 -0.72406 -0.026401 0.536118 1.11863 0.802902 0.449346 0.499058 -0.0749646 -0.550839 -0.624263 -0.758156 -0.558482 -0.266756 0.0010578 0.00596491 0.0149218 -0.0316578 -0.637843 -0.974687 -0.790586 -0.0714821 0.898345 0.796943 0.496195 -0.202825 -1.31343 -1.50458 -1.1353 -0.847222 -0.105032 0.270286 0.801059 0.965146 0.621924 0.381451 -0.0310099 -0.459117 -0.298588 -0.466263 -0.399904 -0.170164 0.00222883 0.015614 0.0142075 -0.00564062 -0.364926 -0.872833 -0.974255 -0.427885 0.42948 0.454432 0.725796 0.303968 -0.668265 -0.898631 -0.932874 -0.753307 -0.391747 -0.011497 0.634538 0.40605 0.0758516 -0.0858652 -0.421929 -0.496253 -0.428751 -0.404825 -0.307751 -0.112144 -0.00167947 0.0103509 0.00753844 -0.017514 -0.365631 -0.902439 -1.35176 -0.847815 -0.460795 -0.30446 0.189631 -0.133196 -0.827078 -1.08464 -1.01703 -0.759686 -0.394328 -0.0958398 0.241403 0.218955 -0.0895851 -0.506016 -0.657382 -0.464108 -0.485672 -0.390654 -0.256845 -0.0261794 0.0130264 0.0119298 0.0147337 -0.0152362 -0.187518 -0.36771 -0.809013 -0.878861 -0.333161 -0.21492 -0.127477 -0.264719 -0.600025 -0.738446 -0.738614 -0.627495 -0.414743 -0.509617 -0.323937 -0.0884994 0.0243559 -0.43661 -0.374147 -0.198897 -0.236016 -0.130861 -0.0836818 0.00899009 0.00167158 0.0170175 0.00263155 0.0114042 -0.02338 -0.0108816 -0.0688456 -0.194913 -0.117546 0.0202284 0.00305072 -0.0317398 -0.0330382 -0.0592665 -0.0597354 -0.0847851 -0.0905654 -0.0701499 -0.0465723 0.00900005 0.0252259 -0.0229243 -0.0280156 -0.00833466 0.0236806 0.0375234 0.0243773 0.0019753 0.00368577 0.000526316 0.0122807 0.0161404 0.0173684 0.0113873 0.00564707 0.0159481 0.0127976 0.108869 0.0103377 0.0119313 0.00789475 0.0107018 0.00403306 0.00998462 0.0105104 0.00927319 0.0166606 0.0173683 0.00912281 0.00578947 0.0136842 0.00010446 0.0163625 0.00631579 0.00385965 0.000350877 0.0152632 0.0157895 0.0149123 0.0147368 0.017193 0.0068421 0.004685 0.00767848 0.0133173 0.0152183 0.00301883 0.0138282 0.0120819 0.0124163 0.0170507 0.0153897 0.00219157 0.00031343 0.00707718 0.00529948 0.00710085 0.00827754 0.00698828 0.0119456 0.00222915 0.00880221 0.00176952 0.00578947 0.015614 0.00192982 0.0103509 0.00666706 0.00379042 0.0284592 0.0281511 -0.0104817 -0.0128844 0.0204097 0.0287096 -0.00177662 -0.00532433 -0.0103425 0.00130242 0.0536005 -0.0180612 -0.0996738 0.0444485 -0.0607941 -0.0101985 0.0165394 0.0813709 0.0135859 0.000754553 0.0314038 0.0430915 0.0443954 0.0132596 0.0136859 0.0101754 0.0164873 0.0411266 0.164525 0.1804 0.0262924 -0.144465 0.0694464 0.127997 0.103593 0.0819995 0.0972577 0.149362 0.164706 0.00319693 -0.197224 -0.238735 -0.286035 -0.129409 0.106659 0.297071 0.14917 0.041924 0.197428 0.207688 0.103101 0.0281684 0.00612749 0.0126316 0.00453524 0.0314653 0.0529069 0.105592 0.0630755 -0.124331 -0.100899 0.113611 0.145477 0.00577001 -0.154385 -0.242163 -0.257565 -0.147307 -0.0457532 -0.0705685 0.0251157 0.063447 0.0847181 0.332019 0.239704 0.300392 0.786534 0.526863 0.092098 -0.00188213 0.00277517 0.00719298 0.00263852 -0.161844 -0.405078 -0.407918 -0.384692 -0.428338 -0.428312 -0.128155 -0.028626 -0.131665 -0.412937 -0.502766 -0.578578 -0.763881 -0.602583 -0.57072 -0.194348 0.523483 0.190313 0.185832 0.586461 0.459147 0.406585 0.205106 -0.0274437 -0.0185354 0.0071931 0.0145614 -0.0361892 -0.332703 -0.563899 -0.504029 -0.281588 -0.290404 -0.173227 -0.0128093 -0.225738 0.0956121 0.0239225 -0.170081 -0.383159 -0.487812 -0.422181 -0.244153 -0.0457287 0.697031 0.82571 0.475324 0.59981 0.217994 -0.183784 -0.229429 -0.176756 -0.00461378 0.0054494 0.0159649 -0.02965 -0.174384 -0.327438 -0.458881 -0.458758 -0.458194 -0.59553 -0.375361 -0.202723 0.161209 0.26664 0.131681 -0.00589106 -0.153584 -0.364604 -0.443376 -0.658119 0.0264528 0.630079 0.26304 0.353401 -0.093215 -0.428168 -0.249726 -0.33048 -0.0859541 0.0150877 0.00912281 -0.040441 0.0137763 -0.225245 -0.455643 -0.528896 -0.551749 -0.55152 -0.335586 -0.468329 -0.483655 -0.420964 -0.281486 0.0612321 -0.103361 -0.330234 -0.768364 -0.698301 0.00581341 0.644016 0.642181 0.480514 0.456235 -0.290372 -0.378521 -0.217674 -0.0247017 0.0115789 0.01 -0.0248613 0.167108 -0.0508059 -0.191211 -0.288538 -0.358273 -0.263037 -0.151887 -0.514545 -0.835121 -0.872843 -0.197126 -0.181908 -0.766247 -0.396894 -0.272979 0.0936347 0.763009 1.25818 0.689272 -0.0578098 -0.192738 -0.0148331 0.365196 -0.10518 -0.062416 0.00983814 0.0142105 -0.0158981 0.145331 -0.0181989 -0.00453107 -0.339374 -0.625904 -0.665939 -0.603926 -0.798768 -0.746421 -0.160711 0.376378 0.26643 -0.207665 -0.319236 -0.336475 0.267261 1.08219 1.8914 1.11511 0.0498049 -0.179865 0.446439 0.554956 -0.202328 -0.0542168 0.0122228 0.00842105 0.0193301 -0.0192695 -0.265145 -0.634827 -0.763812 -0.992047 -0.719888 -0.36556 -0.447 -0.409672 -0.451736 -0.35582 -0.419359 -0.216612 -0.202835 -0.643144 0.174244 1.13053 0.56267 0.0214224 0.135054 0.193674 0.648502 0.333942 -0.241244 -0.0258801 0.0154386 0.0045614 0.0596808 0.0747311 -0.0873736 -0.355079 -0.53254 -0.579504 -0.468751 -0.401387 -0.367676 -0.794973 -0.986803 -0.870165 -0.811507 -0.0485683 -0.0919733 0.202369 0.789787 0.702078 -0.0368431 0.0625524 -0.0100741 -0.120677 0.182448 0.508883 0.0365246 -0.0457351 0.00701754 0.0121053 -0.00431398 0.234634 0.370497 0.21777 -0.283762 -0.0481974 0.0733301 -0.367448 -0.86551 -1.20371 -1.48134 -1.42123 -1.02567 -0.328397 -0.0932831 0.768811 1.0438 0.312323 0.470633 0.492591 -0.286197 -0.303292 0.480736 0.869596 0.414861 0.0107432 0.0143962 0.00877193 -0.0118964 0.143663 0.252209 0.218199 -0.114044 0.157024 0.385596 -0.229789 -0.700222 -0.980278 -0.978654 -1.28683 -1.14773 -0.850842 -0.435264 0.312768 0.973402 0.161044 1.28263 1.00311 0.27904 0.0297396 0.451592 0.758968 -0.0596392 -0.081625 0.0121053 0.0142113 -0.0920728 -0.177063 -0.0631642 0.154517 -0.0155294 0.0726731 -0.117473 -0.485213 -0.92674 -0.911226 -1.0751 -1.48332 -1.83433 -1.85157 -1.5786 -0.732977 0.339703 0.541583 1.20869 0.951372 0.101045 0.141025 0.578485 0.636984 -0.0351497 -0.105415 0.00649516 0.00644815 -0.0310385 0.0137358 0.261726 0.129065 0.173259 -0.0990987 -0.270147 -0.76326 -0.56827 -0.962475 -1.25209 -1.64826 -1.98024 -1.9928 -1.62684 -1.32291 0.198821 0.723485 1.44354 1.16061 0.310843 0.103715 0.237165 0.54733 0.331789 -0.00934381 0.00964985 0.00843263 0.00533349 0.0623162 0.190452 0.28589 0.400133 -0.241135 -0.68201 -0.488166 -0.146792 -0.589471 -0.897144 -1.20616 -1.24557 -1.54365 -1.4909 -1.61417 -0.740473 0.402259 1.36322 1.00943 0.553236 0.0382923 -0.147303 -0.247939 -0.0223477 0.0686536 0.0166111 -0.00375048 -0.0190935 -0.435923 -0.719773 -0.162767 0.435572 -0.0100493 -0.427201 0.445837 0.22803 -0.0614463 -0.386971 -0.649718 -1.19501 -1.44277 -1.4513 -1.31846 -0.781071 -0.171108 0.267772 -0.101057 -0.0798338 0.284251 0.205201 -0.360742 -0.258829 0.0888412 0.00797815 0.00485651 0.0143485 -0.126063 -0.521017 -0.430565 0.488088 0.27711 0.289105 0.702382 0.366947 0.395357 0.0903889 -0.561708 -1.12085 -1.14736 -1.18861 -1.45293 -1.43255 -1.12959 -0.316492 -0.60229 -0.570063 0.325911 0.250479 -0.460863 -0.351282 0.0569427 0.00140351 0.00350877 -0.00936875 -0.00842983 -0.238221 -0.355851 0.298193 -0.268003 -0.255054 -0.0820428 0.288258 0.466171 0.145331 -0.39431 -0.625597 -0.789896 -1.0695 -1.29067 -1.21586 -0.720488 -0.233796 -0.79876 -1.20761 0.0895767 0.274395 -0.0774904 0.0263317 0.0329464 0.00736842 0.0145614 0.0345553 0.182449 0.0566889 0.0646157 -0.154873 -0.473533 -0.160202 0.0576228 0.32278 0.472307 0.164413 -0.333667 -0.602872 -0.718557 -0.760335 -0.902484 -0.746371 -0.293714 -0.225222 -0.475687 -0.865216 -0.00583304 0.0854151 -0.171888 0.118818 0.0495292 0.00315789 0.00684421 0.123278 0.893003 0.465363 -0.123603 -0.417187 -0.494327 0.247162 0.643726 0.670081 0.280726 -0.150108 -0.579294 -0.856932 -0.67349 -0.683667 -0.664423 -0.574773 0.0576718 -0.00533094 -0.443038 -0.439551 0.151928 0.0956741 -0.225647 -0.168842 0.0256994 0.00140351 0.00615115 0.0369737 0.939972 0.0913293 -0.361719 -0.623899 -0.325455 0.141637 0.505148 0.749802 0.280842 -0.21084 -0.57145 -0.66561 -0.57391 -0.607028 -0.703258 -0.325672 0.280381 0.261667 -0.101568 0.031007 0.191277 0.000618547 -0.142754 -0.27154 0.0038285 0.015614 0.0163445 0.0626905 0.346191 -0.0740848 -0.107699 -0.123847 -0.326524 -0.322517 0.038487 0.265251 0.0401324 -0.127306 -0.290658 -0.446941 -0.401426 -0.570359 -0.652075 -0.344833 0.106968 0.137333 0.220809 0.303477 0.156553 0.0858116 0.0152359 -0.214838 -0.0158788 0.00473684 0.00457364 -0.00735758 0.121868 0.247193 0.241442 0.122306 -0.242422 -0.126643 0.142034 0.0467713 0.00163661 -0.0210206 -0.0926466 -0.234858 -0.294107 -0.354935 -0.216418 0.0219094 0.174281 -0.0601747 -0.0186551 -0.0493037 0.148852 0.244495 0.21534 -0.0252797 0.00462293 0.0045614 0.0119669 -0.0363559 0.0647391 0.164754 0.0908503 0.0996771 0.0272242 -0.0069164 0.0455076 -0.0208913 -0.203523 -0.151332 -0.0883613 -0.0770206 0.00574493 -0.00508329 0.0180515 0.0513548 0.138938 0.0310569 -0.100142 -0.0904832 0.0864277 0.201077 0.104878 0.00598432 0.0184112 0.00315789 0.00386132 0.0118169 0.00607485 0.0578572 0.0539656 0.0870122 0.084723 0.0864419 0.0272979 0.0143833 -0.0255224 -0.0686575 -0.0704837 -0.0209401 0.00162676 0.0284635 -0.00503735 -0.00645378 0.0282201 0.0264028 0.00144721 -0.00143043 0.00355366 0.0309476 0.00812018 0.00114431 0.0162306 0.00929825 0.00333333 0.0112281 0.00824561 0.00989117 0.00522028 0.00273308 0.00147788 0.00201854 0.0127433 0.00176266 0.0154409 0.0135088 0.00600311 0.0094515 0.0064671 0.00941853 0.0101146 0.0171913 0.00596491 0.0173684 0.0054386 0.0087155 0.00456511 0.00368421 0.00210526 0.012807 0.00789474 0.00192982 0.012807 0.00824561 0.01 0.00526316 0.00650462 0.00610888 0.0136966 -0.00278563 0.00984346 0.00745536 0.00539374 0.00716735 0.00421325 0.00858954 0.0102994 0.00861397 0.00926423 0.0121999 0.0151131 0.00503745 0.004338 0.00628676 0.0124605 0.00807018 0.00736842 0.00789474 0.0163158 0.0140351 0.00508772 0.00105265 0.0116054 0.0198999 0.00162685 0.00460479 0.00484808 -0.0404324 -0.0231585 0.00445987 -0.00233355 -0.0134348 -0.0142636 -0.070265 -0.103328 -0.0429089 -0.0618176 -0.0764321 -0.164669 -0.127408 -0.0671713 -0.0376146 -0.0140641 -0.00818122 0.00493207 -0.00685021 0.0133575 0.0140351 0.00842105 0.0113458 0.00883138 -0.116387 -0.155976 -0.16306 -0.238539 -0.327263 -0.522863 -0.406456 -0.301158 -0.174435 -0.272797 -0.338427 -0.331682 -0.139477 0.235905 0.118099 -0.342805 -0.799733 -0.725583 -0.537024 -0.216336 -0.0113691 -0.0481572 -0.0789776 -0.00905939 0.00578948 0.0114035 0.00221255 -0.102379 -0.36444 -0.335001 -0.485311 -0.604879 -0.57406 -0.40153 -0.28133 -0.209079 -0.0124038 0.0919501 0.475904 0.821971 0.895741 1.21051 1.01366 0.694596 0.299102 -0.266216 -0.246107 -0.416043 -0.145046 -0.104199 -0.0565143 0.00344975 0.00108157 0.00210526 0.0108106 -0.197598 -0.426996 -0.493045 -0.584055 -0.725051 -0.599477 0.0979707 0.154712 -0.168427 -0.0115988 0.176984 0.929363 1.0273 0.717345 0.710645 0.692844 0.836138 0.99723 0.893145 0.596075 -0.25555 -0.228681 -0.370245 -0.0730662 0.000421101 0.00471107 0.00807018 -0.00328989 -0.214438 -0.619166 -0.588602 -0.492438 -0.520533 -0.238274 0.253103 -0.146279 -0.564458 -0.644068 0.00243691 0.435647 0.660467 0.685095 0.442479 0.200003 0.00631609 -0.0881857 0.640829 0.798472 0.163112 -0.017276 -0.141112 -0.0254985 0.0211117 0.0121168 0.0135088 -2.27953e-05 -0.188237 -0.654328 -0.793778 -0.283429 -0.112556 0.25589 0.39113 -0.659875 -1.02451 -0.653834 0.0579844 0.445577 0.321547 0.470322 0.609755 0.615138 0.0305687 -0.198264 0.17174 0.541728 0.502942 0.626186 0.121323 0.160802 0.0375157 0.00701754 0.0103509 -0.00646954 -0.029916 -0.398995 -0.491731 0.11086 0.263678 0.270734 -0.455306 -1.17286 -0.86479 -0.295478 0.170831 0.194973 -0.188079 -0.0324068 0.428495 0.689894 0.313032 -0.0315086 -0.264076 0.309779 0.767172 0.913299 0.139935 0.0953351 0.00664491 0.00719298 0.00736842 0.0109413 0.153693 -0.0599646 -0.0519682 -0.0880137 -0.172106 0.191771 -0.0339807 -0.530572 0.43546 0.638374 0.474912 -0.471687 -1.10984 -0.421481 0.227075 0.332759 -0.0817098 -0.0273204 -0.340806 -0.224108 0.300464 0.364042 -0.20395 -0.237916 -0.00237836 0.00210528 0.0107018 0.00429003 -0.0893967 -0.261904 -0.0946837 -0.194045 -0.346215 0.133077 0.161566 -0.0438611 0.623533 0.109502 -0.661932 -1.50578 -2.02241 -1.36163 -0.25005 0.388712 0.144745 -0.0705263 -0.143388 -0.579391 -0.28301 -0.0969708 -0.349663 -0.27533 -0.00537596 0.0142117 0.0054386 -0.0361627 -0.390111 -0.797024 -0.612698 -0.275939 -0.0394686 0.0548764 -0.0233438 0.296502 -0.109724 -0.644646 -1.42208 -2.27938 -2.33645 -1.60139 0.0944573 0.58835 -0.00513466 -0.214024 0.0608575 -0.683873 -0.0220673 -0.0264723 -0.398174 -0.309433 -0.0213415 0.00859649 0.0166667 -0.0179396 -0.573383 -1.16928 -0.778248 -0.200002 -0.354843 -0.380761 -0.17086 0.6002 0.460884 0.0612861 -0.757482 -1.55779 -1.3726 -1.27663 -0.120688 0.372227 -0.313063 -0.327716 -0.251815 -0.669224 -0.18435 -0.289564 -0.530116 -0.393822 -0.0291332 0.0154386 0.0147368 0.00510102 -0.419436 -0.955878 -0.484368 -0.387476 -0.431601 -0.289008 -0.297149 0.658958 1.22869 0.832381 0.29418 -0.787633 -0.496888 -0.516153 0.322676 0.852917 -0.4658 -0.802838 -0.882368 -1.08341 -0.549831 -0.58475 -0.765874 -0.457023 -0.0454676 0.00579036 0.0126316 -0.00501132 -0.403994 -0.715223 -0.420442 -0.0762187 -0.040319 -0.273496 -0.478186 0.849657 1.42149 1.06967 0.516274 -0.0858401 0.344749 0.0402021 0.735574 0.77819 -0.338537 -0.568107 -0.55371 -0.909584 -0.683972 -0.825913 -1.08455 -0.592234 -0.0405958 0.0140351 0.0142113 -0.0184875 -0.502249 -0.611769 -0.414345 -0.210881 0.200474 -0.0246067 0.0561324 0.606973 0.834988 0.492563 0.367368 0.162231 0.291959 -0.301424 0.488687 0.96866 0.0431996 -0.536204 -0.713878 -0.68148 -0.751737 -1.14536 -1.24969 -0.674993 -0.0252378 0.017197 0.0173729 -0.0345086 -0.606007 -0.994132 -0.829621 -0.861239 -0.535714 -0.415947 0.16759 0.435823 0.489063 0.0380467 0.0577254 0.295203 0.540112 0.281703 0.254314 0.691901 0.276008 -0.0524464 -0.316031 -0.112325 -0.898023 -1.67497 -1.54582 -0.771011 -0.0406276 0.00859723 0.0157898 0.0025379 -0.444479 -1.09207 -1.16633 -0.82336 -0.553667 -0.382491 -0.137391 -0.184558 -0.209019 -0.298626 0.406114 1.38986 1.46332 1.23856 0.214051 0.590477 -0.15503 -0.413012 -0.0546922 0.337006 -0.503534 -1.6601 -1.67158 -0.686254 -0.0327685 0.00964908 0.000473248 0.0105472 -0.395752 -1.14048 -1.16181 -0.690725 -0.093382 0.0567576 -0.208302 -0.260406 0.109249 0.38991 0.281719 1.0577 1.02346 0.606996 0.0446638 0.22399 -0.208546 -0.0933525 0.209966 0.396059 0.0310119 -0.793019 -1.06208 -0.406273 -0.0435598 0.00877165 0.016647 -0.00335781 -0.295596 -0.935815 -0.669044 -0.242931 -0.0627849 -0.276042 -0.522447 -0.794529 -0.657568 -0.745485 -1.01667 -0.353548 -0.0551992 -0.101466 -0.219593 0.0710233 -0.49166 -0.115889 0.37601 0.722898 0.540787 0.163438 -0.200853 -0.261335 -0.0431658 0.0136842 0.0126316 -0.0146553 -0.316618 -0.565139 -0.453095 -0.534446 -0.945731 -1.00179 -0.660793 -0.842879 -0.798012 -0.919321 -1.35411 -1.08246 -1.01655 -0.864814 -0.474596 0.415116 -0.132467 -0.553116 0.260302 0.791446 0.594235 0.473978 0.172619 -0.280213 -0.0346366 0.00631579 0.0142105 -0.0159719 -0.333118 -0.601835 -0.673379 -0.829 -1.42185 -1.32732 -0.768412 -0.706991 -0.574498 -0.783739 -1.09133 -0.991686 -1.00273 -0.945669 -0.439459 0.715203 0.302147 -0.255732 0.272242 0.73791 0.636281 0.702514 0.18902 -0.116054 -0.0180975 0.00982456 0.0114058 0.00633908 -0.131233 -0.674387 -1.0388 -1.20765 -1.40884 -1.22199 -1.07649 -1.15675 -1.10943 -1.22099 -1.23398 -1.16939 -1.07451 -0.859543 -0.363322 0.343773 0.0244521 -0.055811 0.498385 0.42937 0.0878799 0.339114 -0.14538 -0.0310787 0.00928596 0.0138596 0.00895894 0.00495769 -0.203966 -0.679701 -1.01205 -1.0901 -1.24918 -1.15965 -1.30281 -1.26892 -1.20176 -1.47555 -1.75724 -1.72941 -1.6179 -1.08661 -0.533019 -0.237349 -0.0807645 0.314677 0.172034 0.233167 -0.210602 -0.161625 -0.57103 -0.128053 0.0307682 0.0131579 0.00245615 0.00668798 -0.211112 -0.526381 -0.725383 -1.00452 -1.35574 -1.48111 -1.43362 -1.40493 -1.48781 -1.79868 -2.16534 -2.0071 -1.61504 -1.1931 -0.31885 0.144005 0.225 0.302896 -0.349175 -0.169421 -0.367372 -0.376439 -0.95961 -0.48705 0.0254912 0.00789474 0.00157896 -0.00473199 -0.144918 -0.235805 -0.308406 -0.814763 -1.37804 -1.6483 -1.60277 -1.7654 -1.84573 -2.05471 -2.24824 -2.08841 -1.61411 -0.918927 -0.0630219 -0.0347665 -0.366651 -0.463645 -0.697146 -0.963191 -0.798674 -0.233592 -0.573992 -0.31585 0.00506451 0.00245614 0.00491229 -0.00519361 -0.0857225 -0.163464 -0.220641 -0.411293 -0.596661 -0.824463 -0.873105 -0.95168 -0.9772 -1.19537 -1.40413 -1.457 -1.13343 -0.571907 -0.0120341 -0.261969 -0.51687 -0.578687 -0.538773 -0.844446 -0.563814 -0.195361 -0.125997 -0.0594743 0.0107293 0.00526316 0.00491228 0.00587531 0.00312772 0.00336392 -0.0192359 -0.0463754 -0.0413634 -0.0554672 -0.0629617 -0.0485204 -0.164661 -0.162258 -0.0884642 -0.107578 -0.104826 -0.0708323 -0.0223286 0.00494577 -0.00363359 -0.0448068 -0.0746755 -0.0865811 0.00286432 0.0443166 0.0251543 0.018471 0.0103485 0.017193 0.0114035 0.0154386 0.015614 0.00942144 0.0157728 0.00012331 0.0140348 0.00991015 0.0100896 0.00807023 0.0036842 0.0110526 0.0166405 0.0134287 0.00958573 0.0119585 0.0011497 0.00947996 0.00631579 0.0164912 0.0103509 0.00142069 0.00859649 0.00596491 0.0152632 0 0.0131579 0.00649123 0.00947368 0.0114035 0.00754386 0.0117544 0.0125838 0.0050072 -0.00489459 -0.0193639 -0.0102303 0.0164461 0.0022483 0.00543872 0.00357017 0.0140967 0.00781613 0.00466788 0.00230909 0.000662949 0.0149463 0.0017873 0.014008 0.00969587 0.00175625 0.0131579 0.000350878 0.00807018 0.014386 0.0107018 0.00122807 0.00311865 0.0132386 0.00605598 0.00309279 -0.030899 -0.103236 -0.102107 -0.0791329 -0.0634921 -0.0325146 -0.0250792 -0.0633696 -0.0311639 -0.0911657 -0.10069 -0.0449955 -0.00472464 -0.0194835 -0.0170854 -0.0277744 -0.0524046 -0.0564059 -0.0613772 -0.0657615 -0.000362588 -0.00493252 0.00502909 0.0114035 0.00759488 -0.0569523 -0.196528 -0.204281 -0.307223 -0.363603 -0.422694 -0.452023 -0.396116 -0.360382 -0.294979 -0.531291 -0.553885 -0.442501 -0.207579 -0.0585206 0.0936846 0.0636528 -0.100124 -0.113981 -0.347753 -0.757761 -0.864102 -0.525611 -0.114448 0.00530718 0.00131427 0.00561404 0.00631385 -0.105936 -0.24348 0.00488323 0.089998 -0.0462634 -0.223298 -0.340863 -0.305863 -0.364358 -0.33916 -0.485064 -0.780767 -0.207086 -0.0197728 0.0128801 0.137536 0.0141138 -0.287549 -0.605543 -0.479479 -0.942811 -1.36844 -0.986581 -0.252578 -0.00252681 0.00496285 0.0163158 0.0169089 -0.384463 -0.505917 -0.191888 0.0236113 -0.142478 -0.0389252 -0.0320703 0.11169 0.43079 0.51577 0.563636 0.117868 0.151563 -0.0859379 -0.00371423 0.191351 0.0836985 0.035399 -0.476615 -0.922724 -0.956645 -1.24681 -0.985131 -0.246512 0.0345746 0.00881037 0.00385965 0.015355 -0.430111 -0.632772 -0.585794 -0.369595 -0.375726 -0.110843 0.0859065 0.417337 0.521279 0.336063 0.427151 0.286251 0.235484 0.000234544 0.0811473 0.21959 -0.0271418 -0.991794 -1.69105 -1.51859 -1.27034 -1.0955 -0.768846 -0.172377 0.0291027 0.0087855 0.00263158 -0.0471768 -0.292971 -0.346307 -0.210673 -0.295958 -0.487767 -0.53969 -0.513353 0.00884125 -0.168053 -0.145954 -0.0393697 -0.0229734 -0.590306 -0.989045 -0.64704 -0.697908 -1.22205 -1.70004 -1.50266 -0.951436 -0.518222 0.149414 -0.130513 -0.0443712 0.0184727 0.0159649 0.014386 -0.0570922 -0.014514 0.290843 0.590171 0.0923748 -0.462394 -0.446729 -0.433371 0.0708869 -0.330413 -0.142307 -0.234611 -0.809613 -1.3655 -1.15692 -0.392505 -0.19169 -0.436648 -0.591416 -0.439933 -0.515341 -0.476997 -0.0109453 -0.192946 -0.292288 -0.045146 0.00736842 0.00105263 -0.0881895 -0.421142 -0.0706064 0.18024 0.0157869 -0.29161 -0.183565 -0.0938958 0.411194 0.193305 -0.205092 -0.422156 -0.589515 -0.575574 -0.37203 -0.478388 -0.00110307 0.688564 0.617433 0.0545445 -0.537662 -0.238937 0.190649 -0.341275 -0.613934 -0.0595818 0.0163161 0.00508772 -0.127667 -0.986367 -1.2141 -0.911337 -0.436727 -0.328012 -0.407121 -0.348763 0.437817 0.575313 0.0123656 -0.107092 0.165082 0.0487766 -0.566237 -0.941596 -0.575187 0.179371 0.117017 0.0713789 -0.181016 0.390667 0.680536 0.0614147 -0.153165 -0.0252276 0.00596491 0.00526316 -0.0979399 -0.907033 -1.44691 -0.738539 -0.137412 0.0162825 -0.288841 0.095861 0.418437 0.0102083 -0.537208 -0.86615 -0.519137 -0.145401 -0.179968 -0.738156 -0.704039 -0.707987 -0.413398 -0.307319 -0.287693 0.356855 0.747956 0.340956 0.33602 0.0634117 0.000526316 0.0145614 -0.0710144 -0.884767 -1.43293 -1.01699 -0.727218 -0.302379 -0.335779 -0.382212 -0.0843198 -0.174304 -0.637686 -0.848327 -0.727907 -0.742341 -0.712563 -0.711167 -0.789091 -0.639853 -0.120102 -0.083751 -0.176868 -0.187827 0.29451 0.104 0.00421035 0.0318478 0.0142105 0.00596491 -0.0249808 -0.622074 -1.78826 -2.07816 -1.63705 -1.06638 -0.967301 -0.834605 -0.482321 -0.424721 -0.386073 -0.465575 -0.637959 -1.05351 -1.24688 -1.28692 -1.02798 -1.03048 -0.510139 -0.412773 -0.124247 -0.430193 0.127706 0.353228 0.0228357 0.0492984 0.00842168 0.00631579 -0.0436766 -0.928515 -2.10583 -2.64217 -2.45349 -2.03077 -1.86873 -1.54751 -1.46662 -1.5101 -1.07249 -1.24495 -1.46138 -1.41462 -1.96965 -1.84637 -1.72707 -1.19267 -0.636282 -0.675471 -0.0546277 -0.415591 0.0952932 0.355611 -0.0438135 -0.0323763 0.0133333 0.0108782 -0.0771633 -1.05954 -2.30545 -2.98184 -2.86853 -2.46226 -2.44002 -2.31193 -2.52815 -2.44753 -1.75187 -1.8385 -2.04302 -1.84787 -2.19862 -2.39829 -2.46845 -1.36627 0.222198 0.185593 0.297421 -0.170648 0.417891 0.0035869 0.0319865 -0.0424544 5.02889e-06 0.000356649 -0.111257 -1.32162 -2.52739 -3.26374 -2.88864 -2.37839 -2.30068 -2.43693 -2.62631 -2.02472 -1.46576 -1.17757 -1.3619 -1.26782 -1.73598 -1.88728 -1.36465 -0.294514 0.879007 0.590525 0.831844 0.167063 0.344334 0.11356 0.298698 0.0293249 0.0133343 0.0154396 -0.116543 -1.14114 -2.11286 -2.44696 -1.73463 -1.46672 -1.19021 -1.0648 -0.716591 -0.386067 -0.0349131 0.385838 -0.084054 -0.451862 0.0617439 0.203768 0.623141 1.00297 0.82773 0.417522 1.0776 0.52983 0.731691 0.76386 0.619847 0.0673707 0.0132622 0.0118907 -0.0424652 -0.677397 -1.0754 -0.873412 -0.276254 -0.487174 -0.636413 0.123797 0.751894 1.18782 0.797168 0.577038 0.68129 1.39386 1.6762 1.55118 1.32859 0.746516 0.496702 0.304454 0.851881 0.809768 0.89454 0.718418 0.331104 -0.0107866 0.00441672 0.00418532 -0.11787 -0.619582 -0.570571 -0.177384 0.364678 -0.00890168 -0.47366 0.296016 0.845928 1.39303 1.34124 1.18825 1.69421 1.69384 1.32049 1.06742 0.87826 1.00886 0.525827 -0.0196707 0.197866 0.413673 0.818491 0.44092 -0.183025 -0.079134 0.0135088 0.0168421 -0.0803439 -0.672402 -1.0494 -0.656982 -0.045777 0.21131 -0.133285 -0.475314 -0.0460576 0.639742 0.925551 0.916029 1.51783 1.48581 0.749412 0.394509 0.267161 0.306418 0.205359 0.2451 0.0691458 0.544659 1.17667 0.508026 0.0861693 -0.0703055 0.0135088 0.00596491 -0.029747 -0.959133 -1.50939 -1.14898 -0.377354 0.408357 0.636745 0.401071 0.544698 0.720555 1.13206 0.99497 1.31497 1.1824 0.155107 0.0792095 0.214452 0.414998 0.406065 0.861646 0.544199 0.914543 0.960389 0.223594 -0.0651692 0.0508003 0.00315789 0.00351141 -0.0657776 -0.943775 -0.697424 -0.230387 0.100374 0.425479 0.629551 0.468879 0.613316 0.607563 0.865667 1.03773 1.12677 0.682301 0.443782 0.273767 0.174244 -0.0170885 0.286668 0.592076 0.696888 0.898557 0.778464 -0.0274259 -0.232273 0.000804796 0.0159649 0.0087855 -0.0653446 -0.826109 -0.381955 0.355471 0.344816 0.363815 0.376942 0.221538 0.633145 0.832205 1.24422 1.36308 1.10649 0.431531 -0.143737 -0.102286 -0.0155752 -0.23811 -0.093748 0.113651 0.0605676 0.358827 0.0692023 -0.318391 -0.293172 0.00407258 0.00245614 -0.000486416 -0.11572 -0.513981 0.177617 0.649187 0.217622 0.356131 0.987216 1.32684 1.08548 1.323 1.11221 0.500272 -0.0897596 -0.448591 -0.581412 -0.760447 -0.536569 -0.404609 -0.109727 0.0470915 -0.282103 -0.389573 -0.524566 -0.539858 -0.309144 -0.000129421 0 -0.00482837 -0.0410246 -0.306802 -0.0587077 0.0142741 -0.0859962 0.292754 0.590341 0.773776 0.770644 0.404009 -0.14208 -0.851365 -0.786029 -0.823602 -0.883198 -0.774368 -0.774926 -0.525383 -0.277068 -0.131755 -0.456292 -0.645878 -0.596504 -0.505426 -0.276322 -0.0641745 0.00280702 -0.000779575 -0.00545986 -0.16949 -0.0512836 -0.230268 -0.346278 -0.422948 -0.333993 -0.149472 0.175077 -0.160549 -0.444793 -0.635212 -0.509627 -0.50502 -0.554886 -0.350079 -0.246119 -0.116595 -0.116146 0.0703185 -0.0501172 -0.166562 -0.229042 -0.212712 -0.20446 -0.0596348 0.0135088 0.0148536 0.00928643 -0.00520878 0.00437777 -0.00250769 -0.0648749 -0.0650487 -0.112339 -0.086808 -0.0459571 -0.0410819 -0.0171163 -0.0184556 -0.0418568 -0.0345738 -0.0309445 -0.027508 -0.00809678 -0.00246738 -0.0127023 0.0158914 0.00637186 -0.00944698 -0.0117146 -0.00998202 -0.000520214 0.00846687 0.00315789 0.0173684 0.00105263 0.0124561 0.00648844 0.0150944 0.013678 0.00231486 0.0133517 0.00736267 0.00659537 0.0170166 0.0135088 0.0113895 0.00947632 0.00614298 0.000528714 0.00890528 0.0101755 0.0101754 0.0140351 0.00333333 0.00771913 0.0147368 0.00508772 0.00438596 0.00385965 0.0152632 0.00245614 0.0124561 0.0168421 0.00105263 0.00842105 0.011006 0.00116187 0.0108885 0.0127738 0.00193908 0.00257242 0.00826321 0.00155551 0.0157396 0.00488766 0.013678 0.00686521 0.00406543 0.00556994 0.0102339 0.00941613 0.0150556 0.017127 0.0134865 0.00385965 0.00473684 0.000877193 0.00736842 0.00754386 0.00210526 0.00473705 0.00619157 0.0266829 -0.0186295 -0.030412 -0.0173551 -0.018748 -0.0340624 -0.022464 0.0321863 0.0355111 -0.0119956 0.00820253 0.00936455 0.032425 0.00722483 0.0260464 0.0183603 -0.00599539 -0.0193863 0.00195373 -0.00248144 0.000224849 -0.00749629 0.00761154 0.00888787 0.00772254 0.00280702 0.0142821 0.0221792 0.110453 0.0264984 -0.0586405 -0.113542 -0.129312 -0.150571 -0.0888364 0.0633877 0.100666 0.0569251 0.14406 0.11202 0.0938376 0.0966309 0.088208 -0.0361516 -0.303561 -0.385532 -0.344488 -0.309033 -0.235474 -0.12897 -0.0470947 0.00511518 0.014164 0.00824561 0.00490921 0.0477063 0.113039 0.230903 0.0254021 -0.13256 -0.131732 -0.273902 -0.326619 -0.126899 0.129065 0.194561 0.137481 0.0177318 -0.114272 -0.278874 -0.355552 -0.482789 -0.844787 -1.07499 -1.09055 -0.838987 -0.529494 -0.226879 -0.0911754 -0.0013011 0.00704951 0.00157895 0.00680285 -0.0202615 0.0789434 0.346848 0.256668 -0.0986978 -0.116553 -0.368971 -0.315467 0.0404593 0.263219 0.175234 -0.0118444 -0.233614 -0.474996 -0.622285 -0.68047 -0.869511 -1.17682 -1.43874 -1.49798 -1.10009 -0.735492 -0.464321 -0.152116 0.0201176 0.0100915 0.00333333 0.0462902 0.0578712 0.262767 0.260356 0.283737 0.226776 0.175611 -0.0309884 0.0238214 0.0631447 0.0325059 0.026757 -0.120989 -0.450342 -0.525929 -0.612363 -0.884907 -1.00484 -1.11929 -1.12956 -1.16276 -1.1571 -1.03747 -0.747359 -0.319825 -0.00249017 0.00456934 0.0124561 0.0370092 -0.0861518 -0.112801 -0.180801 -0.0656011 -0.181275 -0.116344 -0.185729 -0.0103689 -0.0443879 -0.276158 -0.355899 -0.387885 -0.495048 -0.489453 -0.598713 -0.830264 -0.712496 -0.812007 -0.832719 -1.07462 -1.35923 -1.39116 -1.0651 -0.536236 -0.00882681 0.00666667 0.0157895 0.0151516 -0.169284 -0.237924 -0.271173 0.0544524 -0.0965936 -0.318244 -0.370317 -0.184432 -0.185718 -0.0430313 -0.195323 -0.418309 -0.457412 -0.226052 0.0553119 -0.142088 -0.0843883 -0.24695 -0.487023 -1.06065 -1.68359 -1.74199 -1.47079 -0.800191 -0.0167707 0.00175439 0.00438596 -0.0230331 -0.450102 -0.554486 -0.211898 0.291168 0.0934055 -0.034916 -0.18481 -0.205323 -0.639406 -0.459679 -0.0968834 0.180807 0.433096 0.787777 0.717375 0.550909 0.625431 0.318677 0.177685 -0.465192 -1.27255 -1.54068 -1.65439 -1.01894 -0.0274844 0.00261399 0.00754386 -0.00800358 -0.533082 -0.611812 -0.360433 0.196747 0.281529 0.266597 0.143385 -0.299398 -0.640066 -0.587946 -0.447586 -0.219716 0.311475 0.63756 0.821775 1.26638 0.938001 0.584983 0.46021 -0.0358593 -0.672075 -1.31346 -1.71052 -1.06327 -0.0688062 0.00198946 0.0133333 -0.0204783 -0.56594 -0.653346 -0.642606 -0.494562 -0.451901 -0.183068 0.0579505 0.11316 0.139709 0.255918 0.520231 0.502998 0.431331 0.702854 0.547602 0.701152 0.445915 0.474408 0.633235 0.49055 -0.0402623 -0.561098 -1.21574 -0.796444 -0.0594963 0.00157895 0.00596491 -0.0190665 -0.469827 -0.726833 -0.632837 -0.56327 -0.960524 -0.817918 -0.254326 0.224039 0.468637 0.505475 0.558649 0.151486 0.195021 0.216978 -0.128731 0.0408784 0.102692 0.536865 0.423609 -0.0901934 0.0109495 -0.239393 -0.853476 -0.48007 0.0103276 0.00614035 0.00491228 -0.0254651 -0.275213 -0.399722 -0.479913 -0.401861 -0.555923 -0.708641 -0.744458 -0.564322 -0.587718 -0.501936 -0.491907 -0.649331 -0.250117 -0.176238 -0.278503 0.201081 0.526528 0.635517 0.275082 -0.147167 0.298533 0.222995 -0.504414 -0.0680914 0.057266 0.0157662 0.00175439 -0.00227951 0.0450011 -0.379682 -0.653179 -0.598162 -0.326088 -0.406142 -0.632641 -1.0013 -1.28126 -1.03045 -1.14019 -1.05017 -0.725293 -0.803723 -0.342387 0.254811 0.448762 0.0133796 0.298936 0.174807 0.705273 0.575067 -0.183568 -0.141331 0.0262016 0.0142105 0.000351373 0.0576451 0.0732119 -0.578411 -1.06793 -0.934966 -0.561365 -0.638417 -0.913792 -1.01791 -1.18596 -1.40886 -1.29711 -1.39338 -0.815515 -0.818507 -0.180224 0.261843 0.29013 0.08904 0.615046 0.797713 0.819929 0.557303 -0.533814 -0.557739 -0.0466176 0.000879741 0.0109807 0.0250458 -0.302965 -1.0413 -1.31419 -1.0434 -0.823463 -0.71732 -0.584113 -0.426426 -0.346401 -0.499018 0.023177 0.0255702 0.499658 -0.127823 0.427153 0.431525 0.302461 -0.0577302 -0.0145632 -0.01251 0.0950534 -0.311697 -0.910291 -0.739482 -0.0313606 0.0105268 0.00282636 -0.0055877 -0.240673 -0.882924 -0.790533 -0.257091 -0.069126 -0.0307205 0.202856 0.358754 0.534169 0.643466 0.66468 0.462787 0.537332 0.53821 0.75158 0.931313 0.542983 -0.114429 -0.619362 -0.697851 -0.726902 -1.29268 -1.39214 -0.99454 -0.123868 0.0158911 0.0101353 0.01477 -0.0207505 -0.369283 -0.292355 -0.011616 -0.305949 0.00673564 0.372939 0.383003 0.651469 0.43429 -0.145868 0.118044 0.562233 0.575258 0.541759 0.493724 -0.121148 -0.77404 -1.24051 -0.925249 -1.20591 -1.7144 -1.74914 -0.98325 -0.0857846 0.00607126 0.00733014 -0.0278352 -0.185434 -0.302234 -0.216686 -0.11601 -0.350238 -0.0660634 0.167862 0.16831 0.197736 0.300548 -0.0390618 -0.0749055 0.0281305 0.1172 -0.0755216 -0.603863 -0.929465 -1.33809 -1.65939 -1.45303 -1.41402 -1.61323 -1.53402 -0.800742 -0.0371506 0.000877193 0.00894737 0.0155061 -0.264655 -0.259073 0.107947 0.331775 -0.201965 -0.215353 -0.577015 -0.212831 0.307647 0.0733338 -0.332334 -0.896001 -0.908848 -0.395039 -0.808719 -1.41632 -1.48216 -1.40406 -1.44964 -1.30386 -1.22762 -1.31866 -1.08286 -0.514938 -0.0188953 0.0135088 0.0163158 0.069188 -0.0505715 0.0668361 0.441385 -0.0597452 -0.41026 -0.475851 -0.436401 -0.580664 -0.557356 -0.742555 -1.0216 -1.20121 -0.930945 -0.656258 -0.97728 -1.31025 -1.08982 -1.09167 -1.1046 -0.976125 -0.7973 -0.937525 -0.651933 -0.241211 -0.00292853 0.015614 0.00824716 0.029892 -0.133471 -0.17502 0.413196 -0.103875 -0.471837 -0.388865 -0.224871 -0.592772 -0.635014 -0.819563 -1.01754 -0.896905 -0.783852 -0.689127 -0.845205 -0.951987 -0.831066 -0.912035 -0.863587 -0.738244 -0.611832 -0.680071 -0.414599 -0.125382 -0.0010381 0.0108772 0.0170255 0.0125285 -0.2915 -0.343264 0.281454 0.334902 0.21524 0.467368 0.186154 -0.155685 -0.313925 -0.676894 -0.909521 -0.88627 -0.801682 -0.732563 -0.700234 -0.590577 -0.586377 -0.655472 -0.656288 -0.572426 -0.520449 -0.49612 -0.325114 -0.160581 0.00656459 0.0145614 0.0126764 0.00292631 -0.0227208 -0.0865367 0.231583 0.237306 0.403951 0.201004 -0.146744 -0.441806 -0.457923 -0.577873 -0.665785 -0.568516 -0.423033 -0.451992 -0.525109 -0.485456 -0.479441 -0.503823 -0.466395 -0.34828 -0.296733 -0.279874 -0.238546 -0.157387 0.00482558 0.000701754 0.0156162 -0.00475718 -0.018014 0.24974 0.273004 -0.0366747 -0.207192 -0.26768 -0.456559 -0.35105 -0.295042 -0.301582 -0.271029 -0.186453 -0.0876892 -0.170509 -0.259467 -0.272596 -0.319407 -0.303876 -0.228654 -0.162756 -0.230492 -0.162174 -0.14623 -0.103109 0.00642863 0.00140351 0.00286809 0.00584456 -0.0704351 -0.0463075 0.0167834 -0.157854 -0.295504 -0.168016 -0.153529 -0.00326479 -0.0299173 -0.116177 -0.107475 -0.078844 -0.0389536 -0.0721809 -0.10123 -0.135521 -0.132052 -0.0611999 -0.025153 -0.0303093 -0.08054 -0.124109 -0.124376 -0.0473609 0.0121039 0.00157895 0.000880437 0.00837028 0.00601638 0.0107574 0.0136955 -0.00758652 0.00550514 -0.0125053 -0.0367933 0.0634736 0.0550419 0.00143043 0.00422494 0.00535586 0.0152878 -0.00663865 -0.0159715 -0.0134119 -0.0158171 0.00439527 0.00832878 0.00522345 -0.000417594 -0.00139957 -0.0137771 0.00777047 0.0110209 0.00719298 0.0154386 0.0126316 0.00649123 0.0158582 0.00950348 0.0159125 0.0117057 0.000451439 0.00197609 0.00180111 0.00351177 0.00210526 0.0173673 0.00422305 0.00860748 0.00261799 0.00578617 0.00596197 0.00701754 0.00666667 0.00140351 0.0161368 0.00736797 0.0140351 0.00877193 0.0131579 0.01 0.0112281 0 0.00824561 0.00421053 0.00824561 0.00250629 0.00902887 0.0137401 0.00285782 0.00765234 0.0136533 0.00308216 0.00798268 0.00613976 0.00305317 0.0154327 -0.00302773 -0.0165584 -0.0232437 0.00150684 0.0110588 0.00488163 0.0113686 0.0048649 0.01 0.000526316 0.012807 0.0161404 0.000350877 0.00649123 0.0122815 0.0119453 0.00197029 0.0286255 0.0361026 0.0474717 0.0507832 0.00452533 -0.0135422 0.0234081 0.0694915 0.0448751 0.0185527 0.00260592 -0.0270721 -0.0489119 0.0190447 0.0476274 0.0430691 0.200807 0.180851 0.00124378 -0.0570368 -0.020177 -0.0146558 0.0131482 0.00578849 0.00385965 0.00204577 0.0509303 0.0807042 0.136382 0.217535 0.221928 0.0836194 0.106152 0.208659 0.342618 0.297948 0.265605 0.173064 0.0727484 -0.185366 -0.0706085 0.0745343 -0.0316657 0.529022 0.970251 0.397296 -0.326294 -0.460811 0.113524 0.0832765 0.00827528 0.00137993 0.0136842 0.00358145 0.0910858 0.121885 0.0963501 0.122755 0.142278 0.19645 0.449982 0.205827 -0.135039 -0.340954 -0.368559 -0.305678 -0.479792 -0.152594 -0.0182906 0.254533 0.239859 0.8126 0.875612 0.364972 0.0362253 0.209084 0.517412 0.395676 0.00749627 0.0104832 0.00807018 0.0041735 0.0343631 0.0995152 0.233759 0.304988 0.323835 0.631508 0.745736 0.137842 -0.506055 -1.05546 -0.941736 -0.385533 -0.120887 -0.0422986 -0.490656 -0.551316 0.28883 -0.272298 -0.106475 -0.073521 -0.114617 0.687173 0.61504 0.443683 0.0476415 0.00616107 0.0157895 0.029469 -0.0768109 0.0133381 0.214639 0.45518 0.397646 0.166978 0.216042 -0.0216601 -0.802941 -0.782473 -0.320253 0.610705 0.307853 -0.338338 -0.678067 -0.39382 -0.176253 0.158059 -0.40231 -0.304543 0.12426 0.432256 0.620753 0.374116 0.0898033 0.00632416 0.00526316 0.0279559 -0.112957 -0.046792 0.0536382 0.14555 -0.00721967 -0.491495 -0.360571 -0.480154 -0.57959 0.314418 1.44066 1.26829 -0.188769 -0.44169 0.096057 0.465953 0.507962 -0.24634 -0.481351 -0.0204184 0.112979 0.411661 0.959691 0.302739 0.0425633 0.000350877 0.0101754 -0.00497949 0.056901 0.119851 -0.0773991 -0.141858 -0.20668 -0.488836 -0.334104 -0.504534 0.138663 0.84683 1.27687 0.48707 0.118589 0.44778 1.03933 1.0452 0.659517 0.119865 0.0563172 0.0429269 0.0186266 0.195016 0.394767 0.407788 0.0894286 0.00333333 0.0147368 -0.0328137 -0.17784 -0.22745 -0.478592 -0.612597 -0.186384 -0.00765807 -0.19375 -0.232043 0.22053 0.138974 0.0694851 0.236748 0.515401 0.876042 1.055 0.230079 -0.318974 -0.496755 -0.437199 -0.460556 -0.996544 -0.934331 -0.850842 -0.219412 -0.00373304 0.00504871 0.0135088 0.0143066 -0.257415 -0.545725 -0.851357 -0.826972 -0.036397 -0.141142 -0.620636 -0.240724 -0.0435047 -0.243818 -0.170491 0.173052 0.534227 0.344682 0.202186 -0.390855 -0.271795 -0.754586 -0.99395 -1.35735 -2.11453 -2.23568 -1.57626 -0.416054 0.0242856 0.00721712 0.00122807 0.0458785 0.0663902 -0.408459 -0.910587 -0.384237 0.324026 -0.0132613 -0.651546 -0.424391 -0.0940268 0.21901 0.133994 -0.0855708 0.155396 -0.229804 -0.0564284 -0.27306 -0.815924 -1.11591 -1.10188 -1.72846 -2.11862 -1.86507 -1.2272 -0.26623 -0.00237772 0.00350877 0.0173684 0.00422126 0.117424 -0.219336 -0.807259 -0.543619 -0.318064 -0.531292 -0.659432 -0.775335 -0.441272 0.181454 0.341372 0.813153 0.643609 0.139151 0.796756 0.313991 -0.330395 -0.540647 -0.934275 -1.23867 -0.936197 -0.804476 -0.14763 0.22939 0.0238175 0.00947368 0.000526316 -0.00315547 -0.265745 -0.766255 -1.24996 -1.05708 -1.09313 -0.260013 -0.605168 -0.993628 -0.176336 0.174095 0.205583 0.176228 0.328004 0.14072 0.674584 0.555705 -0.085718 -0.379921 -0.551647 -0.216283 0.140604 -0.107494 0.789935 0.521444 0.0512406 0.00263321 0.00789474 -0.0218939 -0.447822 -0.92123 -1.1106 -1.02596 -0.623447 0.347564 0.409051 -0.0213028 0.656298 0.727872 0.380093 0.729043 0.326535 -0.506185 -0.532535 -0.574206 -0.688433 -0.242744 0.520494 0.786126 0.741597 0.32499 0.264063 0.0203025 0.0231544 0.000350877 0.0171935 -0.0189088 -0.345324 -0.590353 -0.568468 -0.480054 -0.3529 0.401175 -0.0345944 0.0529601 0.871546 0.95621 0.796669 1.19161 0.215046 -1.25016 -0.971896 -0.141642 0.38343 0.67325 1.09015 0.686415 0.138072 -0.169054 -0.495475 -0.324792 0.00733338 0.0166693 0.013202 -0.00507973 -0.279275 -0.72318 -0.56283 -0.427848 -0.336415 0.0226877 -0.504936 -0.477596 0.0687566 0.0283432 0.121611 -0.0183008 -0.822142 -0.899777 -0.181915 0.668701 1.04268 0.718771 0.690175 0.425484 -0.0963749 -0.291575 -0.420612 -0.304624 -0.0357156 0.0110531 0.014011 -0.0287262 -0.541442 -1.08145 -1.26836 -1.05425 -1.26707 -1.33638 -1.3157 -1.27155 -1.24449 -1.43263 -1.10703 -1.14122 0.189279 1.03968 1.1371 0.826599 0.578052 0.274841 0.40395 -0.0512731 -0.436313 -0.797002 -0.780254 -0.358622 0.0082025 0.0129672 0.00204665 -0.0440041 -0.745399 -1.34683 -1.62129 -1.43553 -1.81385 -2.05869 -1.96383 -2.17747 -1.82325 -1.66264 -1.43151 -0.691523 0.456377 0.845122 1.17021 1.00018 0.628152 0.129031 -0.228835 -0.38943 -0.732976 -0.894892 -0.968809 -0.30922 -0.0142896 0.00940514 0.000332265 -0.051325 -0.944987 -1.59256 -1.72973 -1.60227 -1.80074 -1.71795 -1.28695 -1.32195 -1.53324 -1.5233 -0.798412 0.346922 1.0155 1.16427 1.24752 1.1248 0.419941 -0.119834 -0.262354 -0.765522 -0.879821 -0.995412 -1.31602 -0.465833 -0.0458947 0.000175439 0.00649123 -0.0762859 -0.853101 -1.23193 -1.34776 -1.23029 -0.836927 -0.233522 -0.436891 -0.969754 -0.686546 -0.633227 0.356813 1.13859 1.16205 1.18421 1.08066 0.495767 -0.334123 -0.32994 -0.592411 -0.835709 -1.09431 -1.4591 -1.56815 -0.783435 -0.0864008 0.00982456 0.00298246 -0.00133222 -0.346181 -0.341747 -0.38156 -0.187105 0.496394 0.733399 0.44023 0.368499 0.649367 0.441543 0.743451 1.02761 0.634829 0.52932 0.715654 -0.445165 -1.15289 -1.14255 -0.957325 -0.795675 -1.06969 -1.36104 -1.35318 -0.7526 -0.0479936 0.0115789 0.0119315 0.00521819 -0.153973 0.582809 0.652159 0.581203 0.939889 0.857927 0.343652 0.444127 0.385963 0.424876 0.234892 -0.346535 -0.559613 -0.887837 -0.390137 -1.05154 -1.42493 -1.51699 -1.52227 -1.11481 -1.16403 -1.16672 -0.909641 -0.405265 3.64073e-05 0.00929825 0.0135171 0.00876815 0.144216 0.385223 0.547447 0.579965 0.728365 0.414233 0.141905 -0.0961943 -0.446174 -0.330379 -0.997121 -1.22207 -1.08882 -1.11244 -1.45043 -1.89767 -1.88909 -1.86212 -1.58037 -1.06355 -0.958281 -0.757263 -0.569428 -0.241013 0.0109696 0.017193 0.0146166 0.015347 0.440283 0.746336 0.665354 0.371303 0.410142 0.304135 0.285455 -0.165149 -0.314826 -0.343913 -0.527434 -0.726925 -0.818166 -1.45195 -2.12938 -2.3604 -2.24906 -2.22165 -1.76619 -0.968299 -0.739518 -0.600335 -0.552409 -0.342365 -0.00543344 0.000175439 0.00820726 0.0534287 0.807694 0.972359 0.522424 0.0741917 -0.180062 -0.731938 -0.658541 -0.408406 -0.214869 -0.0738436 -0.0627717 -0.414382 -0.622335 -1.29017 -1.58146 -1.98205 -1.98208 -1.84516 -1.35107 -0.643149 -0.300434 -0.289367 -0.444938 -0.275565 -0.0169666 0.00333333 0.01391 0.0320591 0.470431 0.451555 0.0146205 -0.298298 -0.266352 -0.493444 -0.168534 -0.112504 -0.0585341 -0.337563 -0.262566 -0.186291 -0.409964 -0.824683 -0.862435 -1.01335 -1.01499 -0.878136 -0.602466 -0.271414 -0.0355968 -0.129391 -0.193649 -0.0686779 -0.000747663 0.00192982 0.0121043 0.015376 0.0183603 0.0104562 -0.0595152 -0.0490385 0.0702695 0.0587787 -0.0073107 0.0271013 0.083425 -0.0217002 -0.0235313 -0.00474902 -0.0316294 -0.0357083 -0.0548745 -0.0446123 -0.0297785 -0.0421363 -0.019444 -0.0021112 0.011419 0.0036547 0.0155094 0.00121691 0.0115942 0.0173684 0.0170175 0.00807018 0.00315789 0.0128745 -0.0262012 0.00723144 0.0165295 -0.00318958 0.00777149 0.00459172 0.0170276 0.00877193 0.00895548 0.00110226 0.00308665 0.00150359 0.012305 0.00490776 0.0136842 0.00929825 0.014386 0.00618215 0.0133387 0.00877193 0.0022807 0.0150877 0.0159649 0.00754386 0.0163158 0.00964912 0.000526316 0.0157895 0.0116013 -0.00759408 -0.00352092 0.0122528 -0.00180187 0.0139228 0.0118748 0.000989789 0.0139788 0.00248923 0.00245719 0.00653171 0.00374336 0.0108201 0.0083047 0.0133251 0.0179009 0.0110091 0.00582634 0.0158012 0.0115848 0.0121053 0.00842105 0.0142105 0.00508772 0.00157812 0.00780329 0.0161676 0.0313279 0.03097 0.0532022 0.0452758 0.0360097 0.0260621 0.0277446 0.00974428 0.0128837 0.00399973 0.029111 0.0222493 0.0162696 0.0131949 -0.00538909 -0.000182491 0.0401411 0.0331573 0.00944648 0.017715 0.0232118 0.0112974 0.00881874 0.000178236 0.0159649 0.012203 0.0144699 0.121998 0.128979 0.0740753 0.0659194 0.0678701 0.0350537 -0.0861801 -0.085326 -0.0805974 -0.0292427 -0.0326531 -0.0252509 0.0407593 0.0159949 0.0137855 0.0282162 0.130757 0.222149 0.179893 0.0364633 0.0645283 0.0808355 0.00884978 -0.0024815 0.0153019 0.00105263 0.0109579 0.00696751 0.120849 0.117257 0.0610526 -0.0485343 -0.103777 -0.152798 -0.245289 -0.329372 -0.383219 -0.422765 -0.313027 -0.20289 -0.102704 0.0577477 0.171262 0.149785 0.0419698 -0.0858571 0.0750661 -0.0294331 0.0145961 0.0628104 -0.0675641 -0.0129744 0.00422889 0.0135088 0.00156683 0.0121345 0.0324023 0.0252669 -0.0308009 -0.0825082 -0.210041 -0.372329 -0.429868 -0.329641 -0.352773 -0.312616 -0.14636 -0.059258 -0.0552927 -0.0473233 -0.0749486 0.0203319 0.294263 0.196989 0.0769443 -0.16121 0.0400274 0.206474 -0.0551417 -0.0421606 0.0120543 0.00403509 0.00666422 -0.0236494 -0.0856008 -0.0626085 -0.158972 -0.124844 -0.294243 -0.313096 -0.130138 0.0523211 0.0355413 0.0894781 0.157051 0.154959 0.136066 0.153301 0.0784174 0.174795 0.326179 0.24675 0.126452 -0.0420102 0.12292 0.157513 -0.0816046 -0.0271174 0.00351633 0.0166667 -0.00325474 0.0161146 0.081342 0.0772803 -0.000697847 0.00652912 -0.0312391 -0.00225903 0.0562197 0.16454 0.0706419 0.0131774 0.103035 0.191425 0.253931 0.194321 -0.0151849 -0.0310477 0.00901429 -0.0514159 -0.068434 0.0132932 0.165003 0.121411 -0.00390052 -0.00941569 0.0045614 0.0149123 -0.00231556 0.0496646 0.0494141 0.0159715 -0.00949881 -0.0231468 -0.0831238 -0.0973369 -0.238208 -0.134018 -0.0855245 -0.0999305 -0.0206258 -0.0189536 0.0805933 -0.0105778 -0.243269 -0.214645 -0.311921 -0.164841 -0.0744577 0.105538 0.323464 0.320888 0.104364 -0.0110528 0.0126316 0.00157895 -0.0104508 0.0606261 -0.157806 -0.110456 -0.111058 -0.167272 -0.407313 -0.576316 -0.539631 -0.391472 -0.317656 -0.187875 -0.0982129 -0.132288 -0.0793266 -0.0371657 -0.0412149 0.0370216 -0.103499 0.0545674 0.328732 0.710078 0.741022 0.553016 -0.0229537 -0.0914723 0.00334534 0.00964912 -0.00373429 0.0412866 -0.288001 -0.377063 -0.317587 -0.338511 -0.398175 -0.494933 -0.490524 -0.462682 -0.462046 -0.418596 -0.427469 -0.463036 -0.283857 -0.104555 -0.155362 -0.227043 -0.381255 0.0145879 0.4018 0.532625 0.593601 0.347844 -0.098063 -0.0988487 0.00803557 0.00491228 -0.101324 -0.117177 -0.342499 -0.659355 -0.481813 -0.333577 -0.282977 -0.358457 -0.459621 -0.543235 -0.554422 -0.529948 -0.534736 -0.547156 -0.370919 -0.0673927 -0.300969 -0.428449 -0.696638 -0.355698 0.189788 0.121923 0.350661 0.368512 -0.0177247 -0.0316637 0.0138596 0.0163158 -0.0555958 -0.216102 -0.293077 -0.537718 -0.366692 -0.435803 -0.284448 -0.375172 -0.486488 -0.487804 -0.577971 -0.653176 -0.556273 -0.363916 -0.446875 -0.609318 -0.891006 -0.337412 -0.39645 -0.520741 -0.123282 0.176614 0.411875 0.294087 -0.256134 0.0914692 0.0114035 0.00929825 -0.0923433 0.234219 -0.202248 -0.359802 -0.491039 -0.153988 -0.0809559 -0.350097 -0.215887 0.0536705 -0.08938 -0.266968 -0.281076 -0.234529 -0.165232 -0.08104 -0.180316 -0.237655 -0.546492 -0.839886 -0.487913 -0.437723 -0.60627 -0.167285 -0.0908254 0.0449972 0.0064984 0.0045614 -0.014016 0.147416 -0.329469 -0.635643 -0.421908 0.154443 0.223083 -0.153368 -0.0222501 0.266385 0.150627 -0.155678 -0.253132 -0.398055 -0.0596186 0.0925064 0.29853 0.315803 0.117121 0.0385184 0.059336 -0.530207 -0.756153 -0.305944 -0.0501466 0.0112326 0.0131579 0.0150882 -0.0216395 0.290728 -0.0512804 -0.451482 -0.503135 -0.0342585 0.0867128 0.02917 0.149029 0.171675 -0.000258172 -0.202131 -0.0330758 0.263655 0.1923 0.257728 0.530606 0.684806 0.264404 0.592943 0.285959 -0.288239 -0.27559 -0.100915 0.0428506 -0.05039 0.0119323 0.0114497 -0.0227033 0.226231 -0.0113926 -0.10606 -0.325772 -0.240363 -0.367897 -0.166549 -0.142009 -0.059145 -0.228114 -0.389117 0.126155 0.338408 0.158893 0.0716569 -0.036538 -0.289614 -0.0357205 0.488408 -0.00205739 -0.209227 -0.352944 0.163884 0.605401 0.0796184 0.00508818 0.00768834 -0.0421179 0.362592 0.680575 0.798144 0.439879 0.205482 0.0235166 -0.254113 -0.417286 -0.661992 -0.630819 -0.429052 -0.188974 -0.105726 -0.364232 -0.545972 -0.568656 -0.431483 0.0364722 0.0760734 -0.301029 -0.0701863 0.205955 0.355939 0.229831 0.0149962 0.0103591 -0.000329645 -0.0875855 0.138818 0.574003 0.440724 0.336626 0.25812 0.0242287 -0.230637 -0.0963331 -0.255617 -0.253225 -0.1776 -0.457461 -0.469395 -0.588543 -0.669943 -0.616965 -0.642808 -0.396566 -0.409829 -0.575607 -0.430119 0.0960897 0.142371 -0.0165032 -0.0678582 0.00403855 0.0085264 -0.169968 -0.219945 0.233488 0.123029 0.109586 0.0515702 0.0983112 -0.456244 -0.117777 0.13385 -0.0911358 -0.245822 -0.433109 -0.408051 -0.485408 -0.400997 -0.240049 -0.422303 -0.433652 -0.288697 -0.189597 0.0481917 0.140235 0.146056 -0.311687 -0.0857468 0.00736842 0.00666667 -0.0743386 -0.422833 -0.263709 -0.425791 -0.293475 -0.120848 -0.28663 -0.279741 0.11392 0.214453 0.152939 -0.169827 -0.297416 -0.301545 -0.353974 -0.154468 -0.233526 -0.369884 -0.130938 -0.0249908 0.0760973 0.210952 0.287653 -0.125775 -0.425006 -0.0453138 0.0103509 0.00421053 -0.0254656 -0.290686 -0.500451 -0.71284 -0.418283 -0.0195252 -0.101098 -0.00602171 0.0718072 0.115196 0.0651065 0.00226852 -0.164814 -0.344101 -0.421138 -0.333966 -0.224475 -0.151256 0.0964001 0.0976237 0.226174 0.276099 0.153716 -0.357067 -0.320656 -0.0181849 0.00473684 0.0159664 -0.0563012 -0.242519 -0.444018 -0.575962 -0.444793 -0.0644784 0.00119855 0.0324813 0.169501 0.180715 0.0158103 0.0733885 0.142258 -0.119836 -0.207546 -0.156161 -0.135262 0.00388798 0.136225 0.200422 0.246049 0.208456 -0.143162 -0.27796 -0.170094 -0.0116054 0.0154386 0.00877949 -0.0217709 -0.107209 -0.189236 -0.102193 -0.0516291 -0.00651142 0.0223585 -0.0334942 0.0109235 0.146562 0.191296 0.181486 0.230979 0.27306 0.235243 0.0608686 0.023767 -0.00120174 0.150688 0.32313 0.271705 -0.140082 -0.261537 -0.182939 -0.114928 -0.016309 0.00438596 0.000341303 -0.0123584 -0.127401 -0.133123 0.124001 0.253464 0.216856 0.133067 0.0400565 -0.100927 -0.120243 -0.0207195 0.0316444 0.117122 0.320321 0.388697 0.280987 0.0634209 0.0451334 0.166029 0.259293 0.034057 -0.293181 -0.172927 -0.147601 -0.0961765 -0.0131545 0.0166667 0.00587023 0.00564748 -0.0902821 0.0345416 0.296404 0.261398 0.0239872 0.0443304 -0.00355555 -0.00401514 -0.0473072 -0.0743068 -0.0251242 0.106018 0.26155 0.340616 0.263385 0.272238 0.24677 0.122794 0.13998 -0.0676394 -0.315218 -0.249765 -0.152963 -0.0791635 -0.00600356 0.0135088 0.0017588 0.00347662 -0.0266574 0.0495134 0.138218 -0.0421111 -0.127509 0.0216405 0.0420102 0.0705658 0.147733 0.143147 0.164684 0.184369 0.177618 0.211018 0.250075 0.286091 0.198758 0.155767 0.193681 -0.0211265 -0.132638 -0.0780783 -0.0301656 -0.0305753 -0.00891659 0.00140351 0.00438876 -0.000132594 0.0185844 0.0342124 0.0391386 0.0197358 0.00678011 0.0145535 0.0061929 0.00706561 0.0318652 0.0386433 0.0353882 0.0416061 0.0322395 0.00772665 -0.0195982 -0.019014 -0.02176 0.00690016 0.0124181 0.0141313 0.00310125 0.0127463 0.00338134 -0.000971811 0.00243701 0.00719298 0.00666667 0.00789474 0.0154386 0.00999844 0.0151916 0.00301879 0.0134646 0.00484703 0.000844766 0.00691991 0.0100028 0.0166667 0.00438943 0.00570447 0.00605254 0.00723566 0.0101858 0.0112301 0.0152632 0.00350877 0.0107018 0.0183408 0.00215753 0.0164912 0.00701754 0.0163158 0.0149123 0.0154386 0.00473684 0.00719298 0.0147368 0.000877193 0.0147551 0.0161232 0.0222225 0.0103341 0.0160997 0.014781 0.0139605 0.00165925 0.0106701 0.00294816 0.0053741 0.0201097 0.0659758 0.0560314 0.0279373 0.00717028 0.00694479 0.0142701 0.0164928 0.0131606 0.0112294 0.00210526 0.0126316 0.00333333 0.0110526 0.0161117 0.0080583 -0.00326453 -0.0533309 -0.0592752 -0.0368092 -0.0291945 -0.0137409 -0.00278098 -0.00357465 0.0206263 0.0312183 0.00759179 -0.00926121 -0.0180232 -0.0187815 0.0167286 -0.0271714 -0.0457504 -2.85413e-05 0.0180536 0.020485 0.0254058 0.0227339 0.0162109 -0.00592863 0.0144839 0.0129825 0.014365 -0.013689 -0.0562231 -0.0721087 -0.00337069 -0.0744931 -0.119991 -0.210166 -0.225025 -0.145551 -0.0955517 0.0288232 0.0408811 -0.0919576 -0.148276 -0.215532 -0.313916 -0.401514 -0.283873 -0.00331568 0.0664374 -0.0340874 0.0391311 0.0317088 0.00649155 -0.0137188 -0.0110995 0.00859649 0.00402396 -0.109093 -0.219363 -0.1603 -0.0321073 -0.0488586 -0.159332 -0.345438 -0.484541 -0.332406 -0.246447 -0.150791 -0.08318 -0.0496676 -0.0880464 -0.242421 -0.454118 -0.522451 -0.459833 -0.311977 -0.191847 -0.230015 -0.0820297 0.103591 0.110423 0.0112127 0.0045818 0.00368421 -0.014741 -0.172498 -0.374914 -0.336316 -0.11292 -0.137618 -0.270022 -0.437086 -0.52774 -0.428127 -0.342851 -0.141064 0.100382 0.133429 -0.0288977 -0.107064 0.00178998 -0.165831 -0.477085 -0.466092 -0.319288 -0.238566 -0.21968 0.282481 0.337488 0.0574293 0.0109633 0.0152632 -0.00263096 -0.0667017 -0.458153 -0.565813 -0.597568 -0.731393 -0.771405 -0.783589 -0.735319 -0.662104 -0.652437 -0.234178 -0.013288 0.201315 0.198547 0.170046 0.115028 -0.143566 -0.40237 -0.137562 -0.322795 -0.536569 -0.628547 -0.30176 -0.0646889 0.0161175 0.00526867 0.0105263 0.00256535 0.00109188 -0.349564 -0.637959 -0.883124 -0.953364 -0.798395 -0.8547 -1.02081 -0.921966 -0.626877 -0.0908438 -0.0382339 0.0785571 0.0415138 -0.205076 -0.448246 -0.387702 -0.0277221 0.127528 -0.417342 -0.478769 -0.426845 -0.0995559 -0.248975 -0.118396 0.012807 0.0135088 -0.018892 0.0944628 -0.104028 -0.475294 -0.482764 -0.674271 -0.215625 -0.434579 -0.610828 -0.397961 -0.457456 -0.26905 -0.134952 -0.172851 -0.376929 -0.733008 -0.475709 -0.332907 -0.120991 -0.482521 -0.741684 -0.138588 0.0136394 -0.220856 -0.201386 -0.130611 0.0124561 0.0117544 -0.00847514 0.323999 0.29276 0.100268 0.296088 0.203457 0.327281 -0.0177878 -0.0795867 0.240731 -0.192947 -0.264531 -0.0985077 -0.180863 -0.377437 -0.281861 -0.0469241 0.0997669 -0.0758158 -0.603051 -0.758807 -0.460433 0.198922 0.453858 -0.187276 -0.000929563 0.00613969 0.00105263 -0.00429749 0.381632 1.25167 1.12692 0.799901 0.91399 1.27692 0.644181 0.183784 0.426322 0.12408 -0.112253 -0.136102 0.168032 0.24605 0.326645 0.139905 0.051094 -0.0571724 -0.343578 -0.485487 -0.269118 0.116667 0.563808 0.0328594 0.0591702 0.00466535 0.012807 -0.137168 0.118109 1.02378 1.06954 1.73953 2.29855 2.01067 1.66806 1.17446 0.406353 0.461998 0.551764 0.27273 0.745132 0.66397 0.384054 -0.351723 -0.746888 -1.14869 -0.598578 -0.370628 -0.10288 0.498088 0.83053 0.336511 0.00779892 0.00982456 0.000350877 -0.0566963 0.0216334 -0.00585715 0.59785 1.05425 1.76754 1.70229 1.72196 1.46263 0.147436 0.128723 0.56057 0.231151 0.0624193 -0.173414 -0.329791 -0.769135 -0.885908 -0.910811 -0.221013 0.244759 0.501342 -0.0360943 -0.152235 -0.155656 -0.103136 0.00368421 0.00666667 0.0261206 -0.220549 -0.852142 -0.458017 -0.17219 0.289513 0.821012 0.454444 0.662943 0.0393519 -0.147057 0.693877 0.370468 0.0180468 0.334842 -0.253716 -0.289084 -0.314635 -0.273554 -0.0177796 -0.101254 0.324782 0.00939538 -0.570539 -0.717082 -0.262172 -0.00107076 0.0142105 -0.0770919 -0.926175 -1.72137 -1.78716 -1.85975 -1.3966 -1.028 -1.16282 -0.571382 -0.29647 -0.154221 0.4068 0.213282 -0.125954 -0.0200136 -0.321016 -0.325603 -0.0804745 -0.205359 -0.406563 -0.0656456 0.248506 0.107 -0.0148272 -0.160286 -0.128304 0.0166667 0.0103513 -0.27707 -1.6301 -2.64783 -3.18112 -2.96714 -2.04879 -1.23487 -1.49794 -1.22856 -0.757137 0.457385 0.370437 -0.835589 -0.275676 -0.392467 -0.809867 -0.253053 0.321854 -0.103447 -0.390305 -0.161595 -0.332972 -0.474059 -0.202945 -0.267409 -0.0291804 0.000177493 0.00865605 -0.374552 -2.01365 -3.09244 -3.73063 -2.6254 -1.17645 -0.703918 -0.880594 -0.380904 0.341009 0.673448 0.101783 -0.708776 -0.163258 -0.551369 -0.909622 -0.883644 -0.48127 -0.126905 -0.0673453 0.0942761 -0.086601 -0.549123 -0.326557 -0.0405245 0.0474266 0.00228108 0.00211475 -0.30891 -1.5664 -2.17554 -1.90479 -0.46549 0.157533 0.215032 0.444162 1.09599 1.13448 0.0423801 -0.287144 -0.145256 -0.0221265 -0.187637 -0.760631 -0.987214 -0.906133 -0.518598 -0.126152 0.138041 -0.303084 -0.790822 -0.284355 0.0682484 -0.0474497 0.0112177 0.0151842 -0.123798 -0.213662 -0.194147 0.349391 0.891876 0.421778 0.423336 0.59216 1.26868 0.119961 -0.179513 -0.223277 -0.127183 0.0615846 0.144141 -0.254548 -0.813635 -1.02566 -0.697603 -0.381287 -0.528687 -0.746458 -0.332317 0.0901745 0.0627017 -0.0194269 0.0153952 0.0118376 0.174605 0.382818 0.279694 0.220087 0.295547 0.236814 0.447006 0.782333 0.572206 -0.167829 0.342835 0.192452 0.0387829 -0.0335167 0.139444 -0.0639814 -0.269088 -0.513967 -0.743306 -0.787448 -0.847451 -0.505971 0.54612 0.77925 0.329715 0.0173055 0.00491228 0.0161404 0.130564 0.0865136 0.186486 -0.109427 0.211467 0.230153 0.142337 0.364796 -0.102443 -0.374066 -0.477266 -0.405251 -0.604716 -0.517992 -0.0668995 0.222339 0.0420516 -0.545868 -0.618189 -0.698717 -0.813087 -0.463758 0.2598 0.832444 0.382661 0.0304305 0.00736842 0.0103509 -0.0402705 -0.0283314 0.339224 0.743417 0.23422 -0.208948 -0.318397 -0.0429166 -0.706545 -0.773054 -0.452334 -0.697142 -0.861293 -0.722205 -0.382046 -0.155134 -0.0502008 -0.440993 -0.570147 -0.721591 -0.924306 -0.844772 -0.169744 0.467213 0.203471 0.0232375 0.00491228 0.00789581 -0.0993737 -0.125059 0.868717 0.728189 0.0419029 -0.186846 0.18472 -0.187599 -0.835177 -0.629623 -0.507991 -0.529059 -0.236448 -0.570946 -0.483666 -0.304503 0.112394 0.0240414 -0.0553114 -0.204113 -0.558402 -0.403853 -0.263296 -0.0243393 -0.2436 -0.018538 0.00210526 0.00807569 -0.0358882 -0.219035 0.156206 -0.0426705 -0.30821 -0.294759 -0.181003 -0.599806 -0.871712 -0.78123 -0.714551 -0.575273 -0.250402 -0.345031 -0.550315 -0.299865 -0.0270659 0.0460216 0.415588 0.21802 -0.129699 -0.16931 -0.244671 -0.231524 -0.234669 -0.00386803 0.0163158 -0.00928311 -0.0672675 -0.130144 0.02301 -0.164205 -0.298613 -0.208503 -0.317622 -0.358262 -0.588777 -0.610678 -0.572706 -0.4637 -0.205915 0.0611291 0.0541019 -0.0888375 -0.121573 0.0762389 0.388955 0.292031 0.027631 -0.0482353 -0.104178 -0.0856745 -0.148525 -0.0154935 0.00350877 -0.00735014 -0.0169877 0.0335516 0.0823371 -0.0563809 -0.290801 -0.320103 -0.501358 -0.347931 -0.358545 -0.371474 -0.355385 -0.323771 -0.132428 -0.100976 -0.123809 -0.126403 -0.205073 -0.181055 -0.162475 -0.0996828 -0.0659261 -0.135358 -0.194329 -0.0428259 -0.0307942 0.0059219 0.0145614 -0.00335497 0.0102217 0.0714044 0.180221 -0.0233997 -0.318136 -0.191556 -0.321768 -0.198101 -0.168304 -0.152906 -0.111284 -0.103515 -0.105872 -0.120741 -0.103198 -0.0359948 -0.122572 -0.103203 -0.070375 -0.0822203 -0.0302241 0.00141117 -0.0561857 -0.0611938 0.0144569 0.00222119 0.00157895 0.0123786 0.00102629 0.00546343 0.0524626 0.0203109 -0.0227539 -0.029922 -0.0249735 -0.00755617 -0.0168437 0.00804246 0.0269766 -0.00141056 -0.0133469 0.00381361 0.00492407 0.0310069 0.0146174 0.000284465 0.00204951 -0.00465001 0.000895235 0.00312149 0.00141397 -0.0019679 0.00687624 0.00422976 0.01 0.00473684 0.00894737 0.0163158 0.0148225 0.0266433 0.0274195 0.00127749 0.00629679 0.00772961 0.0085987 0.00333334 0.0145614 0.0168398 0.00436356 0.0129597 0.00155066 0.00472996 0.0129825 0 0.0022807 0.00561404 0.000957793 0.0161407 0.00245614 0.0103509 0.0152632 0.0110526 0.00666667 0.00421053 0.00315789 0.0142105 0.00929825 0.00473449 0.00687242 0.00151255 0.00121651 0.015452 0.00366113 0.0174366 0.0158843 0.007293 0.0110826 0.00814245 0.000501724 0.0129585 0.0109163 0.00347843 0.00779384 0.0132255 -0.00573305 0.00450587 0.00603947 0.000563597 0.00280702 0.0110526 0.00649123 0.00859649 0.0170186 0.0146644 0.0193957 0.0175271 -0.00796603 0.0418778 0.101717 0.0820386 0.225696 0.0966382 0.0552099 0.0537567 0.0743567 0.0646829 0.0495341 0.00968354 -0.0346494 -0.0724281 -0.0615573 0.0626829 0.0137414 0.124402 0.0297523 -0.0147862 -0.0121018 0.0165541 0.00246184 0.00526316 0.00945529 0.0167665 0.0524339 0.0505362 -0.00853742 0.0834121 0.140903 0.195944 0.401393 0.357816 0.241503 0.240605 0.179284 0.154469 0.0974326 -0.103705 -0.271027 -0.316195 -0.0534079 0.388297 0.265933 0.136082 0.019871 -0.0523787 -0.182523 -0.0275586 0.0130822 0.000350877 -0.000810201 -0.00132209 0.00958696 -0.0889892 -0.115957 -0.0795159 -0.0717958 0.171713 0.310477 0.339787 0.178486 0.0543708 -0.0141727 -0.127818 -0.220717 -0.230372 -0.206814 -0.177968 0.25201 0.587128 0.191412 -0.00816205 -0.16219 -0.174747 -0.211486 -0.0245279 0.0106547 0.0161404 0.00932798 -0.0192297 -0.181138 -0.226612 -0.236129 -0.17047 -0.248624 -0.0194438 0.051559 0.0712291 -0.0708328 -0.172511 -0.31397 -0.510856 -0.615538 -0.498731 -0.530496 -0.485859 -0.149962 0.255001 0.492158 -0.0345628 -0.196701 -0.40755 -0.337424 -0.0487957 -0.000581173 0.00403509 0.00855432 -0.0953821 -0.186832 -0.0199654 -0.103924 -0.116476 -0.309602 -0.0555332 -0.106354 0.196372 0.0608252 -0.212059 -0.347816 -0.498946 -0.666635 -0.68645 -0.893118 -0.785553 -0.500066 0.355459 0.691697 0.589179 0.591357 -0.192698 -0.560255 -0.0466883 0.0126415 0.00859649 0.00288841 -0.137381 -0.189852 -0.223866 -0.195312 0.015341 -0.199198 -0.31634 -0.215731 0.0566099 0.192136 0.215372 -0.00709902 -0.331124 -0.626006 -0.766443 -0.833542 -0.554628 -0.55759 0.866454 0.948551 0.66544 0.546302 -0.0293026 -0.474986 -0.0511329 0.0152632 0.0103509 -0.00562614 -0.149989 -0.150525 -0.144907 -0.0963162 -0.0512079 -0.15637 -0.391541 -0.317226 0.0225416 0.0643565 0.266858 0.234293 0.00525366 -0.32755 -0.566808 -0.596703 -0.548031 -0.275023 0.553381 0.430476 0.0412706 -0.283471 -0.573313 -0.480086 -0.060495 0.00719298 0.0159649 0.00815889 -0.350553 -0.448332 -0.180911 -0.043058 -0.160696 -0.0797448 -0.288465 -0.0654791 0.186396 0.145595 0.163556 0.114994 0.0991292 0.0336081 -0.130915 -0.415481 -0.748611 -0.447962 0.0295499 0.621681 -0.108088 -0.612848 -0.900502 -0.651313 -0.0487425 0.0097247 0.0150877 0.0169702 -0.343439 -0.59868 -0.280574 -0.223623 -0.195403 0.0173847 -0.083725 0.266099 0.369511 0.226373 0.291677 0.128597 -0.0806479 -0.181339 -0.309824 -0.412256 -0.44719 -0.254471 0.19527 0.546932 -0.0726493 -0.59102 -1.14346 -0.593151 -0.0270175 0.00775092 0.0173684 0.0214535 -0.229013 -0.595699 -0.688458 -0.599481 -0.507628 -0.259144 -0.299397 -0.23113 -0.0962887 0.0432838 -0.0333932 0.135078 -0.0556892 -0.00711307 0.0822421 -0.0549124 0.21741 0.0692377 -0.293995 -0.27435 -0.605798 -0.861881 -1.15189 -0.619096 -0.0221177 0.000877193 0.0045614 0.017623 -0.331874 -0.510199 -0.604348 -0.604745 -0.641142 -0.698701 -0.529779 -0.50877 -0.788281 -0.514172 -0.228237 0.273848 0.272082 -0.0823936 0.381076 0.300897 0.629676 0.471444 -0.187504 -0.0875837 -0.566777 -1.16708 -1.25524 -0.620199 -0.0120048 0.0135088 0.00526316 -0.00766794 -0.467023 -0.588929 -0.724264 -0.735587 -0.50385 -0.498556 -0.568812 -0.61767 -1.11957 -0.886494 -0.278478 0.124898 -0.127702 -0.163128 0.642103 0.492418 0.11789 0.300486 0.186321 -0.0890402 -0.0784893 -0.593868 -0.528517 -0.311801 0.024944 0.00492104 0.00789474 -0.0268281 -0.529017 -0.667081 -0.68455 -0.44013 -0.330306 -0.077316 -0.295827 -0.48416 -0.433317 0.0330912 -0.0759658 0.0594545 0.00320745 -0.0126875 0.443899 0.308818 -0.0109701 0.401147 0.387059 -0.000131081 0.395578 0.371014 0.189286 -0.340787 -0.0930876 0.00122807 0.000526943 -0.0749942 -0.76102 -0.915583 -0.842691 -0.813043 -0.815741 -0.590959 -0.809522 -0.611754 -0.0809914 0.408818 0.554708 0.297398 0.398281 0.194862 -0.07883 -0.248433 0.147964 0.251638 0.348382 0.401805 0.43838 0.431557 0.133019 -0.500849 -0.0819104 0.0122839 0.00164016 -0.0368353 -0.640573 -0.920323 -0.857228 -0.756054 -0.509932 -0.000949139 -0.212746 -0.107226 -0.0185674 -0.206262 -0.305847 -0.553606 0.226379 0.547727 0.462585 0.42403 0.326354 -0.257982 0.376749 0.784948 0.595339 0.625658 0.0891831 -0.338358 -0.0105574 0.00824621 0.00752375 -0.0161775 -0.755116 -0.777531 -0.775517 -0.291697 -0.149925 0.184154 -0.0678218 0.131349 0.0259888 -0.17239 -0.461176 -0.31588 0.856272 0.588586 0.389155 0.351622 0.258392 0.332791 0.950894 0.928412 0.701705 -0.082755 -0.293023 -0.377444 0.000648084 0.00477805 0.00506617 -0.0485196 -0.464946 -0.314681 -0.0496293 0.215851 -0.163297 -0.0342775 -0.0984138 -0.0818752 -0.0954496 -0.132318 -0.13856 -0.173178 0.138894 -0.0746969 -0.254677 -0.343645 -0.207747 -0.139011 0.0703745 0.0952499 0.0539656 -0.194735 -0.463781 -0.376133 -0.0230352 0.0085251 0.00170289 0.0805737 -0.200625 -0.441883 -0.559748 -0.309544 -0.507626 -0.274786 0.0298081 0.0356783 -0.181462 -0.496604 -0.351493 -0.3513 0.118763 -0.107051 -0.263914 -0.424187 -0.200411 -0.29773 -0.393205 -0.506736 -0.326293 -0.115245 -0.403367 -0.331349 -0.0176952 0.00719298 0.00754386 -0.02067 -0.421687 -0.566685 -0.493477 -0.308181 -0.169268 0.0967375 0.0041456 -0.474403 -0.689462 -0.466722 -0.652512 -0.599471 -0.256725 -0.241981 -0.445076 -0.234242 0.119621 -0.0145181 -0.337829 -0.378155 -0.414389 -0.0926158 -0.302144 -0.24018 -0.0237887 0.0131579 0.00578947 -0.0310675 -0.109725 -0.082037 -0.173935 -0.357929 0.0212569 0.0485854 -0.430136 -0.737578 -0.248487 -0.323643 -0.662866 -0.622133 -0.473193 -0.490888 -0.284474 -0.0081012 0.0742958 -0.0571584 -0.136679 -0.201875 -0.260952 -0.194892 -0.309491 -0.269595 -0.0264004 0.00561404 0.0021072 -0.00861001 0.121383 0.440627 -0.147585 -0.289902 -0.00628979 0.148218 -0.0408817 -0.0785038 -0.127014 -0.587549 -0.640013 -0.327397 -0.269525 -0.260904 -0.107526 -0.136344 -0.191245 -0.185292 0.110133 0.0620222 -0.0232167 -0.0820208 -0.310315 -0.313227 -0.0149104 0.0121053 0.00948361 -0.0824819 -0.0195684 0.348749 0.134357 -0.0300208 0.301493 0.608266 0.433166 0.123315 -0.383998 -0.633297 -0.488894 -0.443182 -0.297168 -0.301029 -0.341394 -0.303872 -0.440966 -0.370208 0.178191 0.450067 0.239922 -0.0554036 -0.215622 -0.255008 -0.00775583 0.0161404 0.00578368 -0.0396511 -0.423644 -0.327213 -0.22078 -0.08859 0.531495 0.728928 0.645997 -0.0652273 -0.457479 -0.505148 -0.388724 -0.280344 -0.212564 -0.316906 -0.286823 -0.282895 -0.451011 -0.458073 0.0375536 0.0752504 -0.038188 -0.128386 -0.154923 -0.0706824 0.00114649 0.00736842 0.00667649 -0.0140669 -0.286651 -0.313831 -0.15013 -0.0337429 0.218551 0.863631 0.475494 -0.0898882 -0.381646 -0.365141 -0.222636 -0.156346 -0.15606 -0.187522 -0.22883 -0.199451 -0.252164 -0.343959 -0.0652579 -0.0616059 -0.183732 -0.0366696 0.0426793 0.016488 0.000290199 0.000175439 0.0100227 -0.015893 -0.0934582 -0.0437939 0.0959155 0.0336089 0.121847 0.469416 0.0594561 -0.0911133 -0.0910343 -0.0246845 0.0108219 -0.0113343 -0.0634157 -0.11311 -0.098016 -0.0180713 -0.0033252 -0.171447 -0.00814633 -0.0453017 -0.122276 -0.0593651 0.0162941 0.0169375 0.00517028 0.00649123 0.0138654 0.00585689 0.001715 -0.00963695 0.0541172 -0.0121394 0.187655 0.136582 0.0333925 0.0435342 0.00813608 0.00817635 0.00640833 -0.0055381 -0.00695561 -0.00323267 -0.00507052 -0.0179603 0.00819925 -0.00696284 0.0105164 -0.0157789 -0.00926454 -0.000757042 0.00375818 0.00970327 0.00421585 0.00789474 0.0022807 0.00315789 0.00403509 -0.0192433 -0.022535 -0.00505651 0.0197523 0.0287794 0.00954211 0.0116262 3.08551e-06 0.00245614 0.0146008 0.0128166 0.0163224 0.00241541 0.00345145 0.00947207 0.0117544 0.00947368 0.00982456 0.00748397 0.00474269 0.015614 0.0103509 0.00894737 0.0136842 0.0159649 0.00894737 0.00578947 0.0119298 0.0114035 0.0120753 -0.00136081 -0.00684621 0.00278918 0.00849831 0.0124216 0.00479352 -0.000710925 -0.00015969 0.0108196 -0.00169726 -0.000776407 -0.00374317 0.00942 0.00636379 0.00488303 0.0124388 0.00896851 0.0139433 0.00157895 0.00210526 0.0133333 0.0164912 0.00385965 0.00649123 0.0115787 0.00903144 0.0148069 -0.0110965 -0.00211988 0.0161771 0.016663 0.0167848 0.0686463 -0.00815516 -0.0298416 -0.0177733 -0.0156343 -0.0260857 -0.0412288 -0.0056544 0.0108271 0.0245434 -0.0242076 -0.112912 -0.0635741 -0.0461646 -0.00601735 -0.00424935 0.00738339 0.00834675 0.0119302 0.00421053 0.0100904 0.0502327 0.185357 0.103598 0.0165157 0.156433 0.279411 0.330192 -0.138802 -0.313286 -0.300649 -0.303608 -0.422901 -0.525735 -0.319645 0.11833 0.165449 0.117593 -0.385361 -0.700955 -0.589459 -0.479853 -0.3234 -0.220935 -0.128978 0.00879803 0.0172678 0.015614 0.0118198 0.00832199 0.0727357 -0.0116074 -0.126453 -0.0679506 0.0581715 0.158469 -0.578419 -0.905677 -0.777036 -0.490001 -0.552467 -0.848309 -0.601415 0.0758965 0.385077 0.215716 -0.540236 -1.00883 -0.844027 -0.603783 -0.500893 -0.421154 -0.306171 0.0119497 0.00483097 0.0149123 -0.00927822 -0.179882 -0.179896 -0.367768 -0.322163 -0.207058 -0.0866993 0.396025 -0.227005 -0.796628 -0.749428 -0.64822 -0.521036 -0.570747 -0.38371 0.206503 0.482138 0.328235 -0.0844543 -0.396341 -0.304152 -0.0432596 -0.385468 -0.474702 -0.354066 0.00666261 0.00767791 0.00666667 -0.00748865 -0.186094 -0.0386744 -0.191468 -0.334166 -0.538908 -0.284284 -0.111037 -0.394375 -0.617796 -0.377605 -0.356043 -0.246377 -0.334445 0.00352851 0.493619 0.647023 0.760125 0.728647 0.120661 -0.456955 -0.0239707 -0.11154 -0.345492 -0.308836 0.0111168 0.00877895 0.0045614 -0.000773164 0.0365636 -0.113459 -0.104919 -0.477512 -0.719545 -0.338565 -0.507267 -0.747195 -0.545487 -0.231707 0.0679595 0.264229 0.0685536 0.562343 1.07073 0.630306 0.602782 0.715827 0.602444 -0.203853 -0.298398 -0.043168 0.0180899 -0.265186 -0.0187068 0.00175439 0.0138596 -0.0039877 0.039535 0.0890287 0.241172 -0.0325074 -0.646841 -0.124996 -0.225261 -0.702322 -0.930375 -0.573534 -0.439888 -0.193585 -0.166723 0.428972 0.76788 0.511213 0.171947 0.552087 0.481542 -0.0950501 -0.277931 -0.404808 -0.526679 -0.648598 -0.0551014 0.0138596 0.000350877 0.036394 0.071547 -0.328038 -0.196818 -0.182056 -0.729142 -0.449172 -0.713654 -1.1759 -0.83379 -0.628505 -0.785273 -0.544563 -0.122371 0.271749 0.613355 1.05348 1.17464 0.912859 0.622054 0.551746 0.301939 -0.178408 -0.510717 -0.628824 -0.0571986 0.00223262 0.00140351 0.0474794 0.0768902 -0.462404 -0.278634 -0.18942 -0.307861 0.191431 -0.453654 -0.96089 -0.94301 -0.973263 -0.5997 -0.636201 -0.437053 -0.51668 0.093314 0.498156 1.25674 1.48687 0.910168 1.01884 0.59617 0.108374 -0.331916 -0.167716 -0.00252429 0.000795696 0.0135088 -0.00871212 0.108638 -0.585357 -0.452479 -0.0203524 0.509402 0.833318 -0.0583704 -0.388996 -0.820687 -0.888001 -0.651396 -0.842854 -1.16894 -1.08352 -0.293687 0.19021 0.900458 1.41902 0.557102 0.211303 0.807585 0.91023 0.101402 0.0972878 0.0420845 0.0129825 0.0140351 -0.00580568 -0.176649 -0.994823 -0.559431 0.40396 1.57842 1.63408 0.648743 -0.48924 -1.53374 -1.54207 -1.3398 -1.81405 -1.66738 -1.78824 -1.35551 -1.16667 -0.425151 0.494999 0.32971 -0.518142 0.430065 0.785832 -0.206213 0.0905166 0.0481959 0.014386 0.00912281 -0.124183 -0.906199 -1.81248 -0.669161 0.302662 1.49096 1.28673 0.953135 0.172671 -1.19467 -1.9864 -1.95187 -2.60371 -2.11775 -2.03385 -2.09564 -2.26493 -1.51454 -0.833587 -0.609899 -0.596307 0.151975 0.7417 0.126915 0.386677 0.0919577 0.00801006 0.012807 -0.107079 -0.960115 -1.42788 -0.555809 -0.0403456 0.855646 0.923885 1.44343 1.00071 0.295247 -1.02831 -1.83874 -2.82401 -1.99057 -1.78503 -2.20658 -2.41178 -2.0857 -1.95859 -1.19781 -0.529188 -0.0862642 0.575477 -0.0847859 -0.442582 -0.0698236 0.00491228 0.00929873 -0.120898 -0.301285 0.216698 0.29561 0.150574 0.242895 0.500298 1.47094 1.49918 1.17078 0.403032 -0.616918 -1.31502 -1.1405 -1.14128 -1.09135 -1.35772 -1.93061 -2.11446 -1.19625 -0.966793 -0.48467 0.379785 -0.177738 -0.519012 -0.0370802 0.00158146 0.00184679 -0.0501139 -0.521947 -0.287459 0.0792426 0.333724 -0.275038 -0.33266 0.97757 1.05065 1.74278 1.96837 1.54503 1.05555 0.776743 0.531536 1.21625 1.21551 0.244814 -0.579975 -0.117743 -0.414921 -0.362724 0.407954 0.0195718 -0.152827 0.0172515 0.00684257 0.00821922 -0.0825807 -0.551462 -0.816211 -0.280257 0.820706 0.422077 -0.374712 0.00652047 -0.0661411 0.183617 1.33677 2.13407 2.17833 1.25821 0.962157 1.1276 1.51865 1.16633 0.596881 0.723757 -0.165789 -0.219263 -0.221865 -0.110383 -0.0192879 -0.0203677 0.0058893 0.0140796 -0.076432 -0.466839 -1.10585 -0.818567 -0.228437 -0.389872 -0.777208 -0.740553 -0.450973 -0.152215 0.677237 1.11806 1.23372 1.02922 1.07433 1.02234 1.24779 1.05797 0.853338 1.11608 0.312742 0.309877 -0.0984695 -0.198434 0.0734344 0.00193213 -0.00156832 0.0134434 -0.135269 -1.20154 -1.03983 -0.487033 -0.546499 -0.176271 -0.273007 -0.168032 -0.880404 -1.13259 -0.55168 -0.0866789 -0.354841 -0.227031 0.157894 0.180464 0.355286 0.224954 0.129456 0.198167 0.0389271 0.53357 0.128877 -0.195072 -0.0317717 0.0617797 0.00508772 0.0145614 -0.0588781 -1.14499 -1.10395 -0.739724 -0.857785 -0.0391229 -0.440144 -0.112706 -0.807631 -0.95635 -0.708374 -0.445052 -0.435166 -0.43601 -0.529291 -0.230568 -0.261819 -0.320599 -0.536115 -0.121501 -0.126075 0.0762822 0.516535 0.338319 -0.00769311 0.0606832 0.0112281 0.00210526 -0.0263495 -0.505125 -0.817194 -0.838981 -1.00115 -0.605003 -0.687151 -0.670783 -1.38019 -1.40692 -0.963814 -0.737208 -1.00256 -0.820871 -0.614194 -0.417996 -0.159188 0.347649 -0.163789 0.135379 -0.0383865 -0.0604577 0.423531 0.189191 0.051402 0.0456611 0.0157895 0.00351014 0.00417871 -0.410941 -0.773879 -1.09875 -1.23465 -1.05623 -0.848644 -1.14482 -1.39841 -1.1832 -0.993913 -0.843775 -0.667393 -0.80007 -0.653436 -0.0648199 0.0731226 0.121242 0.111864 0.659322 0.20554 0.252881 0.485941 -0.212063 -0.239798 0.02213 0.0117544 0.0131649 0.0362678 -0.359847 -1.02263 -1.08545 -0.703504 -0.0968084 -0.171375 -1.01865 -1.08343 -0.959212 -1.01226 -0.751377 -0.430879 -0.561673 -0.705639 -0.193972 0.325256 0.316172 0.100815 0.239594 -0.156361 0.0328976 0.20917 -0.57279 -0.39211 -0.00771878 0.0163158 0.00302767 0.00728855 -0.210457 -0.517986 -0.630896 -0.0934272 0.403593 -0.199227 -0.608816 -0.741002 -0.868776 -0.708889 -0.506458 -0.367889 -0.413415 -0.446618 -0.249389 -0.104674 -0.0100893 0.00431461 -0.190711 -0.215637 -0.307252 -0.303857 -0.585678 -0.220007 0.0302755 0.00578947 0.0162208 -0.00400323 -0.107011 -0.13758 -0.0391208 0.218221 0.434133 -0.0435225 -0.142542 -0.219282 -0.421589 -0.417595 -0.412185 -0.473401 -0.46325 -0.429898 -0.579026 -0.868268 -0.869955 -0.731928 -0.611257 -0.556571 -0.667184 -0.550719 -0.543841 -0.237851 0.00151306 0.00526316 0.00583654 -0.00544937 -0.0108441 -0.0010498 -0.0546587 0.066073 0.306515 0.19911 0.208163 0.120222 -0.0368312 -0.0738924 -0.0485415 -0.0765562 -0.195365 -0.22668 -0.236316 -0.272138 -0.360936 -0.281124 -0.267302 -0.364312 -0.324988 -0.280872 -0.30157 -0.150145 -0.0018579 0.00877193 0.00631616 0.00802664 -0.00745574 -0.0419142 -0.0967759 0.00980544 0.00140158 -0.041165 0.0577519 0.0189209 -0.00768095 -0.0179266 0.00110928 0.011803 0.00426234 0.00784448 -0.00307662 0.0373369 0.0141565 -0.0157721 -0.000832228 -0.0375598 -0.0207796 -0.00331188 -0.00111512 0.0078358 0.0161823 0.0117544 0.0138596 0.0121053 0.0108772 0.00682589 0.0149481 0.0163441 0.00147395 0.00738215 0.00825068 0.00912455 0.01 0.0122807 0.0122796 0.00175067 0.0147325 0.00226691 0.00561068 0.00140354 0.00649123 0.0142105 0.00947368 0.00756761 0.0101786 0.00368421 0.0166667 0.00596491 0.0157895 0.00701754 0.00859649 0.00596491 0.00719298 0.0114035 0.00967135 0.00396598 0.00960795 0.0327646 0.019346 0.0178309 0.0138815 0.00419414 0.000522106 0.00137217 0.00924842 0.0248628 0.02284 0.0306522 0.0119599 0.00403672 0.000735088 -0.00324709 0.00877259 0.000701755 0.00438597 0.00350877 0.00842105 0.0164912 0.00350877 0.0145614 0.00230324 0.0113491 0.0497157 0.0605836 0.0335926 0.0345074 0.04082 -0.0026752 -0.0255833 -0.0223985 -0.0419669 -0.0665789 -0.0426212 0.00946113 0.0146938 -0.00746032 -0.0271948 -0.0921342 -0.051949 -0.0269809 0.0253317 0.030273 0.0272049 0.0215275 0.0113609 0.00263256 0.0108772 0.00460616 0.023139 0.0245485 0.068831 0.193089 0.130432 0.0178236 -0.186806 -0.307045 -0.0772518 -0.262959 -0.43283 -0.226704 0.0427077 -0.0246347 -0.116002 -0.280324 -0.482106 -0.525077 -0.359325 -0.0254415 0.308533 0.378678 0.132701 0.0301371 0.00629627 0.0110749 0.00754386 0.0101664 -0.00269688 0.0442574 0.120382 0.134028 -0.0067583 -0.0533196 -0.0927875 -0.239529 -0.305964 -0.5645 -0.357277 -0.0721686 0.109461 0.0644215 0.0162372 0.112149 -0.0410045 -0.0237105 0.121926 0.33625 0.645096 0.604518 0.397435 0.134272 0.00614153 0.00688448 0.0135088 0.0108791 0.0427658 0.0528956 0.0151731 0.00206083 -0.1582 -0.195872 -0.1905 -0.0247404 -0.195814 0.0747378 0.0822056 -0.233889 -0.455153 -0.474244 -0.0521774 0.158065 0.358409 0.109956 0.0342225 0.219398 0.705848 0.645538 0.575961 0.356383 0.0205595 0.00302768 0.00491228 0.00376927 0.0350028 -0.0697729 -0.194268 -0.27889 -0.342869 -0.256076 0.117553 0.401206 0.485515 0.604616 -0.00809337 -0.262337 -0.535059 -0.440175 0.218122 0.487556 0.418368 -0.0977804 -0.192008 0.184539 0.248028 0.44352 0.473684 0.282076 -7.03854e-05 0.0149245 0.00526316 0.0376523 0.0747491 -0.0108581 -0.170565 -0.581001 -0.690163 -0.374373 0.212468 0.813978 0.940426 0.247078 0.000644039 -0.236353 -0.406161 -0.0203818 0.534875 0.533587 0.383948 -0.285822 -0.265322 -0.378947 -0.397988 -0.166266 0.210584 0.260091 0.0317303 0.015614 0.0054386 0.0274591 0.042293 0.0994124 -0.081971 -0.469 -0.699783 -0.364808 0.116867 0.622963 0.297455 -0.354013 -0.316438 -0.738071 -0.678071 -0.405681 -0.781414 -0.942856 -0.443357 -0.578024 -0.744579 -0.749474 -0.865811 -0.76509 -0.207918 0.40302 0.0653508 0.0115789 0.0022807 0.00889628 0.0499521 0.25423 -0.0500199 -0.0775826 0.00199235 0.0677514 0.463262 0.674743 0.447541 -0.112833 -0.203281 -0.383776 -0.576871 -0.263131 -0.541835 -0.930152 -0.891378 -0.921145 -1.05036 -1.28238 -1.55811 -1.40306 -0.636366 0.058156 0.042355 0.00382646 0.00368421 -0.0147842 0.0236277 0.336118 0.0734909 -0.109467 0.0381347 0.290834 0.798216 0.725118 0.692652 0.327314 0.235902 0.0817634 -0.0250529 0.0488128 0.149484 -0.114713 -0.627074 -0.930715 -0.969632 -1.24954 -1.59919 -1.80137 -1.18127 -0.281463 0.0208914 0.00525725 0.00385965 -0.0199028 -0.0449362 0.219158 -0.209359 -0.302152 -0.232267 0.010608 0.8559 0.807155 0.983124 1.3234 1.12784 0.789544 0.248002 0.166801 0.688983 0.602026 0.222612 -0.169282 -0.493512 -1.09114 -1.71648 -2.00307 -1.77618 -0.552999 -0.016976 0.000701754 0.00894737 -0.00784588 0.0211216 -0.178718 -0.911353 -0.863253 -0.697887 -0.41175 0.229829 0.422894 0.604839 1.18409 0.843454 0.370249 0.177593 0.453654 0.948661 0.802233 0.500801 0.32047 0.0508775 -0.866042 -1.70451 -2.09095 -1.71088 -0.588376 -0.0368968 0.0133333 0.00894737 0.0158875 -0.16076 -0.319961 -0.937737 -0.992903 -0.931825 -0.872213 -0.412476 0.0219808 0.353584 0.87166 0.582547 -0.0247177 -0.140916 0.313838 0.769753 0.22753 0.00934432 0.306581 0.190932 -0.746526 -1.49987 -1.68426 -1.13113 -0.40039 -0.0688542 0.00736988 0.00894737 -0.00483958 -0.185924 -0.171227 -0.70334 -0.863095 -0.952813 -1.18989 -0.859392 -0.398126 -0.227658 0.187147 0.285467 -0.43723 -0.331478 0.118028 -0.13185 0.0922023 -0.137357 0.232781 0.0352295 -0.272066 -0.650706 -0.721862 -0.809715 -0.499643 -0.0903744 0.0110526 0.00561483 -0.0373633 -0.353932 -0.38269 -0.540222 -0.869513 -0.763765 -0.714589 -1.03281 -0.887058 -0.53038 -0.200591 -0.297207 -0.501847 -0.252279 0.34827 0.242844 0.285501 0.355174 0.166997 0.149414 0.117886 -0.343371 -0.466471 -0.988002 -0.784643 -0.0911827 0.00561814 0.00841572 -0.0228526 -0.128892 -0.104134 -0.429562 -0.580199 -0.420733 -0.504771 -0.711549 -1.00971 -0.66447 -0.47182 -0.482574 -0.477832 -0.214781 0.350051 0.639069 0.383287 0.461255 0.0339216 0.0694369 -0.0604597 -0.24141 -0.569231 -1.20428 -0.7791 -0.0627538 0.00157971 0.000841095 -0.0189143 -0.0813478 0.0548992 -0.611734 -0.458433 -0.34559 -0.597938 -0.59747 -0.772991 -1.05155 -0.974553 -1.00743 -1.11666 -0.525005 -0.137735 -0.152898 0.105591 0.0126043 -0.121567 0.370481 -0.141201 -0.49339 -0.896877 -0.811463 -0.4822 -0.0109457 0.00932906 0.00848188 0.0126601 -0.073633 -0.303958 -1.04906 -0.779599 -0.508925 -0.912084 -0.896962 -1.06706 -1.37466 -1.52907 -1.31828 -1.19623 -0.680711 -0.0858575 -0.608418 -0.460146 -0.204445 0.0950682 0.384946 -0.0354691 -0.272897 -0.68549 -0.654434 -0.128367 0.0523245 0.00189305 0.0102059 0.0134635 0.238764 -0.447947 -1.27682 -1.06248 -0.802667 -0.996366 -1.10962 -0.977877 -1.14223 -1.48942 -1.30334 -1.03303 -0.586041 -0.367556 -0.575197 -0.658603 -0.174247 0.484384 0.695044 0.280721 0.122091 -0.431019 -0.691206 -0.10537 0.0500041 0.00438596 0.00315789 -0.0378775 0.153917 -0.419276 -0.983461 -0.978121 -0.729 -0.910074 -0.689245 -0.740766 -0.814138 -0.875761 -0.756921 -0.684892 -0.547942 -0.177867 -0.34496 -0.660142 -0.401141 -0.0680423 0.561599 0.723697 0.525351 -0.109831 -0.71399 -0.139491 0.0199314 0.0150877 0.012807 -0.00297197 0.126817 0.0197608 -0.467944 -0.606009 -0.505406 -0.5521 -0.530331 -0.680588 -0.581932 -0.767217 -0.745398 -0.671036 -0.364703 0.0735144 0.197758 -0.366375 -0.369123 -0.0585596 0.243841 0.120578 -0.0695569 -0.298952 -0.52497 -0.0789999 0.0278846 0.0112281 0.00631816 0.0337592 -0.102986 -0.243133 -0.230955 0.0647484 0.143397 -0.00588426 -0.337603 -0.529186 -0.541562 -0.669531 -0.535036 -0.246924 0.0850571 0.641347 0.383203 -0.315287 -0.520872 -0.26667 -0.152272 -0.292548 -0.223497 -0.350805 -0.209798 0.171279 0.0122562 0.00578947 0.0114157 -0.0115656 -0.0447712 -0.00913586 -0.0637691 0.158274 0.33409 0.216657 -0.172506 -0.413354 -0.308635 -0.321782 -0.088388 0.219842 0.40418 0.834226 0.422289 0.116069 -0.329634 -0.145627 -0.0980325 -0.00242489 -0.278094 -0.408613 -0.0984346 0.154894 0.000872067 0.00666667 0.00976854 0.026164 0.0251479 -0.152089 -0.177824 0.315773 0.245999 0.0769127 -0.299736 -0.233455 -0.0300036 0.0359444 0.131414 0.593855 0.701692 0.698578 0.447737 0.139445 -0.0669724 -0.0502577 0.0801629 -0.175613 -0.413557 -0.358927 -0.0816334 0.0781704 0.00516141 0.0173684 0.0130194 0.0135538 0.139524 -0.0835525 -0.212726 0.0976202 0.108136 0.0284725 -0.12136 -0.0162653 -0.00717161 -0.0397457 0.0306537 0.326592 0.452494 0.561745 0.253831 -0.178601 -0.121122 0.121059 -0.0954982 -0.492753 -0.201922 -0.0906584 -0.0155572 0.0420157 0.0134842 0.000350877 0.0146857 0.0164602 0.145646 0.2422 -0.152219 -0.10015 0.0816911 -0.0185483 -0.120726 -0.220916 -0.0937066 -0.156981 -0.114427 0.0920132 0.289203 0.19656 -0.0975993 -0.283449 -0.179512 0.0592991 -0.0676538 -0.219945 -0.00583836 0.0817202 0.13527 0.0388951 0.00119523 0.0152632 0.0173694 0.017384 0.0137814 0.0466578 -0.0297419 -0.00539845 0.018755 0.00320792 0.00111716 -0.0203716 0.00237128 -0.011458 -0.0211166 0.00197868 -0.00124285 -0.014415 -0.00438995 -0.0113633 0.037107 0.0183621 -0.0423597 -0.0421256 0.0114024 0.0457162 0.0445028 0.0172912 0.00347615 0.0121053 0.00333333 0.0105263 0.00315789 0.00315462 0.00120081 0.0120985 0.0161379 0.00855678 0.0115683 0.0129582 0.00649089 0.0103509 0.0143814 0.00172979 0.0108301 0.011523 0.0077057 0.00561983 0.00754386 0.012807 0.00473684 0.0125158 0.009654 0.0126316 0.00122807 0.01 0.00666667 0.0142105 0.00824561 0.00859649 0.00157895 0.00666667 0.00666572 -0.00558938 0.0151926 0.0087447 0.00411767 0.0113891 0.016279 0.0101765 0.0137828 0.0147069 0.00289681 -0.0021631 0.0126965 6.16733e-05 0.0136599 0.017892 0.018465 0.0123237 0.0126936 0.00672986 0.0142421 0.0168421 0.00789474 0.0117544 0.00263158 0.00190963 0.00370912 -0.00451501 0.00518431 0.00336181 -0.00635912 -0.0215555 -0.0191471 0.029969 0.0190413 0.0159002 0.027033 -0.0111725 -0.0014412 -0.0195955 0.00134977 0.00315989 0.00672831 0.0618943 0.0324686 0.0114804 0.0189283 0.0290543 -0.0168342 -0.0013289 0.015861 0.00124812 0.00526316 0.00289687 0.00463323 -0.0396659 -0.0296809 -0.128321 -0.17177 -0.0955346 0.154416 0.15947 0.112483 0.0740882 0.0164528 -0.185642 -0.336163 -0.352355 -0.102696 0.0828025 0.229174 0.294875 -0.0401333 -0.105053 0.0370497 0.10152 -0.128637 -0.176659 -0.00586005 0.00492764 0.00982456 0.0198727 0.069403 0.0145912 -0.076771 -0.156846 -0.225258 -0.102793 0.0982991 0.0406815 -0.00558581 -0.137825 -0.430601 -0.514763 -0.505532 -0.293623 0.143604 0.465353 0.289123 -0.110663 -0.387894 -0.390724 -0.11423 0.0299052 -0.0636261 -0.384863 -0.0449168 0.00882667 0.0107018 0.00980703 0.0914389 -0.00120928 -0.133342 -0.195571 -0.1462 -0.149557 -0.175352 -0.160614 -0.326158 -0.358362 -0.494742 -0.468548 -0.517554 -0.322377 0.143298 0.395653 0.0654396 -0.320843 -0.637018 -0.813557 -0.589401 -0.380228 -0.357618 -0.44151 -0.0241251 0.0119 0.0103509 0.0202192 0.0910184 -0.043922 -0.217867 -0.17944 -0.302663 -0.238333 -0.40623 -0.243638 -0.36927 -0.135685 -0.198345 -0.121346 -0.0722162 0.0963061 0.301446 0.301769 0.309669 -0.125833 -0.611874 -0.91783 -0.797785 -0.60113 -0.389564 -0.233339 -0.011132 0.00930541 0.000877193 0.0143566 0.0749505 -0.101497 -0.11537 -0.195567 -0.328236 -0.297558 -0.313398 -0.16407 -0.286415 -0.148407 -0.340435 -0.312664 -0.115453 0.221885 0.368413 0.599374 0.719293 0.224409 -0.206248 -0.6236 -0.713487 -0.536137 0.00984909 0.11007 -0.00590659 0.01 0.00666667 0.00240719 0.026173 0.0847362 0.222304 0.163078 -0.0260326 -0.202296 -0.241639 -0.105368 -0.279031 -0.396377 -0.606481 -0.725848 -0.662853 -0.166253 0.302075 0.757514 0.400473 0.16349 -0.0781498 -0.506665 -0.558638 -0.298956 0.175793 0.270059 0.0455504 0.0157895 0.0117544 0.00592846 0.0623639 0.214823 0.366948 0.358019 0.0464462 -0.247899 -0.224919 -0.071204 -0.168971 -0.296237 -0.291452 -0.350848 -0.400587 -0.0705859 0.547057 0.981868 0.875284 0.731786 0.260471 -0.354038 -0.768407 -0.261145 0.0283383 0.00361001 0.017673 0.0108813 0.00175439 0.023852 0.153161 0.400364 0.594269 0.345213 -0.0352576 -0.200473 -0.280046 0.0717884 0.2682 0.344777 -0.204286 -0.639321 -0.674075 -0.4583 0.158426 0.892011 0.925837 0.206953 -0.245388 -0.404255 -0.47714 -0.220394 0.1273 0.106028 0.0728482 0.00452309 0.000526316 0.0237062 0.265348 0.324089 0.5658 0.299569 -0.0551155 -0.202915 -0.687705 -0.331911 0.0746189 0.0177011 -0.352563 -0.550415 -0.850273 -0.817965 0.169821 0.612506 0.667911 0.327452 -0.000581469 -0.392485 -0.801912 -0.526601 -0.0491144 0.144431 0.00785723 0.0101754 0.0126316 0.0192378 0.2457 0.290361 0.359717 0.411186 -0.0209326 -0.407628 -0.926096 -0.47421 -0.0137079 -0.0148589 -0.376153 -0.57379 -0.828758 -0.73143 0.00577406 0.356493 0.342082 0.0391272 -0.547451 -0.511511 -0.607529 -0.534762 0.238047 0.355231 0.0762689 0.0110526 0.0110526 -0.0102274 -0.00739528 0.269998 0.359226 0.402772 -0.292642 -0.728568 -0.604421 -0.29601 0.322814 0.23012 -0.445111 -0.671001 -0.775696 -0.646434 0.123457 0.62778 0.328953 -0.0489582 -0.611187 -0.398597 -0.121548 -0.238592 -0.166889 -0.0178547 -0.0064399 0.000895705 0.00929825 0.00190414 0.0923234 0.259682 0.316753 0.142313 -0.603223 -0.468609 -0.564358 -0.276052 0.462272 0.11487 -0.550308 -0.511731 -0.661097 -0.504339 0.095962 0.74972 0.66465 0.108434 -0.597359 -0.297124 -0.244248 -0.363816 -0.233569 -0.278077 -0.0153118 0.00105263 0.0166671 0.00985821 0.20172 0.0954638 0.0308274 -0.261392 -0.464065 -0.0624222 -0.253328 -0.0255239 0.291519 -0.371874 -0.556241 -0.370809 -0.683849 -0.452569 0.362393 0.846636 0.660752 0.22869 -0.338263 -0.435752 -0.18119 -0.00835329 -0.0933134 -0.352119 -0.0149454 0.0168443 0.00308317 0.047232 0.0413884 -0.163657 0.161776 -0.0190321 -0.17055 -0.0870646 -0.0891386 -0.0742209 0.21762 0.216299 -0.0515617 -0.339216 -0.77831 -0.129961 0.490071 0.500056 0.456166 0.203014 -0.168025 -0.325651 -0.353331 -0.544114 -0.253272 -0.306376 -0.0294729 0.0157899 0.0103152 0.0622651 0.133191 0.503642 0.803638 0.135326 -0.468162 -0.517711 -0.208994 0.194249 0.164415 0.00496691 0.0602173 -0.202575 -0.492769 -0.221434 -0.0220114 0.221382 0.348189 0.277624 -0.114086 -0.434585 -0.370047 -0.428803 -0.417782 -0.38505 -0.0178596 0.0160374 0.00901018 -0.0146732 -0.130231 0.375979 0.437571 -0.072376 -0.221177 -0.111785 -0.247718 0.0970304 0.115017 0.00428747 0.168928 0.0588754 -0.310686 -0.374753 0.0862223 0.277885 0.138629 -0.00938702 -0.331662 -0.415187 -0.191403 -0.31137 -0.267125 -0.138838 0.000160342 0.0100929 0.0109588 0.00472232 -0.273011 0.0849767 0.15585 -0.142718 -0.311558 -0.644062 -0.997021 -0.597631 0.187037 0.748767 0.731594 -0.188658 -0.454786 -0.0678148 0.124248 0.660618 0.404603 0.0595359 -0.156935 -0.297286 -0.163554 -0.286647 -0.16007 -0.104721 -0.00942921 0.00298246 0.00157895 0.0641567 -0.0291378 0.163671 0.292471 -0.26454 -0.734854 -1.03769 -1.11795 -0.577642 0.0931965 0.409944 -0.0363314 -0.720705 -0.691787 -0.024188 0.201964 0.836723 0.295435 0.156159 -0.0323776 -0.3168 -0.38573 -0.418123 -0.263551 -0.230257 -0.022937 0.0154386 0.00666667 0.0464933 0.290996 0.363706 0.406846 -0.0550984 -0.510537 -0.798673 -0.784979 -0.431193 0.204146 0.307141 -0.245418 -0.926178 -0.738837 -0.16582 0.333493 0.659868 0.199196 0.0232701 -0.124089 -0.341011 -0.312735 -0.404283 -0.282726 -0.110797 -0.0180555 0.0103509 0.000176833 -0.0522608 0.23663 0.427578 0.322362 0.0651763 -0.362044 -0.640391 -0.830715 -0.362231 0.0561605 -0.0558289 -0.458079 -0.568491 -0.290404 0.338687 0.594306 0.548671 0.159021 0.0457935 0.0634436 -0.139203 -0.225729 -0.332816 -0.297839 -0.0662206 -0.0256122 0.0140351 0.000358038 -0.0223467 0.191593 0.53884 0.252236 -0.0551687 -0.174966 -0.437042 -0.493512 -0.221006 -0.18076 -0.260811 -0.289349 -0.170166 0.00276419 0.294848 0.447188 0.199852 -0.0121528 0.0878618 0.00456655 -0.105201 -0.169033 -0.309036 -0.346053 -0.211152 -0.0306019 0.00438596 0.00683227 0.0144452 0.0943549 0.439004 0.20819 -0.216889 -0.26269 -0.369861 -0.432204 -0.565841 -0.356063 -0.399003 -0.335146 -0.171344 0.0955996 0.14774 0.188054 0.25556 0.135754 0.21591 -0.0806066 -0.288369 -0.246493 -0.239126 -0.188526 -0.0967749 -0.0156963 0.00315789 0.0129477 -0.00263985 0.121564 0.428351 0.512279 -0.017747 -0.33142 -0.40346 -0.529547 -0.546992 -0.151614 -0.0455957 0.0167407 -0.134753 -0.0341982 -0.0394202 0.0223566 0.236323 0.183699 0.178241 -0.137403 -0.217357 -0.266153 -0.231739 -0.156663 -0.0877494 0.00209609 0.00614035 0.0165817 0.0116763 0.0747736 0.166414 0.149469 -0.105004 -0.256153 -0.264689 -0.426404 -0.150603 